{"learner":{"attributes":{"best_iteration":"78","best_ntree_limit":"79","best_score":"0.6860659612377732"},"feature_names":["is_retirement_age","life_Retirement","Gender","Age_Squared","Age","FamilyMembers","Wealth_log","Wealth_to_Income_log","Risk_Capacity_log","Wealth_Per_Family_Size_log","Investment_Capacity_log","Financial_Sophistication_Ratio","FinancialEducation_Squared","Education_Risk_Profile","risk_tolerance_log","Financial_Independence_Score_log","Retirement_Readiness_log","Life_Stage_Adjusted_Income_log","Wealth_Concentration_log","Age_Risk_Interaction","Wealth_Sqrt","Wealth","Financial_Independence_Score","Wealth_to_Income","Wealth_Per_Family_Size","Risk_Capacity","Retirement_Readiness"],"feature_types":["float","float","float","float","float","float","float","float","float","float","float","float","float","float","float","float","float","float","float","float","float","float","float","float","float","float","float"],"gradient_booster":{"gbtree":{"model":{"gbtree_model_param":{"num_parallel_tree":"1","num_trees":"179","size_leaf_vector":"0"},"tree_info":[0,0,0,0,0,0,0,0,0,0,0,0,0,0,0,0,0,0,0,0,0,0,0,0,0,0,0,0,0,0,0,0,0,0,0,0,0,0,0,0,0,0,0,0,0,0,0,0,0,0,0,0,0,0,0,0,0,0,0,0,0,0,0,0,0,0,0,0,0,0,0,0,0,0,0,0,0,0,0,0,0,0,0,0,0,0,0,0,0,0,0,0,0,0,0,0,0,0,0,0,0,0,0,0,0,0,0,0,0,0,0,0,0,0,0,0,0,0,0,0,0,0,0,0,0,0,0,0,0,0,0,0,0,0,0,0,0,0,0,0,0,0,0,0,0,0,0,0,0,0,0,0,0,0,0,0,0,0,0,0,0,0,0,0,0,0,0,0,0,0,0,0,0,0,0,0,0,0,0],"trees":[{"base_weights":[-1.0950134E0,-1.3016033E0,5.792369E-1,-1.3948587E0,-6.679784E-1,-2.2160746E-2,2.5360841E-2,-1.4278278E0,-1.3455763E-2,-1.57904E-2,-4.2141867E-3,-1.3371246E0,-1.6776286E0,-1.5585796E-2,-1.3830621E0,-1.5275477E0,-1.8752505E0,-1.4755694E0,-1.1059862E0,-2.8557733E-2,-2.1732457E-2,-3.1759802E-2,-2.912647E-2,-1.5976912E0,-1.3302172E0,-1.2992185E-2,-2.3269298E-2,-2.1839371E-2,-1.7005248E0,-1.2396703E0,-2.683977E-2,-3.0547703E-2,-1.5696273E0,-1.4180347E-2,-1.419816E0,-2.0914525E-2,-2.9651172E-2,-2.8144574E-2,-1.9250512E-2],"categories":[],"categories_nodes":[],"categories_segments":[],"categories_sizes":[],"default_left":[0,0,0,0,0,0,0,0,0,0,0,0,0,0,0,0,0,0,0,0,0,0,0,0,0,0,0,0,0,0,0,0,0,0,0,0,0,0,0],"id":0,"left_children":[1,3,5,7,9,-1,-1,11,-1,-1,-1,13,15,-1,17,19,21,23,25,-1,-1,-1,-1,27,29,-1,-1,-1,31,33,-1,-1,35,-1,37,-1,-1,-1,-1],"loss_changes":[9.533026E1,1.4485504E1,5.7066097E1,4.0133057E0,3.85118E0,0E0,0E0,4.564636E0,0E0,0E0,0E0,2.5956726E0,1.578659E0,0E0,3.3804321E0,1.3159256E0,1.282425E-1,1.7463989E0,3.2705803E0,0E0,0E0,0E0,0E0,1.4277649E0,1.2707443E0,0E0,0E0,0E0,8.4158325E-1,2.341835E0,0E0,0E0,1.5367393E0,0E0,1.7175865E0,0E0,0E0,0E0,0E0],"parents":[2147483647,0,0,1,1,2,2,3,3,4,4,7,7,11,11,12,12,14,14,15,15,16,16,17,17,18,18,23,23,24,24,28,28,29,29,32,32,34,34],"right_children":[2,4,6,8,10,-1,-1,12,-1,-1,-1,14,16,-1,18,20,22,24,26,-1,-1,-1,-1,28,30,-1,-1,-1,32,34,-1,-1,36,-1,38,-1,-1,-1,-1],"split_conditions":[5.8688444E-1,9.106325E-2,2.1058533E-1,5.5653477E-1,5.1570886E-1,-2.2160746E-2,2.5360841E-2,4.8985255E-1,-1.3455763E-2,-1.57904E-2,-4.2141867E-3,2.9833637E-2,2.0848E-1,-1.5585796E-2,3.4531415E-2,6.2478352E-2,5.227265E-1,1.770641E-1,2.8494406E-3,-2.8557733E-2,-2.1732457E-2,-3.1759802E-2,-2.912647E-2,6.184548E-5,2.5265196E-2,-1.2992185E-2,-2.3269298E-2,-2.1839371E-2,1.1424703E-1,2.0562221E-1,-2.683977E-2,-3.0547703E-2,1.7678748E-1,-1.4180347E-2,2.3315507E-1,-2.0914525E-2,-2.9651172E-2,-2.8144574E-2,-1.9250512E-2],"split_indices":[6,16,7,6,6,0,0,6,0,0,0,18,7,0,16,18,6,19,26,0,0,0,0,14,16,0,0,0,12,13,0,0,12,0,19,0,0,0,0],"split_type":[0,0,0,0,0,0,0,0,0,0,0,0,0,0,0,0,0,0,0,0,0,0,0,0,0,0,0,0,0,0,0,0,0,0,0,0,0,0,0],"sum_hessian":[2.756029E2,2.4533374E2,3.026917E1,2.1385123E2,3.1482517E1,1.0126597E1,2.0142574E1,2.021673E2,1.16839285E1,1.819906E1,1.3283459E1,1.483297E2,5.3837593E1,1.590686E1,1.3242284E2,3.0614662E1,2.3222933E1,9.926278E1,3.3160057E1,1.4403666E1,1.6210997E1,1.3180733E1,1.0042199E1,5.3921993E1,4.534079E1,1.6810526E1,1.634953E1,1.5280263E1,3.8641727E1,3.5187122E1,1.0153666E1,1.67922E1,2.184953E1,1.1503195E1,2.3683928E1,1.0057331E1,1.1792199E1,1.0472932E1,1.3210996E1],"tree_param":{"num_deleted":"0","num_feature":"27","num_nodes":"39","size_leaf_vector":"0"}},{"base_weights":[-1.1511834E0,-1.3860546E0,1.3072294E-1,-1.434226E0,-1.0683516E-2,-2.2127949E-2,1.3521968E0,-1.36046E-2,-1.4801261E0,1.3291228E-2,2.8698018E-2,-1.4249774E0,-1.6982224E0,-2.8787699E-2,-1.3948636E0,-1.5518404E0,-1.8388112E0,-1.4293922E0,-1.49798645E-2,-2.9963292E-2,-2.057501E-2,-3.2231048E-2,-2.7761944E-2,-1.7378416E-2,-1.4703964E0,-1.7700295E0,-1.3846959E0,-3.091623E-2,-2.5554145E-2,-1.2472832E0,-1.5340885E0,-1.4165876E0,-1.38633195E-2,-1.9057881E-2,-1.6534163E0,-2.0500692E-2,-2.6819875E-2,-2.9648433E-2,-2.4379663E-2],"categories":[],"categories_nodes":[],"categories_segments":[],"categories_sizes":[],"default_left":[0,0,0,0,0,0,0,0,0,0,0,0,0,0,0,0,0,0,0,0,0,0,0,0,0,0,0,0,0,0,0,0,0,0,0,0,0,0,0],"id":1,"left_children":[1,3,5,7,-1,-1,9,-1,11,-1,-1,13,15,-1,17,19,21,23,-1,-1,-1,-1,-1,-1,25,27,29,-1,-1,31,33,35,-1,-1,37,-1,-1,-1,-1],"loss_changes":[8.435797E1,8.3367E0,7.872076E1,6.117737E0,0E0,0E0,5.178013E0,0E0,2.4657288E0,0E0,0E0,1.6589966E0,8.387909E-1,0E0,2.4822693E0,1.6698608E0,3.776245E-1,2.0993042E0,0E0,0E0,0E0,0E0,0E0,0E0,3.239746E0,6.937561E-1,2.009842E0,0E0,0E0,3.454277E0,2.0542297E0,1.2967987E0,0E0,0E0,9.096985E-1,0E0,0E0,0E0,0E0],"parents":[2147483647,0,0,1,1,2,2,3,3,6,6,8,8,11,11,12,12,14,14,15,15,16,16,17,17,24,24,25,25,26,26,29,29,30,30,31,31,34,34],"right_children":[2,4,6,8,-1,-1,10,-1,12,-1,-1,14,16,-1,18,20,22,24,-1,-1,-1,-1,-1,-1,26,28,30,-1,-1,32,34,36,-1,-1,38,-1,-1,-1,-1],"split_conditions":[4.6974305E-2,1.3626152E-1,4.606868E-2,7.5495176E-2,-1.0683516E-2,-2.2127949E-2,1.7370404E-1,-1.36046E-2,1.6079175E-1,1.3291228E-2,2.8698018E-2,5.045491E-2,8.15194E-2,-2.8787699E-2,6.2415814E-1,6.125827E-2,1.7734227E-1,2.8812054E-1,-1.49798645E-2,-2.9963292E-2,-2.057501E-2,-3.2231048E-2,-2.7761944E-2,-1.7378416E-2,3.5443038E-1,1.6936593E-2,5.371017E-1,-3.091623E-2,-2.5554145E-2,5.027906E-1,4.177215E-1,1.384855E-1,-1.38633195E-2,-1.9057881E-2,1.6921853E-1,-2.0500692E-2,-2.6819875E-2,-2.9648433E-2,-2.4379663E-2],"split_indices":[21,16,15,11,0,0,11,0,20,0,0,20,18,0,17,18,20,9,0,0,0,0,0,0,4,24,10,0,0,10,4,13,0,0,7,0,0,0,0],"split_type":[0,0,0,0,0,0,0,0,0,0,0,0,0,0,0,0,0,0,0,0,0,0,0,0,0,0,0,0,0,0,0,0,0,0,0,0,0,0,0],"sum_hessian":[2.8015982E2,2.3678091E2,4.3378918E1,2.221517E2,1.4629212E1,1.957067E1,2.3808249E1,1.57665E1,2.0638521E2,1.0228187E1,1.3580061E1,1.6475015E2,4.163505E1,1.3471083E1,1.5127907E2,2.0415817E1,2.1219236E1,1.410692E2,1.02098675E1,1.0359671E1,1.0056147E1,1.074797E1,1.0471267E1,1.4251225E1,1.2681797E2,2.8191246E1,9.8626724E1,1.760861E1,1.0582638E1,5.1391743E1,4.7234985E1,3.6055737E1,1.5336006E1,1.1597965E1,3.563702E1,2.1042336E1,1.5013402E1,1.772078E1,1.7916239E1],"tree_param":{"num_deleted":"0","num_feature":"27","num_nodes":"39","size_leaf_vector":"0"}},{"base_weights":[-1.091976E0,-1.3032243E0,3.4372836E-1,-1.3727812E0,-3.7280559E-3,-2.1571843E-2,1.2390023E0,-1.2245533E0,-1.5191219E0,1.3087977E-2,2.7624752E-2,-2.7923888E-2,-1.1509911E0,-1.8554285E-2,-1.5649899E0,-8.995322E-1,-1.2839365E0,-1.6436839E0,-1.3936967E0,-1.9162992E-2,-8.8302875E-3,-1.0655822E0,-1.4555151E0,-1.547484E0,-3.1848997E-2,-1.9913575E-2,-2.6670042E-2,-2.2042297E-2,-1.1905521E-2,-2.091363E-2,-2.664236E-2,-1.4295642E0,-3.1000039E-2,-1.6309687E0,-1.4550596E-2,-2.8190948E-2,-2.3662737E-2],"categories":[],"categories_nodes":[],"categories_segments":[],"categories_sizes":[],"default_left":[0,0,0,0,0,0,0,0,0,0,0,0,0,0,0,0,0,0,0,0,0,0,0,0,0,0,0,0,0,0,0,0,0,0,0,0,0],"id":2,"left_children":[1,3,5,7,-1,-1,9,11,13,-1,-1,-1,15,-1,17,19,21,23,25,-1,-1,27,29,31,-1,-1,-1,-1,-1,-1,-1,33,-1,35,-1,-1,-1],"loss_changes":[8.4420715E1,1.813324E1,5.3199726E1,4.9286194E0,0E0,0E0,4.5839577E0,4.0271606E0,1.9997253E0,0E0,0E0,0E0,3.2757874E0,0E0,1.3638763E0,3.334467E0,2.3960571E0,2.049347E0,1.3306694E0,0E0,0E0,2.696518E0,1.0919724E0,2.190506E0,0E0,0E0,0E0,0E0,0E0,0E0,0E0,4.3221283E0,0E0,4.873352E-1,0E0,0E0,0E0],"parents":[2147483647,0,0,1,1,2,2,3,3,6,6,7,7,8,8,12,12,14,14,15,15,16,16,17,17,18,18,21,21,22,22,23,23,31,31,33,33],"right_children":[2,4,6,8,-1,-1,10,12,14,-1,-1,-1,16,-1,18,20,22,24,26,-1,-1,28,30,32,-1,-1,-1,-1,-1,-1,-1,34,-1,36,-1,-1,-1],"split_conditions":[5.414788E-1,5.651564E-1,4.405211E-2,1.4909475E-1,-3.7280559E-3,-2.1571843E-2,6.9303226E-1,1.972482E-1,8.716309E-2,1.3087977E-2,2.7624752E-2,-2.7923888E-2,1.410703E-1,-1.8554285E-2,2.1103502E-3,1.7069808E-1,5E-1,2.3451388E-1,3.7939563E-1,-1.9162992E-2,-8.8302875E-3,4.6106517E-1,4.7407562E-1,8.619497E-2,-3.1848997E-2,-1.9913575E-2,-2.6670042E-2,-2.2042297E-2,-1.1905521E-2,-2.091363E-2,-2.664236E-2,7.185277E-2,-3.1000039E-2,4.5382816E-1,-1.4550596E-2,-2.8190948E-2,-2.3662737E-2],"split_indices":[9,6,15,11,0,0,10,3,7,0,0,0,19,0,14,7,5,8,12,0,0,17,17,18,0,0,0,0,0,0,0,18,0,6,0,0,0],"split_type":[0,0,0,0,0,0,0,0,0,0,0,0,0,0,0,0,0,0,0,0,0,0,0,0,0,0,0,0,0,0,0,0,0,0,0,0,0],"sum_hessian":[2.7833295E2,2.4263547E2,3.569746E1,2.278847E2,1.4750765E1,1.248234E1,2.321512E1,1.13230515E2,1.1465419E2,1.1808606E1,1.1406515E1,1.4894584E1,9.833594E1,1.2275224E1,1.0237897E2,3.4023125E1,6.431281E1,7.012963E1,3.2249332E1,1.9287249E1,1.4735876E1,2.8312634E1,3.6000175E1,5.339088E1,1.6738752E1,1.867333E1,1.3576003E1,1.5343659E1,1.2968974E1,1.8064856E1,1.793532E1,3.996857E1,1.3422309E1,2.9083084E1,1.0885488E1,1.9073437E1,1.0009648E1],"tree_param":{"num_deleted":"0","num_feature":"27","num_nodes":"37","size_leaf_vector":"0"}},{"base_weights":[-1.0943396E0,-1.339262E0,3.775321E-1,-9.025002E-1,-1.37947E0,-2.169496E-2,1.4763217E0,-2.1750849E-2,-7.4881064E-3,-1.4273764E0,-9.246255E-3,1.6242428E-2,2.9780785E-2,-1.3376082E0,-1.5432249E0,-1.4596643E0,-1.0474457E0,-1.7175876E0,-1.4685799E0,-1.3740232E0,-2.874602E-2,-8.235526E-1,-2.3563858E-2,-2.4926001E-2,-3.1059342E-2,-1.6603261E0,-1.2438947E0,-2.7819568E-2,-1.2794756E0,-7.7634053E-3,-1.8700298E-2,-1.5457449E0,-3.007346E-2,-1.30047435E-2,-2.4395026E-2,-1.1537867E0,-2.7150644E-2,-2.9735718E-2,-2.0720024E-2,-1.3050437E0,-1.202417E-2,-1.6077017E-2,-2.7337901E-2],"categories":[],"categories_nodes":[],"categories_segments":[],"categories_sizes":[],"default_left":[0,0,0,0,0,0,0,0,0,0,0,0,0,0,0,0,0,0,0,0,0,0,0,0,0,0,0,0,0,0,0,0,0,0,0,0,0,0,0,0,0,0,0],"id":3,"left_children":[1,3,5,7,9,-1,11,-1,-1,13,-1,-1,-1,15,17,19,21,23,25,27,-1,29,-1,-1,-1,31,33,-1,35,-1,-1,37,-1,-1,-1,39,-1,-1,-1,41,-1,-1,-1],"loss_changes":[1.01776794E2,4.2384033E0,7.5491554E1,3.8821907E0,8.624329E0,0E0,4.0830154E0,0E0,0E0,2.1611633E0,0E0,0E0,0E0,4.1637726E0,1.171936E0,2.1198273E0,3.081005E0,9.46228E-1,2.7411652E0,1.9967957E0,0E0,2.4894342E0,0E0,0E0,0E0,6.983261E-1,3.2843323E0,0E0,2.40271E0,0E0,0E0,1.5955849E0,0E0,0E0,0E0,2.3776207E0,0E0,0E0,0E0,3.2686424E0,0E0,0E0,0E0],"parents":[2147483647,0,0,1,1,2,2,3,3,4,4,6,6,9,9,13,13,14,14,15,15,16,16,17,17,18,18,19,19,21,21,25,25,26,26,28,28,31,31,35,35,39,39],"right_children":[2,4,6,8,10,-1,12,-1,-1,14,-1,-1,-1,16,18,20,22,24,26,28,-1,30,-1,-1,-1,32,34,-1,36,-1,-1,38,-1,-1,-1,40,-1,-1,-1,42,-1,-1,-1],"split_conditions":[5.6760544E-1,7.5495176E-2,2.1713857E-1,1.6639008E-1,1.2810536E-1,-2.169496E-2,2.820647E-1,-2.1750849E-2,-7.4881064E-3,4.2165202E-1,-9.246255E-3,1.6242428E-2,2.9780785E-2,1.48824295E-2,4.6331093E-1,3.566307E-1,2.3974052E-1,4.8308235E-1,6.879015E-2,2.5574747E-1,-2.874602E-2,4.6490747E-1,-2.3563858E-2,-2.4926001E-2,-3.1059342E-2,2.3405881E-1,8.1828415E-2,-2.7819568E-2,1.3500366E-1,-7.7634053E-3,-1.8700298E-2,1.962596E-1,-3.007346E-2,-1.30047435E-2,-2.4395026E-2,1.705566E-1,-2.7150644E-2,-2.9735718E-2,-2.0720024E-2,1.2914637E-1,-1.202417E-2,-1.6077017E-2,-2.7337901E-2],"split_indices":[6,11,7,7,16,0,13,0,0,9,0,0,0,24,17,9,19,6,18,6,0,17,0,0,0,8,18,0,8,0,0,8,0,0,0,13,0,0,0,11,0,0,0],"split_type":[0,0,0,0,0,0,0,0,0,0,0,0,0,0,0,0,0,0,0,0,0,0,0,0,0,0,0,0,0,0,0,0,0,0,0,0,0,0,0,0,0,0,0],"sum_hessian":[2.8231146E2,2.4203926E2,4.02722E1,2.04148E1,2.2162447E2,1.5775041E1,2.4497162E1,1.0372072E1,1.0042727E1,2.0928987E2,1.233459E1,1.0267686E1,1.4229475E1,1.1794397E2,9.134591E1,8.300839E1,3.4935574E1,2.7361393E1,6.3984516E1,6.461397E1,1.8394428E1,2.2314735E1,1.2620839E1,1.3439016E1,1.3922378E1,3.4510014E1,2.94745E1,1.4395679E1,5.0218285E1,1.07212715E1,1.1593464E1,2.1157665E1,1.3352348E1,1.0567752E1,1.8906748E1,3.7821594E1,1.2396694E1,1.0606222E1,1.0551444E1,2.7754028E1,1.0067565E1,1.4857564E1,1.2896463E1],"tree_param":{"num_deleted":"0","num_feature":"27","num_nodes":"43","size_leaf_vector":"0"}},{"base_weights":[-1.1265166E0,-1.3424506E0,4.249615E-1,-1.4181461E0,-7.4672365E-1,-2.23271E-2,1.5090204E0,-1.3083422E0,-1.5123534E0,-1.6777294E-2,-6.7815892E-3,1.7629351E-2,3.224472E-2,-1.4060076E0,-9.5218456E-1,-1.7521873E0,-1.4221203E0,-2.9036328E-2,-1.3476173E0,-8.660099E-3,-2.2495573E-2,-2.657072E-2,-3.139218E-2,-1.558445E0,-1.2163295E0,-1.4537798E0,-1.7484207E-2,-1.9356834E-2,-1.6693517E0,-1.3948817E0,-1.332383E-2,-1.2079759E0,-1.6579373E0,-3.1502515E-2,-1.5133983E0,-1.8752137E-2,-2.6479147E-2,-2.573611E-2,-1.4181244E-2,-2.4041058E-2,-2.9279623E-2,-2.169065E-2,-2.7633926E-2],"categories":[],"categories_nodes":[],"categories_segments":[],"categories_sizes":[],"default_left":[0,0,0,0,0,0,0,0,0,0,0,0,0,0,0,0,0,0,0,0,0,0,0,0,0,0,0,0,0,0,0,0,0,0,0,0,0,0,0,0,0,0,0],"id":4,"left_children":[1,3,5,7,9,-1,11,13,15,-1,-1,-1,-1,17,19,21,23,-1,25,-1,-1,-1,-1,27,29,31,-1,-1,33,35,-1,37,39,-1,41,-1,-1,-1,-1,-1,-1,-1,-1],"loss_changes":[9.450586E1,1.1154541E1,6.694823E1,2.2575989E0,2.5895424E0,0E0,4.2764893E0,3.5171967E0,2.5414734E0,0E0,0E0,0E0,0E0,1.7128143E0,3.9103432E0,6.687546E-1,2.3955688E0,0E0,2.0108337E0,0E0,0E0,0E0,0E0,2.1230545E0,2.4373589E0,2.4812927E0,0E0,0E0,1.5939713E0,1.3081703E0,0E0,2.808937E0,6.63826E-1,0E0,8.077316E-1,0E0,0E0,0E0,0E0,0E0,0E0,0E0,0E0],"parents":[2147483647,0,0,1,1,2,2,3,3,4,4,6,6,7,7,8,8,13,13,14,14,15,15,16,16,18,18,23,23,24,24,25,25,28,28,29,29,31,31,32,32,34,34],"right_children":[2,4,6,8,10,-1,12,14,16,-1,-1,-1,-1,18,20,22,24,-1,26,-1,-1,-1,-1,28,30,32,-1,-1,34,36,-1,38,40,-1,42,-1,-1,-1,-1,-1,-1,-1,-1],"split_conditions":[2.1809858E-1,9.243157E-2,2.1713857E-1,1.6853438E-1,1.6467622E-1,-2.23271E-2,6.9303226E-1,4.0688656E-2,4.370168E-1,-1.6777294E-2,-6.7815892E-3,1.7629351E-2,3.224472E-2,2.5049374E-1,5.1898736E-1,4.043529E-1,1.8154533E-1,-2.9036328E-2,1.3263094E-1,-8.660099E-3,-2.2495573E-2,-2.657072E-2,-3.139218E-2,1.01736724E-1,4.947205E-1,4.8713344E-1,-1.7484207E-2,-1.9356834E-2,1.4158322E-1,4.9848083E-1,-1.332383E-2,3.5317087E-1,8.719767E-2,-3.1502515E-2,2.8988793E-1,-1.8752137E-2,-2.6479147E-2,-2.573611E-2,-1.4181244E-2,-2.4041058E-2,-2.9279623E-2,-2.169065E-2,-2.7633926E-2],"split_indices":[20,16,7,12,20,0,10,16,17,0,0,0,0,6,4,9,7,0,12,0,0,0,0,7,9,10,0,0,7,6,0,17,12,0,12,0,0,0,0,0,0,0,0],"split_type":[0,0,0,0,0,0,0,0,0,0,0,0,0,0,0,0,0,0,0,0,0,0,0,0,0,0,0,0,0,0,0,0,0,0,0,0,0,0,0,0,0,0,0],"sum_hessian":[2.820783E2,2.4761833E2,3.445997E1,2.1969415E2,2.7924189E1,1.2986449E1,2.147352E1,1.0147539E2,1.18218765E2,1.5113719E1,1.2810471E1,1.117339E1,1.0300129E1,7.962555E1,2.1849842E1,3.2302303E1,8.591646E1,1.0790947E1,6.88346E1,1.0974877E1,1.0874964E1,1.8623808E1,1.3678493E1,5.1665318E1,3.425114E1,4.97491E1,1.90855E1,1.1848079E1,3.981724E1,2.3679993E1,1.0571149E1,2.25841E1,2.7164999E1,1.4928714E1,2.4888527E1,1.1347885E1,1.2332108E1,1.0832736E1,1.1751365E1,1.144433E1,1.5720668E1,1.2236495E1,1.2652031E1],"tree_param":{"num_deleted":"0","num_feature":"27","num_nodes":"43","size_leaf_vector":"0"}},{"base_weights":[-1.1291598E0,-1.36368E0,1.6345826E-1,-1.4302626E0,-7.929889E-1,-2.4194002E-2,1.3080858E0,-1.0976803E0,-1.471034E0,-1.6901348E-2,-1.0295495E-2,1.674979E-2,2.7494254E-2,-2.2891093E-2,-1.1746286E-2,-1.4950076E0,-1.7141195E-2,-1.4215119E0,-1.6776863E0,-1.5424306E0,-1.2096716E0,-2.062119E-2,-1.7798967E0,-1.3084075E0,-1.6688715E0,-9.70515E-1,-1.4432163E0,-1.9002137E0,-2.5339901E-2,-2.430369E-2,-1.7190728E-2,-1.8341794E0,-1.4514502E0,-8.808017E-3,-2.5057046E-2,-2.7015323E-2,-2.0120438E-2,-2.9598495E-2,-3.1901397E-2,-2.7401516E-2,-3.1291075E-2,-1.99275E-2,-2.8410006E-2],"categories":[],"categories_nodes":[],"categories_segments":[],"categories_sizes":[],"default_left":[0,0,0,0,0,0,0,0,0,0,0,0,0,0,0,0,0,0,0,0,0,0,0,0,0,0,0,0,0,0,0,0,0,0,0,0,0,0,0,0,0,0,0],"id":5,"left_children":[1,3,5,7,9,-1,11,13,15,-1,-1,-1,-1,-1,-1,17,-1,19,21,23,25,-1,27,29,31,33,35,37,-1,-1,-1,39,41,-1,-1,-1,-1,-1,-1,-1,-1,-1,-1],"loss_changes":[8.6199066E1,9.133057E0,8.220417E1,2.908722E0,9.8040676E-1,0E0,2.7160873E0,2.697897E0,1.9259033E0,0E0,0E0,0E0,0E0,0E0,0E0,2.4219666E0,0E0,3.3034363E0,2.1930542E0,2.4238281E0,2.6171265E0,0E0,1.1291351E0,1.3169785E0,1.905838E0,5.6470814E0,1.0457344E0,1.0770416E-1,0E0,0E0,0E0,3.6969757E-1,1.5253448E0,0E0,0E0,0E0,0E0,0E0,0E0,0E0,0E0,0E0,0E0],"parents":[2147483647,0,0,1,1,2,2,3,3,4,4,6,6,7,7,8,8,15,15,17,17,18,18,19,19,20,20,22,22,23,23,24,24,25,25,26,26,27,27,31,31,32,32],"right_children":[2,4,6,8,10,-1,12,14,16,-1,-1,-1,-1,-1,-1,18,-1,20,22,24,26,-1,28,30,32,34,36,38,-1,-1,-1,40,42,-1,-1,-1,-1,-1,-1,-1,-1,-1,-1],"split_conditions":[4.6974305E-2,6.381673E-3,2.0664287E-1,8.716309E-2,9.836368E-3,-2.4194002E-2,2.5222868E-1,2.893258E-4,3.0788752E-1,-1.6901348E-2,-1.0295495E-2,1.674979E-2,2.7494254E-2,-2.2891093E-2,-1.1746286E-2,8.917609E-2,-1.7141195E-2,1.6921853E-1,1.09690465E-1,1.3252813E-1,5E-1,-2.062119E-2,3.152197E-1,3.2344928E-1,2.0255451E-1,1.919134E-1,1.8748021E-1,1.4590814E-3,-2.5339901E-2,-2.430369E-2,-1.7190728E-2,1.552642E-1,4.6232045E-1,-8.808017E-3,-2.5057046E-2,-2.7015323E-2,-2.0120438E-2,-2.9598495E-2,-3.1901397E-2,-2.7401516E-2,-3.1291075E-2,-1.99275E-2,-2.8410006E-2],"split_indices":[21,26,7,7,26,0,20,26,7,0,0,0,0,0,0,18,0,7,11,8,5,0,12,9,8,7,7,26,0,0,0,8,9,0,0,0,0,0,0,0,0,0,0],"split_type":[0,0,0,0,0,0,0,0,0,0,0,0,0,0,0,0,0,0,0,0,0,0,0,0,0,0,0,0,0,0,0,0,0,0,0,0,0,0,0,0,0,0,0],"sum_hessian":[2.843282E2,2.4066783E2,4.3660343E1,2.1551443E2,2.51534E1,1.791306E1,2.5747284E1,2.3549177E1,1.9196526E2,1.0095844E1,1.5057557E1,1.4701975E1,1.1045308E1,1.3050645E1,1.0498531E1,1.816208E2,1.0344453E1,1.2953508E2,5.2085728E1,8.244831E1,4.7086758E1,1.0303625E1,4.17821E1,2.8935362E1,5.351295E1,2.3275131E1,2.3811626E1,2.734499E1,1.4437112E1,1.6979519E1,1.1955845E1,3.0385805E1,2.3127148E1,1.3194198E1,1.0080935E1,1.1897935E1,1.19136915E1,1.03551445E1,1.6989845E1,1.0467063E1,1.9918741E1,1.2841715E1,1.0285432E1],"tree_param":{"num_deleted":"0","num_feature":"27","num_nodes":"43","size_leaf_vector":"0"}},{"base_weights":[-1.0553368E0,-1.3026342E0,2.830525E-1,-1.3570174E0,-8.602889E-3,-2.0511584E-2,1.3357034E0,-1.2880184E-2,-1.4037174E0,1.2815637E-2,2.8896695E-2,-1.1220405E0,-1.4449105E0,-2.210233E-2,-1.3566539E-2,-1.4738246E0,-1.5890697E-2,-1.5861973E0,-1.3967769E0,-2.2198541E-2,-1.6624842E0,-1.1603712E0,-1.5299226E0,-1.7554728E0,-2.4269387E-2,-1.3886102E0,-1.1843765E-2,-1.2599472E0,-1.6877083E0,-2.5065808E-2,-1.8758849E0,-1.8717641E-2,-2.7807875E-2,-2.5437344E-2,-1.521021E-2,-2.4167437E-2,-1.8420188E0,-3.12194E-2,-2.9995281E-2,-3.1136813E-2,-2.8769553E-2],"categories":[],"categories_nodes":[],"categories_segments":[],"categories_sizes":[],"default_left":[0,0,0,0,0,0,0,0,0,0,0,0,0,0,0,0,0,0,0,0,0,0,0,0,0,0,0,0,0,0,0,0,0,0,0,0,0,0,0,0,0],"id":6,"left_children":[1,3,5,7,-1,-1,9,-1,11,-1,-1,13,15,-1,-1,17,-1,19,21,-1,23,25,27,29,-1,31,-1,33,35,-1,37,-1,-1,-1,-1,-1,39,-1,-1,-1,-1],"loss_changes":[9.07475E1,9.753845E0,6.926461E1,5.7276306E0,0E0,0E0,6.0540047E0,0E0,2.3048096E0,0E0,0E0,1.7076721E0,2.3651428E0,0E0,0E0,1.4060669E0,0E0,1.139801E0,3.0532837E0,0E0,8.0215454E-1,3.477459E0,2.63945E0,8.5030365E-1,0E0,1.7393646E0,0E0,2.2366219E0,1.243721E0,0E0,9.666443E-3,0E0,0E0,0E0,0E0,0E0,9.75647E-2,0E0,0E0,0E0,0E0],"parents":[2147483647,0,0,1,1,2,2,3,3,6,6,8,8,11,11,12,12,15,15,17,17,18,18,20,20,21,21,22,22,23,23,25,25,27,27,28,28,30,30,36,36],"right_children":[2,4,6,8,-1,-1,10,-1,12,-1,-1,14,16,-1,-1,18,-1,20,22,-1,24,26,28,30,-1,32,-1,34,36,-1,38,-1,-1,-1,-1,-1,40,-1,-1,-1,-1],"split_conditions":[5.651564E-1,9.625306E-3,2.1579044E-1,7.5495176E-2,-8.602889E-3,-2.0511584E-2,1.7254429E-1,-1.2880184E-2,4.2568368E-4,1.2815637E-2,2.8896695E-2,7.28357E-2,1.6321887E-1,-2.210233E-2,-1.3566539E-2,1.6795409E-1,-1.5890697E-2,4.6919802E-1,8.1828415E-2,-2.2198541E-2,2.0294212E-1,1.6116323E-1,1.613892E-1,6.434685E-4,-2.4269387E-2,1.3143802E-1,-1.1843765E-2,1.0179177E-1,2.1738695E-2,-2.5065808E-2,2.184597E-1,-1.8717641E-2,-2.7807875E-2,-2.5437344E-2,-1.521021E-2,-2.4167437E-2,3.8178824E-2,-3.12194E-2,-2.9995281E-2,-3.1136813E-2,-2.8769553E-2],"split_indices":[6,26,7,11,0,0,11,0,26,0,0,20,18,0,0,7,0,17,18,0,8,11,12,26,0,11,0,18,24,0,19,0,0,0,0,0,25,0,0,0,0],"split_type":[0,0,0,0,0,0,0,0,0,0,0,0,0,0,0,0,0,0,0,0,0,0,0,0,0,0,0,0,0,0,0,0,0,0,0,0,0,0,0,0,0],"sum_hessian":[2.7416165E2,2.3140785E2,4.2753807E1,2.1624348E2,1.5164371E1,1.7363E1,2.5390806E1,1.6428442E1,1.9981503E2,1.1189328E1,1.4201478E1,2.5509724E1,1.7430531E2,1.4208101E1,1.1301621E1,1.6423083E2,1.007448E1,6.677363E1,9.745721E1,1.681815E1,4.995548E1,3.512727E1,6.2329933E1,3.2691647E1,1.7263832E1,2.3033556E1,1.2093715E1,2.3003708E1,3.932623E1,1.1558494E1,2.1133152E1,1.30093775E1,1.00241785E1,1.2061284E1,1.0942423E1,1.677034E1,2.255589E1,1.0976256E1,1.0156896E1,1.2469736E1,1.0086152E1],"tree_param":{"num_deleted":"0","num_feature":"27","num_nodes":"41","size_leaf_vector":"0"}},{"base_weights":[-1.051027E0,-1.294694E0,3.1288975E-1,-1.3447332E0,-9.9413E-3,-2.035594E-2,1.3416795E0,-1.029619E0,-1.3866048E0,1.3211159E-2,2.8041769E-2,-2.1104723E-2,-1.2698785E-2,-1.2431293E0,-1.4790952E0,-1.3465976E0,-1.2537085E-2,-1.5238334E0,-2.0421848E-2,-1.4509503E0,-1.7819528E-2,-1.4344364E0,-1.7071539E0,-1.911378E-2,-1.6119452E0,-1.5675427E0,-1.2998244E0,-1.5952052E0,-3.112082E-2,-2.3884607E-2,-3.0221106E-2,-1.4477335E0,-3.00992E-2,-2.5130901E-2,-1.566995E-2,-2.9965635E-2,-2.2318E-2,-2.6949333E-2,-2.0604515E-2],"categories":[],"categories_nodes":[],"categories_segments":[],"categories_sizes":[],"default_left":[0,0,0,0,0,0,0,0,0,0,0,0,0,0,0,0,0,0,0,0,0,0,0,0,0,0,0,0,0,0,0,0,0,0,0,0,0,0,0],"id":7,"left_children":[1,3,5,7,-1,-1,9,11,13,-1,-1,-1,-1,15,17,19,-1,21,-1,23,-1,25,27,-1,29,31,33,35,-1,-1,-1,37,-1,-1,-1,-1,-1,-1,-1],"loss_changes":[9.3073944E1,8.14505E0,6.8089584E1,2.9088135E0,0E0,0E0,5.1009636E0,1.7095127E0,2.579132E0,0E0,0E0,0E0,0E0,3.758522E0,1.2004089E0,1.6639023E0,0E0,1.6114655E0,0E0,2.002449E0,0E0,1.1817017E0,7.0451355E-1,0E0,9.9355316E-1,1.0906143E0,2.6898613E0,1.1241188E0,0E0,0E0,0E0,8.6628723E-1,0E0,0E0,0E0,0E0,0E0,0E0,0E0],"parents":[2147483647,0,0,1,1,2,2,3,3,6,6,7,7,8,8,13,13,14,14,15,15,17,17,19,19,21,21,22,22,24,24,25,25,26,26,27,27,31,31],"right_children":[2,4,6,8,-1,-1,10,12,14,-1,-1,-1,-1,16,18,20,-1,22,-1,24,-1,26,28,-1,30,32,34,36,-1,-1,-1,38,-1,-1,-1,-1,-1,-1,-1],"split_conditions":[5.6760544E-1,1.340587E-1,2.1713857E-1,8.9886315E-2,-9.9413E-3,-2.035594E-2,1.7254429E-1,4.968971E-1,1.3552617E-1,1.3211159E-2,2.8041769E-2,-2.1104723E-2,-1.2698785E-2,1.0179177E-1,4.888471E-1,1.2409158E-1,-1.2537085E-2,4.3965322E-1,-2.0421848E-2,6.614219E-2,-1.7819528E-2,2.399976E-1,3.7262116E-2,-1.911378E-2,4.3904305E-1,4.177215E-1,4.426142E-1,2.1075098E-2,-3.112082E-2,-2.3884607E-2,-3.0221106E-2,4.4157577E-1,-3.00992E-2,-2.5130901E-2,-1.566995E-2,-2.9965635E-2,-2.2318E-2,-2.6949333E-2,-2.0604515E-2],"split_indices":[6,16,7,7,0,0,11,10,11,0,0,0,0,18,9,12,0,9,0,12,0,12,16,0,6,4,6,16,0,0,0,10,0,0,0,0,0,0,0],"split_type":[0,0,0,0,0,0,0,0,0,0,0,0,0,0,0,0,0,0,0,0,0,0,0,0,0,0,0,0,0,0,0,0,0,0,0,0,0,0,0],"sum_hessian":[2.8003958E2,2.3759634E2,4.244324E1,2.2143533E2,1.6161018E1,1.686923E1,2.557401E1,2.598745E1,1.9544788E2,1.0577725E1,1.4996285E1,1.2714463E1,1.3272986E1,7.663133E1,1.1881655E2,6.2925945E1,1.3705382E1,9.9350235E1,1.9466318E1,4.4661095E1,1.8264853E1,6.680267E1,3.2547558E1,1.6296047E1,2.8365047E1,3.3569344E1,3.323333E1,2.0826744E1,1.1720813E1,1.7455492E1,1.0909555E1,2.3409283E1,1.0160062E1,1.951275E1,1.3720579E1,1.01557455E1,1.0670999E1,1.1196904E1,1.2212379E1],"tree_param":{"num_deleted":"0","num_feature":"27","num_nodes":"39","size_leaf_vector":"0"}},{"base_weights":[-1.0899872E0,-1.3091428E0,1.4708884E-1,-1.3578796E0,-1.0452829E-2,-2.257843E-2,1.3393147E0,-9.673373E-1,-1.3995178E0,1.4358687E-2,2.8522773E-2,-2.1034636E-2,-1.0115676E-2,-1.2803135E0,-1.539839E0,-1.3909466E0,-1.0201372E0,-1.6224253E0,-1.3223282E0,-1.2396274E0,-1.5774908E0,-1.2112747E-2,-2.1974012E-2,-1.7143664E0,-1.48424E0,-1.6294282E-2,-2.5550688E-2,-1.3566786E0,-1.6859617E-2,-2.300916E-2,-1.6958688E0,-1.8169163E0,-2.5699694E-2,-2.7160283E-2,-2.0804958E-2,-2.4560336E-2,-1.880514E-2,-2.9996239E-2,-2.5380014E-2,-2.768152E-2,-3.121148E-2],"categories":[],"categories_nodes":[],"categories_segments":[],"categories_sizes":[],"default_left":[0,0,0,0,0,0,0,0,0,0,0,0,0,0,0,0,0,0,0,0,0,0,0,0,0,0,0,0,0,0,0,0,0,0,0,0,0,0,0,0,0],"id":8,"left_children":[1,3,5,7,-1,-1,9,11,13,-1,-1,-1,-1,15,17,19,21,23,25,27,29,-1,-1,31,33,-1,-1,35,-1,-1,37,39,-1,-1,-1,-1,-1,-1,-1,-1,-1],"loss_changes":[7.713129E1,7.8699646E0,7.806868E1,3.6503296E0,0E0,0E0,4.493782E0,2.4125137E0,3.389557E0,0E0,0E0,0E0,0E0,3.1554565E0,1.6632996E0,2.1646423E0,2.9656029E0,8.4347534E-1,2.0100136E0,1.0219574E0,6.7326355E-1,0E0,0E0,5.6840515E-1,1.003025E0,0E0,0E0,8.0872726E-1,0E0,0E0,3.8720322E-1,2.506714E-1,0E0,0E0,0E0,0E0,0E0,0E0,0E0,0E0,0E0],"parents":[2147483647,0,0,1,1,2,2,3,3,6,6,7,7,8,8,13,13,14,14,15,15,16,16,17,17,18,18,19,19,20,20,23,23,24,24,27,27,30,30,31,31],"right_children":[2,4,6,8,-1,-1,10,12,14,-1,-1,-1,-1,16,18,20,22,24,26,28,30,-1,-1,32,34,-1,-1,36,-1,-1,38,40,-1,-1,-1,-1,-1,-1,-1,-1,-1],"split_conditions":[2.0037435E-1,1.340587E-1,2.1713857E-1,8.0198176E-2,-1.0452829E-2,-2.257843E-2,1.7254429E-1,1.580363E-1,4.2165202E-1,1.4358687E-2,2.8522773E-2,-2.1034636E-2,-1.0115676E-2,3.8374332E-1,1.9812065E-1,8.8540405E-2,4.767089E-4,4.5705594E-2,2.2688699E-1,2.0748487E-1,1.3409995E-1,-1.2112747E-2,-2.1974012E-2,7.479539E-2,4.6331093E-1,-1.6294282E-2,-2.5550688E-2,1.7288433E-1,-1.6859617E-2,-2.300916E-2,2.3655495E-1,1.4885053E-1,-2.5699694E-2,-2.7160283E-2,-2.0804958E-2,-2.4560336E-2,-1.880514E-2,-2.9996239E-2,-2.5380014E-2,-2.768152E-2,-3.121148E-2],"split_indices":[20,16,7,11,0,0,11,7,9,0,0,0,0,9,11,20,14,16,8,3,11,0,0,18,17,0,0,12,0,0,12,7,0,0,0,0,0,0,0,0,0],"split_type":[0,0,0,0,0,0,0,0,0,0,0,0,0,0,0,0,0,0,0,0,0,0,0,0,0,0,0,0,0,0,0,0,0,0,0,0,0,0,0,0,0],"sum_hessian":[2.8447675E2,2.4166808E2,4.280869E1,2.2525247E2,1.6415596E1,1.8749054E1,2.4059633E1,2.1714087E1,2.0353839E2,1.1302659E1,1.2756975E1,1.1291532E1,1.0422556E1,1.10070435E2,9.346796E1,7.7215935E1,3.28545E1,6.772798E1,2.5739977E1,4.26489E1,3.456703E1,1.7713627E1,1.5140873E1,4.0645866E1,2.7082111E1,1.10092125E1,1.4730763E1,2.7239637E1,1.5409264E1,1.427887E1,2.0288164E1,2.3488152E1,1.7157715E1,1.462079E1,1.2461322E1,1.5844678E1,1.1394959E1,1.0156928E1,1.0131236E1,1.0267128E1,1.3221024E1],"tree_param":{"num_deleted":"0","num_feature":"27","num_nodes":"41","size_leaf_vector":"0"}},{"base_weights":[-1.0049057E0,-1.2253191E0,2.4122868E-1,-1.284933E0,-6.484317E-1,-1.8485649E-2,1.2426999E0,-9.313449E-1,-1.3305986E0,-1.52656585E-2,-6.4862673E-3,1.2040811E-2,2.6331292E-2,-1.995897E-2,-1.1845166E-2,-1.0938509E0,-1.3659118E0,-1.4276941E-2,-2.3024755E-2,-1.3944575E0,-1.6222714E-2,-1.3293347E0,-1.5714269E0,-1.1695887E0,-1.4329038E0,-2.8362038E-2,-1.4790214E0,-2.6411181E-2,-1.0027705E0,-1.6282727E0,-1.2937597E0,-2.1379983E-2,-2.8585225E-2,-1.0397321E-2,-1.22888E0,-2.4779659E-2,-2.8909083E-2,-1.5884463E-2,-1.5212227E0,-2.2920975E-2,-1.7251443E-2,-2.714833E-2,-2.1796403E-2],"categories":[],"categories_nodes":[],"categories_segments":[],"categories_sizes":[],"default_left":[0,0,0,0,0,0,0,0,0,0,0,0,0,0,0,0,0,0,0,0,0,0,0,0,0,0,0,0,0,0,0,0,0,0,0,0,0,0,0,0,0,0,0],"id":9,"left_children":[1,3,5,7,9,-1,11,13,15,-1,-1,-1,-1,-1,-1,17,19,-1,-1,21,-1,23,25,27,29,-1,31,-1,33,35,37,-1,-1,-1,39,-1,-1,-1,41,-1,-1,-1,-1],"loss_changes":[7.757141E1,8.242157E0,5.83631E1,3.4995728E0,1.6104021E0,0E0,4.5727386E0,1.4807854E0,1.5970154E0,0E0,0E0,0E0,0E0,0E0,0E0,1.7242985E0,1.7694092E0,0E0,0E0,1.7781677E0,0E0,1.8688049E0,6.2190247E-1,3.3298454E0,1.8605347E0,0E0,1.2216187E0,0E0,2.6911888E0,4.34227E-1,2.9318924E0,0E0,0E0,0E0,5.943985E-1,0E0,0E0,0E0,6.053467E-1,0E0,0E0,0E0,0E0],"parents":[2147483647,0,0,1,1,2,2,3,3,4,4,6,6,7,7,8,8,15,15,16,16,19,19,21,21,22,22,23,23,24,24,26,26,28,28,29,29,30,30,34,34,38,38],"right_children":[2,4,6,8,10,-1,12,14,16,-1,-1,-1,-1,-1,-1,18,20,-1,-1,22,-1,24,26,28,30,-1,32,-1,34,36,38,-1,-1,-1,40,-1,-1,-1,42,-1,-1,-1,-1],"split_conditions":[2.0037435E-1,9.888005E-2,2.1713857E-1,5.958598E-2,2.5579737E-2,-1.8485649E-2,1.7254429E-1,2.8621933E-1,8.351592E-3,-1.52656585E-2,-6.4862673E-3,1.2040811E-2,2.6331292E-2,-1.995897E-2,-1.1845166E-2,4.052549E-2,1.4725985E-1,-1.4276941E-2,-2.3024755E-2,1.157138E-3,-1.6222714E-2,4.70956E-1,1.2235688E-1,9.160984E-2,1.396944E-1,-2.8362038E-2,1.0359358E-1,-2.6411181E-2,1.2409498E-1,5E-1,1.5969244E-1,-2.1379983E-2,-2.8585225E-2,-1.0397321E-2,1.0225583E-1,-2.4779659E-2,-2.8909083E-2,-1.5884463E-2,3.346175E-1,-2.2920975E-2,-1.7251443E-2,-2.714833E-2,-2.1796403E-2],"split_indices":[20,16,7,13,25,0,11,9,16,0,0,0,0,0,0,18,18,0,0,14,0,17,20,12,20,0,18,0,11,5,20,0,0,0,20,0,0,0,3,0,0,0,0],"split_type":[0,0,0,0,0,0,0,0,0,0,0,0,0,0,0,0,0,0,0,0,0,0,0,0,0,0,0,0,0,0,0,0,0,0,0,0,0,0,0,0,0,0,0],"sum_hessian":[2.8240317E2,2.3996329E2,4.243988E1,2.1748029E2,2.2482996E1,1.7896244E1,2.4543634E1,2.4888155E1,1.9259213E2,1.0498197E1,1.19848E1,1.0373981E1,1.4169653E1,1.0310062E1,1.4578093E1,2.501784E1,1.675743E2,1.4769898E1,1.024794E1,1.5563478E2,1.1939511E1,1.1379107E2,4.184372E1,4.4777344E1,6.9013725E1,1.49852085E1,2.6858513E1,1.214771E1,3.262963E1,2.8691044E1,4.032268E1,1.6530113E1,1.0328399E1,1.2466964E1,2.0162668E1,1.612409E1,1.2566953E1,1.672941E1,2.359327E1,1.0004486E1,1.0158182E1,1.341506E1,1.017821E1],"tree_param":{"num_deleted":"0","num_feature":"27","num_nodes":"43","size_leaf_vector":"0"}},{"base_weights":[-1.0242791E0,-1.2525382E0,3.1194228E-1,-1.2910448E0,-1.1038678E-2,-2.0771129E-2,1.361933E0,-1.4119205E-2,-1.3226488E0,1.6017282E-2,2.9171733E-2,-1.6156146E-2,-1.3548728E0,-1.3820424E0,-1.711712E-2,-1.309253E0,-1.5010777E0,-1.4157997E0,-1.0742137E0,-1.2266213E0,-1.6381776E0,-2.754518E-2,-1.3435538E0,-1.2793975E-2,-2.2698207E-2,-2.364472E-2,-1.5918273E-2,-1.8111103E0,-2.2874346E-2,-1.30667295E-2,-1.4823745E0,-3.0530797E-2,-2.8106581E-2,-1.3323406E0,-2.7542016E-2,-2.5306938E-2,-1.663164E-2],"categories":[],"categories_nodes":[],"categories_segments":[],"categories_sizes":[],"default_left":[0,0,0,0,0,0,0,0,0,0,0,0,0,0,0,0,0,0,0,0,0,0,0,0,0,0,0,0,0,0,0,0,0,0,0,0,0],"id":10,"left_children":[1,3,5,7,-1,-1,9,-1,11,-1,-1,-1,13,15,-1,17,19,21,23,25,27,-1,29,-1,-1,-1,-1,31,-1,-1,33,-1,-1,35,-1,-1,-1],"loss_changes":[8.513043E1,5.2822876E0,6.771253E1,3.000122E0,0E0,0E0,3.9456673E0,0E0,2.2220764E0,0E0,0E0,0E0,1.5677795E0,1.4945679E0,0E0,2.6948242E0,2.4712677E0,1.4397125E0,3.086174E0,1.2145004E0,1.7924271E0,0E0,4.4195633E0,0E0,0E0,0E0,0E0,1.14860535E-1,0E0,0E0,1.4165878E0,0E0,0E0,1.8265915E0,0E0,0E0,0E0],"parents":[2147483647,0,0,1,1,2,2,3,3,6,6,8,8,12,12,13,13,15,15,16,16,17,17,18,18,19,19,20,20,22,22,27,27,30,30,33,33],"right_children":[2,4,6,8,-1,-1,10,-1,12,-1,-1,-1,14,16,-1,18,20,22,24,26,28,-1,30,-1,-1,-1,-1,32,-1,-1,34,-1,-1,36,-1,-1,-1],"split_conditions":[5.6611186E-1,1.3626152E-1,2.1579044E-1,5.0323505E-2,-1.1038678E-2,-2.0771129E-2,3.580694E-1,-1.4119205E-2,8.716309E-2,1.6017282E-2,2.9171733E-2,-1.6156146E-2,7.468616E-2,8.15194E-2,-1.711712E-2,3.2402623E-2,1.6017048E-1,3.2344928E-1,5E-1,9.9540055E-2,3.152197E-1,-2.754518E-2,1.3252813E-1,-1.2793975E-2,-2.2698207E-2,-2.364472E-2,-1.5918273E-2,2.1858092E-1,-2.2874346E-2,-1.30667295E-2,1.0769573E-3,-3.0530797E-2,-2.8106581E-2,1.2673959E-2,-2.7542016E-2,-2.5306938E-2,-1.663164E-2],"split_indices":[6,16,7,12,0,0,12,0,7,0,0,0,15,18,0,15,12,9,5,18,12,0,8,0,0,0,0,8,0,0,26,0,0,22,0,0,0],"split_type":[0,0,0,0,0,0,0,0,0,0,0,0,0,0,0,0,0,0,0,0,0,0,0,0,0,0,0,0,0,0,0,0,0,0,0,0,0],"sum_hessian":[2.7909537E2,2.383785E2,4.071687E1,2.2344714E2,1.4931347E1,1.6230093E1,2.4486776E1,1.5427489E1,2.0801965E2,1.2906543E1,1.1580233E1,1.8350298E1,1.8966936E2,1.7422044E2,1.54489155E1,1.0813888E2,6.6081566E1,7.439284E1,3.374604E1,2.2026396E1,4.405517E1,1.5648311E1,5.874453E1,1.757361E1,1.6172428E1,1.1716147E1,1.0310248E1,2.5480457E1,1.857471E1,1.1960675E1,4.6783855E1,1.5423074E1,1.0057384E1,2.697858E1,1.9805273E1,1.5933676E1,1.1044906E1],"tree_param":{"num_deleted":"0","num_feature":"27","num_nodes":"37","size_leaf_vector":"0"}},{"base_weights":[-1.0094965E0,-1.2571914E0,2.0731592E-1,-1.28683075E-2,-1.3011979E0,-2.2712613E-2,1.1421841E0,-1.331296E0,-1.2484258E-2,1.2089326E-2,2.208102E-2,-1.266283E0,-1.4711225E0,-1.3920838E0,-1.1034061E0,-1.3097717E0,-1.6288455E0,-1.2648972E0,-1.5673621E0,-8.221485E-1,-1.2567687E0,-2.3667984E-2,-1.861921E-2,-2.9940773E-2,-2.4425678E-2,-2.5696086E-2,-1.130474E0,-2.760985E-2,-2.2318905E-2,-8.7357415E-3,-1.7981447E-2,-1.5408094E-2,-1.3849078E0,-1.2632722E0,-1.4007424E-2,-2.6749564E-2,-1.9639712E-2,-1.6198808E-2,-2.4755957E-2],"categories":[],"categories_nodes":[],"categories_segments":[],"categories_sizes":[],"default_left":[0,0,0,0,0,0,0,0,0,0,0,0,0,0,0,0,0,0,0,0,0,0,0,0,0,0,0,0,0,0,0,0,0,0,0,0,0,0,0],"id":11,"left_children":[1,3,5,-1,7,-1,9,11,-1,-1,-1,13,15,17,19,21,23,25,27,29,31,-1,-1,-1,-1,-1,33,-1,-1,-1,-1,-1,35,37,-1,-1,-1,-1,-1],"loss_changes":[8.389203E1,4.7640686E0,7.0320694E1,0E0,3.4042664E0,0E0,2.4944115E0,1.8051758E0,0E0,0E0,0E0,2.78714E0,1.6005554E0,1.703598E0,2.558792E0,7.295723E-1,8.566284E-1,1.8393555E0,7.853699E-1,1.676466E0,1.5348587E0,0E0,0E0,0E0,0E0,0E0,1.1167679E0,0E0,0E0,0E0,0E0,0E0,1.2462578E0,1.4215813E0,0E0,0E0,0E0,0E0,0E0],"parents":[2147483647,0,0,1,1,2,2,4,4,6,6,7,7,11,11,12,12,13,13,14,14,15,15,16,16,17,17,18,18,19,19,20,20,26,26,32,32,33,33],"right_children":[2,4,6,-1,8,-1,10,12,-1,-1,-1,14,16,18,20,22,24,26,28,30,32,-1,-1,-1,-1,-1,34,-1,-1,-1,-1,-1,36,38,-1,-1,-1,-1,-1],"split_conditions":[1.9370282E-1,7.5495176E-2,2.2536205E-2,-1.28683075E-2,1.2810536E-1,-2.2712613E-2,1.5631782E-1,2.6064295E-2,-1.2484258E-2,1.2089326E-2,2.208102E-2,3.8165948E-1,8.15194E-2,1.2063507E-1,4.067483E-1,3.2729037E-2,2.244511E-1,5.2426267E-2,7.820882E-2,4.6490747E-1,1.6214141E-1,-2.3667984E-2,-1.861921E-2,-2.9940773E-2,-2.4425678E-2,-2.5696086E-2,1.8236819E-1,-2.760985E-2,-2.2318905E-2,-8.7357415E-3,-1.7981447E-2,-1.5408094E-2,1.7370404E-1,1.2914793E-1,-1.4007424E-2,-2.6749564E-2,-1.9639712E-2,-1.6198808E-2,-2.4755957E-2],"split_indices":[20,11,23,0,16,0,11,21,0,0,0,9,18,8,9,15,19,20,18,17,12,0,0,0,0,0,19,0,0,0,0,0,11,19,0,0,0,0,0],"split_type":[0,0,0,0,0,0,0,0,0,0,0,0,0,0,0,0,0,0,0,0,0,0,0,0,0,0,0,0,0,0,0,0,0,0,0,0,0,0,0],"sum_hessian":[2.7832422E2,2.3125433E2,4.7069874E1,1.9838984E1,2.1141534E2,1.7370605E1,2.9699268E1,2.0018036E2,1.1234993E1,1.01979065E1,1.9501362E1,1.3667215E2,6.3508213E1,7.709439E1,5.9577755E1,3.1409727E1,3.2098488E1,4.469379E1,3.24006E1,2.1035206E1,3.8542545E1,1.722031E1,1.4189415E1,1.2643524E1,1.9454962E1,1.3550568E1,3.1143223E1,2.0055967E1,1.2344634E1,1.0372386E1,1.0662821E1,1.1200414E1,2.7342133E1,2.0932325E1,1.0210897E1,1.1437476E1,1.5904657E1,1.0101596E1,1.08307295E1],"tree_param":{"num_deleted":"0","num_feature":"27","num_nodes":"39","size_leaf_vector":"0"}},{"base_weights":[-9.1585463E-1,-1.1151716E0,1.4560515E-1,-1.162804E0,-7.5187846E-3,-1.9848092E-2,1.1653495E0,-7.9207206E-1,-1.2091603E0,1.2854338E-2,2.4331836E-2,-1.8723018E-2,-5.8691185E-3,-8.836587E-1,-1.2520779E0,-2.0235473E-2,-7.834404E-3,-1.2228067E0,-2.5505785E-2,-2.5873357E-2,-1.1936721E0,-1.0402038E0,-1.2716635E0,-1.3310833E0,-6.7073464E-1,-1.5123961E0,-1.1808627E0,-1.8321186E-2,-2.4966784E-2,-4.7587827E-3,-1.7009377E-2,-2.2618592E-2,-2.757102E-2,-9.7626805E-1,-1.3383156E0,-1.866419E-2,-1.0803902E-2,-2.3976652E-2,-1.9731972E-2],"categories":[],"categories_nodes":[],"categories_segments":[],"categories_sizes":[],"default_left":[0,0,0,0,0,0,0,0,0,0,0,0,0,0,0,0,0,0,0,0,0,0,0,0,0,0,0,0,0,0,0,0,0,0,0,0,0,0,0],"id":12,"left_children":[1,3,5,7,-1,-1,9,11,13,-1,-1,-1,-1,15,17,-1,-1,19,-1,-1,21,23,25,27,29,31,33,-1,-1,-1,-1,-1,-1,35,37,-1,-1,-1,-1],"loss_changes":[5.8475983E1,7.2483826E0,6.0630524E1,3.7168884E0,0E0,0E0,3.0540771E0,3.690483E0,2.6817017E0,0E0,0E0,0E0,0E0,3.2169857E0,1.5291443E0,0E0,0E0,1.6241608E0,0E0,0E0,1.7115326E0,5.207306E0,2.0725403E0,1.1092491E0,3.0023222E0,5.690727E-1,2.2213821E0,0E0,0E0,0E0,0E0,0E0,0E0,1.5722103E0,6.4727783E-1,0E0,0E0,0E0,0E0],"parents":[2147483647,0,0,1,1,2,2,3,3,6,6,7,7,8,8,13,13,14,14,17,17,20,20,21,21,22,22,23,23,24,24,25,25,26,26,33,33,34,34],"right_children":[2,4,6,8,-1,-1,10,12,14,-1,-1,-1,-1,16,18,-1,-1,20,-1,-1,22,24,26,28,30,32,34,-1,-1,-1,-1,-1,-1,36,38,-1,-1,-1,-1],"split_conditions":[5.651564E-1,9.625306E-3,2.1579044E-1,5.958598E-2,-7.5187846E-3,-1.9848092E-2,3.1057367E-1,5.6311145E-2,7.96667E-3,1.2854338E-2,2.4331836E-2,-1.8723018E-2,-5.8691185E-3,4.8883073E-3,2.5927854E-1,-2.0235473E-2,-7.834404E-3,7.584776E-5,-2.5505785E-2,-2.5873357E-2,1.3464394E-1,1.1833227E-1,1.7224447E-1,2.037707E-4,4.698331E-1,3.9706577E-4,2.506329E-1,-1.8321186E-2,-2.4966784E-2,-4.7587827E-3,-1.7009377E-2,-2.2618592E-2,-2.757102E-2,2.2071721E-2,7.479539E-2,-1.866419E-2,-1.0803902E-2,-2.3976652E-2,-1.9731972E-2],"split_indices":[6,26,7,13,0,0,19,18,16,0,0,0,0,16,11,0,0,14,0,0,11,12,13,14,6,14,3,0,0,0,0,0,0,16,18,0,0,0,0],"split_type":[0,0,0,0,0,0,0,0,0,0,0,0,0,0,0,0,0,0,0,0,0,0,0,0,0,0,0,0,0,0,0,0,0,0,0,0,0,0,0],"sum_hessian":[2.7637027E2,2.3268294E2,4.3687317E1,2.1689638E2,1.5786566E1,1.871064E1,2.4976677E1,2.4119196E1,1.9277718E2,1.1542101E1,1.3434576E1,1.3252439E1,1.0866757E1,2.247134E1,1.7030583E2,1.1946492E1,1.0524848E1,1.5561588E2,1.4689959E1,1.1592732E1,1.4402315E2,4.8552277E1,9.547087E1,2.7157242E1,2.1395035E1,2.6131649E1,6.933922E1,1.3207511E1,1.3949731E1,1.0582838E1,1.0812197E1,1.5171708E1,1.0959942E1,3.0170029E1,3.916919E1,1.9716152E1,1.0453877E1,1.9580715E1,1.9588474E1],"tree_param":{"num_deleted":"0","num_feature":"27","num_nodes":"39","size_leaf_vector":"0"}},{"base_weights":[-1.0066695E0,-1.2294273E0,2.116621E-1,-1.2705407E0,-9.914101E-3,-2.0373922E-2,1.2154129E0,-9.196341E-1,-1.3137205E0,1.16950525E-2,2.510429E-2,-1.9833587E-2,-1.1551176E-2,-1.5734896E-2,-1.3456126E0,-1.2339637E0,-1.462524E0,-1.2998834E0,-1.4985749E-2,-1.6608102E0,-1.3673658E0,-1.5594149E0,-1.1875395E0,-2.4830773E-2,-2.9105794E-2,-2.7079511E-2,-1.2864225E0,-2.2855034E-2,-2.8766248E-2,-9.454661E-3,-1.3283613E0,-1.0738747E0,-1.4969956E0,-2.670024E-2,-1.2266307E0,-2.0885572E-2,-1.4907132E-2,-2.8038822E-2,-2.0289226E-2,-1.5361185E-2,-1.4071106E0,-2.534421E-2,-2.0599157E-2],"categories":[],"categories_nodes":[],"categories_segments":[],"categories_sizes":[],"default_left":[0,0,0,0,0,0,0,0,0,0,0,0,0,0,0,0,0,0,0,0,0,0,0,0,0,0,0,0,0,0,0,0,0,0,0,0,0,0,0,0,0,0,0],"id":13,"left_children":[1,3,5,7,-1,-1,9,11,13,-1,-1,-1,-1,-1,15,17,19,21,-1,23,25,27,29,-1,-1,-1,31,-1,-1,-1,33,35,37,-1,39,-1,-1,-1,-1,-1,41,-1,-1],"loss_changes":[7.6914795E1,6.120331E0,6.415514E1,3.39328E0,0E0,0E0,4.15786E0,1.5320568E0,2.2226562E0,0E0,0E0,0E0,0E0,0E0,2.379303E0,1.9447479E0,1.6736603E0,2.2488403E0,0E0,4.770279E-1,1.4091415E0,7.4048996E-1,4.6344223E0,0E0,0E0,0E0,2.1062927E0,0E0,0E0,0E0,1.3571243E0,7.671337E-1,1.3158455E0,0E0,1.6936836E0,0E0,0E0,0E0,0E0,0E0,4.1248322E-1,0E0,0E0],"parents":[2147483647,0,0,1,1,2,2,3,3,6,6,7,7,8,8,14,14,15,15,16,16,17,17,19,19,20,20,21,21,22,22,26,26,30,30,31,31,32,32,34,34,40,40],"right_children":[2,4,6,8,-1,-1,10,12,14,-1,-1,-1,-1,-1,16,18,20,22,-1,24,26,28,30,-1,-1,-1,32,-1,-1,-1,34,36,38,-1,40,-1,-1,-1,-1,-1,42,-1,-1],"split_conditions":[1.9502021E-1,9.836368E-3,2.1579044E-1,8.716309E-2,-9.914101E-3,-2.0373922E-2,2.7905798E-1,1.493671E-1,8.0198176E-2,1.16950525E-2,2.510429E-2,-1.9833587E-2,-1.1551176E-2,-1.5734896E-2,4.207197E-1,2.35677E-1,4.6331093E-1,1.1424703E-1,-1.4985749E-2,1.4424524E-1,1.4158322E-1,5E-1,1.3464394E-1,-2.4830773E-2,-2.9105794E-2,-2.7079511E-2,2.3551822E-1,-2.2855034E-2,-2.8766248E-2,-9.454661E-3,3.955018E-1,4.5162594E-1,2.6019582E-1,-2.670024E-2,4.6919802E-1,-2.0885572E-2,-1.4907132E-2,-2.8038822E-2,-2.0289226E-2,-1.5361185E-2,1.8626751E-1,-2.534421E-2,-2.0599157E-2],"split_indices":[20,26,7,7,0,0,19,3,11,0,0,0,0,0,9,7,17,12,0,20,7,5,11,0,0,0,8,0,0,0,17,9,8,0,17,0,0,0,0,0,11,0,0],"split_type":[0,0,0,0,0,0,0,0,0,0,0,0,0,0,0,0,0,0,0,0,0,0,0,0,0,0,0,0,0,0,0,0,0,0,0,0,0,0,0,0,0,0,0],"sum_hessian":[2.8338763E2,2.3958641E2,4.3801235E1,2.2473189E2,1.4854533E1,1.7848454E1,2.595278E1,2.46372E1,2.0009468E2,1.0177827E1,1.5774953E1,1.0303842E1,1.4333358E1,1.6714138E1,1.8338054E2,9.38247E1,8.955584E1,7.7631004E1,1.61937E1,2.9023048E1,6.0532795E1,2.34381E1,5.41929E1,1.3482918E1,1.554013E1,1.3166277E1,4.7366516E1,1.3096721E1,1.0341381E1,1.0190315E1,4.4002586E1,2.35853E1,2.3781216E1,1.0950344E1,3.3052242E1,1.0362456E1,1.3222843E1,1.2749363E1,1.1031853E1,1.2798723E1,2.025352E1,1.0142252E1,1.0111266E1],"tree_param":{"num_deleted":"0","num_feature":"27","num_nodes":"43","size_leaf_vector":"0"}},{"base_weights":[-9.092743E-1,-1.1346196E0,1.6697511E-1,-1.1707019E0,-9.069121E-3,-1.1109579E0,1.1899651E0,-7.966461E-1,-1.2199633E0,-1.35443695E-2,-2.3012059E-2,1.2480536E-2,2.4436392E-2,-1.7855356E-2,-6.850653E-3,-1.1320415E0,-1.3506529E0,-1.2849312E0,-8.223667E-1,-1.2101462E0,-1.5587658E0,-1.5826872E-2,-1.3507729E0,-8.32744E-3,-1.8812213E-2,-1.4825146E0,-9.7393006E-1,-2.739047E-2,-2.2588862E-2,-1.4649295E0,-1.1642594E0,-2.1122117E-2,-2.7058983E-2,-9.992132E-3,-2.1677101E-2,-1.3142809E0,-2.7565546E-2,-1.5421515E-2,-2.3044316E-2,-2.6395002E-2,-1.6668055E-2],"categories":[],"categories_nodes":[],"categories_segments":[],"categories_sizes":[],"default_left":[0,0,0,0,0,0,0,0,0,0,0,0,0,0,0,0,0,0,0,0,0,0,0,0,0,0,0,0,0,0,0,0,0,0,0,0,0,0,0,0,0],"id":14,"left_children":[1,3,5,7,-1,9,11,13,15,-1,-1,-1,-1,-1,-1,17,19,21,23,25,27,-1,29,-1,-1,31,33,-1,-1,35,37,-1,-1,-1,-1,39,-1,-1,-1,-1,-1],"loss_changes":[6.631612E1,4.7164307E0,6.1878735E1,3.9107666E0,0E0,1.7546387E0,3.416977E0,2.764636E0,2.147461E0,0E0,0E0,0E0,0E0,0E0,0E0,5.312271E0,2.195984E0,1.5525894E0,3.8191738E0,2.8915787E0,6.170349E-1,0E0,1.3117294E0,0E0,0E0,6.7560196E-1,3.0850582E0,0E0,0E0,1.2809448E0,1.2717934E0,0E0,0E0,0E0,0E0,2.0302658E0,0E0,0E0,0E0,0E0,0E0],"parents":[2147483647,0,0,1,1,2,2,3,3,5,5,6,6,7,7,8,8,15,15,16,16,17,17,18,18,19,19,20,20,22,22,25,25,26,26,29,29,30,30,35,35],"right_children":[2,4,6,8,-1,10,12,14,16,-1,-1,-1,-1,-1,-1,18,20,22,24,26,28,-1,30,-1,-1,32,34,-1,-1,36,38,-1,-1,-1,-1,40,-1,-1,-1,-1,-1],"split_conditions":[5.5653477E-1,9.836368E-3,2.1579044E-1,5.958598E-2,-9.069121E-3,3.095212E-1,2.6240823E-1,1.5435387E-1,4.302802E-1,-1.35443695E-2,-2.3012059E-2,1.2480536E-2,2.4436392E-2,-1.7855356E-2,-6.850653E-3,3.8374332E-1,2.1806934E-1,3.3421412E-1,4.683401E-4,1.7069808E-1,3.6171854E-3,-1.5826872E-2,1.7224447E-1,-8.32744E-3,-1.8812213E-2,2.0477797E-1,5.0545084E-1,-2.739047E-2,-2.2588862E-2,1.3464394E-1,3.9043412E-1,-2.1122117E-2,-2.7058983E-2,-9.992132E-3,-2.1677101E-2,1.0002709E-1,-2.7565546E-2,-1.5421515E-2,-2.3044316E-2,-2.6395002E-2,-1.6668055E-2],"split_indices":[6,26,7,13,0,3,13,7,9,0,0,0,0,0,0,9,7,10,14,7,26,0,13,0,0,13,6,0,0,11,6,0,0,0,0,12,0,0,0,0,0],"split_type":[0,0,0,0,0,0,0,0,0,0,0,0,0,0,0,0,0,0,0,0,0,0,0,0,0,0,0,0,0,0,0,0,0,0,0,0,0,0,0,0,0],"sum_hessian":[2.7341586E2,2.2608342E2,4.7332455E1,2.1281839E2,1.3265025E1,2.104169E1,2.6290766E1,2.4778257E1,1.8804013E2,1.0830276E1,1.0211414E1,1.1008804E1,1.5281961E1,1.3860694E1,1.09175625E1,1.1243782E2,7.560231E1,7.526265E1,3.717517E1,4.5147007E1,3.0455303E1,1.2998285E1,6.2264366E1,1.9091232E1,1.8083939E1,2.0958418E1,2.4188591E1,1.8169237E1,1.2286065E1,3.860649E1,2.3657875E1,1.0068521E1,1.0889897E1,1.1955396E1,1.2233194E1,2.3054947E1,1.5551544E1,1.2521037E1,1.1136838E1,1.1357524E1,1.1697422E1],"tree_param":{"num_deleted":"0","num_feature":"27","num_nodes":"41","size_leaf_vector":"0"}},{"base_weights":[-9.461643E-1,-1.1723624E0,1.4607848E-1,-1.2086279E0,-1.0373976E-2,-2.0723693E-2,1.1809258E0,-8.3617437E-1,-1.2606789E0,9.6981535E-3,2.4857718E-2,-1.8006992E-2,-6.6173007E-3,-1.2265983E0,-2.6850889E-2,-1.4128916E-2,-1.272043E0,-1.4679081E0,-1.2136297E0,-2.7204722E-2,-1.3628525E0,-1.1406989E-2,-1.2808923E0,-1.946455E-2,-2.4599668E-2,-1.1571229E0,-1.3876363E0,-1.3142347E0,-1.3616329E-2,-1.4567962E0,-1.769256E-2,-1.4863462E0,-1.5556405E-2,-2.0129343E-2,-1.5564052E0,-2.1182293E-2,-2.7965052E-2,-2.8137228E-2,-2.3801649E-2],"categories":[],"categories_nodes":[],"categories_segments":[],"categories_sizes":[],"default_left":[0,0,0,0,0,0,0,0,0,0,0,0,0,0,0,0,0,0,0,0,0,0,0,0,0,0,0,0,0,0,0,0,0,0,0,0,0,0,0],"id":15,"left_children":[1,3,5,7,-1,-1,9,11,13,-1,-1,-1,-1,15,-1,-1,17,19,21,-1,23,-1,25,-1,-1,27,29,31,-1,33,-1,35,-1,-1,37,-1,-1,-1,-1],"loss_changes":[6.8159836E1,4.4418335E0,6.92983E1,4.138977E0,0E0,0E0,5.464245E0,3.0076103E0,2.43927E0,0E0,0E0,0E0,0E0,2.8219604E0,0E0,0E0,1.7386627E0,7.152786E-1,4.079529E0,0E0,5.497093E-1,0E0,1.3657379E0,0E0,0E0,2.4457245E0,1.1655502E0,2.012539E0,0E0,1.0044708E0,0E0,9.269028E-1,0E0,0E0,5.0354767E-1,0E0,0E0,0E0,0E0],"parents":[2147483647,0,0,1,1,2,2,3,3,6,6,7,7,8,8,13,13,16,16,17,17,18,18,20,20,22,22,25,25,26,26,27,27,29,29,31,31,34,34],"right_children":[2,4,6,8,-1,-1,10,12,14,-1,-1,-1,-1,16,-1,-1,18,20,22,-1,24,-1,26,-1,-1,28,30,32,-1,34,-1,36,-1,-1,38,-1,-1,-1,-1],"split_conditions":[5.5653477E-1,1.3626152E-1,2.1579044E-1,5.958598E-2,-1.0373976E-2,-2.0723693E-2,2.4416456E-1,1.580363E-1,3.908908E-1,9.6981535E-3,2.4857718E-2,-1.8006992E-2,-6.6173007E-3,8.351592E-3,-2.6850889E-2,-1.4128916E-2,1.1833227E-1,2.506329E-1,1.2409498E-1,-2.7204722E-2,5E-1,-1.1406989E-2,2.506329E-1,-1.946455E-2,-2.4599668E-2,2.1794166E-1,5.2636236E-1,5.5517465E-1,-1.3616329E-2,5.311237E-1,-1.769256E-2,3.2911393E-1,-1.5556405E-2,-2.0129343E-2,4.767774E-1,-2.1182293E-2,-2.7965052E-2,-2.8137228E-2,-2.3801649E-2],"split_indices":[6,16,7,13,0,0,13,7,13,0,0,0,0,16,0,0,12,3,11,0,5,0,3,0,0,3,6,10,0,10,0,4,0,0,17,0,0,0,0],"split_type":[0,0,0,0,0,0,0,0,0,0,0,0,0,0,0,0,0,0,0,0,0,0,0,0,0,0,0,0,0,0,0,0,0,0,0,0,0,0,0],"sum_hessian":[2.7585785E2,2.2853438E2,4.732347E1,2.1407106E2,1.4463324E1,1.9987448E1,2.7336025E1,2.6261034E1,1.8781001E2,1.0053181E1,1.7282845E1,1.6220493E1,1.004054E1,1.724941E2,1.5315921E1,1.9278734E1,1.5321536E2,3.5175926E1,1.18039444E2,1.2179598E1,2.2996326E1,1.3641563E1,1.0439788E2,1.0508768E1,1.2487559E1,4.8366665E1,5.603121E1,3.253973E1,1.5826935E1,4.5639797E1,1.0391414E1,2.203769E1,1.050204E1,1.4055314E1,3.1584484E1,1.2006592E1,1.0031098E1,1.175313E1,1.9831354E1],"tree_param":{"num_deleted":"0","num_feature":"27","num_nodes":"39","size_leaf_vector":"0"}},{"base_weights":[-9.037921E-1,-1.1097263E0,1.0727263E-1,-1.1440388E0,-9.974407E-3,-2.1426095E-2,1.0740501E0,-1.0205019E0,-1.2579341E0,1.0288529E-2,2.1812424E-2,-1.1429354E0,-7.876502E-1,-1.4207418E0,-1.1546596E0,-2.5129007E-2,-1.0608423E0,-1.1749712E-3,-1.1130636E0,-1.3082536E0,-2.5707101E-2,-2.4455845E-2,-1.068845E0,-1.1889509E0,-1.1629057E-2,-1.347758E-2,-2.1555113E-2,-2.5536891E-2,-1.8518375E-2,-1.044945E-2,-1.1755005E0,-1.4746776E-2,-1.3061078E0,-1.4130387E0,-9.221517E-1,-1.7909054E-2,-2.4672728E-2,-1.9401986E-2,-2.6541673E-2,-1.0711312E-2,-1.9130755E-2],"categories":[],"categories_nodes":[],"categories_segments":[],"categories_sizes":[],"default_left":[0,0,0,0,0,0,0,0,0,0,0,0,0,0,0,0,0,0,0,0,0,0,0,0,0,0,0,0,0,0,0,0,0,0,0,0,0,0,0,0,0],"id":16,"left_children":[1,3,5,7,-1,-1,9,11,13,-1,-1,15,17,19,21,-1,23,-1,25,27,-1,-1,29,31,-1,-1,-1,-1,-1,-1,33,-1,35,37,39,-1,-1,-1,-1,-1,-1],"loss_changes":[5.7069153E1,3.8889465E0,6.3625275E1,2.985321E0,0E0,0E0,3.1937904E0,2.9037094E0,1.8495941E0,0E0,0E0,2.1622925E0,8.2006855E0,7.264404E-1,1.9819031E0,0E0,2.4687233E0,0E0,1.4301319E0,1.0909653E0,0E0,0E0,2.4730225E0,1.3472672E0,0E0,0E0,0E0,0E0,0E0,0E0,2.602211E0,0E0,1.2193565E0,1.055027E0,1.3864555E0,0E0,0E0,0E0,0E0,0E0,0E0],"parents":[2147483647,0,0,1,1,2,2,3,3,6,6,7,7,8,8,11,11,12,12,13,13,14,14,16,16,18,18,19,19,22,22,23,23,30,30,32,32,33,33,34,34],"right_children":[2,4,6,8,-1,-1,10,12,14,-1,-1,16,18,20,22,-1,24,-1,26,28,-1,-1,30,32,-1,-1,-1,-1,-1,-1,34,-1,36,38,40,-1,-1,-1,-1,-1,-1],"split_conditions":[5.5825776E-1,1.340587E-1,4.405211E-2,1.6853438E-1,-9.974407E-3,-2.1426095E-2,2.7611837E-1,3.4269374E-2,4.6106517E-1,1.0288529E-2,2.1812424E-2,2.2641219E-1,1.3094547E-1,4.1761646E-1,1.7224447E-1,-2.5129007E-2,1.3263094E-1,-1.1749712E-3,4.828926E-1,2.0183496E-2,-2.5707101E-2,-2.4455845E-2,2.0990576E-1,5.958598E-2,-1.1629057E-2,-1.347758E-2,-2.1555113E-2,-2.5536891E-2,-1.8518375E-2,-1.044945E-2,1.6921853E-1,-1.4746776E-2,1.7681057E-2,1.2938842E-1,1.9726738E-1,-1.7909054E-2,-2.4672728E-2,-1.9401986E-2,-2.6541673E-2,-1.0711312E-2,-1.9130755E-2],"split_indices":[6,16,15,12,0,0,19,16,17,0,0,9,8,9,13,0,12,0,6,16,0,0,13,13,0,0,0,0,0,0,7,0,16,7,7,0,0,0,0,0,0],"split_type":[0,0,0,0,0,0,0,0,0,0,0,0,0,0,0,0,0,0,0,0,0,0,0,0,0,0,0,0,0,0,0,0,0,0,0,0,0,0,0,0,0],"sum_hessian":[2.7406482E2,2.2769336E2,4.637145E1,2.1303293E2,1.4660432E1,1.878663E1,2.758482E1,1.0221344E2,1.1081948E2,1.0233573E1,1.7351246E1,6.697507E1,3.5238377E1,4.2992382E1,6.78271E1,1.1494176E1,5.548089E1,1.1019284E1,2.4219093E1,2.4822557E1,1.8169823E1,1.356607E1,5.4261032E1,4.056504E1,1.4915851E1,1.0137935E1,1.4081158E1,1.0055934E1,1.47666235E1,1.081409E1,4.3446945E1,1.1802485E1,2.8762554E1,2.2412306E1,2.1034637E1,1.4227299E1,1.4535255E1,1.0890011E1,1.1522294E1,1.0181176E1,1.0853461E1],"tree_param":{"num_deleted":"0","num_feature":"27","num_nodes":"41","size_leaf_vector":"0"}},{"base_weights":[-1.016755E0,-1.2369865E0,2.114283E-1,-1.2923983E0,-8.659443E-3,-2.0626789E-2,1.1936649E0,-9.2567474E-1,-1.341794E0,1.1522155E-2,2.4816275E-2,-2.0685485E-2,-8.002894E-3,-1.0447967E0,-1.3843691E0,-2.1244748E-2,-1.2030725E-2,-1.512204E0,-1.3014396E0,-1.408998E0,-1.6553683E0,-1.3619449E0,-1.0942177E0,-1.547068E0,-2.0029487E-2,-2.9304286E-2,-2.4031589E-2,-1.719374E-2,-1.4108894E0,-1.3084778E-2,-2.2236997E-2,-2.3057038E-2,-2.7765166E-2,-2.8207485E-2,-1.3330159E0,-1.1553476E0,-1.4731054E0,-2.3197494E-2,-1.4660359E-2,-1.911811E-2,-2.7491622E-2],"categories":[],"categories_nodes":[],"categories_segments":[],"categories_sizes":[],"default_left":[0,0,0,0,0,0,0,0,0,0,0,0,0,0,0,0,0,0,0,0,0,0,0,0,0,0,0,0,0,0,0,0,0,0,0,0,0,0,0,0,0],"id":17,"left_children":[1,3,5,7,-1,-1,9,11,13,-1,-1,-1,-1,15,17,-1,-1,19,21,23,25,27,29,31,-1,-1,-1,-1,33,-1,-1,-1,-1,-1,35,37,39,-1,-1,-1,-1],"loss_changes":[7.53598E1,9.241638E0,6.134279E1,3.9559937E0,0E0,0E0,4.032673E0,3.8548164E0,2.4279175E0,0E0,0E0,0E0,0E0,1.9000816E0,1.7746887E0,0E0,0E0,9.64798E-1,1.2710724E0,9.581909E-1,6.9296265E-1,1.1859436E0,1.8036251E0,4.380417E-1,0E0,0E0,0E0,0E0,1.6688385E0,0E0,0E0,0E0,0E0,0E0,1.3525696E0,1.6421776E0,1.936264E0,0E0,0E0,0E0,0E0],"parents":[2147483647,0,0,1,1,2,2,3,3,6,6,7,7,8,8,13,13,14,14,17,17,18,18,19,19,20,20,21,21,22,22,23,23,28,28,34,34,35,35,36,36],"right_children":[2,4,6,8,-1,-1,10,12,14,-1,-1,-1,-1,16,18,-1,-1,20,22,24,26,28,30,32,-1,-1,-1,-1,34,-1,-1,-1,-1,-1,36,38,40,-1,-1,-1,-1],"split_conditions":[2.0112605E-1,9.625306E-3,2.1579044E-1,5.958598E-2,-8.659443E-3,-2.0626789E-2,2.8423938E-1,5.6311145E-2,4.4663614E-4,1.1522155E-2,2.4816275E-2,-2.0685485E-2,-8.002894E-3,2.704342E-4,1.69278E-2,-2.1244748E-2,-1.2030725E-2,1.4348345E-1,2.820647E-1,4.6850555E-2,1.7800872E-1,6.987489E-2,3.4980044E-1,1.9376141E-1,-2.0029487E-2,-2.9304286E-2,-2.4031589E-2,-1.719374E-2,1.2396611E-3,-1.3084778E-2,-2.2236997E-2,-2.3057038E-2,-2.7765166E-2,-2.8207485E-2,2.8530544E-1,1.6832629E-1,1.3243258E-1,-2.3197494E-2,-1.4660359E-2,-1.911811E-2,-2.7491622E-2],"split_indices":[20,26,7,13,0,0,19,18,26,0,0,0,0,26,22,0,0,7,13,18,13,18,13,19,0,0,0,0,26,0,0,0,0,0,3,8,13,0,0,0,0],"split_type":[0,0,0,0,0,0,0,0,0,0,0,0,0,0,0,0,0,0,0,0,0,0,0,0,0,0,0,0,0,0,0,0,0,0,0,0,0,0,0,0,0],"sum_hessian":[2.7858987E2,2.3623393E2,4.235594E1,2.1905176E2,1.7182175E1,1.693253E1,2.5423414E1,2.6015436E1,1.9303632E2,1.0185113E1,1.5238301E1,1.4586617E1,1.1428819E1,2.4218287E1,1.6881804E2,1.3216518E1,1.1001768E1,6.639959E1,1.0241845E2,3.8606E1,2.7793585E1,7.925243E1,2.3166012E1,2.1963411E1,1.664259E1,1.5809466E1,1.1984119E1,1.08480215E1,6.840441E1,1.1063879E1,1.2102134E1,1.1680538E1,1.0282874E1,1.3499194E1,5.490522E1,2.422274E1,3.068248E1,1.1928459E1,1.2294282E1,1.259427E1,1.808821E1],"tree_param":{"num_deleted":"0","num_feature":"27","num_nodes":"41","size_leaf_vector":"0"}},{"base_weights":[-9.974935E-1,-1.1965669E0,3.6880842E-1,-1.2448596E0,-6.962676E-3,-2.1763675E-2,1.2062765E0,-1.1367444E-2,-1.2720524E0,1.26715945E-2,2.5160171E-2,-1.2992277E0,-1.4294474E-2,-1.2505424E0,-1.5427061E0,-1.2966505E0,-1.4739914E-2,-2.8123518E-2,-2.3229921E-2,-1.3276256E0,-1.4924487E-2,-1.3042495E0,-2.6347332E-2,-1.3896235E0,-1.184816E0,-1.2321819E0,-1.5752318E0,-9.7829E-1,-1.3305014E0,-2.5594022E-2,-1.725431E-2,-2.904377E-2,-2.3715667E-2,-1.857596E-2,-1.3175798E-2,-2.4598086E-2,-1.610667E-2],"categories":[],"categories_nodes":[],"categories_segments":[],"categories_sizes":[],"default_left":[0,0,0,0,0,0,0,0,0,0,0,0,0,0,0,0,0,0,0,0,0,0,0,0,0,0,0,0,0,0,0,0,0,0,0,0,0],"id":18,"left_children":[1,3,5,7,-1,-1,9,-1,11,-1,-1,13,-1,15,17,19,-1,-1,-1,21,-1,23,-1,25,27,29,31,33,35,-1,-1,-1,-1,-1,-1,-1,-1],"loss_changes":[7.369452E1,8.787018E0,4.9089252E1,3.3101807E0,0E0,0E0,3.3100662E0,0E0,2.274231E0,0E0,0E0,2.3369446E0,0E0,2.641327E0,6.961136E-1,1.719101E0,0E0,0E0,0E0,8.8642883E-1,0E0,1.2593994E0,0E0,2.1119843E0,1.554451E0,2.3042793E0,8.176651E-1,5.780144E-1,1.8327332E0,0E0,0E0,0E0,0E0,0E0,0E0,0E0,0E0],"parents":[2147483647,0,0,1,1,2,2,3,3,6,6,8,8,11,11,13,13,14,14,15,15,19,19,21,21,23,23,24,24,25,25,26,26,27,27,28,28],"right_children":[2,4,6,8,-1,-1,10,-1,12,-1,-1,14,-1,16,18,20,-1,-1,-1,22,-1,24,-1,26,28,30,32,34,36,-1,-1,-1,-1,-1,-1,-1,-1],"split_conditions":[5.279551E-2,1.1161434E-2,4.286243E-2,3.3013232E-2,-6.962676E-3,-2.1763675E-2,2.820647E-1,-1.1367444E-2,5.50931E-1,1.26715945E-2,2.5160171E-2,5.1037985E-1,-1.4294474E-2,5.976938E-1,2.244511E-1,1.4574413E-1,-1.4739914E-2,-2.8123518E-2,-2.3229921E-2,4.8811394E-1,-1.4924487E-2,1.48824295E-2,-2.6347332E-2,8.8373385E-2,1.757176E-1,7.199031E-3,1.1741703E-1,9.748234E-2,3.152197E-1,-2.5594022E-2,-1.725431E-2,-2.904377E-2,-2.3715667E-2,-1.857596E-2,-1.3175798E-2,-2.4598086E-2,-1.610667E-2],"split_indices":[21,26,15,13,0,0,13,0,6,0,0,6,0,10,19,18,0,0,0,6,0,24,0,20,12,25,12,13,12,0,0,0,0,0,0,0,0],"split_type":[0,0,0,0,0,0,0,0,0,0,0,0,0,0,0,0,0,0,0,0,0,0,0,0,0,0,0,0,0,0,0,0,0,0,0,0,0],"sum_hessian":[2.709252E2,2.3647424E2,3.4450962E1,2.2251567E2,1.3958572E1,1.1361572E1,2.308939E1,1.0514355E1,2.1200131E2,1.0102367E1,1.2987021E1,1.9839888E2,1.3602431E1,1.6535645E2,3.304243E1,1.4599596E2,1.9360495E1,1.32442045E1,1.9798227E1,1.3505331E2,1.09426365E1,1.24856224E2,1.0197097E1,7.278399E1,5.2072235E1,3.9395527E1,3.3388462E1,2.155379E1,3.0518446E1,1.3540052E1,2.5855474E1,1.2576392E1,2.0812069E1,1.1162458E1,1.0391331E1,2.0194803E1,1.0323643E1],"tree_param":{"num_deleted":"0","num_feature":"27","num_nodes":"37","size_leaf_vector":"0"}},{"base_weights":[-8.7775713E-1,-1.0122223E0,5.7835096E-1,-1.1090958E0,-5.872306E-1,-4.677606E-3,2.0322246E-2,-1.077607E0,-2.2863077E-2,-1.0410657E0,-1.6948797E-1,-1.1042107E0,-1.1415363E-2,-1.1045369E-2,-2.2387935E-2,-1.5560583E-2,8.025199E-3,-1.1196051E-2,-1.1343302E0,-8.6508036E-1,-1.1822172E0,-1.8485239E-2,-1.0887273E-2,-1.2193452E0,-1.3553903E-2,-1.3538269E0,-1.1260452E0,-2.5555387E-2,-1.2981868E0,-7.53661E-1,-1.2968286E0,-1.847718E-2,-1.4333824E0,-5.7901144E-3,-1.746428E-2,-1.3904984E0,-1.6203078E-2,-2.123254E-2,-2.5269935E-2,-2.6462695E-2,-2.0782558E-2],"categories":[],"categories_nodes":[],"categories_segments":[],"categories_sizes":[],"default_left":[0,0,0,0,0,0,0,0,0,0,0,0,0,0,0,0,0,0,0,0,0,0,0,0,0,0,0,0,0,0,0,0,0,0,0,0,0,0,0,0,0],"id":19,"left_children":[1,3,5,7,9,-1,-1,11,-1,13,15,17,-1,-1,-1,-1,-1,-1,19,21,23,-1,-1,25,-1,27,29,-1,31,33,35,-1,37,-1,-1,39,-1,-1,-1,-1,-1],"loss_changes":[5.3627945E1,1.0313843E1,1.3339292E1,1.8569946E0,8.81955E0,0E0,0E0,1.846283E0,0E0,2.672449E0,1.2555162E1,2.160904E0,0E0,0E0,0E0,0E0,0E0,0E0,2.0595245E0,1.2750359E0,1.7719574E0,0E0,0E0,1.533905E0,0E0,5.7743835E-1,4.6203003E0,0E0,8.875046E-1,2.8789043E0,1.4117813E0,0E0,3.1980896E-1,0E0,0E0,1.0191803E0,0E0,0E0,0E0,0E0,0E0],"parents":[2147483647,0,0,1,1,2,2,3,3,4,4,7,7,9,9,10,10,11,11,18,18,19,19,20,20,23,23,25,25,26,26,28,28,29,29,30,30,32,32,35,35],"right_children":[2,4,6,8,10,-1,-1,12,-1,14,16,18,-1,-1,-1,-1,-1,-1,20,22,24,-1,-1,26,-1,28,30,-1,32,34,36,-1,38,-1,-1,40,-1,-1,-1,-1,-1],"split_conditions":[3.4024355E-1,4.888471E-1,1.0179177E-1,2.8201312E-2,2.0449246E-1,-4.677606E-3,2.0322246E-2,4.5866713E-1,-2.2863077E-2,6.723654E-1,4.2305693E-2,3.3013232E-2,-1.1415363E-2,-1.1045369E-2,-2.2387935E-2,-1.5560583E-2,8.025199E-3,-1.1196051E-2,7.96667E-3,1.1897545E-1,6.779963E-2,-1.8485239E-2,-1.0887273E-2,3.729431E-1,-1.3553903E-2,7.190362E-2,5.311237E-1,-2.5555387E-2,1.3464394E-1,4.0407255E-2,5.705178E-1,-1.847718E-2,1.872317E-1,-5.7901144E-3,-1.746428E-2,4.1883028E-1,-1.6203078E-2,-2.123254E-2,-2.5269935E-2,-2.6462695E-2,-2.0782558E-2],"split_indices":[8,9,18,24,7,0,0,9,0,10,25,13,0,0,0,0,0,0,16,19,15,0,0,9,0,12,10,0,11,15,17,0,3,0,0,9,0,0,0,0,0],"split_type":[0,0,0,0,0,0,0,0,0,0,0,0,0,0,0,0,0,0,0,0,0,0,0,0,0,0,0,0,0,0,0,0,0,0,0,0,0,0,0,0,0],"sum_hessian":[2.7388553E2,2.5073492E2,2.3150606E1,2.0418094E2,4.6553974E1,1.00691E1,1.3081507E1,1.8425314E2,1.9927809E1,2.230697E1,2.4247004E1,1.7214311E2,1.2110019E1,1.0600549E1,1.1706421E1,1.1099384E1,1.3147619E1,1.1565533E1,1.6057759E2,2.4263666E1,1.3631392E2,1.0336607E1,1.3927058E1,1.2330313E2,1.3010794E1,5.0481937E1,7.282119E1,1.0513902E1,3.9968037E1,2.2906328E1,4.9914864E1,1.791185E1,2.2056187E1,1.0124621E1,1.2781706E1,3.8163864E1,1.17509985E1,1.0189676E1,1.1866509E1,1.2923494E1,2.524037E1],"tree_param":{"num_deleted":"0","num_feature":"27","num_nodes":"41","size_leaf_vector":"0"}},{"base_weights":[-9.35764E-1,-1.0997691E0,4.36591E-1,-1.180317E0,-5.38153E-1,-1.8081004E-2,2.1144625E-2,-9.2241067E-1,-1.2255985E0,-1.5065617E-2,-3.2312656E-3,-1.2651266E0,-4.0702918E-3,-1.2536625E0,-1.253815E-2,-2.4768027E-2,-1.6536685E-2,-1.1958208E0,-1.4599674E0,-1.3726288E0,-1.079269E0,-2.650563E-2,-1.3476851E0,-1.457005E0,-1.7308487E-2,-7.500186E-1,-1.1894387E0,-2.4635078E-2,-1.8920764E-2,-1.3039833E0,-2.6874583E-2,-1.7470667E-2,-6.9629685E-3,-9.3239284E-1,-1.3835086E0,-2.400883E-2,-1.860033E-2,-8.752724E-3,-2.0509163E-2,-1.7633427E-2,-1.5324446E0,-2.3188623E-2,-2.6611751E-2],"categories":[],"categories_nodes":[],"categories_segments":[],"categories_sizes":[],"default_left":[0,0,0,0,0,0,0,0,0,0,0,0,0,0,0,0,0,0,0,0,0,0,0,0,0,0,0,0,0,0,0,0,0,0,0,0,0,0,0,0,0,0,0],"id":20,"left_children":[1,3,5,7,9,-1,-1,11,13,-1,-1,15,-1,17,-1,-1,-1,19,21,23,25,-1,27,29,-1,31,33,-1,-1,35,-1,-1,-1,37,39,-1,-1,-1,-1,-1,41,-1,-1],"loss_changes":[6.146971E1,1.1026215E1,3.8617096E1,2.480011E0,3.9972515E0,0E0,0E0,7.3468685E0,2.3208008E0,0E0,0E0,1.3278847E0,0E0,2.0260315E0,0E0,0E0,0E0,2.7390442E0,6.692276E-1,1.3864136E0,2.9100037E0,0E0,6.601906E-1,1.1895065E0,0E0,2.0822763E0,2.996315E0,0E0,0E0,6.1868286E-1,0E0,0E0,0E0,3.3189316E0,1.5402908E0,0E0,0E0,0E0,0E0,0E0,2.3546219E-1,0E0,0E0],"parents":[2147483647,0,0,1,1,2,2,3,3,4,4,7,7,8,8,11,11,13,13,17,17,18,18,19,19,20,20,22,22,23,23,25,25,26,26,29,29,33,33,34,34,40,40],"right_children":[2,4,6,8,10,-1,-1,12,14,-1,-1,16,-1,18,-1,-1,-1,20,22,24,26,-1,28,30,-1,32,34,-1,-1,36,-1,-1,-1,38,40,-1,-1,-1,-1,-1,42,-1,-1],"split_conditions":[5.895499E-1,8.926613E-2,4.606868E-2,9.20132E-2,2.913112E-2,-1.8081004E-2,2.1144625E-2,2.965717E-1,4.3880716E-2,-1.5065617E-2,-3.2312656E-3,1.188068E-1,-4.0702918E-3,5.1037985E-1,-1.253815E-2,-2.4768027E-2,-1.6536685E-2,1.48824295E-2,2.244511E-1,2.2544152E-1,1.7825942E-2,-2.650563E-2,2.660288E-1,1.4116879E-1,-1.7308487E-2,2.1841139E-2,2.5265196E-2,-2.4635078E-2,-1.8920764E-2,1.0767912E-1,-2.6874583E-2,-1.7470667E-2,-6.9629685E-3,2.0990576E-1,1.6462068E-1,-2.400883E-2,-1.860033E-2,-8.752724E-3,-2.0509163E-2,-1.7633427E-2,2.0848E-1,-2.3188623E-2,-2.6611751E-2],"split_indices":[6,16,15,8,21,0,0,6,24,0,0,11,0,6,0,0,0,24,19,19,24,0,8,12,0,16,16,0,0,11,0,0,0,13,12,0,0,0,0,0,7,0,0],"split_type":[0,0,0,0,0,0,0,0,0,0,0,0,0,0,0,0,0,0,0,0,0,0,0,0,0,0,0,0,0,0,0,0,0,0,0,0,0,0,0,0,0,0,0],"sum_hessian":[2.7309415E2,2.4394504E2,2.914911E1,2.1333827E2,3.0606768E1,1.0412252E1,1.8736858E1,3.1879868E1,1.814584E2,1.4365415E1,1.6241354E1,2.111979E1,1.0760078E1,1.7096729E2,1.0491129E1,1.0571143E1,1.0548645E1,1.3354974E2,3.741753E1,5.3041138E1,8.050861E1,1.5239645E1,2.2177885E1,4.175905E1,1.1282087E1,2.0196918E1,6.0311695E1,1.1971053E1,1.0206832E1,2.3069984E1,1.8689064E1,1.0151272E1,1.0045646E1,2.5957867E1,3.435383E1,1.1479885E1,1.15901E1,1.1670337E1,1.428753E1,1.1314083E1,2.3039745E1,1.0695487E1,1.2344259E1],"tree_param":{"num_deleted":"0","num_feature":"27","num_nodes":"43","size_leaf_vector":"0"}},{"base_weights":[-9.204748E-1,-1.119321E0,1.4560993E-1,-1.1733152E0,-5.9227524E-3,-1.9583458E-2,1.1008219E0,-8.958816E-1,-1.2234695E0,1.2557918E-2,2.5149416E-2,-1.828919E-2,-9.111986E-3,-1.3444497E-2,-1.2582437E0,-1.2838832E0,-1.4329256E-2,-1.4555062E0,-1.2332916E0,-1.341895E0,-2.8128244E-2,-1.1170003E0,-1.3883991E0,-2.4868324E-2,-1.8289443E-2,-1.2667598E0,-8.651071E-1,-1.1976607E0,-1.584785E0,-1.6638316E-2,-1.4268296E0,-8.3188275E-3,-2.07206E-2,-2.292666E-2,-1.720531E-2,-2.801865E-2,-2.4167236E-2,-2.5673622E-2,-2.048E-2],"categories":[],"categories_nodes":[],"categories_segments":[],"categories_sizes":[],"default_left":[0,0,0,0,0,0,0,0,0,0,0,0,0,0,0,0,0,0,0,0,0,0,0,0,0,0,0,0,0,0,0,0,0,0,0,0,0,0,0],"id":21,"left_children":[1,3,5,7,-1,-1,9,11,13,-1,-1,-1,-1,-1,15,17,-1,19,21,23,-1,25,27,-1,-1,29,31,33,35,-1,37,-1,-1,-1,-1,-1,-1,-1,-1],"loss_changes":[5.829065E1,9.459137E0,5.55138E1,2.998291E0,0E0,0E0,3.67066E0,2.4991436E0,2.538025E0,0E0,0E0,0E0,0E0,0E0,1.6337891E0,1.3563538E0,0E0,1.07267E0,2.1862793E0,9.979172E-1,0E0,2.6184692E0,1.941742E0,0E0,0E0,1.7216415E0,3.724945E0,7.748413E-1,3.3631134E-1,0E0,6.5114975E-1,0E0,0E0,0E0,0E0,0E0,0E0,0E0,0E0],"parents":[2147483647,0,0,1,1,2,2,3,3,6,6,7,7,8,8,14,14,15,15,17,17,18,18,19,19,21,21,22,22,25,25,26,26,27,27,28,28,30,30],"right_children":[2,4,6,8,-1,-1,10,12,14,-1,-1,-1,-1,-1,16,18,-1,20,22,24,-1,26,28,-1,-1,30,32,34,36,-1,38,-1,-1,-1,-1,-1,-1,-1,-1],"split_conditions":[5.651564E-1,1.2526631E-1,2.404284E-2,6.184548E-5,-5.9227524E-3,-1.9583458E-2,3.7322393E-1,1.0670796E-1,7.96667E-3,1.2557918E-2,2.5149416E-2,-1.828919E-2,-9.111986E-3,-1.3444497E-2,1.6321887E-1,3.459309E-1,-1.4329256E-2,1.1672999E-1,8.1828415E-2,2.3951569E-1,-2.8128244E-2,1.7046969E-1,4.8811394E-1,-2.4868324E-2,-1.8289443E-2,2.506329E-1,5E-1,2.2433294E-1,4.6756485E-1,-1.6638316E-2,3.0014837E-2,-8.3188275E-3,-2.07206E-2,-2.292666E-2,-1.720531E-2,-2.801865E-2,-2.4167236E-2,-2.5673622E-2,-2.048E-2],"split_indices":[6,16,22,14,0,0,12,19,16,0,0,0,0,0,18,9,0,8,18,3,0,7,6,0,0,3,5,7,9,0,16,0,0,0,0,0,0,0,0],"split_type":[0,0,0,0,0,0,0,0,0,0,0,0,0,0,0,0,0,0,0,0,0,0,0,0,0,0,0,0,0,0,0,0,0,0,0,0,0,0,0],"sum_hessian":[2.749483E2,2.3173085E2,4.321745E1,2.1628955E2,1.5441297E1,1.7946491E1,2.5270958E1,3.3130566E1,1.8315898E2,1.4400664E1,1.0870295E1,1.9913586E1,1.3216982E1,1.4654187E1,1.6850479E2,1.5786237E2,1.0642431E1,3.5916576E1,1.21945786E2,2.5205952E1,1.0710627E1,6.9713005E1,5.223278E1,1.38758745E1,1.1330077E1,4.37067E1,2.6006304E1,2.651114E1,2.572164E1,1.715976E1,2.654694E1,1.3831337E1,1.2174967E1,1.0891463E1,1.5619678E1,1.1424235E1,1.4297404E1,1.4405919E1,1.214102E1],"tree_param":{"num_deleted":"0","num_feature":"27","num_nodes":"39","size_leaf_vector":"0"}},{"base_weights":[-8.4041935E-1,-1.0294105E0,1.03395194E-1,-1.0645188E0,-8.0777155E-3,-1.0235928E0,1.0571686E0,-7.0310843E-1,-1.1122314E0,-2.25373E-2,-1.0664355E-2,9.423114E-3,2.3472596E-2,-1.71603E-2,-7.419777E-3,-1.0608201E0,-1.2945529E0,-1.1084216E0,-9.8754745E-3,-2.5036404E-2,-1.1491588E0,-1.3087099E0,-1.0271409E0,-2.2931876E-2,-1.4707751E-2,-1.461746E0,-1.6659824E-2,-7.4273753E-1,-1.1069971E0,-2.1664375E-2,-2.6669092E-2,-6.6398247E-3,-1.7671304E-2,-1.2252809E0,-8.396547E-1,-1.0176451E0,-1.4954503E0,-8.473264E-3,-1.9193543E-2,-2.2491785E-2,-1.1542878E-2,-2.5697041E-2,-2.2936614E-2],"categories":[],"categories_nodes":[],"categories_segments":[],"categories_sizes":[],"default_left":[0,0,0,0,0,0,0,0,0,0,0,0,0,0,0,0,0,0,0,0,0,0,0,0,0,0,0,0,0,0,0,0,0,0,0,0,0,0,0,0,0,0,0],"id":22,"left_children":[1,3,5,7,-1,9,11,13,15,-1,-1,-1,-1,-1,-1,17,19,21,-1,-1,23,25,27,-1,-1,29,-1,31,33,-1,-1,-1,-1,35,37,39,41,-1,-1,-1,-1,-1,-1],"loss_changes":[4.808232E1,4.20813E0,4.8330296E1,3.624054E0,0E0,2.7111683E0,4.4347305E0,2.1186457E0,1.7322235E0,0E0,0E0,0E0,0E0,0E0,0E0,3.1438293E0,1.404686E0,2.1280823E0,0E0,0E0,1.6001129E0,1.6622009E0,2.1147537E0,0E0,0E0,5.579262E-1,0E0,2.3331242E0,2.2982254E0,0E0,0E0,0E0,0E0,2.8257904E0,2.404214E0,3.1889668E0,1.4025116E-1,0E0,0E0,0E0,0E0,0E0,0E0],"parents":[2147483647,0,0,1,1,2,2,3,3,5,5,6,6,7,7,8,8,15,15,16,16,17,17,20,20,21,21,22,22,25,25,27,27,28,28,33,33,34,34,35,35,36,36],"right_children":[2,4,6,8,-1,10,12,14,16,-1,-1,-1,-1,-1,-1,18,20,22,-1,-1,24,26,28,-1,-1,30,-1,32,34,-1,-1,-1,-1,36,38,40,42,-1,-1,-1,-1,-1,-1],"split_conditions":[4.4173032E-2,1.3626152E-1,2.426969E-2,5.958598E-2,-8.0777155E-3,7.077973E-2,2.6240823E-1,7.522018E-3,5.0370556E-1,-2.25373E-2,-1.0664355E-2,9.423114E-3,2.3472596E-2,-1.71603E-2,-7.419777E-3,5.9876066E-1,2.244511E-1,1.1165582E-1,-9.8754745E-3,-2.5036404E-2,5.255563E-1,1.6733683E-3,1.613892E-1,-2.2931876E-2,-1.4707751E-2,1.6616134E-2,-1.6659824E-2,1.4577025E-1,2.8588617E-1,-2.1664375E-2,-2.6669092E-2,-6.6398247E-3,-1.7671304E-2,8.018486E-2,2.5927854E-1,1.3467459E-2,4.483151E-1,-8.473264E-3,-1.9193543E-2,-2.2491785E-2,-1.1542878E-2,-2.5697041E-2,-2.2936614E-2],"split_indices":[21,16,22,13,0,18,13,24,6,0,0,0,0,0,0,10,19,13,0,0,17,26,12,0,0,16,0,13,13,0,0,0,0,18,11,22,6,0,0,0,0,0,0],"split_type":[0,0,0,0,0,0,0,0,0,0,0,0,0,0,0,0,0,0,0,0,0,0,0,0,0,0,0,0,0,0,0,0,0,0,0,0,0,0,0,0,0,0,0],"sum_hessian":[2.695334E2,2.2457059E2,4.49628E1,2.1072662E2,1.3843954E1,2.0607359E1,2.4355438E1,2.4588287E1,1.8613834E2,1.0496874E1,1.0110485E1,1.0767898E1,1.3587541E1,1.024674E1,1.4341547E1,1.4521852E2,4.0919815E1,1.3148471E2,1.3733809E1,1.5483825E1,2.5435991E1,3.79369E1,9.354781E1,1.2544019E1,1.2891973E1,2.4778282E1,1.3158619E1,2.0523006E1,7.302481E1,1.3866434E1,1.0911849E1,1.0317517E1,1.0205489E1,5.0611984E1,2.2412823E1,2.862911E1,2.1982876E1,1.1467397E1,1.0945426E1,1.3265644E1,1.5363466E1,1.1799772E1,1.0183104E1],"tree_param":{"num_deleted":"0","num_feature":"27","num_nodes":"43","size_leaf_vector":"0"}},{"base_weights":[-8.7347066E-1,-1.0618972E0,2.1417227E-1,-1.1163244E0,-5.7842475E-1,-1.6979167E-2,1.1903449E0,-1.0455748E0,-1.2743123E0,-1.3326216E-2,-4.1566314E-3,1.615004E-2,2.3521524E-2,-1.131254E0,-7.5480646E-1,-1.4677846E-2,-1.345099E0,-1.2012143E0,-8.510456E-3,-5.931499E-3,-1.7939888E-2,-2.607014E-2,-1.2677506E0,-1.1333988E0,-1.4734929E0,-1.4713103E0,-1.3980521E-2,-2.6051888E-2,-1.0640916E0,-2.5862744E-2,-2.226063E-2,-2.1194117E-2,-2.5651718E-2,-1.115051E-2,-1.1386281E0,-1.0140371E0,-1.3218204E0,-8.6691535E-1,-2.180506E-2,-2.571534E-2,-1.8448582E-2,-8.179513E-3,-1.8754434E-2],"categories":[],"categories_nodes":[],"categories_segments":[],"categories_sizes":[],"default_left":[0,0,0,0,0,0,0,0,0,0,0,0,0,0,0,0,0,0,0,0,0,0,0,0,0,0,0,0,0,0,0,0,0,0,0,0,0,0,0,0,0,0,0],"id":23,"left_children":[1,3,5,7,9,-1,11,13,15,-1,-1,-1,-1,17,19,-1,21,23,-1,-1,-1,-1,25,27,29,31,-1,-1,33,-1,-1,-1,-1,-1,35,37,39,41,-1,-1,-1,-1,-1],"loss_changes":[5.673726E1,6.1998596E0,5.0027725E1,2.3580627E0,1.8322916E0,0E0,1.144207E0,3.6396332E0,1.7311554E0,0E0,0E0,0E0,0E0,4.8202515E0,4.481949E0,0E0,1.0567245E0,1.8601837E0,0E0,0E0,0E0,0E0,3.5233612E0,2.5872498E0,2.3027802E-1,4.7166443E-1,0E0,0E0,1.999054E0,0E0,0E0,0E0,0E0,0E0,1.3366852E0,1.651371E0,1.1471252E0,2.4797E0,0E0,0E0,0E0,0E0,0E0],"parents":[2147483647,0,0,1,1,2,2,3,3,4,4,6,6,7,7,8,8,13,13,14,14,16,16,17,17,22,22,23,23,24,24,25,25,28,28,34,34,35,35,36,36,37,37],"right_children":[2,4,6,8,10,-1,12,14,16,-1,-1,-1,-1,18,20,-1,22,24,-1,-1,-1,-1,26,28,30,32,-1,-1,34,-1,-1,-1,-1,-1,36,38,40,42,-1,-1,-1,-1,-1],"split_conditions":[2.0037435E-1,9.71686E-2,2.1713857E-1,1.4424524E-1,5.4863805E-1,-1.6979167E-2,3.6831257E-1,3.4531415E-2,4.302802E-1,-1.3326216E-2,-4.1566314E-3,1.615004E-2,2.3521524E-2,6.135854E-1,2.8494406E-3,-1.4677846E-2,5.9021857E-2,5.3527486E-1,-8.510456E-3,-5.931499E-3,-1.7939888E-2,-2.607014E-2,4.888471E-1,2.8840685E-1,5.752963E-4,8.453818E-2,-1.3980521E-2,-2.6051888E-2,4.4663614E-4,-2.5862744E-2,-2.226063E-2,-2.1194117E-2,-2.5651718E-2,-1.115051E-2,5E-1,1.829068E-1,1.2492648E-1,4.4399503E-1,-2.180506E-2,-2.571534E-2,-1.8448582E-2,-8.179513E-3,-1.8754434E-2],"split_indices":[20,16,7,20,10,0,8,16,9,0,0,0,0,17,26,0,18,17,0,0,0,0,9,17,26,18,0,0,26,0,0,0,0,0,5,7,12,17,0,0,0,0,0],"split_type":[0,0,0,0,0,0,0,0,0,0,0,0,0,0,0,0,0,0,0,0,0,0,0,0,0,0,0,0,0,0,0,0,0,0,0,0,0,0,0,0,0,0,0],"sum_hessian":[2.768251E2,2.3595284E2,4.0872272E1,2.120681E2,2.3884735E1,1.7889025E1,2.2983248E1,1.4649762E2,6.557049E1,1.3768908E1,1.0115828E1,1.2738677E1,1.0244572E1,1.131407E2,3.3356922E1,1.041122E1,5.5159267E1,1.0149424E2,1.164646E1,1.5599317E1,1.7757607E1,1.2967494E1,4.2191772E1,8.127169E1,2.0222546E1,2.8223484E1,1.3968287E1,1.0594834E1,7.067686E1,1.0098435E1,1.012411E1,1.0299803E1,1.7923681E1,1.1568157E1,5.9108704E1,3.519873E1,2.3909971E1,2.4151403E1,1.1047328E1,1.0313543E1,1.3596429E1,1.0506539E1,1.3644863E1],"tree_param":{"num_deleted":"0","num_feature":"27","num_nodes":"43","size_leaf_vector":"0"}},{"base_weights":[-8.835881E-1,-1.0822294E0,9.1674924E-2,-9.283498E-3,-1.1263356E0,-1.9752396E-2,9.545062E-1,-1.0987661E0,-2.393579E-2,8.289055E-3,2.0394152E-2,-1.139845E0,-1.071091E-2,-1.1045055E0,-1.3623861E0,-1.1513355E0,-8.46043E-1,-2.4162617E-2,-1.9716388E-2,-1.1040698E0,-2.3041919E-2,-1.9704191E-2,-8.232734E-3,-2.400974E-2,-1.0621433E0,-1.0724799E-2,-1.1126721E0,-1.2499427E0,-9.162306E-1,-2.1708874E-2,-1.519373E-2,-7.0495857E-3,-1.8032173E-2],"categories":[],"categories_nodes":[],"categories_segments":[],"categories_sizes":[],"default_left":[0,0,0,0,0,0,0,0,0,0,0,0,0,0,0,0,0,0,0,0,0,0,0,0,0,0,0,0,0,0,0,0,0],"id":24,"left_children":[1,3,5,-1,7,-1,9,11,-1,-1,-1,13,-1,15,17,19,21,-1,-1,23,-1,-1,-1,-1,25,-1,27,29,31,-1,-1,-1,-1],"loss_changes":[5.2717117E1,5.1135254E0,5.1684555E1,0E0,1.9338379E0,0E0,3.631918E0,3.493637E0,0E0,0E0,0E0,1.3725128E0,0E0,1.8299713E0,4.2406464E-1,1.5659943E0,2.8683815E0,0E0,0E0,1.658371E0,0E0,0E0,0E0,0E0,1.9927902E0,0E0,2.3316193E0,1.2847977E0,3.248249E0,0E0,0E0,0E0,0E0],"parents":[2147483647,0,0,1,1,2,2,4,4,6,6,7,7,11,11,13,13,14,14,15,15,16,16,19,19,24,24,26,26,27,27,28,28],"right_children":[2,4,6,-1,8,-1,10,12,-1,-1,-1,14,-1,16,18,20,22,-1,-1,24,-1,-1,-1,-1,26,-1,28,30,32,-1,-1,-1,-1],"split_conditions":[5.5825776E-1,7.428855E-2,2.0664287E-1,-9.283498E-3,3.908908E-1,-1.9752396E-2,5.0905984E-2,3.1377032E-1,-2.393579E-2,8.289055E-3,2.0394152E-2,2.4067566E-1,-1.071091E-2,2.0640461E-1,2.6019582E-1,2.2310734E-1,1.6716088E-1,-2.4162617E-2,-1.9716388E-2,8.766283E-2,-2.3041919E-2,-1.9704191E-2,-8.232734E-3,-2.400974E-2,6.623618E-2,-1.0724799E-2,3.8374332E-1,1.705566E-1,4.3243876E-1,-2.1708874E-2,-1.519373E-2,-7.0495857E-3,-1.8032173E-2],"split_indices":[6,11,7,0,13,0,24,13,0,0,0,8,0,8,8,13,13,0,0,11,0,0,0,0,13,0,9,13,6,0,0,0,0],"split_type":[0,0,0,0,0,0,0,0,0,0,0,0,0,0,0,0,0,0,0,0,0,0,0,0,0,0,0,0,0,0,0,0,0],"sum_hessian":[2.720927E2,2.2605528E2,4.6037422E1,1.7881588E1,2.0817369E2,1.8353565E1,2.7683857E1,1.9254544E2,1.5628251E1,1.0998431E1,1.6685427E1,1.7619183E2,1.6353605E1,1.520675E2,2.412434E1,1.2872388E2,2.3343618E1,1.3723012E1,1.0401328E1,1.0891368E2,1.9810204E1,1.1355564E1,1.1988054E1,1.1177813E1,9.773586E1,1.0842609E1,8.689326E1,5.113426E1,3.5758995E1,4.094933E1,1.0184932E1,1.0001005E1,2.575799E1],"tree_param":{"num_deleted":"0","num_feature":"27","num_nodes":"33","size_leaf_vector":"0"}},{"base_weights":[-9.4069433E-1,-1.1386125E0,7.064911E-2,-6.9959094E-3,-1.1708089E0,-1.2469896E0,1.1053439E0,-1.1980295E0,-9.684494E-3,-2.5469372E-2,-1.5077107E-2,1.077272E-2,2.2701805E-2,-1.3541843E-2,-1.2316191E0,-1.0189741E0,-1.2784177E0,-2.2324191E-2,-8.2553273E-1,-1.1825893E0,-1.368196E0,-8.626559E-3,-1.845988E-2,-1.4186168E0,-9.940799E-1,-2.7343333E-2,-1.3175316E0,-1.5567131E0,-1.8761E-2,-2.1338878E-2,-7.9153264E-1,-1.2178711E0,-1.5362866E0,-2.3779672E-2,-2.6673378E-2,-8.8899685E-3,-1.8912418E-2,-2.3332326E-2,-1.0777078E0,-2.8172534E-2,-2.1283355E-2,-1.3897872E-2,-2.0091739E-2],"categories":[],"categories_nodes":[],"categories_segments":[],"categories_sizes":[],"default_left":[0,0,0,0,0,0,0,0,0,0,0,0,0,0,0,0,0,0,0,0,0,0,0,0,0,0,0,0,0,0,0,0,0,0,0,0,0,0,0,0,0,0,0],"id":25,"left_children":[1,3,5,-1,7,9,11,13,-1,-1,-1,-1,-1,-1,15,17,19,-1,21,23,25,-1,-1,27,29,-1,31,33,-1,-1,35,37,39,-1,-1,-1,-1,-1,41,-1,-1,-1,-1],"loss_changes":[5.6689804E1,5.4074097E0,6.3183628E1,0E0,3.553894E0,2.0496197E0,3.28405E0,2.669464E0,0E0,0E0,0E0,0E0,0E0,0E0,1.9610596E0,2.3975449E0,1.384491E0,0E0,2.0766268E0,3.4857407E0,1.2848511E0,0E0,0E0,1.2861328E0,2.7572632E0,0E0,1.5545044E0,1.6133118E-1,0E0,0E0,2.3957844E0,1.4484329E0,9.7434235E-1,0E0,0E0,0E0,0E0,0E0,1.0171204E0,0E0,0E0,0E0,0E0],"parents":[2147483647,0,0,1,1,2,2,4,4,5,5,6,6,7,7,14,14,15,15,16,16,18,18,19,19,20,20,23,23,24,24,26,26,27,27,30,30,31,31,32,32,38,38],"right_children":[2,4,6,-1,8,10,12,14,-1,-1,-1,-1,-1,-1,16,18,20,-1,22,24,26,-1,-1,28,30,-1,32,34,-1,-1,36,38,40,-1,-1,-1,-1,-1,42,-1,-1,-1,-1],"split_conditions":[5.5825776E-1,6.121395E-2,2.404284E-2,-6.9959094E-3,1.1161434E-2,1.8511409E-2,2.7905798E-1,5.958598E-2,-9.684494E-3,-2.5469372E-2,-1.5077107E-2,1.077272E-2,2.2701805E-2,-1.3541843E-2,1.0832853E-2,1.1069022E-1,5.396313E-1,-2.2324191E-2,1.8705037E-1,3.9240506E-1,1.3304533E-2,-8.626559E-3,-1.845988E-2,2.0992464E-1,4.691107E-1,-2.7343333E-2,2.426969E-2,1.1495239E-1,-1.8761E-2,-2.1338878E-2,4.1416776E-1,1.7224447E-1,5.2386874E-1,-2.3779672E-2,-2.6673378E-2,-8.8899685E-3,-1.8912418E-2,-2.3332326E-2,4.177215E-1,-2.8172534E-2,-2.1283355E-2,-1.3897872E-2,-2.0091739E-2],"split_indices":[6,11,23,0,26,22,19,13,0,0,0,0,0,0,22,13,10,0,13,4,23,0,0,19,10,0,22,13,0,0,9,13,6,0,0,0,0,0,4,0,0,0,0],"split_type":[0,0,0,0,0,0,0,0,0,0,0,0,0,0,0,0,0,0,0,0,0,0,0,0,0,0,0,0,0,0,0,0,0,0,0,0,0,0,0,0,0,0,0],"sum_hessian":[2.8318933E2,2.3684451E2,4.6344807E1,1.027824E1,2.2656627E2,2.0382914E1,2.5961893E1,2.1636392E2,1.0202349E1,1.0362402E1,1.0020512E1,1.0128127E1,1.5833767E1,1.807326E1,1.9829066E2,3.5788303E1,1.6250237E2,1.2776207E1,2.3012094E1,7.863141E1,8.387095E1,1.1658568E1,1.1353525E1,3.490259E1,4.3728817E1,1.1895044E1,7.197591E1,2.3073717E1,1.1828875E1,1.7184303E1,2.6544512E1,4.946495E1,2.2510956E1,1.0002067E1,1.30716505E1,1.5862237E1,1.0682276E1,1.97374E1,2.9727552E1,1.2423248E1,1.0087708E1,1.1972649E1,1.7754906E1],"tree_param":{"num_deleted":"0","num_feature":"27","num_nodes":"43","size_leaf_vector":"0"}},{"base_weights":[-9.1184175E-1,-1.0992415E0,9.525481E-2,-1.1490912E0,-7.3701893E-3,-1.8030075E-2,1.0643528E0,-1.0091778E0,-1.2219876E0,1.0523008E-2,2.373839E-2,-1.1163049E0,-8.683751E-3,-1.0875138E0,-1.3335584E0,-1.1916713E0,-1.2304729E-2,-1.3131886E0,-8.478342E-1,-2.5750743E-2,-1.2677912E0,-1.0254449E0,-1.3059043E0,-2.5973571E-2,-1.8484065E-2,-1.0260125E-2,-1.9959977E-2,-2.5134882E-2,-1.1637063E0,-2.1389974E-2,-1.2074903E-2,-2.5999952E-2,-1.838774E-2,-1.5911674E-2,-1.2928976E0,-2.4023272E-2,-1.8467506E-2],"categories":[],"categories_nodes":[],"categories_segments":[],"categories_sizes":[],"default_left":[0,0,0,0,0,0,0,0,0,0,0,0,0,0,0,0,0,0,0,0,0,0,0,0,0,0,0,0,0,0,0,0,0,0,0,0,0],"id":26,"left_children":[1,3,5,7,-1,-1,9,11,13,-1,-1,15,-1,17,19,21,-1,23,25,-1,27,29,31,-1,-1,-1,-1,-1,33,-1,-1,-1,-1,-1,35,-1,-1],"loss_changes":[5.1463257E1,7.4166565E0,4.970971E1,2.1651611E0,0E0,0E0,3.8562927E0,3.7322311E0,2.0922546E0,0E0,0E0,1.623024E0,0E0,3.4311295E0,1.2112732E0,9.264679E-1,0E0,1.633194E0,2.528366E0,0E0,1.6901627E0,1.6286488E0,1.4937172E0,0E0,0E0,0E0,0E0,0E0,1.0556984E0,0E0,0E0,0E0,0E0,0E0,7.346306E-1,0E0,0E0],"parents":[2147483647,0,0,1,1,2,2,3,3,6,6,7,7,8,8,11,11,13,13,14,14,15,15,17,17,18,18,20,20,21,21,22,22,28,28,34,34],"right_children":[2,4,6,8,-1,-1,10,12,14,-1,-1,16,-1,18,20,22,-1,24,26,-1,28,30,32,-1,-1,-1,-1,-1,34,-1,-1,-1,-1,-1,36,-1,-1],"split_conditions":[2.0037435E-1,8.803191E-3,2.1713857E-1,2.0655624E-4,-7.3701893E-3,-1.8030075E-2,2.820647E-1,1.7069808E-1,5.2850705E-1,1.0523008E-2,2.373839E-2,1.6226497E-1,-8.683751E-3,2.286186E-1,3.6335053E-4,3.6683303E-1,-1.2304729E-2,1.7672001E-1,1.3990446E-3,-2.5750743E-2,5.575334E-1,4.0362406E-1,1.4105055E-2,-2.5973571E-2,-1.8484065E-2,-1.0260125E-2,-1.9959977E-2,-2.5134882E-2,2.6322022E-2,-2.1389974E-2,-1.2074903E-2,-2.5999952E-2,-1.838774E-2,-1.5911674E-2,2.7355552E-1,-2.4023272E-2,-1.8467506E-2],"split_indices":[20,26,7,14,0,0,13,7,10,0,0,11,0,3,14,6,0,13,14,0,10,10,24,0,0,0,0,0,24,0,0,0,0,0,19,0,0],"split_type":[0,0,0,0,0,0,0,0,0,0,0,0,0,0,0,0,0,0,0,0,0,0,0,0,0,0,0,0,0,0,0,0,0,0,0,0,0],"sum_hessian":[2.7265408E2,2.2988293E2,4.277115E1,2.1345265E2,1.6430279E1,1.911286E1,2.3658289E1,7.3141624E1,1.4031104E2,1.1385831E1,1.2272458E1,5.9728794E1,1.3412827E1,6.364673E1,7.666431E1,4.94442E1,1.0284598E1,3.2769657E1,3.087707E1,1.6299688E1,6.036462E1,2.015792E1,2.9286278E1,1.2947015E1,1.9822643E1,1.947119E1,1.1405879E1,1.672371E1,4.3640907E1,1.0100276E1,1.0057645E1,1.1295947E1,1.799033E1,1.7714182E1,2.5926727E1,1.2336373E1,1.3590353E1],"tree_param":{"num_deleted":"0","num_feature":"27","num_nodes":"37","size_leaf_vector":"0"}},{"base_weights":[-7.556188E-1,-8.9287853E-1,3.9214212E-1,-9.365155E-1,-4.4147717E-3,-1.3045361E-2,1.9352386E-2,-9.834111E-1,-4.876159E-3,-1.0062442E0,-1.0185482E-2,-9.3248034E-1,-1.2024024E0,-1.032161E0,-7.8270847E-1,-1.0815445E0,-1.3883853E0,-8.8817096E-1,-1.2539142E0,-4.3369406E-1,-9.830139E-1,-2.2131715E-2,-1.4582847E-2,-2.4337789E-2,-2.1011122E-2,-2.0709192E-2,-7.577622E-1,-1.3614632E0,-1.6650055E-2,-1.2897976E-2,-1.2804557E-3,-1.2145844E-2,-1.9560391E-2,-3.5931645E-3,-9.65806E-1,-2.4978608E-2,-1.8952662E-2,-1.8259687E-2,-1.1896553E-2],"categories":[],"categories_nodes":[],"categories_segments":[],"categories_sizes":[],"default_left":[0,0,0,0,0,0,0,0,0,0,0,0,0,0,0,0,0,0,0,0,0,0,0,0,0,0,0,0,0,0,0,0,0,0,0,0,0,0,0],"id":27,"left_children":[1,3,5,7,-1,-1,-1,9,-1,11,-1,13,15,17,19,21,23,25,27,29,31,-1,-1,-1,-1,-1,33,35,-1,-1,-1,-1,-1,-1,37,-1,-1,-1,-1],"loss_changes":[4.1367584E1,6.36467E0,2.6480812E1,6.549423E0,0E0,0E0,0E0,1.668045E0,0E0,2.765915E0,0E0,2.0730896E0,1.1654205E0,2.662407E0,3.8911743E0,1.6290817E0,1.992836E-1,2.5053864E0,8.179817E-1,2.5693152E0,1.809761E0,0E0,0E0,0E0,0E0,0E0,4.224615E0,7.478981E-1,0E0,0E0,0E0,0E0,0E0,0E0,9.755478E-1,0E0,0E0,0E0,0E0],"parents":[2147483647,0,0,1,1,2,2,3,3,7,7,9,9,11,11,12,12,13,13,14,14,15,15,16,16,17,17,18,18,19,19,20,20,26,26,27,27,34,34],"right_children":[2,4,6,8,-1,-1,-1,10,-1,12,-1,14,16,18,20,22,24,26,28,30,32,-1,-1,-1,-1,-1,34,36,-1,-1,-1,-1,-1,-1,38,-1,-1,-1,-1],"split_conditions":[5.895499E-1,5.6962025E-1,4.606868E-2,9.106325E-2,-4.4147717E-3,-1.3045361E-2,1.9352386E-2,5.5653477E-1,-4.876159E-3,4.8811394E-1,-1.0185482E-2,1.5108583E-2,9.020226E-2,1.4677529E-2,1.633152E-1,1.6951819E-1,5.5264123E-2,2.3839383E-1,1.9705394E-1,9.947535E-2,4.177215E-1,-2.2131715E-2,-1.4582847E-2,-2.4337789E-2,-2.1011122E-2,-2.0709192E-2,6.703026E-2,1.0995789E-1,-1.6650055E-2,-1.2897976E-2,-1.2804557E-3,-1.2145844E-2,-1.9560391E-2,-3.5931645E-3,1.8478256E-1,-2.4978608E-2,-1.8952662E-2,-1.8259687E-2,-1.1896553E-2],"split_indices":[6,4,15,16,0,0,0,6,0,6,0,24,18,25,12,13,15,6,11,11,4,0,0,0,0,0,13,20,0,0,0,0,0,0,19,0,0,0,0],"split_type":[0,0,0,0,0,0,0,0,0,0,0,0,0,0,0,0,0,0,0,0,0,0,0,0,0,0,0,0,0,0,0,0,0,0,0,0,0,0,0],"sum_hessian":[2.6256534E2,2.345235E2,2.8041828E1,2.1915358E2,1.5369922E1,1.1204694E1,1.6837133E1,2.0413867E2,1.5014908E1,1.9194064E2,1.2198032E1,1.3950716E2,5.243348E1,8.3739075E1,5.576808E1,3.1798414E1,2.0635065E1,5.0786266E1,3.295281E1,2.034511E1,3.5422974E1,1.2962159E1,1.8836256E1,1.0287338E1,1.0347727E1,1.29675455E1,3.781872E1,2.2572433E1,1.0380377E1,1.0153634E1,1.0191477E1,1.6765135E1,1.8657837E1,1.0557017E1,2.7261705E1,1.2277554E1,1.0294879E1,1.659271E1,1.0668996E1],"tree_param":{"num_deleted":"0","num_feature":"27","num_nodes":"39","size_leaf_vector":"0"}},{"base_weights":[-9.3469566E-1,-1.1328101E0,3.8671236E-2,-1.1754789E0,-7.7342093E-3,-1.2063684E0,1.0778373E0,-8.79991E-1,-1.2157722E0,-2.3987537E-2,-1.4992119E-2,1.0588373E-2,2.2154793E-2,-2.0303825E-2,-1.0643895E-2,-9.416282E-1,-1.2561798E0,-2.1405956E-2,-9.415065E-3,-1.1806757E0,-1.340922E0,-1.1045928E0,-1.383073E0,-1.4725769E0,-1.2256088E0,-1.260049E0,-9.353877E-1,-1.8928953E-2,-2.526935E-2,-2.1853043E-2,-2.607946E-2,-1.565466E-2,-1.3512979E0,-1.6519733E-2,-2.549008E-2,-8.211134E-3,-1.9578358E-2,-1.9412037E-2,-2.6541658E-2],"categories":[],"categories_nodes":[],"categories_segments":[],"categories_sizes":[],"default_left":[0,0,0,0,0,0,0,0,0,0,0,0,0,0,0,0,0,0,0,0,0,0,0,0,0,0,0,0,0,0,0,0,0,0,0,0,0,0,0],"id":28,"left_children":[1,3,5,7,-1,9,11,13,15,-1,-1,-1,-1,-1,-1,17,19,-1,-1,21,23,25,27,29,31,33,35,-1,-1,-1,-1,-1,37,-1,-1,-1,-1,-1,-1],"loss_changes":[5.3624588E1,6.4897156E0,6.083116E1,2.5722656E0,0E0,1.6059666E0,3.0578918E0,2.150011E0,2.103302E0,0E0,0E0,0E0,0E0,0E0,0E0,3.2977695E0,1.051178E0,0E0,0E0,1.3422012E0,1.1753082E0,1.6715622E0,8.696289E-1,5.95726E-1,1.3904648E0,2.4778748E0,3.4849396E0,0E0,0E0,0E0,0E0,0E0,1.2505188E0,0E0,0E0,0E0,0E0,0E0,0E0],"parents":[2147483647,0,0,1,1,2,2,3,3,5,5,6,6,7,7,8,8,15,15,16,16,19,19,20,20,21,21,22,22,23,23,24,24,25,25,26,26,32,32],"right_children":[2,4,6,8,-1,10,12,14,16,-1,-1,-1,-1,-1,-1,18,20,-1,-1,22,24,26,28,30,32,34,36,-1,-1,-1,-1,-1,38,-1,-1,-1,-1,-1,-1],"split_conditions":[1.9370282E-1,1.3626152E-1,4.5863096E-2,5.958598E-2,-7.7342093E-3,1.8037958E-1,2.7611837E-1,7.374915E-2,8.351592E-3,-2.3987537E-2,-1.4992119E-2,1.0588373E-2,2.2154793E-2,-2.0303825E-2,-1.0643895E-2,5.093805E-3,5E-1,-2.1405956E-2,-9.415065E-3,2.2632697E-1,5.754388E-4,1.6795409E-1,2.3758288E-2,1.5552622E-1,1.1147769E-3,2.0449018E-1,1.8748021E-1,-1.8928953E-2,-2.526935E-2,-2.1853043E-2,-2.607946E-2,-1.565466E-2,2.1072734E-2,-1.6519733E-2,-2.549008E-2,-8.211134E-3,-1.9578358E-2,-1.9412037E-2,-2.6541658E-2],"split_indices":[20,16,15,13,0,7,19,8,16,0,0,0,0,0,0,16,5,0,0,7,14,7,24,7,14,19,7,0,0,0,0,0,24,0,0,0,0,0,0],"split_type":[0,0,0,0,0,0,0,0,0,0,0,0,0,0,0,0,0,0,0,0,0,0,0,0,0,0,0,0,0,0,0,0,0,0,0,0,0,0,0],"sum_hessian":[2.7805063E2,2.3103278E2,4.7017857E1,2.1698044E2,1.4052346E1,2.1387758E1,2.5630098E1,2.6053183E1,1.9092725E2,1.1186953E1,1.0200806E1,1.009558E1,1.5534517E1,1.0043638E1,1.6009544E1,2.4543673E1,1.6638358E2,1.2197602E1,1.234607E1,8.8020935E1,7.836265E1,6.3992035E1,2.4028896E1,3.656718E1,4.1795467E1,3.3334618E1,3.0657415E1,1.0179131E1,1.3849767E1,1.7590487E1,1.8976692E1,1.3390234E1,2.8405233E1,1.826367E1,1.5070948E1,1.16114645E1,1.9045952E1,1.783527E1,1.05699625E1],"tree_param":{"num_deleted":"0","num_feature":"27","num_nodes":"39","size_leaf_vector":"0"}},{"base_weights":[-7.650719E-1,-9.1803247E-1,4.419776E-1,-9.758458E-1,-5.3918207E-1,-1.4161055E-2,1.9026566E-2,-7.912896E-1,-1.0305346E0,-1.3530979E-2,-2.5787249E-3,-2.025289E-2,-6.234817E-1,-1.0611743E0,-9.686991E-3,-2.2895464E-3,-8.3217347E-1,-2.1407552E-2,-1.0220171E0,-1.781825E-2,-9.631811E-3,-8.0932677E-1,-1.0930744E0,-1.025132E0,-6.3322117E-3,-1.3084815E0,-1.0346158E0,-2.2222582E-2,-1.1096543E-2,-2.3121342E-2,-1.9575588E-2,-9.139256E-3,-1.12359E0,-1.0494229E0,-2.336227E-2,-2.245418E-2,-8.9862853E-1,-1.781315E-2,-9.570378E-3],"categories":[],"categories_nodes":[],"categories_segments":[],"categories_sizes":[],"default_left":[0,0,0,0,0,0,0,0,0,0,0,0,0,0,0,0,0,0,0,0,0,0,0,0,0,0,0,0,0,0,0,0,0,0,0,0,0,0,0],"id":29,"left_children":[1,3,5,7,9,-1,-1,11,13,-1,-1,-1,15,17,-1,-1,19,-1,21,-1,-1,23,25,27,-1,29,31,-1,-1,-1,-1,-1,33,35,-1,-1,37,-1,-1],"loss_changes":[4.8708954E1,5.120163E0,2.808302E1,2.0404968E0,3.4161673E0,0E0,0E0,3.489128E0,2.0907288E0,0E0,0E0,0E0,3.4060354E0,1.4188843E0,0E0,0E0,1.4728928E0,0E0,1.902832E0,0E0,0E0,2.8780098E0,1.1820145E0,2.4218082E0,0E0,2.2444916E-1,3.1450272E0,0E0,0E0,0E0,0E0,0E0,1.4175415E0,2.4731026E0,0E0,0E0,2.069847E0,0E0,0E0],"parents":[2147483647,0,0,1,1,2,2,3,3,4,4,7,7,8,8,12,12,13,13,16,16,18,18,21,21,22,22,23,23,25,25,26,26,32,32,33,33,36,36],"right_children":[2,4,6,8,10,-1,-1,12,14,-1,-1,-1,16,18,-1,-1,20,-1,22,-1,-1,24,26,28,-1,30,32,-1,-1,-1,-1,-1,34,36,-1,-1,38,-1,-1],"split_conditions":[2.1809858E-1,9.106325E-2,4.606868E-2,8.435131E-2,1.5969244E-1,-1.4161055E-2,1.9026566E-2,4.5784842E-2,1.9502021E-1,-1.3530979E-2,-2.5787249E-3,-2.025289E-2,1.0245549E-1,9.734039E-2,-9.686991E-3,-2.2895464E-3,6.902459E-2,-2.1407552E-2,1.3409995E-1,-1.781825E-2,-9.631811E-3,3.883846E-2,3.8165948E-1,1.2014414E-1,-6.3322117E-3,2.3454043E-1,4.067483E-1,-2.2222582E-2,-1.1096543E-2,-2.3121342E-2,-1.9575588E-2,-9.139256E-3,1.1208616E-1,6.234136E-2,-2.336227E-2,-2.245418E-2,1.9589415E-1,-1.781315E-2,-9.570378E-3],"split_indices":[20,16,15,20,20,0,0,20,20,0,0,0,19,11,0,0,20,0,11,0,0,16,9,11,0,12,9,0,0,0,0,0,18,18,0,0,11,0,0],"split_type":[0,0,0,0,0,0,0,0,0,0,0,0,0,0,0,0,0,0,0,0,0,0,0,0,0,0,0,0,0,0,0,0,0,0,0,0,0,0,0],"sum_hessian":[2.6380414E2,2.3413795E2,2.9666183E1,2.031264E2,3.1011559E1,1.055301E1,1.9113173E1,4.645473E1,1.5667166E2,1.7623075E1,1.3388482E1,1.2632731E1,3.3822E1,1.4640334E2,1.0268331E1,1.0207981E1,2.3614017E1,1.9829594E1,1.26573746E2,1.1407679E1,1.2206339E1,3.1715906E1,9.4857834E1,2.0969328E1,1.0746578E1,2.022869E1,7.462915E1,1.0631261E1,1.0338068E1,1.0206336E1,1.0022353E1,1.1783336E1,6.284581E1,5.0629757E1,1.2216055E1,1.6017668E1,3.4612087E1,2.142652E1,1.3185569E1],"tree_param":{"num_deleted":"0","num_feature":"27","num_nodes":"39","size_leaf_vector":"0"}},{"base_weights":[-8.485634E-1,-1.0467474E0,2.352179E-1,-1.0863733E0,-7.1637556E-3,-1.9672751E-2,1.0581337E0,-7.917695E-1,-1.1401266E0,1.1997693E-2,2.1932807E-2,-5.213112E-1,-1.9612955E-2,-1.3863684E0,-1.1061403E0,-5.835218E-3,-1.1179298E-2,-2.114542E-2,-2.4446262E-2,-1.0758175E0,-2.4806572E-2,-1.2143098E0,-1.0049418E0,-1.0680717E0,-1.434985E0,-8.491301E-3,-1.0598994E0,-2.167289E-2,-1.4150862E-2,-2.1118777E-2,-2.573839E-2,-1.2188673E-2,-1.1380949E0,-2.2522438E-2,-1.0685368E0,-8.7167215E-1,-1.2722828E0,-1.0882627E-2,-1.901756E-2,-1.7574603E-2,-2.3532946E-2],"categories":[],"categories_nodes":[],"categories_segments":[],"categories_sizes":[],"default_left":[0,0,0,0,0,0,0,0,0,0,0,0,0,0,0,0,0,0,0,0,0,0,0,0,0,0,0,0,0,0,0,0,0,0,0,0,0,0,0,0,0],"id":30,"left_children":[1,3,5,7,-1,-1,9,11,13,-1,-1,15,-1,17,19,-1,-1,-1,-1,21,-1,23,25,27,29,-1,31,-1,-1,-1,-1,-1,33,-1,35,37,39,-1,-1,-1,-1],"loss_changes":[5.9008514E1,5.588043E0,5.0313583E1,3.4423828E0,0E0,0E0,2.479187E0,3.7157402E0,1.5296936E0,0E0,0E0,5.371475E-1,0E0,2.1131134E-1,2.014557E0,0E0,0E0,0E0,0E0,1.4699097E0,0E0,1.6349487E0,2.6537552E0,1.5929794E0,3.916626E-1,0E0,2.1893158E0,0E0,0E0,0E0,0E0,0E0,1.1904297E0,0E0,2.2236977E0,1.6947994E0,8.922882E-1,0E0,0E0,0E0,0E0],"parents":[2147483647,0,0,1,1,2,2,3,3,6,6,7,7,8,8,11,11,13,13,14,14,19,19,21,21,22,22,23,23,24,24,26,26,32,32,34,34,35,35,36,36],"right_children":[2,4,6,8,-1,-1,10,12,14,-1,-1,16,-1,18,20,-1,-1,-1,-1,22,-1,24,26,28,30,-1,32,-1,-1,-1,-1,-1,34,-1,36,38,40,-1,-1,-1,-1],"split_conditions":[2.0037435E-1,1.4553508E-1,2.0664287E-1,6.724215E-5,-7.1637556E-3,-1.9672751E-2,1.6023582E-3,5E-1,1.404513E-1,1.1997693E-2,2.1932807E-2,9.4200626E-2,-1.9612955E-2,3.6007214E-1,3.908908E-1,-5.835218E-3,-1.1179298E-2,-2.114542E-2,-2.4446262E-2,1.770641E-1,-2.4806572E-2,1.3464394E-1,3.4177214E-1,1.685631E-3,1.1771289E-3,-8.491301E-3,1.4577025E-1,-2.167289E-2,-1.4150862E-2,-2.1118777E-2,-2.573839E-2,-1.2188673E-2,3.8052388E-4,-2.2522438E-2,2.0664287E-1,1.8403697E-1,2.8530544E-1,-1.0882627E-2,-1.901756E-2,-1.7574603E-2,-2.3532946E-2],"split_indices":[20,16,7,14,0,0,14,5,3,0,0,11,0,6,13,0,0,0,0,19,0,11,4,26,26,0,13,0,0,0,0,0,14,0,7,11,3,0,0,0,0],"split_type":[0,0,0,0,0,0,0,0,0,0,0,0,0,0,0,0,0,0,0,0,0,0,0,0,0,0,0,0,0,0,0,0,0,0,0,0,0,0,0,0,0],"sum_hessian":[2.7470868E2,2.3224452E2,4.2464146E1,2.1802806E2,1.4216462E1,1.54409485E1,2.7023197E1,3.365808E1,1.8436998E2,1.2663031E1,1.4360166E1,2.0272081E1,1.3385999E1,2.2341589E1,1.620284E2,1.0128384E1,1.0143699E1,1.2246089E1,1.00955E1,1.5095387E2,1.1074521E1,5.1075737E1,9.9878136E1,3.073334E1,2.03424E1,1.0175699E1,8.970244E1,1.34383335E1,1.7295004E1,1.016254E1,1.0179859E1,1.791889E1,7.178355E1,1.6059649E1,5.57239E1,2.8353825E1,2.7370077E1,1.667887E1,1.1674955E1,1.2670898E1,1.4699179E1],"tree_param":{"num_deleted":"0","num_feature":"27","num_nodes":"41","size_leaf_vector":"0"}},{"base_weights":[-7.576174E-1,-8.988275E-1,3.9579841E-1,-9.727826E-1,-3.673635E-1,-1.0164508E-2,1.569166E-2,-6.489399E-1,-1.0142804E0,-1.2057941E-2,-7.727782E-4,-1.3435462E-2,-7.0618456E-3,-1.0449123E0,-8.413585E-3,-1.2187017E0,-1.0015898E0,-1.0858164E0,-2.3573749E-2,-9.6339875E-1,-2.1289632E-2,-1.6168011E-2,-1.9143146E-2,-1.0198092E0,-8.014945E-3,-1.2228981E-2,-1.0800176E0,-9.8788565E-1,-1.174788E0,-8.7221754E-1,-2.1230388E-2,-1.3447326E0,-9.8937124E-1,-1.7206663E-2,-8.569933E-3,-1.9423487E-2,-2.403878E-2,-2.0592306E-2,-1.1972061E-2],"categories":[],"categories_nodes":[],"categories_segments":[],"categories_sizes":[],"default_left":[0,0,0,0,0,0,0,0,0,0,0,0,0,0,0,0,0,0,0,0,0,0,0,0,0,0,0,0,0,0,0,0,0,0,0,0,0,0,0],"id":31,"left_children":[1,3,5,7,9,-1,-1,11,13,-1,-1,-1,-1,15,-1,17,19,21,-1,23,-1,-1,-1,25,-1,-1,27,29,31,33,-1,35,37,-1,-1,-1,-1,-1,-1],"loss_changes":[4.213867E1,9.052139E0,1.62341E1,2.710144E0,3.339767E0,0E0,0E0,8.5846424E-1,2.733307E0,0E0,0E0,0E0,0E0,1.2601929E0,0E0,9.9282837E-1,1.5482025E0,1.6381073E-1,0E0,3.1937485E0,0E0,0E0,0E0,1.7406235E0,0E0,0E0,7.547531E-1,1.5959816E0,1.3498497E0,2.0400372E0,0E0,4.3146896E-1,1.4293365E0,0E0,0E0,0E0,0E0,0E0,0E0],"parents":[2147483647,0,0,1,1,2,2,3,3,4,4,7,7,8,8,13,13,15,15,16,16,17,17,19,19,23,23,26,26,27,27,28,28,29,29,31,31,32,32],"right_children":[2,4,6,8,10,-1,-1,12,14,-1,-1,-1,-1,16,-1,18,20,22,-1,24,-1,-1,-1,26,-1,-1,28,30,32,34,-1,36,38,-1,-1,-1,-1,-1,-1],"split_conditions":[2.1809858E-1,9.106325E-2,2.1785016E-1,5.958598E-2,1.5589279E-1,-1.0164508E-2,1.569166E-2,8.091283E-2,1.9370282E-1,-1.2057941E-2,-7.727782E-4,-1.3435462E-2,-7.0618456E-3,9.832677E-2,-8.413585E-3,1.4039004E-1,3.908908E-1,1.479493E-1,-2.3573749E-2,3.1897497E-1,-2.1289632E-2,-1.6168011E-2,-1.9143146E-2,1.2743843E-1,-8.014945E-3,-1.2228981E-2,5E-1,3.939231E-2,2.244511E-1,2.1841139E-2,-2.1230388E-2,1.585245E-2,1.8811616E-1,-1.7206663E-2,-8.569933E-3,-1.9423487E-2,-2.403878E-2,-2.0592306E-2,-1.1972061E-2],"split_indices":[20,16,7,13,20,0,0,19,20,0,0,0,0,13,0,19,13,7,0,13,0,0,0,13,0,0,5,16,19,16,0,16,7,0,0,0,0,0,0],"split_type":[0,0,0,0,0,0,0,0,0,0,0,0,0,0,0,0,0,0,0,0,0,0,0,0,0,0,0,0,0,0,0,0,0,0,0,0,0,0,0],"sum_hessian":[2.5870303E2,2.3048935E2,2.8213684E1,2.0232507E2,2.8164272E1,1.006587E1,1.8147814E1,2.299598E1,1.793291E2,1.3036414E1,1.5127858E1,1.2744342E1,1.0251637E1,1.6894913E2,1.0379968E1,3.3687557E1,1.3526158E2,2.1186668E1,1.2500891E1,1.20093994E2,1.516758E1,1.0074554E1,1.1112114E1,1.072783E2,1.2815697E1,1.9518003E1,8.776029E1,4.452807E1,4.3232224E1,3.2500584E1,1.2027485E1,2.2542282E1,2.0689943E1,2.1342709E1,1.1157876E1,1.0167703E1,1.2374579E1,1.0035577E1,1.0654366E1],"tree_param":{"num_deleted":"0","num_feature":"27","num_nodes":"39","size_leaf_vector":"0"}},{"base_weights":[-8.2536995E-1,-1.0197002E0,1.8489993E-1,-1.0654321E0,-7.0781377E-3,-2.01382E-2,1.0796007E0,-9.592236E-1,-1.1576506E0,1.2542717E-2,2.331005E-2,-1.2220366E0,-8.653124E-1,-1.4199373E0,-1.0737172E0,-1.6938701E-2,-2.4301255E-2,-9.635725E-1,-5.3755813E-3,-2.116425E-2,-2.635583E-2,-1.0438743E-2,-1.1524256E0,-8.118582E-1,-1.2613904E0,-1.2482888E-2,-1.2192582E0,-9.685939E-1,-7.722812E-3,-2.4484532E-2,-1.66454E-2,-2.3697525E-2,-1.1273425E0,-1.1119187E-2,-2.0925762E-2,-1.2259096E0,-1.4111968E-2,-2.260414E-2,-1.6941126E-2],"categories":[],"categories_nodes":[],"categories_segments":[],"categories_sizes":[],"default_left":[0,0,0,0,0,0,0,0,0,0,0,0,0,0,0,0,0,0,0,0,0,0,0,0,0,0,0,0,0,0,0,0,0,0,0,0,0,0,0],"id":32,"left_children":[1,3,5,7,-1,-1,9,11,13,-1,-1,15,17,19,21,-1,-1,23,-1,-1,-1,-1,25,27,29,-1,31,33,-1,-1,-1,-1,35,-1,-1,37,-1,-1,-1],"loss_changes":[5.296611E1,6.058197E0,5.5206707E1,2.0442657E0,0E0,0E0,2.8793488E0,2.3968582E0,2.4591064E0,0E0,0E0,1.2486038E0,3.780632E0,6.387253E-1,2.900772E0,0E0,0E0,2.7338524E0,0E0,0E0,0E0,0E0,1.8576889E0,2.1312237E0,1.166851E0,0E0,1.2953949E0,2.4659672E0,0E0,0E0,0E0,0E0,1.1307755E0,0E0,0E0,9.4189453E-1,0E0,0E0,0E0],"parents":[2147483647,0,0,1,1,2,2,3,3,6,6,7,7,8,8,11,11,12,12,13,13,14,14,17,17,22,22,23,23,24,24,26,26,27,27,32,32,35,35],"right_children":[2,4,6,8,-1,-1,10,12,14,-1,-1,16,18,20,22,-1,-1,24,-1,-1,-1,-1,26,28,30,-1,32,34,-1,-1,-1,-1,36,-1,-1,38,-1,-1,-1],"split_conditions":[5.6303316E-1,1.340587E-1,2.0664287E-1,1.6462068E-1,-7.0781377E-3,-2.01382E-2,1.7119438E-3,1.972482E-1,1.7224447E-1,1.2542717E-2,2.331005E-2,1.3127262E-2,1.0179177E-1,8.018486E-2,2.012689E-1,-1.6938701E-2,-2.4301255E-2,2.037707E-4,-5.3755813E-3,-2.116425E-2,-2.635583E-2,-1.0438743E-2,9.9401E-3,1.0804905E-1,1.2890585E-1,-1.2482888E-2,3.2402623E-2,5E-1,-7.722812E-3,-2.4484532E-2,-1.66454E-2,-2.3697525E-2,5.0750667E-1,-1.1119187E-2,-2.0925762E-2,3.6543892E-3,-1.4111968E-2,-2.260414E-2,-1.6941126E-2],"split_indices":[6,16,7,12,0,0,14,3,13,0,0,22,18,18,13,0,0,14,0,0,0,0,16,12,12,0,15,5,0,0,0,0,17,0,0,14,0,0,0],"split_type":[0,0,0,0,0,0,0,0,0,0,0,0,0,0,0,0,0,0,0,0,0,0,0,0,0,0,0,0,0,0,0,0,0,0,0,0,0,0,0],"sum_hessian":[2.6976395E2,2.2624913E2,4.3514824E1,2.098696E2,1.637953E1,1.6831854E1,2.668297E1,9.756326E1,1.12306335E2,1.4081505E1,1.2601465E1,2.566959E1,7.189367E1,2.721078E1,8.509556E1,1.5157554E1,1.0512036E1,6.0750076E1,1.1143594E1,1.6614733E1,1.05960455E1,1.3060534E1,7.203503E1,4.025914E1,2.0490936E1,1.0595025E1,6.144E1,2.751891E1,1.27402315E1,1.0325538E1,1.0165398E1,1.7428127E1,4.401187E1,1.434165E1,1.317726E1,3.2006474E1,1.2005399E1,1.7388231E1,1.4618243E1],"tree_param":{"num_deleted":"0","num_feature":"27","num_nodes":"39","size_leaf_vector":"0"}},{"base_weights":[-7.373309E-1,-9.225225E-1,1.473307E-1,-9.632222E-1,-5.004388E-3,-1.785237E-2,9.1995054E-1,-6.121109E-1,-1.0074553E0,5.780263E-3,2.0468269E-2,-1.4063163E-2,-5.5204476E-3,-9.826347E-1,-2.0880917E-2,-1.1594152E0,-9.370136E-1,-1.2891759E0,-1.4309524E-2,-1.04194265E-2,-9.7212785E-1,-1.8310504E-2,-2.3254566E-2,-1.1756289E0,-9.004978E-1,-1.7006522E-2,-2.0893862E-2,-7.6551046E-3,-1.0308651E0,-9.310218E-1,-1.2388382E0,-1.203664E0,-6.932979E-1,-2.2350617E-2,-1.8115709E-2,-2.2489138E-2,-1.6741103E-2,-6.012384E-3,-1.6883096E-2],"categories":[],"categories_nodes":[],"categories_segments":[],"categories_sizes":[],"default_left":[0,0,0,0,0,0,0,0,0,0,0,0,0,0,0,0,0,0,0,0,0,0,0,0,0,0,0,0,0,0,0,0,0,0,0,0,0,0,0],"id":33,"left_children":[1,3,5,7,-1,-1,9,11,13,-1,-1,-1,-1,15,-1,17,19,21,-1,-1,23,-1,-1,25,27,-1,-1,-1,29,31,33,35,37,-1,-1,-1,-1,-1,-1],"loss_changes":[4.1976685E1,5.305313E0,4.2497505E1,3.0775757E0,0E0,0E0,5.147873E0,1.5119658E0,1.1756134E0,0E0,0E0,0E0,0E0,1.2928314E0,0E0,1.2064171E0,1.3410339E0,5.00679E-1,0E0,0E0,1.6655502E0,0E0,0E0,4.045868E-1,4.7816086E0,0E0,0E0,0E0,1.3453903E0,2.8526878E0,3.4286118E-1,6.239376E-1,2.6060343E0,0E0,0E0,0E0,0E0,0E0,0E0],"parents":[2147483647,0,0,1,1,2,2,3,3,6,6,7,7,8,8,13,13,15,15,16,16,17,17,20,20,23,23,24,24,28,28,29,29,30,30,31,31,32,32],"right_children":[2,4,6,8,-1,-1,10,12,14,-1,-1,-1,-1,16,-1,18,20,22,-1,-1,24,-1,-1,26,28,-1,-1,-1,30,32,34,36,38,-1,-1,-1,-1,-1,-1],"split_conditions":[1.9502021E-1,9.625306E-3,2.0664287E-1,5.958598E-2,-5.004388E-3,-1.785237E-2,2.2706255E-1,8.091283E-2,3.908908E-1,5.780263E-3,2.0468269E-2,-1.4063163E-2,-5.5204476E-3,9.832677E-2,-2.0880917E-2,4.0557435E-1,4.1935143E-1,3.524764E-1,-1.4309524E-2,-1.04194265E-2,3.8165948E-1,-1.8310504E-2,-2.3254566E-2,4.6629053E-1,4.2165202E-1,-1.7006522E-2,-2.0893862E-2,-7.6551046E-3,2.1806934E-1,1.6921853E-1,2.3520578E-1,5.8348846E-1,5.0545084E-1,-2.2350617E-2,-1.8115709E-2,-2.2489138E-2,-1.6741103E-2,-6.012384E-3,-1.6883096E-2],"split_indices":[20,26,7,13,0,0,13,19,13,0,0,0,0,13,0,9,10,6,0,0,9,0,0,17,9,0,0,0,7,7,19,17,6,0,0,0,0,0,0],"split_type":[0,0,0,0,0,0,0,0,0,0,0,0,0,0,0,0,0,0,0,0,0,0,0,0,0,0,0,0,0,0,0,0,0,0,0,0,0,0,0],"sum_hessian":[2.5619284E2,2.1185083E2,4.434201E1,1.9871481E2,1.3136022E1,1.7015602E1,2.7326408E1,2.2246708E1,1.7646811E2,1.0135184E1,1.7191223E1,1.1646028E1,1.060068E1,1.6168694E2,1.4781162E1,3.3142807E1,1.2854413E2,2.2715769E1,1.0427038E1,1.3525452E1,1.15018684E2,1.0130018E1,1.2585751E1,2.9925646E1,8.509303E1,1.3067771E1,1.6857874E1,1.9744308E1,6.5348724E1,4.4169518E1,2.117921E1,2.056333E1,2.3606186E1,1.0560961E1,1.0618251E1,1.0416747E1,1.0146584E1,1.2083511E1,1.1522675E1],"tree_param":{"num_deleted":"0","num_feature":"27","num_nodes":"39","size_leaf_vector":"0"}},{"base_weights":[-8.059001E-1,-9.5339954E-1,4.587637E-1,-1.0127819E0,-4.01516E-1,-1.4028805E-2,1.9152157E-2,-1.0542805E0,-6.2784255E-3,-1.9965388E-2,8.654734E-3,-9.770265E-1,-1.2814062E0,-6.697966E-1,-1.0302815E0,-1.3690746E0,-1.7977023E-2,-1.6303698E-2,-4.019015E-3,-1.1284055E0,-7.9752487E-1,-1.5092936E0,-1.8002294E-2,-2.2795904E-2,-1.0908448E0,-3.3837983E-3,-1.000115E0,-2.2931736E-2,-2.6737127E-2,-1.2291993E-2,-1.1527551E0,-1.2157794E-2,-2.0644212E-2,-2.4242213E-2,-1.0675302E0,-2.3933373E-2,-9.616356E-1,-1.261732E-2,-1.872573E-2],"categories":[],"categories_nodes":[],"categories_segments":[],"categories_sizes":[],"default_left":[0,0,0,0,0,0,0,0,0,0,0,0,0,0,0,0,0,0,0,0,0,0,0,0,0,0,0,0,0,0,0,0,0,0,0,0,0,0,0],"id":34,"left_children":[1,3,5,7,9,-1,-1,11,-1,-1,-1,13,15,17,19,21,-1,-1,-1,23,25,27,-1,-1,29,-1,31,-1,-1,-1,33,-1,-1,-1,35,-1,37,-1,-1],"loss_changes":[5.106775E1,8.026993E0,2.6900904E1,5.7637634E0,1.8224466E1,0E0,0E0,3.6309204E0,0E0,0E0,0E0,2.526001E0,8.2097626E-1,3.181592E0,3.0052948E0,1.3117905E0,0E0,0E0,0E0,9.196701E-1,4.67828E0,2.9597092E-1,0E0,0E0,1.695015E0,0E0,1.9571323E0,0E0,0E0,0E0,1.9319687E0,0E0,0E0,0E0,2.2953796E0,0E0,1.503048E0,0E0,0E0],"parents":[2147483647,0,0,1,1,2,2,3,3,4,4,7,7,11,11,12,12,13,13,14,14,15,15,19,19,20,20,21,21,24,24,26,26,30,30,34,34,36,36],"right_children":[2,4,6,8,10,-1,-1,12,-1,-1,-1,14,16,18,20,22,-1,-1,-1,24,26,28,-1,-1,30,-1,32,-1,-1,-1,34,-1,-1,-1,36,-1,38,-1,-1],"split_conditions":[2.2036625E-1,1.8880704E-1,2.1986987E-1,1.3626152E-1,2.1647775E-1,-1.4028805E-2,1.9152157E-2,1.4829826E-1,-6.2784255E-3,-1.9965388E-2,8.654734E-3,7.263772E-3,3.346175E-1,5.445361E-3,3.4531415E-2,1.9428727E-1,-1.7977023E-2,-1.6303698E-2,-4.019015E-3,3.1021833E-1,1.3829164E-1,2.8530544E-1,-1.8002294E-2,-2.2795904E-2,8.0307454E-2,-3.3837983E-3,5.3095374E-2,-2.2931736E-2,-2.6737127E-2,-1.2291993E-2,3.434125E-1,-1.2157794E-2,-2.0644212E-2,-2.4242213E-2,1.3489549E-1,-2.3933373E-2,2.0562221E-1,-1.261732E-2,-1.872573E-2],"split_indices":[20,20,7,16,7,0,0,20,0,0,0,22,3,16,16,11,0,0,0,17,19,3,0,0,20,0,16,0,0,0,9,0,0,0,19,0,13,0,0],"split_type":[0,0,0,0,0,0,0,0,0,0,0,0,0,0,0,0,0,0,0,0,0,0,0,0,0,0,0,0,0,0,0,0,0,0,0,0,0,0,0],"sum_hessian":[2.7375302E2,2.4516348E2,2.8589544E1,2.2133804E2,2.3825443E1,1.0043979E1,1.8545565E1,2.0761736E2,1.3720684E1,1.2666527E1,1.1158916E1,1.5493987E2,5.2677483E1,2.2904268E1,1.320356E2,3.5444195E1,1.7233288E1,1.2893987E1,1.00102825E1,9.286385E1,3.9171745E1,2.3218695E1,1.22255E1,1.1418074E1,8.144578E1,1.0015115E1,2.9156631E1,1.276751E1,1.0451185E1,1.2616664E1,6.882912E1,1.4822409E1,1.4334223E1,1.40578785E1,5.477124E1,1.1500131E1,4.3271107E1,2.1416008E1,2.18551E1],"tree_param":{"num_deleted":"0","num_feature":"27","num_nodes":"39","size_leaf_vector":"0"}},{"base_weights":[-7.9792696E-1,-9.8824733E-1,1.4913213E-1,-1.018193E0,-8.230581E-3,-1.5421777E-2,1.0075117E0,-6.689739E-1,-1.060128E0,9.533534E-3,2.1166617E-2,-1.6731728E-2,-5.878993E-3,-1.156982E-2,-1.1008912E0,-1.0206568E0,-1.2029247E0,-1.1558034E0,-8.1534415E-1,-2.2963092E-2,-1.1288729E0,-1.2372956E0,-1.4024006E-2,-7.1171494E-3,-1.0275462E0,-1.2847024E-2,-1.2915738E0,-2.4327518E-2,-1.1443822E0,-2.2008443E-2,-1.2559832E-2,-1.1803219E0,-2.3285262E-2,-1.5094322E-2,-1.2462983E0,-2.2820078E-2,-1.5732529E-2,-2.4040062E-2,-1.6436134E-2],"categories":[],"categories_nodes":[],"categories_segments":[],"categories_sizes":[],"default_left":[0,0,0,0,0,0,0,0,0,0,0,0,0,0,0,0,0,0,0,0,0,0,0,0,0,0,0,0,0,0,0,0,0,0,0,0,