{"learner":{"attributes":{"best_iteration":"27","best_ntree_limit":"28","best_score":"0.8752954545454545"},"feature_names":["is_retirement_age","life_Retirement","Gender","Age_Squared","Age","FamilyMembers","Wealth_log","Wealth_to_Income_log","Risk_Capacity_log","Wealth_Per_Family_Size_log","Investment_Capacity_log","Financial_Sophistication_Ratio","FinancialEducation_Squared","Education_Risk_Profile","risk_tolerance_log","Financial_Independence_Score_log","Retirement_Readiness_log","Life_Stage_Adjusted_Income_log","Wealth_Concentration_log","Age_Risk_Interaction","Wealth_Sqrt","Wealth","Financial_Independence_Score","Wealth_to_Income","Wealth_Per_Family_Size","Risk_Capacity","Retirement_Readiness"],"feature_types":["float","float","float","float","float","float","float","float","float","float","float","float","float","float","float","float","float","float","float","float","float","float","float","float","float","float","float"],"gradient_booster":{"gbtree":{"model":{"gbtree_model_param":{"num_parallel_tree":"1","num_trees":"128","size_leaf_vector":"0"},"tree_info":[0,0,0,0,0,0,0,0,0,0,0,0,0,0,0,0,0,0,0,0,0,0,0,0,0,0,0,0,0,0,0,0,0,0,0,0,0,0,0,0,0,0,0,0,0,0,0,0,0,0,0,0,0,0,0,0,0,0,0,0,0,0,0,0,0,0,0,0,0,0,0,0,0,0,0,0,0,0,0,0,0,0,0,0,0,0,0,0,0,0,0,0,0,0,0,0,0,0,0,0,0,0,0,0,0,0,0,0,0,0,0,0,0,0,0,0,0,0,0,0,0,0,0,0,0,0,0,0],"trees":[{"base_weights":[-5.304698E-1,1.1142477E0,-1.3228844E0,-1.5128347E0,1.8966671E0,-1.4130795E0,7.983473E-3,-4.111712E-2,-3.0822443E-2,3.966219E-2,4.7439165E-2,-3.6755543E-2,-1.8644404E-2],"categories":[],"categories_nodes":[],"categories_segments":[],"categories_sizes":[],"default_left":[0,0,0,0,0,0,0,0,0,0,0,0,0],"id":0,"left_children":[1,3,5,7,9,11,-1,-1,-1,-1,-1,-1,-1],"loss_changes":[4.0276358E2,2.0653513E2,3.1111084E1,1.0396996E0,1.3722839E0,1.4038544E1,0E0,0E0,0E0,0E0,0E0,0E0,0E0],"parents":[2147483647,0,0,1,1,2,2,3,3,4,4,5,5],"right_children":[2,4,6,8,10,12,-1,-1,-1,-1,-1,-1,-1],"split_conditions":[1.8101902E-1,3.3442888E-1,6.6785234E-1,1.5850303E-1,4.4446494E-2,3.7391305E-1,7.983473E-3,-4.111712E-2,-3.0822443E-2,3.966219E-2,4.7439165E-2,-3.6755543E-2,-1.8644404E-2],"split_indices":[7,6,6,3,18,3,0,0,0,0,0,0,0],"split_type":[0,0,0,0,0,0,0,0,0,0,0,0,0],"sum_hessian":[3.0903345E2,1.0047976E2,2.0855368E2,2.3058249E1,7.742152E1,1.9776855E2,1.0785127E1,1.2686083E1,1.0372166E1,1.68785E1,6.0543015E1,1.6855891E2,2.9209648E1],"tree_param":{"num_deleted":"0","num_feature":"27","num_nodes":"13","size_leaf_vector":"0"}},{"base_weights":[-5.1038766E-1,1.0871189E0,-1.2883983E0,-1.5024737E0,1.8531456E0,-1.3763543E0,7.7910516E-3,-4.134044E-2,-2.965608E-2,3.885475E-2,4.6329997E-2,-3.5729375E-2,-1.8503955E-2],"categories":[],"categories_nodes":[],"categories_segments":[],"categories_sizes":[],"default_left":[0,0,0,0,0,0,0,0,0,0,0,0,0],"id":1,"left_children":[1,3,5,7,9,11,-1,-1,-1,-1,-1,-1,-1],"loss_changes":[3.851198E2,2.0131274E2,2.953482E1,1.3376236E0,1.2861023E0,1.2648132E1,0E0,0E0,0E0,0E0,0E0,0E0,0E0],"parents":[2147483647,0,0,1,1,2,2,3,3,4,4,5,5],"right_children":[2,4,6,8,10,12,-1,-1,-1,-1,-1,-1,-1],"split_conditions":[1.8101902E-1,3.3442888E-1,6.6785234E-1,1.678591E-1,4.4446494E-2,3.7391305E-1,7.7910516E-3,-4.134044E-2,-2.965608E-2,3.885475E-2,4.6329997E-2,-3.5729375E-2,-1.8503955E-2],"split_indices":[7,6,6,3,18,3,0,0,0,0,0,0,0],"split_type":[0,0,0,0,0,0,0,0,0,0,0,0,0],"sum_hessian":[3.098609E2,1.0148313E2,2.0837778E2,2.3166695E1,7.831643E1,1.9759283E2,1.0784954E1,1.3046934E1,1.0119761E1,1.7139212E1,6.117722E1,1.6851944E2,2.9073395E1],"tree_param":{"num_deleted":"0","num_feature":"27","num_nodes":"13","size_leaf_vector":"0"}},{"base_weights":[-5.036528E-1,1.0808762E0,-1.2656811E0,-1.4366431E0,1.8228896E0,-1.354373E0,8.096516E-3,-4.040576E-2,-2.9590536E-2,3.761866E-2,4.568066E-2,-3.540021E-2,-2.9049419E-2],"categories":[],"categories_nodes":[],"categories_segments":[],"categories_sizes":[],"default_left":[0,0,0,0,0,0,0,0,0,0,0,0,0],"id":2,"left_children":[1,3,5,7,9,11,-1,-1,-1,-1,-1,-1,-1],"loss_changes":[3.720323E2,1.86911E2,2.9550415E1,1.1403046E0,1.4468384E0,3.351654E0,0E0,0E0,0E0,0E0,0E0,0E0,0E0],"parents":[2147483647,0,0,1,1,2,2,3,3,4,4,5,5],"right_children":[2,4,6,8,10,12,-1,-1,-1,-1,-1,-1,-1],"split_conditions":[1.8101902E-1,3.3442888E-1,6.6785234E-1,2.3933938E-1,4.4446494E-2,2.5718275E-1,8.096516E-3,-4.040576E-2,-2.9590536E-2,3.761866E-2,4.568066E-2,-3.540021E-2,-2.9049419E-2],"split_indices":[7,6,6,9,18,19,0,0,0,0,0,0,0],"split_type":[0,0,0,0,0,0,0,0,0,0,0,0,0],"sum_hessian":[3.0811194E2,1.0005715E2,2.080548E2,2.277736E1,7.727979E1,1.9713663E2,1.0918173E1,1.0652791E1,1.2124571E1,1.6451954E1,6.0827835E1,1.12223366E2,8.491325E1],"tree_param":{"num_deleted":"0","num_feature":"27","num_nodes":"13","size_leaf_vector":"0"}},{"base_weights":[-4.9639437E-1,1.0414387E0,-1.2426981E0,-1.4147336E0,1.7719717E0,-1.3270619E0,7.4088327E-3,-3.9645094E-2,-2.9256137E-2,4.4262383E-2,3.981091E-2,-3.4719698E-2,-1.5894823E-2],"categories":[],"categories_nodes":[],"categories_segments":[],"categories_sizes":[],"default_left":[0,0,0,0,0,0,0,0,0,0,0,0,0],"id":3,"left_children":[1,3,5,7,9,11,-1,-1,-1,-1,-1,-1,-1],"loss_changes":[3.5609796E2,1.8190211E2,2.7314514E1,1.0736923E0,5.997162E-1,1.4890503E1,0E0,0E0,0E0,0E0,0E0,0E0,0E0],"parents":[2147483647,0,0,1,1,2,2,3,3,4,4,5,5],"right_children":[2,4,6,8,10,12,-1,-1,-1,-1,-1,-1,-1],"split_conditions":[3.5543393E-2,8.62504E-3,9.726763E-2,2.3933938E-1,6.182472E-1,5.443038E-1,7.4088327E-3,-3.9645094E-2,-2.9256137E-2,4.4262383E-2,3.981091E-2,-3.4719698E-2,-1.5894823E-2],"split_indices":[15,21,21,9,10,4,0,0,0,0,0,0,0],"split_type":[0,0,0,0,0,0,0,0,0,0,0,0,0],"sum_hessian":[3.1027295E2,1.0137645E2,2.088965E2,2.3239882E1,7.8136566E1,1.981129E2,1.078359E1,1.0881081E1,1.2358801E1,5.134962E1,2.6786945E1,1.6955429E2,2.855862E1],"tree_param":{"num_deleted":"0","num_feature":"27","num_nodes":"13","size_leaf_vector":"0"}},{"base_weights":[-4.8793444E-1,1.0360637E0,-1.2361456E0,-1.4221114E0,1.7737739E0,-1.3158723E0,6.680524E-3,-3.9613623E-2,-2.9712643E-2,3.785196E-2,4.3747533E-2,-3.3516407E-2,-1.9015323E-2],"categories":[],"categories_nodes":[],"categories_segments":[],"categories_sizes":[],"default_left":[0,0,0,0,0,0,0,0,0,0,0,0,0],"id":4,"left_children":[1,3,5,7,9,11,-1,-1,-1,-1,-1,-1,-1],"loss_changes":[3.5242337E2,1.8455739E2,2.5008026E1,9.8441315E-1,6.4167786E-1,7.666504E0,0E0,0E0,0E0,0E0,0E0,0E0,0E0],"parents":[2147483647,0,0,1,1,2,2,3,3,4,4,5,5],"right_children":[2,4,6,8,10,12,-1,-1,-1,-1,-1,-1,-1],"split_conditions":[1.8101902E-1,3.3442888E-1,4.350446E-1,2.3933938E-1,5.8924983E-5,1.3837E-1,6.680524E-3,-3.9613623E-2,-2.9712643E-2,3.785196E-2,4.3747533E-2,-3.3516407E-2,-1.9015323E-2],"split_indices":[7,6,8,9,14,16,0,0,0,0,0,0,0],"split_type":[0,0,0,0,0,0,0,0,0,0,0,0,0],"sum_hessian":[3.090688E2,1.0177255E2,2.0729623E2,2.3492228E1,7.828032E1,1.9692068E2,1.03755455E1,1.0880377E1,1.2611851E1,1.2849535E1,6.5430786E1,1.7274542E2,2.4175274E1],"tree_param":{"num_deleted":"0","num_feature":"27","num_nodes":"13","size_leaf_vector":"0"}},{"base_weights":[-4.71407E-1,9.997401E-1,-1.1894587E0,-1.3751419E0,1.7014735E0,-1.2694759E0,6.819163E-3,-3.7051786E-2,-2.8268786E-2,3.6359295E-2,4.197655E-2,-3.3084832E-2,-1.6408533E-2],"categories":[],"categories_nodes":[],"categories_segments":[],"categories_sizes":[],"default_left":[0,0,0,0,0,0,0,0,0,0,0,0,0],"id":5,"left_children":[1,3,5,7,9,11,-1,-1,-1,-1,-1,-1,-1],"loss_changes":[3.2472476E2,1.6803098E2,2.433496E1,7.523575E-1,5.8843994E-1,1.1809692E1,0E0,0E0,0E0,0E0,0E0,0E0,0E0],"parents":[2147483647,0,0,1,1,2,2,3,3,4,4,5,5],"right_children":[2,4,6,8,10,12,-1,-1,-1,-1,-1,-1,-1],"split_conditions":[3.5543393E-2,3.3442888E-1,6.6785234E-1,3.0379745E-1,5.8924983E-5,5.443038E-1,6.819163E-3,-3.7051786E-2,-2.8268786E-2,3.6359295E-2,4.197655E-2,-3.3084832E-2,-1.6408533E-2],"split_indices":[15,6,6,4,14,4,0,0,0,0,0,0,0],"split_type":[0,0,0,0,0,0,0,0,0,0,0,0,0],"sum_hessian":[3.073992E2,1.0082609E2,2.0657314E2,2.2996975E1,7.782911E1,1.9592436E2,1.0648771E1,1.2821174E1,1.01758E1,1.3030975E1,6.4798134E1,1.6693265E2,2.8991718E1],"tree_param":{"num_deleted":"0","num_feature":"27","num_nodes":"13","size_leaf_vector":"0"}},{"base_weights":[-4.5298612E-1,9.9062985E-1,-1.1555306E0,-1.341507E0,1.6699888E0,-1.2354572E0,7.1360334E-3,-3.7175868E-2,-2.8174855E-2,4.1787505E-2,3.7388477E-2,-3.2235105E-2,-1.5967505E-2],"categories":[],"categories_nodes":[],"categories_segments":[],"categories_sizes":[],"default_left":[0,0,0,0,0,0,0,0,0,0,0,0,0],"id":6,"left_children":[1,3,5,7,9,11,-1,-1,-1,-1,-1,-1,-1],"loss_changes":[3.114497E2,1.5926785E2,2.396283E1,7.856293E-1,5.8399963E-1,1.134967E1,0E0,0E0,0E0,0E0,0E0,0E0,0E0],"parents":[2147483647,0,0,1,1,2,2,3,3,4,4,5,5],"right_children":[2,4,6,8,10,12,-1,-1,-1,-1,-1,-1,-1],"split_conditions":[1.8101902E-1,3.3186737E-1,6.6785234E-1,2.3933938E-1,6.182472E-1,3.7391305E-1,7.1360334E-3,-3.7175868E-2,-2.8174855E-2,4.1787505E-2,3.7388477E-2,-3.2235105E-2,-1.5967505E-2],"split_indices":[7,6,6,9,10,3,0,0,0,0,0,0,0],"split_type":[0,0,0,0,0,0,0,0,0,0,0,0,0],"sum_hessian":[3.07087E2,1.0052469E2,2.0656233E2,2.2677153E1,7.7847534E1,1.9578114E2,1.0781191E1,1.0529536E1,1.2147616E1,5.111147E1,2.6736063E1,1.6643498E2,2.934616E1],"tree_param":{"num_deleted":"0","num_feature":"27","num_nodes":"13","size_leaf_vector":"0"}},{"base_weights":[-4.8579174E-1,1.0380852E0,-1.2210027E0,-1.3808129E0,1.7427574E0,-1.3030789E0,6.000655E-3,-3.7909534E-2,-2.7534937E-2,3.7344545E-2,4.300014E-2,-3.385897E-2,-1.7089166E-2],"categories":[],"categories_nodes":[],"categories_segments":[],"categories_sizes":[],"default_left":[0,0,0,0,0,0,0,0,0,0,0,0,0],"id":7,"left_children":[1,3,5,7,9,11,-1,-1,-1,-1,-1,-1,-1],"loss_changes":[3.4647806E2,1.7155295E2,2.5165894E1,1.0371819E0,6.0813904E-1,1.1841187E1,0E0,0E0,0E0,0E0,0E0,0E0,0E0],"parents":[2147483647,0,0,1,1,2,2,3,3,4,4,5,5],"right_children":[2,4,6,8,10,12,-1,-1,-1,-1,-1,-1,-1],"split_conditions":[1.8101902E-1,3.3442888E-1,6.6785234E-1,1.5850303E-1,1.0821137E-1,3.7391305E-1,6.000655E-3,-3.7909534E-2,-2.7534937E-2,3.7344545E-2,4.300014E-2,-3.385897E-2,-1.7089166E-2],"split_indices":[7,6,6,3,11,3,0,0,0,0,0,0,0],"split_type":[0,0,0,0,0,0,0,0,0,0,0,0,0],"sum_hessian":[3.092523E2,1.0064481E2,2.0860747E2,2.270524E1,7.7939575E1,1.9757474E2,1.1032732E1,1.2621941E1,1.0083299E1,1.334562E1,6.4593956E1,1.6892944E2,2.8645294E1],"tree_param":{"num_deleted":"0","num_feature":"27","num_nodes":"13","size_leaf_vector":"0"}},{"base_weights":[-4.5256355E-1,1.0150044E0,-1.1687407E0,-1.3362986E0,1.6933386E0,-1.2517395E0,7.7668815E-3,-3.7600085E-2,-2.772506E-2,3.5246562E-2,4.2399675E-2,-3.2350827E-2,-2.153858E-2],"categories":[],"categories_nodes":[],"categories_segments":[],"categories_sizes":[],"default_left":[0,0,0,0,0,0,0,0,0,0,0,0,0],"id":8,"left_children":[1,3,5,7,9,11,-1,-1,-1,-1,-1,-1,-1],"loss_changes":[3.2371042E2,1.6110529E2,2.5610931E1,9.4054794E-1,1.1757355E0,6.302429E0,0E0,0E0,0E0,0E0,0E0,0E0,0E0],"parents":[2147483647,0,0,1,1,2,2,3,3,4,4,5,5],"right_children":[2,4,6,8,10,12,-1,-1,-1,-1,-1,-1,-1],"split_conditions":[1.8101902E-1,3.3442888E-1,6.6785234E-1,4.980792E-3,4.4446494E-2,9.330517E-2,7.7668815E-3,-3.7600085E-2,-2.772506E-2,3.5246562E-2,4.2399675E-2,-3.2350827E-2,-2.153858E-2],"split_indices":[7,6,6,24,18,16,0,0,0,0,0,0,0],"split_type":[0,0,0,0,0,0,0,0,0,0,0,0,0],"sum_hessian":[3.079904E2,1.0100789E2,2.0698248E2,2.2615553E1,7.8392334E1,1.9606664E2,1.0915856E1,1.0313962E1,1.2301592E1,1.7094402E1,6.129793E1,1.5687195E2,3.9194683E1],"tree_param":{"num_deleted":"0","num_feature":"27","num_nodes":"13","size_leaf_vector":"0"}},{"base_weights":[-4.4073707E-1,9.7201127E-1,-1.1378675E0,-2.6479485E-2,1.4448646E0,-1.2539753E0,-5.107161E-1,-8.371682E-4,3.9845712E-2,-3.180532E-2,-6.8415576E-3,-2.7927045E-2,9.373392E-3],"categories":[],"categories_nodes":[],"categories_segments":[],"categories_sizes":[],"default_left":[0,0,0,0,0,0,0,0,0,0,0,0,0],"id":9,"left_children":[1,3,5,-1,7,9,11,-1,-1,-1,-1,-1,-1],"loss_changes":[2.9968954E2,9.840841E1,1.4836487E1,0E0,2.509787E1,1.0803467E1,1.852776E1,0E0,0E0,0E0,0E0,0E0,0E0],"parents":[2147483647,0,0,1,1,2,2,4,4,5,5,6,6],"right_children":[2,4,6,-1,8,10,12,-1,-1,-1,-1,-1,-1],"split_conditions":[1.8101902E-1,7.545046E-3,3.7391305E-1,-2.6479485E-2,1.05514275E-2,8.889355E-2,2.5671074E-1,-8.371682E-4,3.9845712E-2,-3.180532E-2,-6.8415576E-3,-2.7927045E-2,9.373392E-3],"split_indices":[7,24,3,0,21,21,12,0,0,0,0,0,0],"split_type":[0,0,0,0,0,0,0,0,0,0,0,0,0],"sum_hessian":[3.0429288E2,1.0054209E2,2.037508E2,1.8696661E1,8.184543E1,1.7192172E2,3.1829084E1,1.0055819E1,7.178961E1,1.6116447E2,1.0757238E1,1.850927E1,1.3319814E1],"tree_param":{"num_deleted":"0","num_feature":"27","num_nodes":"13","size_leaf_vector":"0"}},{"base_weights":[-4.3198127E-1,9.2847395E-1,-1.0882691E0,-1.2685697E0,1.601067E0,-1.1627212E0,8.2835555E-3,-3.5578344E-2,-2.6332803E-2,3.3937275E-2,3.9903402E-2,-3.021579E-2,-2.0169878E-2],"categories":[],"categories_nodes":[],"categories_segments":[],"categories_sizes":[],"default_left":[0,0,0,0,0,0,0,0,0,0,0,0,0],"id":10,"left_children":[1,3,5,7,9,11,-1,-1,-1,-1,-1,-1,-1],"loss_changes":[2.7026663E2,1.4556256E2,2.1766602E1,8.4306717E-1,7.815552E-1,5.7093506E0,0E0,0E0,0E0,0E0,0E0,0E0,0E0],"parents":[2147483647,0,0,1,1,2,2,3,3,4,4,5,5],"right_children":[2,4,6,8,10,12,-1,-1,-1,-1,-1,-1,-1],"split_conditions":[3.5543393E-2,3.3442888E-1,4.350446E-1,2.3933938E-1,4.4446494E-2,9.330517E-2,8.2835555E-3,-3.5578344E-2,-2.6332803E-2,3.3937275E-2,3.9903402E-2,-3.021579E-2,-2.0169878E-2],"split_indices":[15,6,8,9,18,16,0,0,0,0,0,0,0],"split_type":[0,0,0,0,0,0,0,0,0,0,0,0,0],"sum_hessian":[3.0270035E2,9.850455E1,2.041958E2,2.3087688E1,7.5416855E1,1.9410231E2,1.0093491E1,1.06437845E1,1.2443905E1,1.6293558E1,5.91233E1,1.521103E2,4.1992004E1],"tree_param":{"num_deleted":"0","num_feature":"27","num_nodes":"13","size_leaf_vector":"0"}},{"base_weights":[-4.2960668E-1,9.1450834E-1,-1.0780482E0,-1.23807E0,1.5617508E0,-1.1554561E0,6.232404E-3,-3.4171913E-2,-2.452563E-2,3.2853603E-2,3.864677E-2,-3.0009633E-2,-1.5481133E-2],"categories":[],"categories_nodes":[],"categories_segments":[],"categories_sizes":[],"default_left":[0,0,0,0,0,0,0,0,0,0,0,0,0],"id":11,"left_children":[1,3,5,7,9,11,-1,-1,-1,-1,-1,-1,-1],"loss_changes":[2.634092E2,1.3702847E2,2.1090942E1,8.990593E-1,6.133728E-1,8.791046E0,0E0,0E0,0E0,0E0,0E0,0E0,0E0],"parents":[2147483647,0,0,1,1,2,2,3,3,4,4,5,5],"right_children":[2,4,6,8,10,12,-1,-1,-1,-1,-1,-1,-1],"split_conditions":[1.8604347E-2,3.3442888E-1,6.6785234E-1,1.5850303E-1,1.0821137E-1,3.7391305E-1,6.232404E-3,-3.4171913E-2,-2.452563E-2,3.2853603E-2,3.864677E-2,-3.0009633E-2,-1.5481133E-2],"split_indices":[22,6,6,3,11,3,0,0,0,0,0,0,0],"split_type":[0,0,0,0,0,0,0,0,0,0,0,0,0],"sum_hessian":[3.0221964E2,9.835182E1,2.0386781E2,2.2736198E1,7.561562E1,1.9270639E2,1.1161417E1,1.2571998E1,1.0164202E1,1.2798739E1,6.2816887E1,1.6428967E2,2.841672E1],"tree_param":{"num_deleted":"0","num_feature":"27","num_nodes":"13","size_leaf_vector":"0"}},{"base_weights":[-4.2960864E-1,9.325749E-1,-1.0874875E0,-1.2713689E0,1.5891722E0,-1.1584698E0,6.3283863E-3,-3.5390805E-2,-2.4874773E-2,3.369171E-2,3.9611537E-2,-3.0280137E-2,-1.5576578E-2],"categories":[],"categories_nodes":[],"categories_segments":[],"categories_sizes":[],"default_left":[0,0,0,0,0,0,0,0,0,0,0,0,0],"id":12,"left_children":[1,3,5,7,9,11,-1,-1,-1,-1,-1,-1,-1],"loss_changes":[2.716548E2,1.428623E2,1.9586563E1,1.0660744E0,7.7830505E-1,9.659393E0,0E0,0E0,0E0,0E0,0E0,0E0,0E0],"parents":[2147483647,0,0,1,1,2,2,3,3,4,4,5,5],"right_children":[2,4,6,8,10,12,-1,-1,-1,-1,-1,-1,-1],"split_conditions":[1.8101902E-1,3.3442888E-1,1.0554741E-1,1.5850303E-1,4.4446494E-2,3.7391305E-1,6.3283863E-3,-3.5390805E-2,-2.4874773E-2,3.369171E-2,3.9611537E-2,-3.0280137E-2,-1.5576578E-2],"split_indices":[7,6,25,3,18,3,0,0,0,0,0,0,0],"split_type":[0,0,0,0,0,0,0,0,0,0,0,0,0],"sum_hessian":[3.0313416E2,9.8722374E1,2.0441179E2,2.2660276E1,7.6062096E1,1.9420009E2,1.0211697E1,1.2471899E1,1.0188377E1,1.6497402E1,5.9564697E1,1.632913E2,3.090878E1],"tree_param":{"num_deleted":"0","num_feature":"27","num_nodes":"13","size_leaf_vector":"0"}},{"base_weights":[-4.1298586E-1,8.8223195E-1,-1.0348084E0,-1.2084978E0,1.5237621E0,-1.1058072E0,6.8760063E-3,-3.4100488E-2,-2.4930483E-2,3.1992983E-2,3.7727196E-2,-2.915177E-2,-1.35531975E-2],"categories":[],"categories_nodes":[],"categories_segments":[],"categories_sizes":[],"default_left":[0,0,0,0,0,0,0,0,0,0,0,0,0],"id":13,"left_children":[1,3,5,7,9,11,-1,-1,-1,-1,-1,-1,-1],"loss_changes":[2.4122934E2,1.3030829E2,1.8964096E1,8.1908417E-1,5.940552E-1,1.0747467E1,0E0,0E0,0E0,0E0,0E0,0E0,0E0],"parents":[2147483647,0,0,1,1,2,2,3,3,4,4,5,5],"right_children":[2,4,6,8,10,12,-1,-1,-1,-1,-1,-1,-1],"split_conditions":[1.8101902E-1,3.3442888E-1,4.350446E-1,2.3933938E-1,1.0821137E-1,5.443038E-1,6.8760063E-3,-3.4100488E-2,-2.4930483E-2,3.1992983E-2,3.7727196E-2,-2.915177E-2,-1.35531975E-2],"split_indices":[7,6,8,9,11,4,0,0,0,0,0,0,0],"split_type":[0,0,0,0,0,0,0,0,0,0,0,0,0],"sum_hessian":[2.9951587E2,9.715263E1,2.0236324E2,2.2811214E1,7.434142E1,1.9203374E2,1.0329498E1,1.0487294E1,1.232392E1,1.2668812E1,6.167261E1,1.614784E2,3.0555338E1],"tree_param":{"num_deleted":"0","num_feature":"27","num_nodes":"13","size_leaf_vector":"0"}},{"base_weights":[-4.1522744E-1,8.7397206E-1,-1.0278441E0,-1.2016138E0,1.5003736E0,-1.0952619E0,5.342793E-3,-3.3376228E-2,-2.5296327E-2,3.037618E-2,3.780793E-2,-2.8598757E-2,-1.3785033E-2],"categories":[],"categories_nodes":[],"categories_segments":[],"categories_sizes":[],"default_left":[0,0,0,0,0,0,0,0,0,0,0,0,0],"id":14,"left_children":[1,3,5,7,9,11,-1,-1,-1,-1,-1,-1,-1],"loss_changes":[2.360388E2,1.2516685E2,1.7064743E1,6.2137604E-1,1.197998E0,9.112488E0,0E0,0E0,0E0,0E0,0E0,0E0,0E0],"parents":[2147483647,0,0,1,1,2,2,3,3,4,4,5,5],"right_children":[2,4,6,8,10,12,-1,-1,-1,-1,-1,-1,-1],"split_conditions":[1.8101902E-1,3.3442888E-1,6.6785234E-1,2.3933938E-1,4.4446494E-2,5.443038E-1,5.342793E-3,-3.3376228E-2,-2.5296327E-2,3.037618E-2,3.780793E-2,-2.8598757E-2,-1.3785033E-2],"split_indices":[7,6,6,9,18,4,0,0,0,0,0,0,0],"split_type":[0,0,0,0,0,0,0,0,0,0,0,0,0],"sum_hessian":[2.9886392E2,9.6270515E1,2.025934E2,2.2318317E1,7.3952194E1,1.9222102E2,1.0372372E1,1.0175866E1,1.2142452E1,1.6140358E1,5.7811836E1,1.6389111E2,2.8329916E1],"tree_param":{"num_deleted":"0","num_feature":"27","num_nodes":"13","size_leaf_vector":"0"}},{"base_weights":[-4.0430927E-1,8.9296526E-1,-1.024359E0,-1.225215E0,1.5024098E0,-1.0923305E0,6.089358E-3,-3.3458367E-2,-2.5204748E-2,3.0592903E-2,3.7803404E-2,-2.8825955E-2,-1.3261951E-2],"categories":[],"categories_nodes":[],"categories_segments":[],"categories_sizes":[],"default_left":[0,0,0,0,0,0,0,0,0,0,0,0,0],"id":15,"left_children":[1,3,5,7,9,11,-1,-1,-1,-1,-1,-1,-1],"loss_changes":[2.396688E2,1.2438904E2,1.7496796E1,6.28582E-1,1.1383057E0,1.0681534E1,0E0,0E0,0E0,0E0,0E0,0E0,0E0],"parents":[2147483647,0,0,1,1,2,2,3,3,4,4,5,5],"right_children":[2,4,6,8,10,12,-1,-1,-1,-1,-1,-1,-1],"split_conditions":[1.8101902E-1,3.3186737E-1,1.0554741E-1,4.591073E-2,4.4446494E-2,5.443038E-1,6.089358E-3,-3.3458367E-2,-2.5204748E-2,3.0592903E-2,3.7803404E-2,-2.8825955E-2,-1.3261951E-2],"split_indices":[7,6,25,18,18,4,0,0,0,0,0,0,0],"split_type":[0,0,0,0,0,0,0,0,0,0,0,0,0],"sum_hessian":[2.9795587E2,9.635683E1,2.0159906E2,2.1529337E1,7.4827484E1,1.9140968E2,1.01893635E1,1.133317E1,1.0196168E1,1.6275913E1,5.855157E1,1.6089563E2,3.0514069E1],"tree_param":{"num_deleted":"0","num_feature":"27","num_nodes":"13","size_leaf_vector":"0"}},{"base_weights":[-3.8228494E-1,8.539419E-1,-9.683478E-1,-1.1430454E0,1.4706441E0,-1.042751E0,8.622239E-3,-3.2485407E-2,-2.3415621E-2,3.047146E-2,3.6519185E-2,-2.7120423E-2,-1.7561613E-2],"categories":[],"categories_nodes":[],"categories_segments":[],"categories_sizes":[],"default_left":[0,0,0,0,0,0,0,0,0,0,0,0,0],"id":16,"left_children":[1,3,5,7,9,11,-1,-1,-1,-1,-1,-1,-1],"loss_changes":[2.1410144E2,1.1704582E2,1.977649E1,7.8718376E-1,6.5515137E-1,4.8811646E0,0E0,0E0,0E0,0E0,0E0,0E0,0E0],"parents":[2147483647,0,0,1,1,2,2,3,3,4,4,5,5],"right_children":[2,4,6,8,10,12,-1,-1,-1,-1,-1,-1,-1],"split_conditions":[3.5543393E-2,3.3442888E-1,6.6785234E-1,4.980792E-3,1.0821137E-1,9.330517E-2,8.622239E-3,-3.2485407E-2,-2.3415621E-2,3.047146E-2,3.6519185E-2,-2.7120423E-2,-1.7561613E-2],"split_indices":[15,6,6,24,11,16,0,0,0,0,0,0,0],"split_type":[0,0,0,0,0,0,0,0,0,0,0,0,0],"sum_hessian":[2.9551266E2,9.5039116E1,2.0047354E2,2.2424486E1,7.2614624E1,1.8982141E2,1.0652129E1,1.026587E1,1.2158616E1,1.2610667E1,6.000396E1,1.5067284E2,3.9148575E1],"tree_param":{"num_deleted":"0","num_feature":"27","num_nodes":"13","size_leaf_vector":"0"}},{"base_weights":[-3.8489094E-1,8.504527E-1,-9.6767473E-1,-1.1077644E0,1.4365774E0,-1.0359247E0,6.9150715E-3,-3.0856444E-2,-2.2047728E-2,2.8871406E-2,3.627976E-2,-2.7173894E-2,-1.2728136E-2],"categories":[],"categories_nodes":[],"categories_segments":[],"categories_sizes":[],"default_left":[0,0,0,0,0,0,0,0,0,0,0,0,0],"id":17,"left_children":[1,3,5,7,9,11,-1,-1,-1,-1,-1,-1,-1],"loss_changes":[2.1046637E2,1.0755301E2,1.7005661E1,7.1728325E-1,1.1690063E0,8.690704E0,0E0,0E0,0E0,0E0,0E0,0E0,0E0],"parents":[2147483647,0,0,1,1,2,2,3,3,4,4,5,5],"right_children":[2,4,6,8,10,12,-1,-1,-1,-1,-1,-1,-1],"split_conditions":[3.5543393E-2,3.3442888E-1,6.6785234E-1,1.5850303E-1,4.4446494E-2,3.7391305E-1,6.9150715E-3,-3.0856444E-2,-2.2047728E-2,2.8871406E-2,3.627976E-2,-2.7173894E-2,-1.2728136E-2],"split_indices":[15,6,6,3,18,3,0,0,0,0,0,0,0],"split_type":[0,0,0,0,0,0,0,0,0,0,0,0,0],"sum_hessian":[2.9233865E2,9.370633E1,1.9863234E2,2.158649E1,7.211984E1,1.8838281E2,1.0249522E1,1.1442024E1,1.0144465E1,1.5892054E1,5.6227787E1,1.5983014E2,2.855268E1],"tree_param":{"num_deleted":"0","num_feature":"27","num_nodes":"13","size_leaf_vector":"0"}},{"base_weights":[-3.6940473E-1,8.3919376E-1,-9.424437E-1,-1.097034E0,1.4312527E0,-1.0097E0,6.741568E-3,-3.1520315E-2,-2.2122249E-2,2.84748E-2,3.6241643E-2,-2.6700858E-2,-1.2327073E-2],"categories":[],"categories_nodes":[],"categories_segments":[],"categories_sizes":[],"default_left":[0,0,0,0,0,0,0,0,0,0,0,0,0],"id":18,"left_children":[1,3,5,7,9,11,-1,-1,-1,-1,-1,-1,-1],"loss_changes":[2.0140416E2,1.0722338E2,1.6213013E1,8.264942E-1,1.2821808E0,9.079483E0,0E0,0E0,0E0,0E0,0E0,0E0,0E0],"parents":[2147483647,0,0,1,1,2,2,3,3,4,4,5,5],"right_children":[2,4,6,8,10,12,-1,-1,-1,-1,-1,-1,-1],"split_conditions":[3.5543393E-2,3.3442888E-1,4.350446E-1,4.980792E-3,4.4446494E-2,5.443038E-1,6.741568E-3,-3.1520315E-2,-2.2122249E-2,2.84748E-2,3.6241643E-2,-2.6700858E-2,-1.2327073E-2],"split_indices":[15,6,8,24,18,4,0,0,0,0,0,0,0],"split_type":[0,0,0,0,0,0,0,0,0,0,0,0,0],"sum_hessian":[2.908044E2,9.35331E1,1.9727132E2,2.1902945E1,7.163016E1,1.8698021E2,1.0291104E1,1.0104897E1,1.1798047E1,1.588845E1,5.5741703E1,1.5642397E2,3.0556252E1],"tree_param":{"num_deleted":"0","num_feature":"27","num_nodes":"13","size_leaf_vector":"0"}},{"base_weights":[-3.71083E-1,8.053789E-1,-9.252593E-1,-1.0838374E0,1.3970156E0,-9.92503E-1,5.942739E-3,-3.033264E-2,-2.1147056E-2,2.7867664E-2,3.534452E-2,-2.6032038E-2,-1.2216568E-2],"categories":[],"categories_nodes":[],"categories_segments":[],"categories_sizes":[],"default_left":[0,0,0,0,0,0,0,0,0,0,0,0,0],"id":19,"left_children":[1,3,5,7,9,11,-1,-1,-1,-1,-1,-1,-1],"loss_changes":[1.8776775E2,1.03080055E2,1.5425064E1,7.914982E-1,1.161438E0,7.8153534E0,0E0,0E0,0E0,0E0,0E0,0E0,0E0],"parents":[2147483647,0,0,1,1,2,2,3,3,4,4,5,5],"right_children":[2,4,6,8,10,12,-1,-1,-1,-1,-1,-1,-1],"split_conditions":[1.8101902E-1,3.3442888E-1,6.6785234E-1,1.5850303E-1,4.4446494E-2,3.7391305E-1,5.942739E-3,-3.033264E-2,-2.1147056E-2,2.7867664E-2,3.534452E-2,-2.6032038E-2,-1.2216568E-2],"split_indices":[7,6,6,3,18,3,0,0,0,0,0,0,0],"split_type":[0,0,0,0,0,0,0,0,0,0,0,0,0],"sum_hessian":[2.8800095E2,9.2222115E1,1.9577884E2,2.1993162E1,7.022896E1,1.8515276E2,1.0626076E1,1.1954103E1,1.0039058E1,1.551124E1,5.4717716E1,1.5707732E2,2.8075436E1],"tree_param":{"num_deleted":"0","num_feature":"27","num_nodes":"13","size_leaf_vector":"0"}},{"base_weights":[-3.6283544E-1,8.1067413E-1,-9.1083646E-1,-9.2719615E-1,1.308148E0,-9.786392E-1,7.1456176E-3,-2.9510839E-2,-1.5351556E-2,2.2130314E-2,3.317807E-2,-2.5827378E-2,-1.2338823E-2],"categories":[],"categories_nodes":[],"categories_segments":[],"categories_sizes":[],"default_left":[0,0,0,0,0,0,0,0,0,0,0,0,0],"id":20,"left_children":[1,3,5,7,9,11,-1,-1,-1,-1,-1,-1,-1],"loss_changes":[1.8467326E2,7.903088E1,1.6021912E1,1.7527885E0,1.873764E0,7.984192E0,0E0,0E0,0E0,0E0,0E0,0E0,0E0],"parents":[2147483647,0,0,1,1,2,2,3,3,4,4,5,5],"right_children":[2,4,6,8,10,12,-1,-1,-1,-1,-1,-1,-1],"split_conditions":[1.8101902E-1,9.519284E-2,4.350446E-1,2.4313544E-1,3.8113967E-1,5.443038E-1,7.1456176E-3,-2.9510839E-2,-1.5351556E-2,2.2130314E-2,3.317807E-2,-2.5827378E-2,-1.2338823E-2],"split_indices":[7,8,8,9,6,4,0,0,0,0,0,0,0],"split_type":[0,0,0,0,0,0,0,0,0,0,0,0,0],"sum_hessian":[2.8716714E2,9.141257E1,1.9575458E2,2.0343704E1,7.106886E1,1.8534409E2,1.0410483E1,1.0072254E1,1.0271449E1,1.0474291E1,6.0594574E1,1.547762E2,3.0567892E1],"tree_param":{"num_deleted":"0","num_feature":"27","num_nodes":"13","size_leaf_vector":"0"}},{"base_weights":[-3.6268532E-1,7.943528E-1,-8.9735264E-1,-1.046879E0,1.3762528E0,-9.615106E-1,5.3931694E-3,-2.9417971E-2,-2.1312216E-2,2.8470738E-2,3.4530878E-2,-2.5498053E-2,-1.0456836E-2],"categories":[],"categories_nodes":[],"categories_segments":[],"categories_sizes":[],"default_left":[0,0,0,0,0,0,0,0,0,0,0,0,0],"id":21,"left_children":[1,3,5,7,9,11,-1,-1,-1,-1,-1,-1,-1],"loss_changes":[1.7521133E2,9.590642E1,1.3931732E1,6.065178E-1,7.3895264E-1,9.258209E0,0E0,0E0,0E0,0E0,0E0,0E0,0E0],"parents":[2147483647,0,0,1,1,2,2,3,3,4,4,5,5],"right_children":[2,4,6,8,10,12,-1,-1,-1,-1,-1,-1,-1],"split_conditions":[1.8101902E-1,7.524221E-2,2.972708E-1,5.141041E-3,4.4446494E-2,3.7391305E-1,5.3931694E-3,-2.9417971E-2,-2.1312216E-2,2.8470738E-2,3.4530878E-2,-2.5498053E-2,-1.0456836E-2],"split_indices":[7,20,20,24,18,3,0,0,0,0,0,0,0],"split_type":[0,0,0,0,0,0,0,0,0,0,0,0,0],"sum_hessian":[2.832237E2,8.9513374E1,1.9371031E2,2.1495998E1,6.801737E1,1.8322379E2,1.0486528E1,1.0438527E1,1.105747E1,1.50230465E1,5.2994328E1,1.5510432E2,2.811946E1],"tree_param":{"num_deleted":"0","num_feature":"27","num_nodes":"13","size_leaf_vector":"0"}},{"base_weights":[-3.4455934E-1,7.8931004E-1,-8.6819184E-1,-1.019272E0,1.3459436E0,-9.355069E-1,8.176076E-3,-2.8533235E-2,-2.036751E-2,3.422307E-2,2.903538E-2,-2.4739575E-2,-1.1621353E-2],"categories":[],"categories_nodes":[],"categories_segments":[],"categories_sizes":[],"default_left":[0,0,0,0,0,0,0,0,0,0,0,0,0],"id":22,"left_children":[1,3,5,7,9,11,-1,-1,-1,-1,-1,-1,-1],"loss_changes":[1.6687503E2,8.938881E1,1.5624512E1,5.982208E-1,7.0446014E-1,7.457443E0,0E0,0E0,0E0,0E0,0E0,0E0,0E0],"parents":[2147483647,0,0,1,1,2,2,3,3,4,4,5,5],"right_children":[2,4,6,8,10,12,-1,-1,-1,-1,-1,-1,-1],"split_conditions":[1.8101902E-1,7.524221E-2,4.350446E-1,1.493671E-1,6.182472E-1,3.7391305E-1,8.176076E-3,-2.8533235E-2,-2.036751E-2,3.422307E-2,2.903538E-2,-2.4739575E-2,-1.1621353E-2],"split_indices":[7,20,8,3,10,3,0,0,0,0,0,0,0],"split_type":[0,0,0,0,0,0,0,0,0,0,0,0,0],"sum_hessian":[2.810609E2,8.879172E1,1.922692E2,2.0896301E1,6.789542E1,1.8211436E2,1.0154824E1,1.0786436E1,1.0109865E1,4.48387E1,2.3056713E1,1.5189117E2,3.0223188E1],"tree_param":{"num_deleted":"0","num_feature":"27","num_nodes":"13","size_leaf_vector":"0"}},{"base_weights":[-3.461139E-1,7.808321E-1,-8.7580824E-1,-1.0695106E0,1.3579975E0,-9.44768E-1,6.6981656E-3,-3.0019818E-2,-2.1439018E-2,2.7549852E-2,3.3790093E-2,-2.4922984E-2,-1.0833811E-2],"categories":[],"categories_nodes":[],"categories_segments":[],"categories_sizes":[],"default_left":[0,0,0,0,0,0,0,0,0,0,0,0,0],"id":23,"left_children":[1,3,5,7,9,11,-1,-1,-1,-1,-1,-1,-1],"loss_changes":[1.6932187E2,9.685796E1,1.5349411E1,6.8223E-1,6.4170074E-1,7.9950714E0,0E0,0E0,0E0,0E0,0E0,0E0,0E0],"parents":[2147483647,0,0,1,1,2,2,3,3,4,4,5,5],"right_children":[2,4,6,8,10,12,-1,-1,-1,-1,-1,-1,-1],"split_conditions":[1.8101902E-1,3.3442888E-1,6.6785234E-1,2.9113925E-1,1.0821137E-1,5.443038E-1,6.6981656E-3,-3.0019818E-2,-2.1439018E-2,2.7549852E-2,3.3790093E-2,-2.4922984E-2,-1.0833811E-2],"split_indices":[7,6,6,4,11,4,0,0,0,0,0,0,0],"split_type":[0,0,0,0,0,0,0,0,0,0,0,0,0],"sum_hessian":[2.8365036E2,9.0694275E1,1.9295607E2,2.1563435E1,6.9130844E1,1.8207173E2,1.0884335E1,1.0944581E1,1.0618853E1,1.1499221E1,5.7631622E1,1.5445424E2,2.7617495E1],"tree_param":{"num_deleted":"0","num_feature":"27","num_nodes":"13","size_leaf_vector":"0"}},{"base_weights":[-3.630367E-1,7.837223E-1,-8.9696693E-1,-1.0884845E0,1.3591297E0,-9.601875E-1,6.0065556E-3,-3.0406132E-2,-2.2492947E-2,2.6994819E-2,3.4430876E-2,-2.6390329E-2,-1.8932963E-2],"categories":[],"categories_nodes":[],"categories_segments":[],"categories_sizes":[],"default_left":[0,0,0,0,0,0,0,0,0,0,0,0,0],"id":24,"left_children":[1,3,5,7,9,11,-1,-1,-1,-1,-1,-1,-1],"loss_changes":[1.740364E2,9.7277145E1,1.4051498E1,5.6988716E-1,1.1343307E0,4.3153534E0,0E0,0E0,0E0,0E0,0E0,0E0,0E0],"parents":[2147483647,0,0,1,1,2,2,3,3,4,4,5,5],"right_children":[2,4,6,8,10,12,-1,-1,-1,-1,-1,-1,-1],"split_conditions":[3.5543393E-2,8.62504E-3,4.350446E-1,2.4313544E-1,4.4446494E-2,2.5650075E-1,6.0065556E-3,-3.0406132E-2,-2.2492947E-2,2.6994819E-2,3.4430876E-2,-2.6390329E-2,-1.8932963E-2],"split_indices":[15,21,8,9,18,19,0,0,0,0,0,0,0],"split_type":[0,0,0,0,0,0,0,0,0,0,0,0,0],"sum_hessian":[2.8423795E2,9.02981E1,1.9393985E2,2.1228024E1,6.907008E1,1.8380055E2,1.0139294E1,1.0083645E1,1.114438E1,1.5339818E1,5.3730263E1,1.04127884E2,7.9672676E1],"tree_param":{"num_deleted":"0","num_feature":"27","num_nodes":"13","size_leaf_vector":"0"}},{"base_weights":[-3.418203E-1,7.545639E-1,-8.4408456E-1,-1.0012932E0,1.315E0,-9.065524E-1,6.3105277E-3,-2.7864357E-2,-2.029989E-2,3.3494744E-2,2.8259993E-2,-2.4064053E-2,-1.0954004E-2],"categories":[],"categories_nodes":[],"categories_segments":[],"categories_sizes":[],"default_left":[0,0,0,0,0,0,0,0,0,0,0,0,0],"id":25,"left_children":[1,3,5,7,9,11,-1,-1,-1,-1,-1,-1,-1],"loss_changes":[1.5399335E2,8.64575E1,1.3247437E1,5.226288E-1,7.0401E-1,7.490082E0,0E0,0E0,0E0,0E0,0E0,0E0,0E0],"parents":[2147483647,0,0,1,1,2,2,3,3,4,4,5,5],"right_children":[2,4,6,8,10,12,-1,-1,-1,-1,-1,-1,-1],"split_conditions":[1.8604347E-2,8.62504E-3,1.0554741E-1,1.493671E-1,6.182472E-1,3.7391305E-1,6.3105277E-3,-2.7864357E-2,-2.029989E-2,3.3494744E-2,2.8259993E-2,-2.4064053E-2,-1.0954004E-2],"split_indices":[22,21,25,3,10,3,0,0,0,0,0,0,0],"split_type":[0,0,0,0,0,0,0,0,0,0,0,0,0],"sum_hessian":[2.7964395E2,8.785858E1,1.9178539E2,2.1257645E1,6.660094E1,1.8153014E2,1.0255245E1,1.0816637E1,1.0441009E1,4.395853E1,2.2642405E1,1.510694E2,3.0460735E1],"tree_param":{"num_deleted":"0","num_feature":"27","num_nodes":"13","size_leaf_vector":"0"}},{"base_weights":[-3.3980334E-1,7.507909E-1,-8.323721E-1,-9.954111E-1,1.299301E0,-8.9548063E-1,7.2972295E-3,-2.7237073E-2,-2.0631593E-2,2.5199892E-2,3.31061E-2,-2.3743147E-2,-1.0978658E-2],"categories":[],"categories_nodes":[],"categories_segments":[],"categories_sizes":[],"default_left":[0,0,0,0,0,0,0,0,0,0,0,0,0],"id":26,"left_children":[1,3,5,7,9,11,-1,-1,-1,-1,-1,-1,-1],"loss_changes":[1.4822333E2,8.22258E1,1.3614151E1,3.8462257E-1,1.2195587E0,7.053772E0,0E0,0E0,0E0,0E0,0E0,0E0,0E0],"parents":[2147483647,0,0,1,1,2,2,3,3,4,4,5,5],"right_children":[2,4,6,8,10,12,-1,-1,-1,-1,-1,-1,-1],"split_conditions":[1.8604347E-2,3.3442888E-1,4.350446E-1,1.493671E-1,4.4446494E-2,3.7391305E-1,7.2972295E-3,-2.7237073E-2,-2.0631593E-2,2.5199892E-2,3.31061E-2,-2.3743147E-2,-1.0978658E-2],"split_indices":[22,6,8,3,18,3,0,0,0,0,0,0,0],"split_type":[0,0,0,0,0,0,0,0,0,0,0,0,0],"sum_hessian":[2.759212E2,8.5847115E1,1.900741E2,2.0520145E1,6.532697E1,1.8006186E2,1.0012239E1,1.0486079E1,1.0034066E1,1.4622195E1,5.0704777E1,1.4978955E2,3.0272305E1],"tree_param":{"num_deleted":"0","num_feature":"27","num_nodes":"13","size_leaf_vector":"0"}},{"base_weights":[-3.4169787E-1,7.681438E-1,-8.443573E-1,-9.8883057E-1,1.3040041E0,-9.0695035E-1,4.5882417E-3,-2.2502366E-2,-2.519268E-2,2.640447E-2,3.2517254E-2,-2.3925731E-2,-1.0673597E-2],"categories":[],"categories_nodes":[],"categories_segments":[],"categories_sizes":[],"default_left":[0,0,0,0,0,0,0,0,0,0,0,0,0],"id":27,"left_children":[1,3,5,7,9,11,-1,-1,-1,-1,-1,-1,-1],"loss_changes":[1.5410445E2,8.107233E1,1.2312515E1,6.2603E-2,6.108322E-1,7.083206E0,0E0,0E0,0E0,0E0,0E0,0E0,0E0],"parents":[2147483647,0,0,1,1,2,2,3,3,4,4,5,5],"right_children":[2,4,6,8,10,12,-1,-1,-1,-1,-1,-1,-1],"split_conditions":[3.5543393E-2,3.3442888E-1,6.6785234E-1,3.9450252E-1,1.0821137E-1,3.7391305E-1,4.5882417E-3,-2.2502366E-2,-2.519268E-2,2.640447E-2,3.2517254E-2,-2.3925731E-2,-1.0673597E-2],"split_indices":[15,6,6,17,11,3,0,0,0,0,0,0,0],"split_type":[0,0,0,0,0,0,0,0,0,0,0,0,0],"sum_hessian":[2.7623514E2,8.610972E1,1.9012541E2,2.0124693E1,6.598502E1,1.7927924E2,1.0846181E1,1.0056E1,1.0068693E1,1.152191E1,5.4463116E1,1.5151985E2,2.7759384E1],"tree_param":{"num_deleted":"0","num_feature":"27","num_nodes":"13","size_leaf_vector":"0"}},{"base_weights":[-3.254913E-1,7.2893393E-1,-8.008286E-1,-9.475475E-1,1.271041E0,-8.639527E-1,6.5469216E-3,-2.6730923E-2,-1.8781092E-2,2.4339195E-2,3.2473326E-2,-2.2957778E-2,-1.05677815E-2],"categories":[],"categories_nodes":[],"categories_segments":[],"categories_sizes":[],"default_left":[0,0,0,0,0,0,0,0,0,0,0,0,0],"id":28,"left_children":[1,3,5,7,9,11,-1,-1,-1,-1,-1,-1,-1],"loss_changes":[1.356774E2,7.644568E1,1.2629707E1,5.579376E-1,1.2548904E0,6.5980988E0,0E0,0E0,0E0,0E0,0E0,0E0,0E0],"parents":[2147483647,0,0,1,1,2,2,3,3,4,4,5,5],"right_children":[2,4,6,8,10,12,-1,-1,-1,-1,-1,-1,-1],"split_conditions":[1.8101902E-1,7.524221E-2,4.350446E-1,1.493671E-1,4.4446494E-2,3.7391305E-1,6.5469216E-3,-2.6730923E-2,-1.8781092E-2,2.4339195E-2,3.2473326E-2,-2.2957778E-2,-1.05677815E-2],"split_indices":[7,20,8,3,18,3,0,0,0,0,0,0,0],"split_type":[0,0,0,0,0,0,0,0,0,0,0,0,0],"sum_hessian":[2.7070007E2,8.411348E1,1.8658661E2,2.0552855E1,6.3560623E1,1.7621329E2,1.0373312E1,1.0526441E1,1.0026415E1,1.42095175E1,4.9351105E1,1.4604782E2,3.0165468E1],"tree_param":{"num_deleted":"0","num_feature":"27","num_nodes":"13","size_leaf_vector":"0"}},{"base_weights":[-3.3873922E-1,7.571958E-1,-8.4137E-1,-1.0266788E0,1.3099941E0,-9.093688E-1,5.9656273E-3,-2.8456982E-2,-2.121982E-2,2.6501663E-2,3.2662813E-2,-2.4138356E-2,-1.0841126E-2],"categories":[],"categories_nodes":[],"categories_segments":[],"categories_sizes":[],"default_left":[0,0,0,0,0,0,0,0,0,0,0,0,0],"id":29,"left_children":[1,3,5,7,9,11,-1,-1,-1,-1,-1,-1,-1],"loss_changes":[1.5174252E2,8.541308E1,1.398143E1,4.6106339E-1,6.184845E-1,7.4774017E0,0E0,0E0,0E0,0E0,0E0,0E0,0E0],"parents":[2147483647,0,0,1,1,2,2,3,3,4,4,5,5],"right_children":[2,4,6,8,10,12,-1,-1,-1,-1,-1,-1,-1],"split_conditions":[3.5543393E-2,7.524221E-2,4.2848042E-1,7.6804743E-3,1.0821137E-1,3.7391305E-1,5.9656273E-3,-2.8456982E-2,-2.121982E-2,2.6501663E-2,3.2662813E-2,-2.4138356E-2,-1.0841126E-2],"split_indices":[15,20,8,16,11,3,0,0,0,0,0,0,0],"split_type":[0,0,0,0,0,0,0,0,0,0,0,0,0],"sum_hessian":[2.7546854E2,8.661438E1,1.8885416E2,2.0490715E1,6.6123665E1,1.7775237E2,1.1101791E1,1.0026777E1,1.0463938E1,1.1467159E1,5.4656506E1,1.4826015E2,2.9492214E1],"tree_param":{"num_deleted":"0","num_feature":"27","num_nodes":"13","size_leaf_vector":"0"}},{"base_weights":[-3.1838503E-1,7.1255344E-1,-7.8254455E-1,-9.3291056E-1,1.2533193E0,-8.427556E-1,5.8469446E-3,-2.623639E-2,-1.8679257E-2,2.4856739E-2,3.135325E-2,-2.2235075E-2,-1.09378565E-2],"categories":[],"categories_nodes":[],"categories_segments":[],"categories_sizes":[],"default_left":[0,0,0,0,0,0,0,0,0,0,0,0,0],"id":30,"left_children":[1,3,5,7,9,11,-1,-1,-1,-1,-1,-1,-1],"loss_changes":[1.2807303E2,7.393574E1,1.1389839E1,5.044079E-1,6.4998627E-1,5.371849E0,0E0,0E0,0E0,0E0,0E0,0E0,0E0],"parents":[2147483647,0,0,1,1,2,2,3,3,4,4,5,5],"right_children":[2,4,6,8,10,12,-1,-1,-1,-1,-1,-1,-1],"split_conditions":[3.5543393E-2,3.3442888E-1,4.350446E-1,1.493671E-1,1.0821137E-1,3.7391305E-1,5.8469446E-3,-2.623639E-2,-1.8679257E-2,2.4856739E-2,3.135325E-2,-2.2235075E-2,-1.09378565E-2],"split_indices":[15,6,8,3,11,3,0,0,0,0,0,0,0],"split_type":[0,0,0,0,0,0,0,0,0,0,0,0,0],"sum_hessian":[2.676432E2,8.309084E1,1.8455235E2,2.0552505E1,6.2538338E1,1.7431273E2,1.0239625E1,1.0390137E1,1.016237E1,1.083738E1,5.170096E1,1.4484912E2,2.9463606E1],"tree_param":{"num_deleted":"0","num_feature":"27","num_nodes":"13","size_leaf_vector":"0"}},{"base_weights":[-3.1017926E-1,7.205976E-1,-7.6767844E-1,-7.382027E-1,1.1975869E0,-8.302995E-1,7.3365737E-3,-1.5895076E-2,-1.9713387E-2,2.053183E-2,3.1333454E-2,-2.2193763E-2,-9.7261295E-3],"categories":[],"categories_nodes":[],"categories_segments":[],"categories_sizes":[],"default_left":[0,0,0,0,0,0,0,0,0,0,0,0,0],"id":31,"left_children":[1,3,5,7,9,11,-1,-1,-1,-1,-1,-1,-1],"loss_changes":[1.2494506E2,5.6673138E1,1.2317322E1,1.2575436E-1,2.15905E0,6.65699E0,0E0,0E0,0E0,0E0,0E0,0E0,0E0],"parents":[2147483647,0,0,1,1,2,2,3,3,4,4,5,5],"right_children":[2,4,6,8,10,12,-1,-1,-1,-1,-1,-1,-1],"split_conditions":[3.5543393E-2,1.0319698E-1,4.350446E-1,1.12180226E-1,4.4446494E-2,5.443038E-1,7.3365737E-3,-1.5895076E-2,-1.9713387E-2,2.053183E-2,3.1333454E-2,-2.2193763E-2,-9.7261295E-3],"split_indices":[15,8,8,12,18,4,0,0,0,0,0,0,0],"split_type":[0,0,0,0,0,0,0,0,0,0,0,0,0],"sum_hessian":[2.6494916E2,8.14458E1,1.8350337E2,2.00686E1,6.1377205E1,1.7337463E2,1.0128729E1,1.0036922E1,1.0031676E1,1.3922291E1,4.7454914E1,1.4321756E2,3.0157084E1],"tree_param":{"num_deleted":"0","num_feature":"27","num_nodes":"13","size_leaf_vector":"0"}},{"base_weights":[-3.31015E-1,7.583244E-1,-8.234272E-1,-9.836133E-1,1.3035507E0,-8.906541E-1,6.568157E-3,-2.815606E-2,-1.9281026E-2,2.6009627E-2,3.2588977E-2,-2.374841E-2,-9.457226E-3],"categories":[],"categories_nodes":[],"categories_segments":[],"categories_sizes":[],"default_left":[0,0,0,0,0,0,0,0,0,0,0,0,0],"id":32,"left_children":[1,3,5,7,9,11,-1,-1,-1,-1,-1,-1,-1],"loss_changes":[1.4633295E2,8.065874E1,1.3840118E1,6.8535614E-1,6.942291E-1,8.297256E0,0E0,0E0,0E0,0E0,0E0,0E0,0E0],"parents":[2147483647,0,0,1,1,2,2,3,3,4,4,5,5],"right_children":[2,4,6,8,10,12,-1,-1,-1,-1,-1,-1,-1],"split_conditions":[3.5543393E-2,3.3442888E-1,6.6785234E-1,1.493671E-1,1.0821137E-1,3.7391305E-1,6.568157E-3,-2.815606E-2,-1.9281026E-2,2.6009627E-2,3.2588977E-2,-2.374841E-2,-9.457226E-3],"split_indices":[15,6,6,3,11,3,0,0,0,0,0,0,0],"split_type":[0,0,0,0,0,0,0,0,0,0,0,0,0],"sum_hessian":[2.7280267E2,8.492559E1,1.8787708E2,2.0244932E1,6.468066E1,1.7701695E2,1.0860128E1,1.0131591E1,1.011334E1,1.13058605E1,5.3374794E1,1.4892873E2,2.8088219E1],"tree_param":{"num_deleted":"0","num_feature":"27","num_nodes":"13","size_leaf_vector":"0"}},{"base_weights":[-3.1124E-1,7.028839E-1,-7.6084435E-1,-2.1673538E-2,1.22675E0,-8.2181245E-1,4.7831926E-3,3.15191E-2,2.5834447E-2,-2.1782681E-2,-9.566378E-3],"categories":[],"categories_nodes":[],"categories_segments":[],"categories_sizes":[],"default_left":[0,0,0,0,0,0,0,0,0,0,0],"id":33,"left_children":[1,3,5,-1,7,9,-1,-1,-1,-1,-1],"loss_changes":[1.20554306E2,6.813782E1,1.0712639E1,0E0,7.628174E-1,5.9578247E0,0E0,0E0,0E0,0E0,0E0],"parents":[2147483647,0,0,1,1,2,2,4,4,5,5],"right_children":[2,4,6,-1,8,10,-1,-1,-1,-1,-1],"split_conditions":[1.8101902E-1,3.3442888E-1,6.6785234E-1,-2.1673538E-2,6.182472E-1,5.443038E-1,4.7831926E-3,3.15191E-2,2.5834447E-2,-2.1782681E-2,-9.566378E-3],"split_indices":[7,6,6,0,10,4,0,0,0,0,0],"split_type":[0,0,0,0,0,0,0,0,0,0,0],"sum_hessian":[2.6439886E2,8.1213646E1,1.8318524E2,2.0017387E1,6.1196255E1,1.7223743E2,1.0947807E1,4.0393185E1,2.080307E1,1.4457167E2,2.7665756E1],"tree_param":{"num_deleted":"0","num_feature":"27","num_nodes":"11","size_leaf_vector":"0"}},{"base_weights":[-3.3942947E-1,7.526028E-1,-8.2994473E-1,-9.8218113E-1,1.28994E0,-8.896142E-1,5.386731E-3,-2.5835102E-2,-2.154592E-2,2.510694E-2,3.285574E-2,-2.3617541E-2,-1.1018128E-2],"categories":[],"categories_nodes":[],"categories_segments":[],"categories_sizes":[],"default_left":[0,0,0,0,0,0,0,0,0,0,0,0,0],"id":34,"left_children":[1,3,5,7,9,11,-1,-1,-1,-1,-1,-1,-1],"loss_changes":[1.4659381E2,7.907098E1,1.1869019E1,1.5861511E-1,1.1664276E0,6.9328613E0,0E0,0E0,0E0,0E0,0E0,0E0,0E0],"parents":[2147483647,0,0,1,1,2,2,3,3,4,4,5,5],"right_children":[2,4,6,8,10,12,-1,-1,-1,-1,-1,-1,-1],"split_conditions":[3.5543393E-2,8.62504E-3,4.350446E-1,1.8619377E-2,4.4446494E-2,3.7391305E-1,5.386731E-3,-2.5835102E-2,-2.154592E-2,2.510694E-2,3.285574E-2,-2.3617541E-2,-1.1018128E-2],"split_indices":[15,21,8,15,18,3,0,0,0,0,0,0,0],"split_type":[0,0,0,0,0,0,0,0,0,0,0,0,0],"sum_hessian":[2.7366934E2,8.48245E1,1.8884485E2,2.0060188E1,6.476431E1,1.7872044E2,1.0124396E1,1.0018351E1,1.0041837E1,1.4585195E1,5.0179123E1,1.4805472E2,3.0665726E1],"tree_param":{"num_deleted":"0","num_feature":"27","num_nodes":"13","size_leaf_vector":"0"}},{"base_weights":[-2.9356307E-1,7.137366E-1,-7.3723596E-1,-2.1796728E-2,1.2134687E0,-8.009713E-1,7.172475E-3,2.2858355E-2,3.1158462E-2,-2.1249285E-2,-9.110695E-3],"categories":[],"categories_nodes":[],"categories_segments":[],"categories_sizes":[],"default_left":[0,0,0,0,0,0,0,0,0,0,0],"id":35,"left_children":[1,3,5,-1,7,9,-1,-1,-1,-1,-1],"loss_changes":[1.1593892E2,6.411978E1,1.1876244E1,0E0,1.2631302E0,5.749748E0,0E0,0E0,0E0,0E0,0E0],"parents":[2147483647,0,0,1,1,2,2,4,4,5,5],"right_children":[2,4,6,-1,8,10,-1,-1,-1,-1,-1],"split_conditions":[1.8604347E-2,3.3442888E-1,6.6785234E-1,-2.1796728E-2,4.4446494E-2,3.7391305E-1,7.172475E-3,2.2858355E-2,3.1158462E-2,-2.1249285E-2,-9.110695E-3],"split_indices":[22,6,6,0,18,3,0,0,0,0,0],"split_type":[0,0,0,0,0,0,0,0,0,0,0],"sum_hessian":[2.5942157E2,7.9324814E1,1.8009676E2,1.8723097E1,6.060172E1,1.6964633E2,1.045042E1,1.3814985E1,4.678673E1,1.426521E2,2.6994242E1],"tree_param":{"num_deleted":"0","num_feature":"27","num_nodes":"11","size_leaf_vector":"0"}},{"base_weights":[-2.947556E-1,6.814629E-1,-7.247886E-1,-2.1063209E-2,1.2012126E0,-7.85855E-1,5.845661E-3,2.2618461E-2,3.0887155E-2,-2.0833531E-2,-9.3709715E-3],"categories":[],"categories_nodes":[],"categories_segments":[],"categories_sizes":[],"default_left":[0,0,0,0,0,0,0,0,0,0,0],"id":36,"left_children":[1,3,5,-1,7,9,-1,-1,-1,-1,-1],"loss_changes":[1.0888315E2,6.4094666E1,1.0634247E1,0E0,1.2439804E0,5.2458115E0,0E0,0E0,0E0,0E0,0E0],"parents":[2147483647,0,0,1,1,2,2,4,4,5,5],"right_children":[2,4,6,-1,8,10,-1,-1,-1,-1,-1],"split_conditions":[1.8101902E-1,3.3442888E-1,6.6785234E-1,-2.1063209E-2,4.4446494E-2,5.443038E-1,5.845661E-3,2.2618461E-2,3.0887155E-2,-2.0833531E-2,-9.3709715E-3],"split_indices":[7,6,6,0,18,4,0,0,0,0,0],"split_type":[0,0,0,0,0,0,0,0,0,0,0],"sum_hessian":[2.593643E2,7.9313705E1,1.8005058E2,1.9870829E1,5.9442875E1,1.6935762E2,1.0692958E1,1.3776894E1,4.5665985E1,1.4157611E2,2.7781517E1],"tree_param":{"num_deleted":"0","num_feature":"27","num_nodes":"11","size_leaf_vector":"0"}},{"base_weights":[-2.8420097E-1,6.8427986E-1,-7.057142E-1,-2.117809E-2,1.2057885E0,-7.6966476E-1,7.406989E-3,2.2146493E-2,3.1165702E-2,-2.0567032E-2,-8.306872E-3],"categories":[],"categories_nodes":[],"categories_segments":[],"categories_sizes":[],"default_left":[0,0,0,0,0,0,0,0,0,0,0],"id":37,"left_children":[1,3,5,-1,7,9,-1,-1,-1,-1,-1],"loss_changes":[1.0430656E2,6.313329E1,1.1531204E1,0E0,1.4436264E0,5.9175034E0,0E0,0E0,0E0,0E0,0E0],"parents":[2147483647,0,0,1,1,2,2,4,4,5,5],"right_children":[2,4,6,-1,8,10,-1,-1,-1,-1,-1],"split_conditions":[1.8101902E-1,3.3442888E-1,6.6785234E-1,-2.117809E-2,4.4446494E-2,3.7391305E-1,7.406989E-3,2.2146493E-2,3.1165702E-2,-2.0567032E-2,-8.306872E-3],"split_indices":[7,6,6,0,18,3,0,0,0,0,0],"split_type":[0,0,0,0,0,0,0,0,0,0,0],"sum_hessian":[2.5550981E2,7.7482765E1,1.7802705E2,1.9390518E1,5.809225E1,1.674541E2,1.0572948E1,1.3426773E1,4.4665478E1,1.4007858E2,2.7375513E1],"tree_param":{"num_deleted":"0","num_feature":"27","num_nodes":"11","size_leaf_vector":"0"}},{"base_weights":[-3.2296586E-1,7.351743E-1,-7.9719573E-1,-9.262644E-1,1.261028E0,-8.580278E-1,5.088732E-3,-2.50199E-2,-1.9664954E-2,2.4387335E-2,3.2174215E-2,-2.2680106E-2,-9.981726E-3],"categories":[],"categories_nodes":[],"categories_segments":[],"categories_sizes":[],"default_left":[0,0,0,0,0,0,0,0,0,0,0,0,0],"id":38,"left_children":[1,3,5,7,9,11,-1,-1,-1,-1,-1,-1,-1],"loss_changes":[1.3509158E2,7.2790085E1,1.1401398E1,2.4685669E-1,1.1543808E0,6.412796E0,0E0,0E0,0E0,0E0,0E0,0E0,0E0],"parents":[2147483647,0,0,1,1,2,2,3,3,4,4,5,5],"right_children":[2,4,6,8,10,12,-1,-1,-1,-1,-1,-1,-1],"split_conditions":[1.8604347E-2,3.3442888E-1,6.6785234E-1,3.806685E-1,4.4446494E-2,5.443038E-1,5.088732E-3,-2.50199E-2,-1.9664954E-2,2.4387335E-2,3.2174215E-2,-2.2680106E-2,-9.981726E-3],"split_indices":[23,6,6,10,18,4,0,0,0,0,0,0,0],"split_type":[0,0,0,0,0,0,0,0,0,0,0,0,0],"sum_hessian":[2.692122E2,8.3314255E1,1.8589792E2,2.0029755E1,6.32845E1,1.7531967E2,1.0578251E1,1.0003556E1,1.0026198E1,1.431043E1,4.897407E1,1.478968E2,2.7422867E1],"tree_param":{"num_deleted":"0","num_feature":"27","num_nodes":"13","size_leaf_vector":"0"}},{"base_weights":[-2.8546533E-1,6.793857E-1,-7.1075845E-1,-2.0470953E-2,1.1884199E0,-7.907874E-1,-7.471075E-4,3.0663328E-2,2.4822356E-2,-2.1333745E-2,-1.553027E-2],"categories":[],"categories_nodes":[],"categories_segments":[],"categories_sizes":[],"default_left":[0,0,0,0,0,0,0,0,0,0,0],"id":39,"left_children":[1,3,5,-1,7,9,-1,-1,-1,-1,-1],"loss_changes":[1.0441193E2,6.0555E1,9.607536E0,0E0,7.713547E-1,2.1758194E0,0E0,0E0,0E0,0E0,0E0],"parents":[2147483647,0,0,1,1,2,2,4,4,5,5],"right_children":[2,4,6,-1,8,10,-1,-1,-1,-1,-1],"split_conditions":[1.8101902E-1,7.524221E-2,3.7211078E-1,-2.0470953E-2,6.182472E-1,2.5718275E-1,-7.471075E-4,3.0663328E-2,2.4822356E-2,-2.1333745E-2,-1.553027E-2],"split_indices":[7,20,19,0,10,19,0,0,0,0,0],"split_type":[0,0,0,0,0,0,0,0,0,0,0],"sum_hessian":[2.5444841E2,7.784441E1,1.76604E2,1.9450817E1,5.83936E1,1.5800247E2,1.8601519E1,3.8387928E1,2.0005672E1,9.642987E1,6.1572605E1],"tree_param":{"num_deleted":"0","num_feature":"27","num_nodes":"11","size_leaf_vector":"0"}},{"base_weights":[-2.7945364E-1,6.618493E-1,-6.868665E-1,-2.0472595E-2,1.1667995E0,-7.4414986E-1,5.910196E-3,3.018298E-2,2.428722E-2,-2.0148229E-2,-7.6140137E-3],"categories":[],"categories_nodes":[],"categories_segments":[],"categories_sizes":[],"default_left":[0,0,0,0,0,0,0,0,0,0,0],"id":40,"left_children":[1,3,5,-1,7,9,-1,-1,-1,-1,-1],"loss_changes":[9.646156E1,5.7960632E1,9.371613E0,0E0,7.704239E-1,6.466011E0,0E0,0E0,0E0,0E0,0E0],"parents":[2147483647,0,0,1,1,2,2,4,4,5,5],"right_children":[2,4,6,-1,8,10,-1,-1,-1,-1,-1],"split_conditions":[3.5543393E-2,3.3442888E-1,4.350446E-1,-2.0472595E-2,6.182472E-1,5.443038E-1,5.910196E-3,3.018298E-2,2.428722E-2,-2.0148229E-2,-7.6140137E-3],"split_indices":[15,6,8,0,10,4,0,0,0,0,0],"split_type":[0,0,0,0,0,0,0,0,0,0,0],"sum_hessian":[2.5152914E2,7.598044E1,1.755487E2,1.9034119E1,5.694632E1,1.6538312E2,1.016558E1,3.7220894E1,1.9725426E1,1.3634372E2,2.9039396E1],"tree_param":{"num_deleted":"0","num_feature":"27","num_nodes":"11","size_leaf_vector":"0"}},{"base_weights":[-2.6653835E-1,6.748929E-1,-6.7014337E-1,-2.0886432E-2,1.1334727E0,-7.292621E-1,5.639872E-3,2.1203985E-2,2.9219339E-2,-1.9623425E-2,-8.4096305E-3],"categories":[],"categories_nodes":[],"categories_segments":[],"categories_sizes":[],"default_left":[0,0,0,0,0,0,0,0,0,0,0],"id":41,"left_children":[1,3,5,-1,7,9,-1,-1,-1,-1,-1],"loss_changes":[9.41877E1,5.2561028E1,9.272568E0,0E0,1.1376038E0,5.2296295E0,0E0,0E0,0E0,0E0,0E0],"parents":[2147483647,0,0,1,1,2,2,4,4,5,5],"right_children":[2,4,6,-1,8,10,-1,-1,-1,-1,-1],"split_conditions":[1.8101902E-1,3.2234216E-1,1.0242324E-1,-2.0886432E-2,4.4446494E-2,3.7391305E-1,5.639872E-3,2.1203985E-2,2.9219339E-2,-1.9623425E-2,-8.4096305E-3],"split_indices":[7,6,25,0,18,3,0,0,0,0,0],"split_type":[0,0,0,0,0,0,0,0,0,0,0],"sum_hessian":[2.4788327E2,7.438219E1,1.7350108E2,1.7059393E1,5.7322796E1,1.628512E2,1.0649893E1,1.3461842E1,4.3860954E1,1.3329633E2,2.9554863E1],"tree_param":{"num_deleted":"0","num_feature":"27","num_nodes":"11","size_leaf_vector":"0"}},{"base_weights":[-2.7339742E-1,6.4666295E-1,-6.6195726E-1,-2.1511491E-2,1.1201992E0,-7.353418E-1,3.3858523E-3,2.0559419E-2,2.8962882E-2,-1.9320054E-2,-9.422264E-3],"categories":[],"categories_nodes":[],"categories_segments":[],"categories_sizes":[],"default_left":[0,0,0,0,0,0,0,0,0,0,0],"id":42,"left_children":[1,3,5,-1,7,9,-1,-1,-1,-1,-1],"loss_changes":[8.791504E1,5.3199963E1,1.0180382E1,0E0,1.2061462E0,3.5883026E0,0E0,0E0,0E0,0E0,0E0],"parents":[2147483647,0,0,1,1,2,2,4,4,5,5],"right_children":[2,4,6,-1,8,10,-1,-1,-1,-1,-1],"split_conditions":[1.8101902E-1,7.10067E-2,3.8212255E-1,-2.1511491E-2,4.4446494E-2,3.7391305E-1,3.3858523E-3,2.0559419E-2,2.8962882E-2,-1.9320054E-2,-9.422264E-3],"split_indices":[7,20,19,0,18,3,0,0,0,0,0],"split_type":[0,0,0,0,0,0,0,0,0,0,0],"sum_hessian":[2.4591615E2,7.30181E1,1.7289806E2,1.7184072E1,5.5834023E1,1.5840971E2,1.4488345E1,1.2929685E1,4.290434E1,1.3304051E2,2.5369204E1],"tree_param":{"num_deleted":"0","num_feature":"27","num_nodes":"11","size_leaf_vector":"0"}},{"base_weights":[-2.9419425E-1,6.870644E-1,-7.155431E-1,-2.0588577E-2,1.1929913E0,-7.773092E-1,5.6107477E-3,2.3244938E-2,2.996278E-2,-2.0777728E-2,-8.527709E-3],"categories":[],"categories_nodes":[],"categories_segments":[],"categories_sizes":[],"default_left":[0,0,0,0,0,0,0,0,0,0,0],"id":43,"left_children":[1,3,5,-1,7,9,-1,-1,-1,-1,-1],"loss_changes":[1.0706664E2,6.0638603E1,1.0610252E1,0E0,6.623535E-1,6.0678024E0,0E0,0E0,0E0,0E0,0E0],"parents":[2147483647,0,0,1,1,2,2,4,4,5,5],"right_children":[2,4,6,-1,8,10,-1,-1,-1,-1,-1],"split_conditions":[1.8101902E-1,3.3442888E-1,6.6785234E-1,-2.0588577E-2,1.0821137E-1,3.7391305E-1,5.6107477E-3,2.3244938E-2,2.996278E-2,-2.0777728E-2,-8.527709E-3],"split_indices":[7,6,6,0,11,3,0,0,0,0,0],"split_type":[0,0,0,0,0,0,0,0,0,0,0],"sum_hessian":[2.5895676E2,7.7791504E1,1.8116527E2,1.9229757E1,5.8561745E1,1.7008577E2,1.1079487E1,1.0376404E1,4.818534E1,1.4189146E2,2.819431E1],"tree_param":{"num_deleted":"0","num_feature":"27","num_nodes":"11","size_leaf_vector":"0"}},{"base_weights":[-2.7195433E-1,6.25993E-1,-6.480036E-1,-2.0796139E-2,1.1332617E0,-7.2740966E-1,5.181913E-4,2.0495674E-2,2.9450106E-2,-2.0115508E-2,-1.3532448E-2],"categories":[],"categories_nodes":[],"categories_segments":[],"categories_sizes":[],"default_left":[0,0,0,0,0,0,0,0,0,0,0],"id":44,"left_children":[1,3,5,-1,7,9,-1,-1,-1,-1,-1],"loss_changes":[8.24589E1,5.4417274E1,9.1501465E0,0E0,1.3381882E0,2.7288742E0,0E0,0E0,0E0,0E0,0E0],"parents":[2147483647,0,0,1,1,2,2,4,4,5,5],"right_children":[2,4,6,-1,8,10,-1,-1,-1,-1,-1],"split_conditions":[1.8101902E-1,3.3442888E-1,3.7360203E-1,-2.0796139E-2,4.4446494E-2,2.5718275E-1,5.181913E-4,2.0495674E-2,2.9450106E-2,-2.0115508E-2,-1.3532448E-2],"split_indices":[7,6,19,0,18,19,0,0,0,0,0],"split_type":[0,0,0,0,0,0,0,0,0,0,0],"sum_hessian":[2.4419678E2,7.208012E1,1.7211665E2,1.8322863E1,5.3757256E1,1.538672E2,1.8249449E1,1.2716498E1,4.104076E1,9.3754E1,6.0113213E1],"tree_param":{"num_deleted":"0","num_feature":"27","num_nodes":"11","size_leaf_vector":"0"}},{"base_weights":[-2.9533905E-1,6.7867434E-1,-7.1961594E-1,-2.1365454E-2,1.1947099E0,-7.8061664E-1,5.953326E-3,2.2394331E-2,3.0721484E-2,-2.0956976E-2,-7.901844E-3],"categories":[],"categories_nodes":[],"categories_segments":[],"categories_sizes":[],"default_left":[0,0,0,0,0,0,0,0,0,0,0],"id":45,"left_children":[1,3,5,-1,7,9,-1,-1,-1,-1,-1],"loss_changes":[1.07057396E2,6.3463524E1,1.063887E1,0E0,1.244339E0,6.7907944E0,0E0,0E0,0E0,0E0,0E0],"parents":[2147483647,0,0,1,1,2,2,4,4,5,5],"right_children":[2,4,6,-1,8,10,-1,-1,-1,-1,-1],"split_conditions":[1.8101902E-1,7.524221E-2,2.972708E-1,-2.1365454E-2,4.4446494E-2,3.7391305E-1,5.953326E-3,2.2394331E-2,3.0721484E-2,-2.0956976E-2,-7.901844E-3],"split_indices":[7,20,20,0,18,3,0,0,0,0,0],"split_type":[0,0,0,0,0,0,0,0,0,0,0],"sum_hessian":[2.5906018E2,7.860532E1,1.8045486E2,1.9495962E1,5.9109364E1,1.6974135E2,1.07135105E1,1.3540681E1,4.5568684E1,1.4204594E2,2.7695398E1],"tree_param":{"num_deleted":"0","num_feature":"27","num_nodes":"11","size_leaf_vector":"0"}},{"base_weights":[-2.4395446E-1,6.565457E-1,-6.2234575E-1,-1.9208632E-2,1.1599805E0,-6.806973E-1,6.0549555E-3,2.3126407E-2,3.0400138E-2,-1.8529292E-2,-6.935068E-3],"categories":[],"categories_nodes":[],"categories_segments":[],"categories_sizes":[],"default_left":[0,0,0,0,0,0,0,0,0,0,0],"id":46,"left_children":[1,3,5,-1,7,9,-1,-1,-1,-1,-1],"loss_changes":[8.2153015E1,5.218117E1,8.652145E0,0E0,1.0706253E0,5.4792175E0,0E0,0E0,0E0,0E0,0E0],"parents":[2147483647,0,0,1,1,2,2,4,4,5,5],"right_children":[2,4,6,-1,8,10,-1,-1,-1,-1,-1],"split_conditions":[1.8101902E-1,7.524221E-2,1.0242324E-1,-1.9208632E-2,4.8661746E-2,3.7391305E-1,6.0549555E-3,2.3126407E-2,3.0400138E-2,-1.8529292E-2,-6.935068E-3],"split_indices":[7,20,25,0,18,3,0,0,0,0,0],"split_type":[0,0,0,0,0,0,0,0,0,0,0],"sum_hessian":[2.4109969E2,7.133508E1,1.6976459E2,1.8356125E1,5.2978962E1,1.5913318E2,1.0631409E1,1.7654243E1,3.5324715E1,1.3014177E2,2.8991419E1],"tree_param":{"num_deleted":"0","num_feature":"27","num_nodes":"11","size_leaf_vector":"0"}},{"base_weights":[-2.8297898E-1,6.5295166E-1,-6.7432797E-1,-1.9819517E-2,1.1481991E0,-7.2940254E-1,5.576476E-3,2.0886196E-2,2.9758183E-2,-1.9522378E-2,-8.666648E-3],"categories":[],"categories_nodes":[],"categories_segments":[],"categories_sizes":[],"default_left":[0,0,0,0,0,0,0,0,0,0,0],"id":47,"left_children":[1,3,5,-1,7,9,-1,-1,-1,-1,-1],"loss_changes":[9.111289E1,5.3568428E1,8.748283E0,0E0,1.3272171E0,4.8982544E0,0E0,0E0,0E0,0E0,0E0],"parents":[2147483647,0,0,1,1,2,2,4,4,5,5],"right_children":[2,4,6,-1,8,10,-1,-1,-1,-1,-1],"split_conditions":[1.8101902E-1,7.524221E-2,1.0554741E-1,-1.9819517E-2,4.4446494E-2,3.7391305E-1,5.576476E-3,2.0886196E-2,2.9758183E-2,-1.9522378E-2,-8.666648E-3],"split_indices":[7,20,25,0,18,3,0,0,0,0,0],"split_type":[0,0,0,0,0,0,0,0,0,0,0],"sum_hessian":[2.4875401E2,7.334509E1,1.7540892E2,1.8438723E1,5.490637E1,1.653525E2,1.0056416E1,1.2786068E1,4.21203E1,1.359446E2,2.94079E1],"tree_param":{"num_deleted":"0","num_feature":"27","num_nodes":"11","size_leaf_vector":"0"}},{"base_weights":[-2.8418505E-1,6.3954544E-1,-6.7326343E-1,-1.9709274E-2,1.148454E0,-7.3338306E-1,5.3432533E-3,2.117526E-2,2.9730197E-2,-1.9772982E-2,-7.445122E-3],"categories":[],"categories_nodes":[],"categories_segments":[],"categories_sizes":[],"default_left":[0,0,0,0,0,0,0,0,0,0,0],"id":48,"left_children":[1,3,5,-1,7,9,-1,-1,-1,-1,-1],"loss_changes":[8.9846436E1,5.4926247E1,9.46273E0,0E0,1.2510452E0,6.052109E0,0E0,0E0,0E0,0E0,0E0],"parents":[2147483647,0,0,1,1,2,2,4,4,5,5],"right_children":[2,4,6,-1,8,10,-1,-1,-1,-1,-1],"split_conditions":[1.8101902E-1,3.3442888E-1,6.6785234E-1,-1.9709274E-2,4.4446494E-2,5.443038E-1,5.3432533E-3,2.117526E-2,2.9730197E-2,-1.9772982E-2,-7.445122E-3],"split_indices":[7,6,6,0,18,4,0,0,0,0,0],"split_type":[0,0,0,0,0,0,0,0,0,0,0],"sum_hessian":[2.4998653E2,7.40886E1,1.7589793E2,1.9181444E1,5.4907154E1,1.6482411E2,1.1073828E1,1.3041042E1,4.186611E1,1.3694365E2,2.7880457E1],"tree_param":{"num_deleted":"0","num_feature":"27","num_nodes":"11","size_leaf_vector":"0"}},{"base_weights":[-2.5807992E-1,6.227098E-1,-6.2210137E-1,-1.8100135E-2,1.106462E0,-7.044503E-1,1.055033E-3,1.9320618E-2,2.890133E-2,-2.6578475E-2,-1.5540243E-2],"categories":[],"categories_nodes":[],"categories_segments":[],"categories_sizes":[],"default_left":[0,0,0,0,0,0,0,0,0,0,0],"id":49,"left_children":[1,3,5,-1,7,9,-1,-1,-1,-1,-1],"loss_changes":[7.659843E1,4.640881E1,9.26889E0,0E0,1.4493217E0,3.5949783E0,0E0,0E0,0E0,0E0,0E0],"parents":[2147483647,0,0,1,1,2,2,4,4,5,5],"right_children":[2,4,6,-1,8,10,-1,-1,-1,-1,-1],"split_conditions":[1.8101902E-1,3.3442888E-1,3.7211078E-1,-1.8100135E-2,4.4446494E-2,2.2184929E-4,1.055033E-3,1.9320618E-2,2.890133E-2,-2.6578475E-2,-1.5540243E-2],"split_indices":[7,6,19,0,18,14,0,0,0,0,0],"split_type":[0,0,0,0,0,0,0,0,0,0,0],"sum_hessian":[2.3890132E2,6.9862015E1,1.690393E2,1.8199633E1,5.1662384E1,1.5043451E2,1.8604801E1,1.1948268E1,3.9714115E1,1.9756474E1,1.3067804E2],"tree_param":{"num_deleted":"0","num_feature":"27","num_nodes":"11","size_leaf_vector":"0"}},{"base_weights":[-2.566178E-1,6.269764E-1,-6.164979E-1,-1.3214276E-2,1.0841894E0,-6.7263514E-1,6.2205647E-3,2.0946596E-2,2.8232927E-2,-1.8247271E-2,-7.126754E-3],"categories":[],"categories_nodes":[],"categories_segments":[],"categories_sizes":[],"default_left":[0,0,0,0,0,0,0,0,0,0,0],"id":50,"left_children":[1,3,5,-1,7,9,-1,-1,-1,-1,-1],"loss_changes":[7.522317E1,3.6776966E1,8.251579E0,0E0,9.186859E-1,5.000847E0,0E0,0E0,0E0,0E0,0E0],"parents":[2147483647,0,0,1,1,2,2,4,4,5,5],"right_children":[2,4,6,-1,8,10,-1,-1,-1,-1,-1],"split_conditions":[1.8101902E-1,1.0767984E-1,4.350446E-1,-1.3214276E-2,1.3194023E-1,3.7391305E-1,6.2205647E-3,2.0946596E-2,2.8232927E-2,-1.8247271E-2,-7.126754E-3],"split_indices":[7,8,8,0,11,3,0,0,0,0,0],"split_type":[0,0,0,0,0,0,0,0,0,0,0],"sum_hessian":[2.3655865E2,6.846346E1,1.6809518E2,1.9179203E1,4.928426E1,1.579548E2,1.0140393E1,1.4099811E1,3.518445E1,1.2919615E2,2.875865E1],"tree_param":{"num_deleted":"0","num_feature":"27","num_nodes":"11","size_leaf_vector":"0"}},{"base_weights":[-2.8784156E-1,6.399481E-1,-6.8093985E-1,-2.0237226E-2,1.1480936E0,-7.427155E-1,5.629217E-3,2.0894479E-2,2.971946E-2,-2.0202769E-2,-6.2854807E-3],"categories":[],"categories_nodes":[],"categories_segments":[],"categories_sizes":[],"default_left":[0,0,0,0,0,0,0,0,0,0,0],"id":51,"left_children":[1,3,5,-1,7,9,-1,-1,-1,-1,-1],"loss_changes":[9.0686485E1,5.561563E1,9.8652725E0,0E0,1.3059311E0,7.488655E0,0E0,0E0,0E0,0E0,0E0],"parents":[2147483647,0,0,1,1,2,2,4,4,5,5],"right_children":[2,4,6,-1,8,10,-1,-1,-1,-1,-1],"split_conditions":[3.5543393E-2,3.3442888E-1,6.6785234E-1,-2.0237226E-2,4.4446494E-2,3.7391305E-1,5.629217E-3,2.0894479E-2,2.971946E-2,-2.0202769E-2,-6.2854807E-3],"split_indices":[15,6,6,0,18,3,0,0,0,0,0],"split_type":[0,0,0,0,0,0,0,0,0,0,0],"sum_hessian":[2.4865083E2,7.399873E1,1.746521E2,1.8922197E1,5.5076534E1,1.6359909E2,1.1053015E1,1.2668221E1,4.2408314E1,1.3667992E2,2.6919174E1],"tree_param":{"num_deleted":"0","num_feature":"27","num_nodes":"11","size_leaf_vector":"0"}},{"base_weights":[-2.5927597E-1,6.132052E-1,-6.2027717E-1,-1.9220611E-2,1.1122842E0,-7.006335E-1,8.530453E-4,2.9691812E-2,2.3996739E-2,-2.6840933E-2,-1.5388514E-2],"categories":[],"categories_nodes":[],"categories_segments":[],"categories_sizes":[],"default_left":[0,0,0,0,0,0,0,0,0,0,0],"id":52,"left_children":[1,3,5,-1,7,9,-1,-1,-1,-1,-1],"loss_changes":[7.608795E1,4.9757908E1,9.00267E0,0E0,7.2789764E-1,3.9273453E0,0E0,0E0,0E0,0E0,0E0],"parents":[2147483647,0,0,1,1,2,2,4,4,5,5],"right_children":[2,4,6,-1,8,10,-1,-1,-1,-1,-1],"split_conditions":[1.8101902E-1,3.3442888E-1,3.7211078E-1,-1.9220611E-2,4.6420002E-1,2.2184929E-4,8.530453E-4,2.9691812E-2,2.3996739E-2,-2.6840933E-2,-1.5388514E-2],"split_indices":[7,6,19,0,6,14,0,0,0,0,0],"split_type":[0,0,0,0,0,0,0,0,0,0,0],"sum_hessian":[2.4157343E2,7.070074E1,1.708727E2,1.848135E1,5.2219387E1,1.5221718E2,1.8655514E1,2.5941751E1,2.6277636E1,2.0060808E1,1.3215637E2],"tree_param":{"num_deleted":"0","num_feature":"27","num_nodes":"11","size_leaf_vector":"0"}},{"base_weights":[-2.874386E-1,6.2573177E-1,-6.688354E-1,-2.011413E-2,1.1283766E0,-7.4676985E-1,-7.190121E-4,2.9377159E-2,2.3135658E-2,-2.797167E-2,-1.6568853E-2],"categories":[],"categories_nodes":[],"categories_segments":[],"categories_sizes":[],"default_left":[0,0,0,0,0,0,0,0,0,0,0],"id":53,"left_children":[1,3,5,-1,7,9,-1,-1,-1,-1,-1],"loss_changes":[8.497722E1,5.274227E1,8.571152E0,0E0,8.109207E-1,3.7873764E0,0E0,0E0,0E0,0E0,0E0],"parents":[2147483647,0,0,1,1,2,2,4,4,5,5],"right_children":[2,4,6,-1,8,10,-1,-1,-1,-1,-1],"split_conditions":[1.8604347E-2,3.3442888E-1,3.7211078E-1,-2.011413E-2,6.182472E-1,2.2184929E-4,-7.190121E-4,2.9377159E-2,2.3135658E-2,-2.797167E-2,-1.6568853E-2],"split_indices":[23,6,19,0,10,14,0,0,0,0,0],"split_type":[0,0,0,0,0,0,0,0,0,0,0],"sum_hessian":[2.439898E2,7.1882515E1,1.7210728E2,1.8412058E1,5.3470455E1,1.533987E2,1.8708597E1,3.4939537E1,1.853092E1,1.9394728E1,1.3400397E2],"tree_param":{"num_deleted":"0","num_feature":"27","num_nodes":"11","size_leaf_vector":"0"}},{"base_weights":[-2.4139807E-1,6.138986E-1,-5.8928275E-1,-1.8963564E-2,1.0603079E0,-6.4691675E-1,6.80438E-3,1.873299E-2,2.7484464E-2,-1.7711097E-2,-5.705199E-3],"categories":[],"categories_nodes":[],"categories_segments":[],"categories_sizes":[],"default_left":[0,0,0,0,0,0,0,0,0,0,0],"id":54,"left_children":[1,3,5,-1,7,9,-1,-1,-1,-1,-1],"loss_changes":[6.941203E1,4.2160576E1,8.328732E0,0E0,1.1497612E0,5.580925E0,0E0,0E0,0E0,0E0,0E0],"parents":[2147483647,0,0,1,1,2,2,4,4,5,5],"right_children":[2,4,6,-1,8,10,-1,-1,-1,-1,-1],"split_conditions":[1.8101902E-1,3.2234216E-1,6.6785234E-1,-1.8963564E-2,7.2393275E-5,5.443038E-1,6.80438E-3,1.873299E-2,2.7484464E-2,-1.7711097E-2,-5.705199E-3],"split_indices":[7,6,6,0,14,4,0,0,0,0,0],"split_type":[0,0,0,0,0,0,0,0,0,0,0],"sum_hessian":[2.3328159E2,6.7450264E1,1.6583131E2,1.630585E1,5.1144417E1,1.5554405E2,1.0287259E1,1.1174306E1,3.997011E1,1.2822319E2,2.732086E1],"tree_param":{"num_deleted":"0","num_feature":"27","num_nodes":"11","size_leaf_vector":"0"}},{"base_weights":[-2.5918123E-1,6.1423314E-1,-6.1949503E-1,-1.9576287E-2,1.1093485E0,-6.8657976E-1,2.7153115E-3,1.9536583E-2,2.8941184E-2,-2.6374066E-2,-1.5158466E-2],"categories":[],"categories_nodes":[],"categories_segments":[],"categories_sizes":[],"default_left":[0,0,0,0,0,0,0,0,0,0,0],"id":55,"left_children":[1,3,5,-1,7,9,-1,-1,-1,-1,-1],"loss_changes":[7.5223145E1,4.928508E1,8.3107605E0,0E0,1.4056282E0,3.6632233E0,0E0,0E0,0E0,0E0,0E0],"parents":[2147483647,0,0,1,1,2,2,4,4,5,5],"right_children":[2,4,6,-1,8,10,-1,-1,-1,-1,-1],"split_conditions":[1.8101902E-1,3.3442888E-1,3.8212255E-1,-1.9576287E-2,4.4446494E-2,2.2184929E-4,2.7153115E-3,1.9536583E-2,2.8941184E-2,-2.6374066E-2,-1.5158466E-2],"split_indices":[7,6,19,0,18,14,0,0,0,0,0],"split_type":[0,0,0,0,0,0,0,0,0,0,0],"sum_hessian":[2.3902763E2,6.980855E1,1.6921909E2,1.7991896E1,5.181665E1,1.5501447E2,1.4204616E1,1.204437E1,3.977228E1,1.9355679E1,1.3565878E2],"tree_param":{"num_deleted":"0","num_feature":"27","num_nodes":"11","size_leaf_vector":"0"}},{"base_weights":[-2.3723298E-1,6.010352E-1,-5.707835E-1,-1.692608E-2,1.0704027E0,-6.271147E-1,6.8275016E-3,1.853008E-2,2.8163023E-2,-1.7279908E-2,-5.7113674E-3],"categories":[],"categories_nodes":[],"categories_segments":[],"categories_sizes":[],"default_left":[0,0,0,0,0,0,0,0,0,0,0],"id":56,"left_children":[1,3,5,-1,7,9,-1,-1,-1,-1,-1],"loss_changes":[6.473229E1,4.0297997E1,7.966156E0,0E0,1.4241753E0,5.418659E0,0E0,0E0,0E0,0E0,0E0],"parents":[2147483647,0,0,1,1,2,2,4,4,5,5],"right_children":[2,4,6,-1,8,10,-1,-1,-1,-1,-1],"split_conditions":[1.8101902E-1,3.3442888E-1,1.0554741E-1,-1.692608E-2,4.4446494E-2,3.7391305E-1,6.8275016E-3,1.853008E-2,2.8163023E-2,-1.7279908E-2,-5.7113674E-3],"split_indices":[7,6,25,0,18,3,0,0,0,0,0],"split_type":[0,0,0,0,0,0,0,0,0,0,0],"sum_hessian":[2.3151233E2,6.589831E1,1.6561401E2,1.7453016E1,4.8445293E1,1.553646E2,1.0249428E1,1.1804179E1,3.6641113E1,1.2642046E2,2.894413E1],"tree_param":{"num_deleted":"0","num_feature":"27","num_nodes":"11","size_leaf_vector":"0"}},{"base_weights":[-2.2753833E-1,5.910002E-1,-5.57239E-1,-1.7239703E-2,1.0701362E0,-6.138053E-1,7.628492E-3,1.8488385E-2,2.8142441E-2,-1.6923822E-2,-5.4995436E-3],"categories":[],"categories_nodes":[],"categories_segments":[],"categories_sizes":[],"default_left":[0,0,0,0,0,0,0,0,0,0,0],"id":57,"left_children":[1,3,5,-1,7,9,-1,-1,-1,-1,-1],"loss_changes":[6.241164E1,4.1546444E1,8.146317E0,0E0,1.4263649E0,5.25058E0,0E0,0E0,0E0,0E0,0E0],"parents":[2147483647,0,0,1,1,2,2,4,4,5,5],"right_children":[2,4,6,-1,8,10,-1,-1,-1,-1,-1],"split_conditions":[1.8101902E-1,3.3442888E-1,4.350446E-1,-1.7239703E-2,4.4446494E-2,3.7391305E-1,7.628492E-3,1.8488385E-2,2.8142441E-2,-1.6923822E-2,-5.4995436E-3],"split_indices":[7,6,8,0,18,3,0,0,0,0,0],"split_type":[0,0,0,0,0,0,0,0,0,0,0],"sum_hessian":[2.31262E2,6.640345E1,1.6485854E2,1.7824709E1,4.857874E1,1.548325E2,1.00260315E1,1.1739592E1,3.6839146E1,1.2609883E2,2.8733677E1],"tree_param":{"num_deleted":"0","num_feature":"27","num_nodes":"11","size_leaf_vector":"0"}},{"base_weights":[-2.2943515E-1,5.8268565E-1,-5.503988E-1,-1.730933E-2,1.0579036E0,-6.217427E-1,4.1992436E-3,1.8061986E-2,2.791344E-2,-2.5146743E-2,-1.3254378E-2],"categories":[],"categories_nodes":[],"categories_segments":[],"categories_sizes":[],"default_left":[0,0,0,0,0,0,0,0,0,0,0],"id":58,"left_children":[1,3,5,-1,7,9,-1,-1,-1,-1,-1],"loss_changes":[5.9503624E1,3.9960003E1,8.457344E0,0E0,1.4555092E0,4.525242E0,0E0,0E0,0E0,0E0,0E0],"parents":[2147483647,0,0,1,1,2,2,4,4,5,5],"right_children":[2,4,6,-1,8,10,-1,-1,-1,-1,-1],"split_conditions":[1.8101902E-1,3.3442888E-1,3.8212255E-1,-1.730933E-2,4.4446494E-2,2.6053662E-4,4.1992436E-3,1.8061986E-2,2.791344E-2,-2.5146743E-2,-1.3254378E-2],"split_indices":[7,6,19,0,18,14,0,0,0,0,0],"split_type":[0,0,0,0,0,0,0,0,0,0,0],"sum_hessian":[2.2827821E2,6.466317E1,1.6361504E2,1.7306236E1,4.735693E1,1.4894812E2,1.4666921E1,1.1532418E1,3.5824512E1,2.1802603E1,1.27145515E2],"tree_param":{"num_deleted":"0","num_feature":"27","num_nodes":"11","size_leaf_vector":"0"}},{"base_weights":[-2.2904898E-1,5.949587E-1,-5.5395335E-1,-1.6065888E-2,1.0502266E0,-6.209511E-1,2.6299953E-3,2.7823996E-2,2.061439E-2,-2.496375E-2,-1.353025E-2],"categories":[],"categories_nodes":[],"categories_segments":[],"categories_sizes":[],"default_left":[0,0,0,0,0,0,0,0,0,0,0],"id":59,"left_children":[1,3,5,-1,7,9,-1,-1,-1,-1,-1],"loss_changes":[6.0309708E1,3.657518E1,7.1767235E0,0E0,9.4646835E-1,3.6428833E0,0E0,0E0,0E0,0E0,0E0],"parents":[2147483647,0,0,1,1,2,2,4,4,5,5],"right_children":[2,4,6,-1,8,10,-1,-1,-1,-1,-1],"split_conditions":[1.8604347E-2,3.3442888E-1,3.8212255E-1,-1.6065888E-2,6.182472E-1,2.2184929E-4,2.6299953E-3,2.7823996E-2,2.061439E-2,-2.496375E-2,-1.353025E-2],"split_indices":[22,6,19,0,10,14,0,0,0,0,0],"split_type":[0,0,0,0,0,0,0,0,0,0,0],"sum_hessian":[2.2526717E2,6.370383E1,1.6156332E2,1.6897415E1,4.6806416E1,1.4673563E2,1.4827699E1,3.0609922E1,1.6196491E1,1.8555239E1,1.2818039E2],"tree_param":{"num_deleted":"0","num_feature":"27","num_nodes":"11","size_leaf_vector":"0"}},{"base_weights":[-2.553723E-1,6.0003763E-1,-5.9395266E-1,-1.687911E-2,1.0686026E0,-6.531923E-1,7.280127E-3,1.8148199E-2,2.8141191E-2,-1.9296572E-2,-1.1223008E-2],"categories":[],"categories_nodes":[],"categories_segments":[],"categories_sizes":[],"default_left":[0,0,0,0,0,0,0,0,0,0,0],"id":60,"left_children":[1,3,5,-1,7,9,-1,-1,-1,-1,-1],"loss_changes":[6.6830826E1,3.9854874E1,8.77301E0,0E0,1.4932175E0,4.2789917E0,0E0,0E0,0E0,0E0,0E0],"parents":[2147483647,0,0,1,1,2,2,4,4,5,5],"right_children":[2,4,6,-1,8,10,-1,-1,-1,-1,-1],"split_conditions":[3.5543393E-2,7.524221E-2,4.350446E-1,-1.687911E-2,4.4446494E-2,2.5718275E-1,7.280127E-3,1.8148199E-2,2.8141191E-2,-1.9296572E-2,-1.1223008E-2],"split_indices":[15,20,8,0,18,19,0,0,0,0,0],"split_type":[0,0,0,0,0,0,0,0,0,0,0],"sum_hessian":[2.3074828E2,6.543323E1,1.6531503E2,1.7336866E1,4.8096363E1,1.5506108E2,1.0253965E1,1.1400814E1,3.669555E1,8.701563E1,6.804544E1],"tree_param":{"num_deleted":"0","num_feature":"27","num_nodes":"11","size_leaf_vector":"0"}},{"base_weights":[-2.6395798E-1,6.116944E-1,-6.2919766E-1,-1.98879E-2,1.112948E0,-7.101965E-1,1.7584607E-3,1.9789966E-2,2.8986791E-2,-1.8673476E-2,-8.761817E-3],"categories":[],"categories_nodes":[],"categories_segments":[],"categories_sizes":[],"default_left":[0,0,0,0,0,0,0,0,0,0,0],"id":61,"left_children":[1,3,5,-1,7,9,-1,-1,-1,-1,-1],"loss_changes":[7.677811E1,5.0871773E1,9.634186E0,0E0,1.3619385E0,3.3751373E0,0E0,0E0,0E0,0E0,0E0],"parents":[2147483647,0,0,1,1,2,2,4,4,5,5],"right_children":[2,4,6,-1,8,10,-1,-1,-1,-1,-1],"split_conditions":[1.8101902E-1,7.524221E-2,3.7360203E-1,-1.98879E-2,4.4446494E-2,3.7391305E-1,1.7584607E-3,1.9789966E-2,2.8986791E-2,-1.8673476E-2,-8.761817E-3],"split_indices":[7,20,19,0,18,3,0,0,0,0,0],"split_type":[0,0,0,0,0,0,0,0,0,0,0],"sum_hessian":[2.4006323E2,7.0659195E1,1.6940404E2,1.8279713E1,5.237948E1,1.5188237E2,1.7521666E1,1.2215599E1,4.016388E1,1.2820738E2,2.3674988E1],"tree_param":{"num_deleted":"0","num_feature":"27","num_nodes":"11","size_leaf_vector":"0"}},{"base_weights":[-2.2908896E-1,5.804679E-1,-5.444602E-1,-1.5923642E-2,1.039194E0,-6.1167943E-1,2.8623003E-3,1.7385365E-2,2.755418E-2,-1.7459104E-2,-1.07526025E-2],"categories":[],"categories_nodes":[],"categories_segments":[],"categories_sizes":[],"default_left":[0,0,0,0,0,0,0,0,0,0,0],"id":62,"left_children":[1,3,5,-1,7,9,-1,-1,-1,-1,-1],"loss_changes":[5.706252E1,3.5661873E1,7.169857E0,0E0,1.5040016E0,2.71809E0,0E0,0E0,0E0,0E0,0E0],"parents":[2147483647,0,0,1,1,2,2,4,4,5,5],"right_children":[2,4,6,-1,8,10,-1,-1,-1,-1,-1],"split_conditions":[1.8101902E-1,7.524221E-2,3.8212255E-1,-1.5923642E-2,4.4446494E-2,2.5718275E-1,2.8623003E-3,1.7385365E-2,2.755418E-2,-1.7459104E-2,-1.07526025E-2],"split_indices":[7,20,19,0,18,19,0,0,0,0,0],"split_type":[0,0,0,0,0,0,0,0,0,0,0],"sum_hessian":[2.2350081E2,6.265782E1,1.60843E2,1.6913044E1,4.5744778E1,1.460399E2,1.4803089E1,1.1205939E1,3.4538837E1,8.7099976E1,5.893993E1],"tree_param":{"num_deleted":"0","num_feature":"27","num_nodes":"11","size_leaf_vector":"0"}},{"base_weights":[-2.8522253E-1,6.2050796E-1,-6.675098E-1,-1.9680377E-2,1.1258225E0,-7.272203E-1,6.0522514E-3,2.0303283E-2,2.9253926E-2,-1.9669864E-2,-6.801744E-3],"categories":[],"categories_nodes":[],"categories_segments":[],"categories_sizes":[],"default_left":[0,0,0,0,0,0,0,0,0,0,0],"id":63,"left_children":[1,3,5,-1,7,9,-1,-1,-1,-1,-1],"loss_changes":[8.404662E1,5.229647E1,9.361046E0,0E0,1.3187103E0,6.3038025E0,0E0,0E0,0E0,0E0,0E0],"parents":[2147483647,0,0,1,1,2,2,4,4,5,5],"right_children":[2,4,6,-1,8,10,-1,-1,-1,-1,-1],"split_conditions":[1.8101902E-1,3.3442888E-1,6.6785234E-1,-1.9680377E-2,4.4446494E-2,3.7391305E-1,6.0522514E-3,2.0303283E-2,2.9253926E-2,-1.9669864E-2,-6.801744E-3],"split_indices":[7,6,6,0,18,3,0,0,0,0,0],"split_type":[0,0,0,0,0,0,0,0,0,0,0],"sum_hessian":[2.4273338E2,7.204379E1,1.7068959E2,1.8747602E1,5.3296192E1,1.6027028E2,1.0419299E1,1.2512948E1,4.0783245E1,1.3373143E2,2.653886E1],"tree_param":{"num_deleted":"0","num_feature":"27","num_nodes":"11","size_leaf_vector":"0"}},{"base_weights":[-2.3087049E-1,5.876815E-1,-5.5525523E-1,-1.6715553E-2,1.0590298E0,-6.166709E-1,7.4864267E-3,2.7982224E-2,2.0931862E-2,-1.6929554E-2,-5.9206174E-3],"categories":[],"categories_nodes":[],"categories_segments":[],"categories_sizes":[],"default_left":[0,0,0,0,0,0,0,0,0,0,0],"id":64,"left_children":[1,3,5,-1,7,9,-1,-1,-1,-1,-1],"loss_changes":[6.067698E1,3.9153076E1,8.701172E0,0E0,9.169464E-1,4.8371315E0,0E0,0E0,0E0,0E0,0E0],"parents":[2147483647,0,0,1,1,2,2,4,4,5,5],"right_children":[2,4,6,-1,8,10,-1,-1,-1,-1,-1],"split_conditions":[1.8604347E-2,8.62504E-3,4.2848042E-1,-1.6715553E-2,6.182472E-1,3.7391305E-1,7.4864267E-3,2.7982224E-2,2.0931862E-2,-1.6929554E-2,-5.9206174E-3],"split_indices":[22,21,8,0,10,3,0,0,0,0,0],"split_type":[0,0,0,0,0,0,0,0,0,0,0],"sum_hessian":[2.2851509E2,6.485628E1,1.6365881E2,1.744743E1,4.740885E1,1.5281721E2,1.0841601E1,3.0997099E1,1.641175E1,1.2426739E2,2.854983E1],"tree_param":{"num_deleted":"0","num_feature":"27","num_nodes":"11","size_leaf_vector":"0"}},{"base_weights":[-2.2197513E-1,5.788942E-1,-5.3002864E-1,-1.5844487E-2,1.0232935E0,-5.845576E-1,6.6839703E-3,1.770397E-2,2.6972404E-2,-1.6109463E-2,-5.6335414E-3],"categories":[],"categories_nodes":[],"categories_segments":[],"categories_sizes":[],"default_left":[0,0,0,0,0,0,0,0,0,0,0],"id":65,"left_children":[1,3,5,-1,7,9,-1,-1,-1,-1,-1],"loss_changes":[5.452748E1,3.372054E1,7.025654E0,0E0,1.241581E0,4.375843E0,0E0,0E0,0E0,0E0,0E0],"parents":[2147483647,0,0,1,1,2,2,4,4,5,5],"right_children":[2,4,6,-1,8,10,-1,-1,-1,-1,-1],"split_conditions":[1.8101902E-1,3.3186737E-1,4.350446E-1,-1.5844487E-2,4.4446494E-2,3.7391305E-1,6.6839703E-3,1.770397E-2,2.6972404E-2,-1.6109463E-2,-5.6335414E-3],"split_indices":[7,6,8,0,18,3,0,0,0,0,0],"split_type":[0,0,0,0,0,0,0,0,0,0,0],"sum_hessian":[2.2101668E2,6.1397217E1,1.5961946E2,1.623846E1,4.5158756E1,1.4951878E2,1.010068E1,1.1170924E1,3.398783E1,1.2081451E2,2.870427E1],"tree_param":{"num_deleted":"0","num_feature":"27","num_nodes":"11","size_leaf_vector":"0"}},{"base_weights":[-2.4352023E-1,5.8600426E-1,-5.734254E-1,-1.2545903E-2,1.035272E0,-6.3112414E-1,6.2213396E-3,1.5343165E-2,2.7899032E-2,-2.5315601E-2,-1.3564937E-2],"categories":[],"categories_nodes":[],"categories_segments":[],"categories_sizes":[],"default_left":[0,0,0,0,0,0,0,0,0,0,0],"id":66,"left_children":[1,3,5,-1,7,9,-1,-1,-1,-1,-1],"loss_changes":[6.2342293E1,3.2214256E1,7.8185005E0,0E0,2.2352753E0,4.381218E0,0E0,0E0,0E0,0E0,0E0],"parents":[2147483647,0,0,1,1,2,2,4,4,5,5],"right_children":[2,4,6,-1,8,10,-1,-1,-1,-1,-1],"split_conditions":[1.8101902E-1,1.0767984E-1,4.2848042E-1,-1.2545903E-2,4.4446494E-2,2.6053662E-4,6.2213396E-3,1.5343165E-2,2.7899032E-2,-2.5315601E-2,-1.3564937E-2],"split_indices":[7,8,8,0,18,14,0,0,0,0,0],"split_type":[0,0,0,0,0,0,0,0,0,0,0],"sum_hessian":[2.2780438E2,6.481951E1,1.6298486E2,1.8721865E1,4.6097645E1,1.5240782E2,1.0577051E1,1.0758909E1,3.5338737E1,2.148471E1,1.3092311E2],"tree_param":{"num_deleted":"0","num_feature":"27","num_nodes":"11","size_leaf_vector":"0"}},{"base_weights":[-2.6382443E-1,5.7379663E-1,-5.949068E-1,-1.7502535E-2,1.0675209E0,-6.5074116E-1,4.9853357E-3,1.8596271E-2,2.8094329E-2,-1.7837167E-2,-5.235978E-3],"categories":[],"categories_nodes":[],"categories_segments":[],"categories_sizes":[],"default_left":[0,0,0,0,0,0,0,0,0,0,0],"id":67,"left_children":[1,3,5,-1,7,9,-1,-1,-1,-1,-1],"loss_changes":[6.3942135E1,4.1908142E1,7.396431E0,0E0,1.3660812E0,5.951561E0,0E0,0E0,0E0,0E0,0E0],"parents":[2147483647,0,0,1,1,2,2,4,4,5,5],"right_children":[2,4,6,-1,8,10,-1,-1,-1,-1,-1],"split_conditions":[1.8101902E-1,3.3442888E-1,6.6785234E-1,-1.7502535E-2,4.4446494E-2,3.7391305E-1,4.9853357E-3,1.8596271E-2,2.8094329E-2,-1.7837167E-2,-5.235978E-3],"split_indices":[7,6,6,0,18,3,0,0,0,0,0],"split_type":[0,0,0,0,0,0,0,0,0,0,0],"sum_hessian":[2.3056915E2,6.531785E1,1.6525131E2,1.798369E1,4.7334156E1,1.5449086E2,1.0760443E1,1.1701301E1,3.563286E1,1.2822212E2,2.6268736E1],"tree_param":{"num_deleted":"0","num_feature":"27","num_nodes":"11","size_leaf_vector":"0"}},{"base_weights":[-2.1809983E-1,5.60556E-1,-5.1314974E-1,-1.5237556E-2,1.0163538E0,-5.926903E-1,2.5291734E-3,1.6349833E-2,2.7153451E-2,-2.4643304E-2,-1.2798041E-2],"categories":[],"categories_nodes":[],"categories_segments":[],"categories_sizes":[],"default_left":[0,0,0,0,0,0,0,0,0,0,0],"id":68,"left_children":[1,3,5,-1,7,9,-1,-1,-1,-1,-1],"loss_changes":[4.9992577E1,3.249769E1,7.757473E0,0E0,1.6032066E0,3.7224045E0,0E0,0E0,0E0,0E0,0E0],"parents":[2147483647,0,0,1,1,2,2,4,4,5,5],"right_children":[2,4,6,-1,8,10,-1,-1,-1,-1,-1],"split_conditions":[1.8101902E-1,7.524221E-2,3.7211078E-1,-1.5237556E-2,4.4446494E-2,2.2184929E-4,2.5291734E-3,1.6349833E-2,2.7153451E-2,-2.4643304E-2,-1.2798041E-2],"split_indices":[7,20,19,0,18,14,0,0,0,0,0],"split_type":[0,0,0,0,0,0,0,0,0,0,0],"sum_hessian":[2.1760144E2,5.97958E1,1.5780563E2,1.6536526E1,4.3259277E1,1.3981175E2,1.799389E1,1.05755625E1,3.2683712E1,1.7662506E1,1.2214924E2],"tree_param":{"num_deleted":"0","num_feature":"27","num_nodes":"11","size_leaf_vector":"0"}},{"base_weights":[-2.2027877E-1,5.85846E-1,-5.347506E-1,-1.5771218E-2,1.0407012E0,-5.887982E-1,6.440211E-3,1.7318381E-2,2.7585937E-2,-1.6317748E-2,-4.95488E-3],"categories":[],"categories_nodes":[],"categories_segments":[],"categories_sizes":[],"default_left":[0,0,0,0,0,0,0,0,0,0,0],"id":69,"left_children":[1,3,5,-1,7,9,-1,-1,-1,-1,-1],"loss_changes":[5.638779E1,3.520047E1,6.9341736E0,0E0,1.5188408E0,5.0445633E0,0E0,0E0,0E0,0E0,0E0],"parents":[2147483647,0,0,1,1,2,2,4,4,5,5],"right_children":[2,4,6,-1,8,10,-1,-1,-1,-1,-1],"split_conditions":[1.8101902E-1,7.524221E-2,4.350446E-1,-1.5771218E-2,4.4446494E-2,3.7391305E-1,6.440211E-3,1.7318381E-2,2.7585937E-2,-1.6317748E-2,-4.95488E-3],"split_indices":[7,20,8,0,18,3,0,0,0,0,0],"split_type":[0,0,0,0,0,0,0,0,0,0,0],"sum_hessian":[2.2243268E2,6.242087E1,1.600118E2,1.6754349E1,4.5666523E1,1.4990688E2,1.0104919E1,1.1058765E1,3.4607758E1,1.219759E2,2.7930977E1],"tree_param":{"num_deleted":"0","num_feature":"27","num_nodes":"11","size_leaf_vector":"0"}},{"base_weights":[-2.1028692E-1,5.7231873E-1,-5.0296146E-1,-1.590464E-2,1.0250977E0,-5.78232E-1,1.8536272E-3,2.0174148E-2,2.712947E-2,-1.1792054E-2,-1.8926054E-2],"categories":[],"categories_nodes":[],"categories_segments":[],"categories_sizes":[],"default_left":[0,0,0,0,0,0,0,0,0,0,0],"id":70,"left_children":[1,3,5,-1,7,9,-1,-1,-1,-1,-1],"loss_changes":[4.943956E1,3.2766373E1,6.8563385E0,0E0,8.0838394E-1,2.564045E0,0E0,0E0,0E0,0E0,0E0],"parents":[2147483647,0,0,1,1,2,2,4,4,5,5],"right_children":[2,4,6,-1,8,10,-1,-1,-1,-1,-1],"split_conditions":[1.8101902E-1,3.3186737E-1,3.7211078E-1,-1.590464E-2,4.8661746E-2,1.9854316E-1,1.8536272E-3,2.0174148E-2,2.712947E-2,-1.1792054E-2,-1.8926054E-2],"split_indices":[7,6,19,0,18,11,0,0,0,0,0],"split_type":[0,0,0,0,0,0,0,0,0,0,0],"sum_hessian":[2.15846E2,5.8749744E1,1.5709625E2,1.5790847E1,4.2958897E1,1.3904597E2,1.8050278E1,1.4862222E1,2.8096676E1,9.706904E1,4.197693E1],"tree_param":{"num_deleted":"0","num_feature":"27","num_nodes":"11","size_leaf_vector":"0"}},{"base_weights":[-2.1053536E-1,5.4384077E-1,-4.9460083E-1,-1.4896413E-2,9.9990153E-1,-5.9159E-1,-7.111142E-2,1.6004944E-2,2.6828265E-2,-1.5253374E-2,-3.1191555E-3,-1.695793E-2,2.113135E-2],"categories":[],"categories_nodes":[],"categories_segments":[],"categories_sizes":[],"default_left":[0,0,0,0,0,0,0,0,0,0,0,0,0],"id":71,"left_children":[1,3,5,-1,7,9,11,-1,-1,-1,-1,-1,-1],"loss_changes":[4.5648174E1,3.0866936E1,6.3559685E0,0E0,1.5825768E0,2.378006E0,1.7264833E1,0E0,0E0,0E0,0E0,0E0,0E0],"parents":[2147483647,0,0,1,1,2,2,4,4,5,5,6,6],"right_children":[2,4,6,-1,8,10,12,-1,-1,-1,-1,-1,-1],"split_conditions":[3.5543393E-2,3.3442888E-1,5.443038E-1,-1.4896413E-2,4.4446494E-2,6.123401E-1,2.0882078E-1,1.6004944E-2,2.6828265E-2,-1.5253374E-2,-3.1191555E-3,-1.695793E-2,2.113135E-2],"split_indices":[15,6,4,0,18,9,13,0,0,0,0,0,0],"split_type":[0,0,0,0,0,0,0,0,0,0,0,0,0],"sum_hessian":[2.1301697E2,5.8270565E1,1.547464E2,1.642901E1,4.1841557E1,1.2590966E2,2.8836748E1,1.0487206E1,3.135435E1,1.15684166E2,1.0225493E1,1.7296751E1,1.1539996E1],"tree_param":{"num_deleted":"0","num_feature":"27","num_nodes":"13","size_leaf_vector":"0"}},{"base_weights":[-2.0432913E-1,5.4535824E-1,-4.8153585E-1,-1.4321149E-2,9.906287E-1,-6.6788006E-1,-2.6412782E-1,1.5421659E-2,2.6685853E-2,-2.317905E-2,-1.4372336E-2,-1.1985971E-2,1.0337157E-2],"categories":[],"categories_nodes":[],"categories_segments":[],"categories_sizes":[],"default_left":[0,0,0,0,0,0,0,0,0,0,0,0,0],"id":72,"left_children":[1,3,5,-1,7,9,11,-1,-1,-1,-1,-1,-1],"loss_changes":[4.3731636E1,2.8813684E1,6.2237854E0,0E0,1.6615486E0,1.7453613E0,1.1436979E1,0E0,0E0,0E0,0E0,0E0,0E0],"parents":[2147483647,0,0,1,1,2,2,4,4,5,5,6,6],"right_children":[2,4,6,-1,8,10,12,-1,-1,-1,-1,-1,-1],"split_conditions":[1.8101902E-1,7.524221E-2,2.5718275E-1,-1.4321149E-2,4.4446494E-2,2.2184929E-4,9.330517E-2,1.5421659E-2,2.6685853E-2,-2.317905E-2,-1.4372336E-2,-1.1985971E-2,1.0337157E-2],"split_indices":[7,20,19,0,18,14,16,0,0,0,0,0,0],"split_type":[0,0,0,0,0,0,0,0,0,0,0,0,0],"sum_hessian":[2.1043057E2,5.6804867E1,1.536257E2,1.5963743E1,4.084112E1,8.2722206E1,7.09035E1,1.0130339E1,3.0710783E1,1.6301956E1,6.642025E1,5.3066788E1,1.7836714E1],"tree_param":{"num_deleted":"0","num_feature":"27","num_nodes":"13","size_leaf_vector":"0"}},{"base_weights":[-2.000119E-1,5.522157E-1,-4.781082E-1,-1.4109678E-2,9.88793E-1,-5.3215396E-1,7.1762414E-3,2.74713E-2,2.01741E-2,-1.4850275E-2,-4.4776057E-3],"categories":[],"categories_nodes":[],"categories_segments":[],"categories_sizes":[],"default_left":[0,0,0,0,0,0,0,0,0,0,0],"id":73,"left_children":[1,3,5,-1,7,9,-1,-1,-1,-1,-1],"loss_changes":[4.4289692E1,2.8372442E1,6.479973E0,0E0,9.4498825E-1,4.1848793E0,0E0,0E0,0E0,0E0,0E0],"parents":[2147483647,0,0,1,1,2,2,4,4,5,5],"right_children":[2,4,6,-1,8,10,-1,-1,-1,-1,-1],"split_conditions":[1.8101902E-1,3.3442888E-1,4.350446E-1,-1.4109678E-2,4.6420002E-1,3.7391305E-1,7.1762414E-3,2.74713E-2,2.01741E-2,-1.4850275E-2,-4.4776057E-3],"split_indices":[7,6,8,0,6,3,0,0,0,0,0],"split_type":[0,0,0,0,0,0,0,0,0,0,0],"sum_hessian":[2.1171677E2,5.7144615E1,1.5457214E2,1.5851782E1,4.1292835E1,1.4450372E2,1.006842E1,2.0787212E1,2.0505623E1,1.1642084E2,2.8082888E1],"tree_param":{"num_deleted":"0","num_feature":"27","num_nodes":"11","size_leaf_vector":"0"}},{"base_weights":[-2.2733557E-1,5.49419E-1,-5.276912E-1,-1.7280813E-2,1.0225803E0,-5.8772564E-1,8.44357E-3,2.716279E-2,1.996905E-2,-1.623315E-2,-4.541429E-3],"categories":[],"categories_nodes":[],"categories_segments":[],"categories_sizes":[],"default_left":[0,0,0,0,0,0,0,0,0,0,0],"id":74,"left_children":[1,3,5,-1,7,9,-1,-1,-1,-1,-1],"loss_changes":[5.1750057E1,3.7049995E1,8.429703E0,0E0,9.0831375E-1,5.103874E0,0E0,0E0,0E0,0E0,0E0],"parents":[2147483647,0,0,1,1,2,2,4,4,5,5],"right_children":[2,4,6,-1,8,10,-1,-1,-1,-1,-1],"split_conditions":[1.8101902E-1,3.3186737E-1,6.6785234E-1,-1.7280813E-2,6.182472E-1,5.443038E-1,8.44357E-3,2.716279E-2,1.996905E-2,-1.623315E-2,-4.541429E-3],"split_indices":[7,6,6,0,10,4,0,0,0,0,0],"split_type":[0,0,0,0,0,0,0,0,0,0,0],"sum_hessian":[2.2181384E2,6.185333E1,1.5996053E2,1.682856E1,4.502477E1,1.4972087E2,1.0239653E1,2.9375568E1,1.56491995E1,1.2336127E2,2.6359602E1],"tree_param":{"num_deleted":"0","num_feature":"27","num_nodes":"11","size_leaf_vector":"0"}},{"base_weights":[-2.0699763E-1,5.215516E-1,-4.7344586E-1,-1.4732858E-2,9.702355E-1,-5.293485E-1,7.4518626E-3,2.6929464E-2,1.9785883E-2,-1.4951373E-2,-3.7908817E-3],"categories":[],"categories_nodes":[],"categories_segments":[],"categories_sizes":[],"default_left":[0,0,0,0,0,0,0,0,0,0,0],"id":75,"left_children":[1,3,5,-1,7,9,-1,-1,-1,-1,-1],"loss_changes":[4.0543346E1,2.8417685E1,6.689087E0,0E0,8.784332E-1,4.811371E0,0E0,0E0,0E0,0E0,0E0],"parents":[2147483647,0,0,1,1,2,2,4,4,5,5],"right_children":[2,4,6,-1,8,10,-1,-1,-1,-1,-1],"split_conditions":[3.5543393E-2,7.4330345E-2,4.350446E-1,-1.4732858E-2,1.3342667E-1,3.7391305E-1,7.4518626E-3,2.6929464E-2,1.9785883E-2,-1.4951373E-2,-3.7908817E-3],"split_indices":[15,20,8,0,20,3,0,0,0,0,0],"split_type":[0,0,0,0,0,0,0,0,0,0,0],"sum_hessian":[2.08855E2,5.5928642E1,1.5292636E2,1.5871273E1,4.005737E1,1.4272887E2,1.0197487E1,2.0266077E1,1.979129E1,1.1479067E2,2.79382E1],"tree_param":{"num_deleted":"0","num_feature":"27","num_nodes":"11","size_leaf_vector":"0"}},{"base_weights":[-2.3811167E-1,5.338655E-1,-5.282627E-1,-1.62597E-2,1.008955E0,-5.841802E-1,5.737314E-3,2.7032834E-2,1.9402772E-2,-1.587669E-2,-5.526335E-3],"categories":[],"categories_nodes":[],"categories_segments":[],"categories_sizes":[],"default_left":[0,0,0,0,0,0,0,0,0,0,0],"id":76,"left_children":[1,3,5,-1,7,9,-1,-1,-1,-1,-1],"loss_changes":[4.8559677E1,3.3990143E1,6.7506332E0,0E0,9.725189E-1,3.8640785E0,0E0,0E0,0E0,0E0,0E0],"parents":[2147483647,0,0,1,1,2,2,4,4,5,5],"right_children":[2,4,6,-1,8,10,-1,-1,-1,-1,-1],"split_conditions":[1.8101902E-1,3.3442888E-1,6.6785234E-1,-1.62597E-2,6.182472E-1,5.443038E-1,5.737314E-3,2.7032834E-2,1.9402772E-2,-1.587669E-2,-5.526335E-3],"split_indices":[7,6,6,0,10,4,0,0,0,0,0],"split_type":[0,0,0,0,0,0,0,0,0,0,0],"sum_hessian":[2.1679263E2,5.9222992E1,1.5756964E2,1.6716513E1,4.2506477E1,1.4685185E2,1.0717782E1,2.7470667E1,1.5035813E1,1.2149098E2,2.5360876E1],"tree_param":{"num_deleted":"0","num_feature":"27","num_nodes":"11","size_leaf_vector":"0"}},{"base_weights":[-2.2497989E-1,5.466126E-1,-5.1558954E-1,-1.7298518E-2,1.0123397E0,-5.7277256E-1,7.629102E-3,1.7247466E-2,2.6757402E-2,-1.5825726E-2,-5.200682E-3],"categories":[],"categories_nodes":[],"categories_segments":[],"categories_sizes":[],"default_left":[0,0,0,0,0,0,0,0,0,0,0],"id":77,"left_children":[1,3,5,-1,7,9,-1,-1,-1,-1,-1],"loss_changes":[4.920916E1,3.5341328E1,7.583729E0,0E0,1.2660904E0,4.4431343E0,0E0,0E0,0E0,0E0,0E0],"parents":[2147483647,0,0,1,1,2,2,4,4,5,5],"right_children":[2,4,6,-1,8,10,-1,-1,-1,-1,-1],"split_conditions":[1.8101902E-1,3.3186737E-1,4.350446E-1,-1.7298518E-2,4.4446494E-2,5.443038E-1,7.629102E-3,1.7247466E-2,2.6757402E-2,-1.5825726E-2,-5.200682E-3],"split_indices":[7,6,8,0,18,4,0,0,0,0,0],"split_type":[0,0,0,0,0,0,0,0,0,0,0],"sum_hessian":[2.1945488E2,6.004084E1,1.5941403E2,1.6167145E1,4.3873695E1,1.4916139E2,1.0252641E1,1.0804334E1,3.3069363E1,1.20920654E2,2.8240734E1],"tree_param":{"num_deleted":"0","num_feature":"27","num_nodes":"11","size_leaf_vector":"0"}},{"base_weights":[-1.788168E-1,5.3024596E-1,-4.368029E-1,-1.3679396E-2,9.6870744E-1,-4.9415195E-1,7.581731E-3,1.6608395E-2,2.6970701E-2,-2.1493047E-2,-1.043548E-2],"categories":[],"categories_nodes":[],"categories_segments":[],"categories_sizes":[],"default_left":[0,0,0,0,0,0,0,0,0,0,0],"id":78,"left_children":[1,3,5,-1,7,9,-1,-1,-1,-1,-1],"loss_changes":[3.7689335E1,2.6448273E1,6.5079327E0,0E0,1.6452293E0,3.4251099E0,0E0,0E0,0E0,0E0,0E0],"parents":[2147483647,0,0,1,1,2,2,4,4,5,5],"right_children":[2,4,6,-1,8,10,-1,-1,-1,-1,-1],"split_conditions":[3.5543393E-2,3.3442888E-1,6.6785234E-1,-1.3679396E-2,4.8661746E-2,2.6053662E-4,7.581731E-3,1.6608395E-2,2.6970701E-2,-2.1493047E-2,-1.043548E-2],"split_indices":[15,6,6,0,18,14,0,0,0,0,0],"split_type":[0,0,0,0,0,0,0,0,0,0,0],"sum_hessian":[2.0603181E2,5.4964294E1,1.5106752E2,1.5690885E1,3.9273407E1,1.403523E2,1.0715227E1,1.3672708E1,2.56007E1,1.8816359E1,1.21535934E2],"tree_param":{"num_deleted":"0","num_feature":"27","num_nodes":"11","size_leaf_vector":"0"}},{"base_weights":[-1.9443806E-1,5.1324195E-1,-4.4303244E-1,-1.5654312E-2,9.5259064E-1,-4.965304E-1,7.1827685E-3,2.6604874E-2,1.9321209E-2,-1.3936509E-2,-4.0231063E-3],"categories":[],"categories_nodes":[],"categories_segments":[],"categories_sizes":[],"default_left":[0,0,0,0,0,0,0,0,0,0,0],"id":79,"left_children":[1,3,5,-1,7,9,-1,-1,-1,-1,-1],"loss_changes":[3.593863E1,2.7119242E1,5.9919205E0,0E0,8.787155E-1,3.7803078E0,0E0,0E0,0E0,0E0,0E0],"parents":[2147483647,0,0,1,1,2,2,4,4,5,5],"right_children":[2,4,6,-1,8,10,-1,-1,-1,-1,-1],"split_conditions":[3.5543393E-2,3.3186737E-1,1.0554741E-1,-1.5654312E-2,2.2727435E-2,3.7391305E-1,7.1827685E-3,2.6604874E-2,1.9321209E-2,-1.3936509E-2,-4.0231063E-3],"split_indices":[15,6,25,0,21,3,0,0,0,0,0],"split_type":[0,0,0,0,0,0,0,0,0,0,0],"sum_hessian":[2.04282E2,5.310523E1,1.5117677E2,1.4567064E1,3.8538166E1,1.4099551E2,1.0181256E1,1.9329422E1,1.9208742E1,1.1310149E2,2.7894028E1],"tree_param":{"num_deleted":"0","num_feature":"27","num_nodes":"11","size_leaf_vector":"0"}},{"base_weights":[-2.1819325E-1,5.431111E-1,-4.9754643E-1,-1.4691896E-2,9.9464464E-1,-5.643809E-1,3.5714374E-3,2.6792372E-2,1.8670686E-2,-2.379875E-2,-1.2139247E-2],"categories":[],"categories_nodes":[],"categories_segments":[],"categories_sizes":[],"default_left":[0,0,0,0,0,0,0,0,0,0,0],"id":80,"left_children":[1,3,5,-1,7,9,-1,-1,-1,-1,-1],"loss_changes":[4.570559E1,3.0016039E1,6.7841988E0,0E0,1.0623894E0,3.6740875E0,0E0,0E0,0E0,0E0,0E0],"parents":[2147483647,0,0,1,1,2,2,4,4,5,5],"right_children":[2,4,6,-1,8,10,-1,-1,-1,-1,-1],"split_conditions":[1.8101902E-1,3.3442888E-1,3.8212255E-1,-1.4691896E-2,6.182472E-1,2.2184929E-4,3.5714374E-3,2.6792372E-2,1.8670686E-2,-2.379875E-2,-1.2139247E-2],"split_indices":[7,6,19,0,10,14,0,0,0,0,0],"split_type":[0,0,0,0,0,0,0,0,0,0,0],"sum_hessian":[2.1490895E2,5.7689793E1,1.5721916E2,1.6241732E1,4.144806E1,1.4247107E2,1.4748092E1,2.713991E1,1.430815E1,1.79923E1,1.24478775E2],"tree_param":{"num_deleted":"0","num_feature":"27","num_nodes":"11","size_leaf_vector":"0"}},{"base_weights":[-2.1748735E-1,5.47317E-1,-5.039359E-1,-1.5086859E-2,1.0031775E0,-5.6013846E-1,6.0095903E-3,1.6060665E-2,2.6893359E-2,-1.55794155E-2,-4.590216E-3],"categories":[],"categories_nodes":[],"categories_segments":[],"categories_sizes":[],"default_left":[0,0,0,0,0,0,0,0,0,0,0],"id":81,"left_children":[1,3,5,-1,7,9,-1,-1,-1,-1,-1],"loss_changes":[4.7257854E1,3.1426607E1,6.642685E0,0E0,1.5972862E0,4.635235E0,0E0,0E0,0E0,0E0,0E0],"parents":[2147483647,0,0,1,1,2,2,4,4,5,5],"right_children":[2,4,6,-1,8,10,-1,-1,-1,-1,-1],"split_conditions":[1.8604347E-2,3.3442888E-1,1.0242324E-1,-1.5086859E-2,4.4446494E-2,3.7391305E-1,6.0095903E-3,1.6060665E-2,2.6893359E-2,-1.55794155E-2,-4.590216E-3],"split_indices":[23,6,25,0,18,3,0,0,0,0,0],"split_type":[0,0,0,0,0,0,0,0,0,0,0],"sum_hessian":[2.1571199E2,5.8777668E1,1.5693431E2,1.6451078E1,4.2326588E1,1.4603629E2,1.0898038E1,1.05452175E1,3.178137E1,1.1852738E2,2.7508898E1],"tree_param":{"num_deleted":"0","num_feature":"27","num_nodes":"11","size_leaf_vector":"0"}},{"base_weights":[-1.7390585E-1,5.275556E-1,-4.239535E-1,-1.5523874E-2,9.378011E-1,-6.281505E-1,-1.860619E-1,1.404947E-2,2.5682542E-2,-1.0754629E-2,-1.8487377E-2,-9.81191E-3,1.6341163E-2],"categories":[],"categories_nodes":[],"categories_segments":[],"categories_sizes":[],"default_left":[0,0,0,0,0,0,0,0,0,0,0,0,0],"id":82,"left_children":[1,3,5,-1,7,9,11,-1,-1,-1,-1,-1,-1],"loss_changes":[3.541789E1,2.5497099E1,7.23123E0,0E0,1.7740707E0,2.0201206E0,1.3109653E1,0E0,0E0,0E0,0E0,0E0,0E0],"parents":[2147483647,0,0,1,1,2,2,4,4,5,5,6,6],"right_children":[2,4,6,-1,8,10,12,-1,-1,-1,-1,-1,-1],"split_conditions":[1.8101902E-1,7.10067E-2,2.5718275E-1,-1.5523874E-2,4.4446494E-2,1.4222473E-1,3.7391305E-1,1.404947E-2,2.5682542E-2,-1.0754629E-2,-1.8487377E-2,-9.81191E-3,1.6341163E-2],"split_indices":[7,20,19,0,18,20,3,0,0,0,0,0,0],"split_type":[0,0,0,0,0,0,0,0,0,0,0,0,0],"sum_hessian":[2.0192622E2,5.3064117E1,1.488621E2,1.3765167E1,3.929895E1,8.010352E1,6.875858E1,1.0353494E1,2.8945457E1,3.457534E1,4.5528187E1,5.4760277E1,1.3998304E1],"tree_param":{"num_deleted":"0","num_feature":"27","num_nodes":"13","size_leaf_vector":"0"}},{"base_weights":[-1.827934E-1,5.035805E-1,-4.2331678E-1,-1.370058E-2,9.439992E-1,-4.7401103E-1,6.7088027E-3,1.5681023E-2,2.6610529E-2,-2.1588305E-2,-9.830722E-3],"categories":[],"categories_nodes":[],"categories_segments":[],"categories_sizes":[],"default_left":[0,0,0,0,0,0,0,0,0,0,0],"id":83,"left_children":[1,3,5,-1,7,9,-1,-1,-1,-1,-1],"loss_changes":[3.321067E1,2.4637974E1,5.297554E0,0E0,1.7321548E0,3.884676E0,0E0,0E0,0E0,0E0,0E0],"parents":[2147483647,0,0,1,1,2,2,4,4,5,5],"right_children":[2,4,6,-1,8,10,-1,-1,-1,-1,-1],"split_conditions":[1.8101902E-1,3.3442888E-1,4.350446E-1,-1.370058E-2,4.8661746E-2,2.6053662E-4,6.7088027E-3,1.5681023E-2,2.6610529E-2,-2.1588305E-2,-9.830722E-3],"split_indices":[7,6,8,0,18,14,0,0,0,0,0],"split_type":[0,0,0,0,0,0,0,0,0,0,0],"sum_hessian":[2.0116673E2,5.2201164E1,1.4896558E2,1.5204501E1,3.6996662E1,1.3892603E2,1.0039541E1,1.300966E1,2.3987003E1,1.8922337E1,1.2000369E2],"tree_param":{"num_deleted":"0","num_feature":"27","num_nodes":"11","size_leaf_vector":"0"}},{"base_weights":[-2.0084177E-1,5.1952827E-1,-4.579795E-1,-1.363273E-2,9.6131676E-1,-5.1439226E-1,7.1013956E-3,1.6548686E-2,2.6839271E-2,-1.5387752E-2,-8.673105E-3],"categories":[],"categories_nodes":[],"categories_segments":[],"categories_sizes":[],"default_left":[0,0,0,0,0,0,0,0,0,0,0],"id":84,"left_children":[1,3,5,-1,7,9,-1,-1,-1,-1,-1],"loss_changes":[3.8099476E1,2.5929977E1,6.434019E0,0E0,1.6028862E0,2.6981354E0,0E0,0E0,0E0,0E0,0E0],"parents":[2147483647,0,0,1,1,2,2,4,4,5,5],"right_children":[2,4,6,-1,8,10,-1,-1,-1,-1,-1],"split_conditions":[1.8101902E-1,3.3442888E-1,6.6785234E-1,-1.363273E-2,4.8661746E-2,2.5718275E-1,7.1013956E-3,1.6548686E-2,2.6839271E-2,-1.5387752E-2,-8.673105E-3],"split_indices":[7,6,6,0,18,19,0,0,0,0,0],"split_type":[0,0,0,0,0,0,0,0,0,0,0],"sum_hessian":[2.0568112E2,5.4105133E1,1.5157599E2,1.5657888E1,3.8447243E1,1.4100446E2,1.0571525E1,1.3653296E1,2.4793947E1,7.839054E1,6.261392E1],"tree_param":{"num_deleted":"0","num_feature":"27","num_nodes":"11","size_leaf_vector":"0"}},{"base_weights":[-2.1829799E-1,5.290693E-1,-4.9388263E-1,-1.4778582E-2,9.865593E-1,-5.5046153E-1,7.433188E-3,1.5728494E-2,2.6557032E-2,-1.5442199E-2,-3.3311127E-3],"categories":[],"categories_nodes":[],"categories_segments":[],"categories_sizes":[],"default_left":[0,0,0,0,0,0,0,0,0,0,0],"id":85,"left_children":[1,3,5,-1,7,9,-1,-1,-1,-1,-1],"loss_changes":[4.374469E1,2.9889723E1,7.0420303E0,0E0,1.5650978E0,5.3680763E0,0E0,0E0,0E0,0E0,0E0],"parents":[2147483647,0,0,1,1,2,2,4,4,5,5],"right_children":[2,4,6,-1,8,10,-1,-1,-1,-1,-1],"split_conditions":[3.5543393E-2,3.3442888E-1,6.6785234E-1,-1.4778582E-2,4.4446494E-2,3.7391305E-1,7.433188E-3,1.5728494E-2,2.6557032E-2,-1.5442199E-2,-3.3311127E-3],"split_indices":[15,6,6,0,18,3,0,0,0,0,0],"split_type":[0,0,0,0,0,0,0,0,0,0,0],"sum_hessian":[2.123896E2,5.7217865E1,1.5517174E2,1.6367199E1,4.0850666E1,1.449474E2,1.0224343E1,1.042465E1,3.0426016E1,1.1902186E2,2.592554E1],"tree_param":{"num_deleted":"0","num_feature":"27","num_nodes":"11","size_leaf_vector":"0"}},{"base_weights":[-2.5307095E-1,5.528414E-1,-5.533494E-1,-1.7579762E-2,9.965933E-1,-6.1199075E-1,6.268725E-3,1.7112322E-2,2.6355086E-2,-1.6745824E-2,-5.5366894E-3],"categories":[],"categories_nodes":[],"categories_segments":[],"categories_sizes":[],"default_left":[0,0,0,0,0,0,0,0,0,0,0],"id":86,"left_children":[1,3,5,-1,7,9,-1,-1,-1,-1,-1],"loss_changes":[5.3663097E1,3.423759E1,7.704918E0,0E0,1.2343102E0,4.7448997E0,0E0,0E0,0E0,0E0,0E0],"parents":[2147483647,0,0,1,1,2,2,4,4,5,5],"right_children":[2,4,6,-1,8,10,-1,-1,-1,-1,-1],"split_conditions":[1.8101902E-1,3.2234216E-1,6.6785234E-1,-1.7579762E-2,4.4446494E-2,5.443038E-1,6.268725E-3,1.7112322E-2,2.6355086E-2,-1.6745824E-2,-5.5366894E-3],"split_indices":[7,6,6,0,18,4,0,0,0,0,0],"split_type":[0,0,0,0,0,0,0,0,0,0,0],"sum_hessian":[2.2174875E2,6.019412E1,1.6155463E2,1.5480187E1,4.471393E1,1.5068929E2,1.0865339E1,1.1220468E1,3.349346E1,1.23992325E2,2.6696962E1],"tree_param":{"num_deleted":"0","num_feature":"27","num_nodes":"11","size_leaf_vector":"0"}},{"base_weights":[-1.7981812E-1,5.093764E-1,-4.1732988E-1,-1.5031571E-2,9.1833156E-1,-6.0888296E-1,-1.9654574E-1,1.3436684E-2,2.5349017E-2,-9.915444E-3,-1.769597E-2,-9.372403E-3,1.31672835E-2],"categories":[],"categories_nodes":[],"categories_segments":[],"categories_sizes":[],"default_left":[0,0,0,0,0,0,0,0,0,0,0,0,0],"id":87,"left_children":[1,3,5,-1,7,9,11,-1,-1,-1,-1,-1,-1],"loss_changes":[3.2515774E1,2.3581749E1,6.2477055E0,0E0,1.7930012E0,1.952879E0,9.786979E0,0E0,0E0,0E0,0E0,0E0,0E0],"parents":[2147483647,0,0,1,1,2,2,4,4,5,5,6,6],"right_children":[2,4,6,-1,8,10,12,-1,-1,-1,-1,-1,-1],"split_conditions":[1.8101902E-1,7.10067E-2,2.5718275E-1,-1.5031571E-2,4.4446494E-2,3.5406455E-2,5.443038E-1,1.3436684E-2,2.5349017E-2,-9.915444E-3,-1.769597E-2,-9.372403E-3,1.31672835E-2],"split_indices":[7,20,19,0,18,16,4,0,0,0,0,0,0],"split_type":[0,0,0,0,0,0,0,0,0,0,0,0,0],"sum_hessian":[1.986386E2,5.0910213E1,1.477284E2,1.3505472E1,3.7404743E1,7.910006E1,6.862833E1,1.0050628E1,2.7354113E1,3.0611086E1,4.848897E1,5.4524765E1,1.4103565E1],"tree_param":{"num_deleted":"0","num_feature":"27","num_nodes":"13","size_leaf_vector":"0"}},{"base_weights":[-1.9042283E-1,5.1333153E-1,-4.334206E-1,-1.4576057E-2,9.232101E-1,-4.8413476E-1,6.547691E-3,1.3472044E-2,2.5444916E-2,-2.2095643E-2,-1.0061605E-2],"categories":[],"categories_nodes":[],"categories_segments":[],"categories_sizes":[],"default_left":[0,0,0,0,0,0,0,0,0,0,0],"id":88,"left_children":[1,3,5,-1,7,9,-1,-1,-1,-1,-1],"loss_changes":[3.4421272E1,2.3667458E1,5.348837E0,0E0,1.8166122E0,4.03722E0,0E0,0E0,0E0,0E0,0E0],"parents":[2147483647,0,0,1,1,2,2,4,4,5,5],"right_children":[2,4,6,-1,8,10,-1,-1,-1,-1,-1],"split_conditions":[1.8101902E-1,7.10067E-2,4.350446E-1,-1.4576057E-2,4.4446494E-2,2.6053662E-4,6.547691E-3,1.3472044E-2,2.5444916E-2,-2.2095643E-2,-1.0061605E-2],"split_indices":[7,20,8,0,18,14,0,0,0,0,0],"split_type":[0,0,0,0,0,0,0,0,0,0,0],"sum_hessian":[2.0127979E2,5.16612E1,1.4961858E2,1.3861601E1,3.7799603E1,1.3957704E2,1.0041539E1,1.0036665E1,2.7762938E1,1.8728312E1,1.2084873E2],"tree_param":{"num_deleted":"0","num_feature":"27","num_nodes":"11","size_leaf_vector":"0"}},{"base_weights":[-1.6534859E-1,4.9321383E-1,-3.9242882E-1,-1.313181E-2,9.270995E-1,-4.5793384E-1,5.246434E-3,1.5284228E-2,2.6324483E-2,-2.1236435E-2,-9.641976E-3],"categories":[],"categories_nodes":[],"categories_segments":[],"categories_sizes":[],"default_left":[0,0,0,0,0,0,0,0,0,0,0],"id":89,"left_children":[1,3,5,-1,7,9,-1,-1,-1,-1,-1],"loss_changes":[2.9451824E1,2.2735527E1,5.8513966E0,0E0,1.717205E0,3.2497368E0,0E0,0E0,0E0,0E0,0E0],"parents":[2147483647,0,0,1,1,2,2,4,4,5,5],"right_children":[2,4,6,-1,8,10,-1,-1,-1,-1,-1],"split_conditions":[1.8101902E-1,8.62504E-3,3.8212255E-1,-1.313181E-2,4.8661746E-2,2.2184929E-4,5.246434E-3,1.5284228E-2,2.6324483E-2,-2.1236435E-2,-9.641976E-3],"split_indices":[7,21,19,0,18,14,0,0,0,0,0],"split_type":[0,0,0,0,0,0,0,0,0,0,0],"sum_hessian":[1.9693925E2,5.049533E1,1.4644392E2,1.4888072E1,3.560726E1,1.3224242E2,1.4201493E1,1.2787493E1,2.2819767E1,1.5995625E1,1.16246796E2],"tree_param":{"num_deleted":"0","num_feature":"27","num_nodes":"11","size_leaf_vector":"0"}},{"base_weights":[-1.7855649E-1,4.831519E-1,-4.0266255E-1,-1.2960068E-2,9.1812915E-1,-4.669483E-1,4.9688523E-3,1.4860373E-2,2.6215864E-2,-2.1466292E-2,-9.8358365E-3],"categories":[],"categories_nodes":[],"categories_segments":[],"categories_sizes":[],"default_left":[0,0,0,0,0,0,0,0,0,0,0],"id":90,"left_children":[1,3,5,-1,7,9,-1,-1,-1,-1,-1],"loss_changes":[2.902495E1,2.1981142E1,5.7212486E0,0E0,1.7703075E0,3.3083363E0,0E0,0E0,0E0,0E0,0E0],"parents":[2147483647,0,0,1,1,2,2,4,4,5,5],"right_children":[2,4,6,-1,8,10,-1,-1,-1,-1,-1],"split_conditions":[1.8101902E-1,8.62504E-3,3.8212255E-1,-1.2960068E-2,4.8661746E-2,2.2184929E-4,4.9688523E-3,1.4860373E-2,2.6215864E-2,-2.1466292E-2,-9.8358365E-3],"split_indices":[7,21,19,0,18,14,0,0,0,0,0],"split_type":[0,0,0,0,0,0,0,0,0,0,0],"sum_hessian":[1.9572556E2,4.951725E1,1.4620831E2,1.4798236E1,3.4719013E1,1.3224199E2,1.3966312E1,1.2451752E1,2.2267262E1,1.6213827E1,1.1602817E2],"tree_param":{"num_deleted":"0","num_feature":"27","num_nodes":"11","size_leaf_vector":"0"}},{"base_weights":[-1.6728514E-1,4.908969E-1,-3.898515E-1,-1.2910493E-2,9.39365E-1,-4.5536047E-1,5.601328E-3,1.6658347E-2,2.609912E-2,-8.656322E-3,-1.6222594E-2],"categories":[],"categories_nodes":[],"categories_segments":[],"categories_sizes":[],"default_left":[0,0,0,0,0,0,0,0,0,0,0],"id":91,"left_children":[1,3,5,-1,7,9,-1,-1,-1,-1,-1],"loss_changes":[2.8272146E1,2.2445457E1,5.8778095E0,0E0,1.2049313E0,2.734354E0,0E0,0E0,0E0,0E0,0E0],"parents":[2147483647,0,0,1,1,2,2,4,4,5,5],"right_children":[2,4,6,-1,8,10,-1,-1,-1,-1,-1],"split_conditions":[1.8604347E-2,3.3442888E-1,3.8212255E-1,-1.2910493E-2,4.8661746E-2,1.9854316E-1,5.601328E-3,1.6658347E-2,2.609912E-2,-8.656322E-3,-1.6222594E-2],"split_indices":[23,6,19,0,18,11,0,0,0,0,0],"split_type":[0,0,0,0,0,0,0,0,0,0,0],"sum_hessian":[1.9299649E2,4.8770275E1,1.4422621E2,1.48316E1,3.3938675E1,1.3048593E2,1.3740284E1,1.2379648E1,2.1559027E1,9.037203E1,4.0113895E1],"tree_param":{"num_deleted":"0","num_feature":"27","num_nodes":"11","size_leaf_vector":"0"}},{"base_weights":[-1.922748E-1,5.060437E-1,-4.3689942E-1,-1.4583173E-2,9.764766E-1,-4.9520025E-1,7.6136934E-3,1.7954947E-2,2.6633244E-2,-1.3955825E-2,-3.8245309E-3],"categories":[],"categories_nodes":[],"categories_segments":[],"categories_sizes":[],"default_left":[0,0,0,0,0,0,0,0,0,0,0],"id":92,"left_children":[1,3,5,-1,7,9,-1,-1,-1,-1,-1],"loss_changes":[3.501607E1,2.7786049E1,6.6607113E0,0E0,1.107727E0,3.957592E0,0E0,0E0,0E0,0E0,0E0],"parents":[2147483647,0,0,1,1,2,2,4,4,5,5],"right_children":[2,4,6,-1,8,10,-1,-1,-1,-1,-1],"split_conditions":[3.5543393E-2,7.524221E-2,1.0242324E-1,-1.4583173E-2,4.8661746E-2,3.7391305E-1,7.6136934E-3,1.7954947E-2,2.6633244E-2,-1.3955825E-2,-3.8245309E-3],"split_indices":[15,20,25,0,18,3,0,0,0,0,0],"split_type":[0,0,0,0,0,0,0,0,0,0,0],"sum_hessian":[2.0497948E2,5.3176952E1,1.5180252E2,