{"learner":{"attributes":{"best_iteration":"116","best_ntree_limit":"117","best_score":"0.9326728454245232"},"feature_names":["is_retirement_age","life_Retirement","Gender","Age_Squared","Age","FamilyMembers","Wealth_log","Wealth_to_Income_log","Risk_Capacity_log","Wealth_Per_Family_Size_log","Investment_Capacity_log","Financial_Sophistication_Ratio","FinancialEducation_Squared","Education_Risk_Profile","risk_tolerance_log","Financial_Independence_Score_log","Retirement_Readiness_log","Life_Stage_Adjusted_Income_log","Wealth_Concentration_log","Age_Risk_Interaction","Wealth_Sqrt","Wealth","Financial_Independence_Score","Wealth_to_Income","Wealth_Per_Family_Size","Risk_Capacity","Retirement_Readiness"],"feature_types":["float","float","float","float","float","float","float","float","float","float","float","float","float","float","float","float","float","float","float","float","float","float","float","float","float","float","float"],"gradient_booster":{"gbtree":{"model":{"gbtree_model_param":{"num_parallel_tree":"1","num_trees":"217","size_leaf_vector":"0"},"tree_info":[0,0,0,0,0,0,0,0,0,0,0,0,0,0,0,0,0,0,0,0,0,0,0,0,0,0,0,0,0,0,0,0,0,0,0,0,0,0,0,0,0,0,0,0,0,0,0,0,0,0,0,0,0,0,0,0,0,0,0,0,0,0,0,0,0,0,0,0,0,0,0,0,0,0,0,0,0,0,0,0,0,0,0,0,0,0,0,0,0,0,0,0,0,0,0,0,0,0,0,0,0,0,0,0,0,0,0,0,0,0,0,0,0,0,0,0,0,0,0,0,0,0,0,0,0,0,0,0,0,0,0,0,0,0,0,0,0,0,0,0,0,0,0,0,0,0,0,0,0,0,0,0,0,0,0,0,0,0,0,0,0,0,0,0,0,0,0,0,0,0,0,0,0,0,0,0,0,0,0,0,0,0,0,0,0,0,0,0,0,0,0,0,0,0,0,0,0,0,0,0,0,0,0,0,0,0,0,0,0,0,0,0,0,0,0,0,0],"trees":[{"base_weights":[2.6867753E-1,-1E0,1E0,-3.4944385E-2,-1E0,-7.203749E-2,1E0,-7.203749E-2,-4.0188234E-2,8.000251E-3,1E0,3.7268065E-2,7.203749E-2],"categories":[],"categories_nodes":[],"categories_segments":[],"categories_sizes":[],"default_left":[0,0,0,0,0,0,0,0,0,0,0,0,0],"id":0,"left_children":[1,3,5,-1,7,-1,9,-1,-1,-1,11,-1,-1],"loss_changes":[1.4901404E2,8.90049E-1,6.9376595E1,0E0,5.3818893E-1,0E0,3.6935425E0,0E0,0E0,0E0,6.9758606E-1,0E0,0E0],"parents":[2147483647,0,0,1,1,2,2,4,4,6,6,10,10],"right_children":[2,4,6,-1,8,-1,10,-1,-1,-1,12,-1,-1],"split_conditions":[5.124474E-1,2.0183766E-2,4.4380847E-1,-3.4944385E-2,5.0048745E-1,-7.203749E-2,1.690675E-1,-7.203749E-2,-4.0188234E-2,8.000251E-3,5.6209576E-1,3.7268065E-2,7.203749E-2],"split_indices":[6,13,3,0,17,0,7,0,0,0,10,0,0],"split_type":[0,0,0,0,0,0,0,0,0,0,0,0,0],"sum_hessian":[1.2019929E2,4.2773445E1,7.742584E1,4.354689E0,3.8418755E1,9.784897E0,6.7640945E1,3.4197792E1,4.220965E0,4.7907577E0,6.285019E1,4.174482E0,5.8675705E1],"tree_param":{"num_deleted":"0","num_feature":"27","num_nodes":"13","size_leaf_vector":"0"}},{"base_weights":[2.3862009E-1,-1E0,1E0,-3.2620963E-2,-1E0,-7.203749E-2,1E0,-7.203749E-2,-4.9071856E-2,-1.2539783E-2,1E0,5.672499E-1,1E0,6.394484E-2,1.4108172E-2,4.960556E-2,7.203749E-2],"categories":[],"categories_nodes":[],"categories_segments":[],"categories_sizes":[],"default_left":[0,0,0,0,0,0,0,0,0,0,0,0,0,0,0,0,0],"id":1,"left_children":[1,3,5,-1,7,-1,9,-1,-1,-1,11,13,15,-1,-1,-1,-1],"loss_changes":[1.3894019E2,1.0498886E0,6.2413696E1,0E0,3.0527115E-1,0E0,5.838722E0,0E0,0E0,0E0,1.2257843E0,9.434266E-1,8.81958E-2,0E0,0E0,0E0,0E0],"parents":[2147483647,0,0,1,1,2,2,4,4,6,6,10,10,11,11,12,12],"right_children":[2,4,6,-1,8,-1,10,-1,-1,-1,12,14,16,-1,-1,-1,-1],"split_conditions":[3.2093506E-2,2.0183766E-2,1E0,-3.2620963E-2,5.836251E-1,-7.203749E-2,1.540248E-1,-7.203749E-2,-4.9071856E-2,-1.2539783E-2,2.2617519E-1,8.5303694E-2,4.970169E-1,6.394484E-2,1.4108172E-2,4.960556E-2,7.203749E-2],"split_indices":[21,13,1,0,10,0,7,0,0,0,8,18,9,0,0,0,0],"split_type":[0,0,0,0,0,0,0,0,0,0,0,0,0,0,0,0,0],"sum_hessian":[1.2131071E2,4.282432E1,7.848638E1,4.35336E0,3.847096E1,9.789638E0,6.869675E1,3.235402E1,6.1169415E0,4.1220717E0,6.457468E1,8.091264E0,5.648341E1,4.0707135E0,4.0205503E0,4.1875615E0,5.229585E1],"tree_param":{"num_deleted":"0","num_feature":"27","num_nodes":"17","size_leaf_vector":"0"}},{"base_weights":[1.9904564E-1,-1E0,9.883086E-1,-4.3632925E-2,-7.203749E-2,-7.203749E-2,1E0,-2.9341599E-2,1E0,5.436708E-1,7.203749E-2,7.203749E-2,-1.0414759E-2],"categories":[],"categories_nodes":[],"categories_segments":[],"categories_sizes":[],"default_left":[0,0,0,0,0,0,0,0,0,0,0,0,0],"id":2,"left_children":[1,3,5,-1,-1,-1,7,-1,9,11,-1,-1,-1],"loss_changes":[1.3525848E2,5.518303E-1,5.9587097E1,0E0,0E0,0E0,8.49678E0,0E0,1.5628281E0,4.471184E0,0E0,0E0,0E0],"parents":[2147483647,0,0,1,1,2,2,6,6,8,8,9,9],"right_children":[2,4,6,-1,-1,-1,8,-1,10,12,-1,-1,-1],"split_conditions":[3.2093506E-2,3.6106862E-2,1E0,-4.3632925E-2,-7.203749E-2,-7.203749E-2,4.3277416E-2,-2.9341599E-2,2.2617519E-1,2.6940057E-1,7.203749E-2,7.203749E-2,-1.0414759E-2],"split_indices":[21,11,1,0,0,0,18,0,8,7,0,0,0],"split_type":[0,0,0,0,0,0,0,0,0,0,0,0,0],"sum_hessian":[1.23554756E2,4.454498E1,7.900978E1,5.4761496E0,3.906883E1,9.751652E0,6.9258125E1,4.1037736E0,6.515435E1,8.863204E0,5.629115E1,4.095608E0,4.767596E0],"tree_param":{"num_deleted":"0","num_feature":"27","num_nodes":"13","size_leaf_vector":"0"}},{"base_weights":[2.4296945E-1,-9.5979935E-1,1E0,-1E0,-1.2478904E-1,-7.203749E-2,1E0,-2.3103712E-2,-7.203749E-2,-3.540208E-2,2.0229703E-2,-3.9806776E-3,7.203749E-2],"categories":[],"categories_nodes":[],"categories_segments":[],"categories_sizes":[],"default_left":[0,0,0,0,0,0,0,0,0,0,0,0,0],"id":3,"left_children":[1,3,5,7,9,-1,11,-1,-1,-1,-1,-1,-1],"loss_changes":[1.2365891E2,7.3004646E0,5.517588E1,1.689682E0,1.5680599E0,0E0,4.9479904E0,0E0,0E0,0E0,0E0,0E0,0E0],"parents":[2147483647,0,0,1,1,2,2,3,3,4,4,6,6],"right_children":[2,4,6,8,10,-1,12,-1,-1,-1,-1,-1,-1],"split_conditions":[5.345958E-1,5.06568E-1,1E0,2.2877468E-2,1.32063E-1,-7.203749E-2,1.6906863E-2,-2.3103712E-2,-7.203749E-2,-3.540208E-2,2.0229703E-2,-3.9806776E-3,7.203749E-2],"split_indices":[6,6,1,12,12,0,22,0,0,0,0,0,0],"split_type":[0,0,0,0,0,0,0,0,0,0,0,0,0],"sum_hessian":[1.20270706E2,4.9922707E1,7.034801E1,4.015629E1,9.766417E0,8.872498E0,6.1475506E1,4.096773E0,3.6059517E1,5.105861E0,4.660556E0,4.3869514E0,5.7088554E1],"tree_param":{"num_deleted":"0","num_feature":"27","num_nodes":"13","size_leaf_vector":"0"}},{"base_weights":[2.5334287E-1,-1E0,1E0,-4.325708E-2,-1E0,-7.203749E-2,1E0,-7.203749E-2,-3.7525848E-2,-1.2539783E-2,1E0,4.637302E-2,7.203749E-2],"categories":[],"categories_nodes":[],"categories_segments":[],"categories_sizes":[],"default_left":[0,0,0,0,0,0,0,0,0,0,0,0,0],"id":4,"left_children":[1,3,5,-1,7,-1,9,-1,-1,-1,11,-1,-1],"loss_changes":[1.4254245E2,4.151497E-1,6.848628E1,0E0,6.923981E-1,0E0,5.838745E0,0E0,0E0,0E0,2.0591736E-1,0E0,0E0],"parents":[2147483647,0,0,1,1,2,2,4,4,6,6,10,10],"right_children":[2,4,6,-1,8,-1,10,-1,-1,-1,12,-1,-1],"split_conditions":[5.119299E-1,2.0183766E-2,4.4380847E-1,-4.325708E-2,5.084058E-1,-7.203749E-2,2.769487E-2,-7.203749E-2,-3.7525848E-2,-1.2539783E-2,3.140243E-2,4.637302E-2,7.203749E-2],"split_indices":[6,13,3,0,17,0,15,0,0,0,13,0,0],"split_type":[0,0,0,0,0,0,0,0,0,0,0,0,0],"sum_hessian":[1.2289736E2,4.3591797E1,7.9305565E1,4.4696E0,3.9122196E1,1.0021889E1,6.9283676E1,3.4902935E1,4.219261E0,4.1220717E0,6.5161606E1,4.0534368E0,6.1108166E1],"tree_param":{"num_deleted":"0","num_feature":"27","num_nodes":"13","size_leaf_vector":"0"}},{"base_weights":[2.5144705E-1,-1E0,1E0,-1E0,-2.4554363E-2,-7.203749E-2,1E0,-4.1230183E-2,-7.203749E-2,-8.391134E-3,1E0,4.14399E-2,1E0,5.242776E-2,7.203749E-2],"categories":[],"categories_nodes":[],"categories_segments":[],"categories_sizes":[],"default_left":[0,0,0,0,0,0,0,0,0,0,0,0,0,0,0],"id":5,"left_children":[1,3,5,7,-1,-1,9,-1,-1,-1,11,-1,13,-1,-1],"loss_changes":[1.3973466E2,2.5195923E0,5.1023964E1,5.2588654E-1,0E0,0E0,6.5351562E0,0E0,0E0,0E0,6.5023804E-1,0E0,1.40686035E-2,0E0,0E0],"parents":[2147483647,0,0,1,1,2,2,3,3,6,6,10,10,12,12],"right_children":[2,4,6,8,-1,-1,10,-1,-1,-1,12,-1,14,-1,-1],"split_conditions":[1.9851632E-1,5.033753E-1,1E0,3.6106862E-2,-2.4554363E-2,-7.203749E-2,3.236333E-2,-4.1230183E-2,-7.203749E-2,-8.391134E-3,2.2617519E-1,4.14399E-2,3.700595E-2,5.242776E-2,7.203749E-2],"split_indices":[8,6,1,11,0,0,15,0,0,0,8,0,13,0,0],"split_type":[0,0,0,0,0,0,0,0,0,0,0,0,0,0,0],"sum_hessian":[1.2169052E2,4.5779724E1,7.59108E1,3.9498337E1,6.2813888E0,8.51908E0,6.7391716E1,4.465933E0,3.5032406E1,5.1544485E0,6.223727E1,5.220962E0,5.7016308E1,4.573787E0,5.244252E1],"tree_param":{"num_deleted":"0","num_feature":"27","num_nodes":"15","size_leaf_vector":"0"}},{"base_weights":[2.6120412E-1,-1E0,1E0,-1.0511755E-2,-1E0,-7.203749E-2,1E0,-7.203749E-2,-1.9417495E-2,3.2008984E-3,1E0,5.237072E-2,7.203749E-2],"categories":[],"categories_nodes":[],"categories_segments":[],"categories_sizes":[],"default_left":[0,0,0,0,0,0,0,0,0,0,0,0,0],"id":6,"left_children":[1,3,5,-1,7,-1,9,-1,-1,-1,11,-1,-1],"loss_changes":[1.17488396E2,3.0636177E0,5.2823235E1,0E0,2.6219559E0,0E0,3.7249298E0,0E0,0E0,0E0,1.1040497E-1,0E0,0E0],"parents":[2147483647,0,0,1,1,2,2,4,4,6,6,10,10],"right_children":[2,4,6,-1,8,-1,10,-1,-1,-1,12,-1,-1],"split_conditions":[1.9979337E-1,2.0183766E-2,1E0,-1.0511755E-2,5.06568E-1,-7.203749E-2,1.690675E-1,-7.203749E-2,-1.9417495E-2,3.2008984E-3,1.2340493E-1,5.237072E-2,7.203749E-2],"split_indices":[8,13,1,0,6,0,7,0,0,0,19,0,0],"split_type":[0,0,0,0,0,0,0,0,0,0,0,0,0],"sum_hessian":[1.1760926E2,4.4646812E1,7.296245E1,4.3538933E0,4.029292E1,8.653949E0,6.4308495E1,3.5047165E1,5.2457557E0,4.135687E0,6.017281E1,5.8379254E0,5.4334885E1],"tree_param":{"num_deleted":"0","num_feature":"27","num_nodes":"13","size_leaf_vector":"0"}},{"base_weights":[2.1687512E-1,-1E0,9.376519E-1,-3.019123E-2,-1E0,-7.203749E-2,1E0,-7.203749E-2,-4.3611333E-2,-2.8533695E-2,1E0,4.996802E-1,1E0,7.203749E-2,-7.488843E-3,4.508582E-2,7.203749E-2],"categories":[],"categories_nodes":[],"categories_segments":[],"categories_sizes":[],"default_left":[0,0,0,0,0,0,0,0,0,0,0,0,0,0,0,0,0],"id":7,"left_children":[1,3,5,-1,7,-1,9,-1,-1,-1,11,13,15,-1,-1,-1,-1],"loss_changes":[1.1459714E2,1.5590172E0,5.464338E1,0E0,3.4788513E-1,0E0,9.103157E0,0E0,0E0,0E0,1.9726715E0,3.2712464E0,5.6459045E-1,0E0,0E0,0E0,0E0],"parents":[2147483647,0,0,1,1,2,2,4,4,6,6,10,10,11,11,12,12],"right_children":[2,4,6,-1,8,-1,10,-1,-1,-1,12,14,16,-1,-1,-1,-1],"split_conditions":[1.6219056E-1,3.8660087E-2,1E0,-3.019123E-2,2.9354228E-2,-7.203749E-2,4.3277416E-2,-7.203749E-2,-4.3611333E-2,-2.8533695E-2,2.2617519E-1,6.40234E-2,1.3433768E-1,7.203749E-2,-7.488843E-3,4.508582E-2,7.203749E-2],"split_indices":[20,11,1,0,21,0,18,0,0,0,8,15,19,0,0,0,0],"split_type":[0,0,0,0,0,0,0,0,0,0,0,0,0,0,0,0,0],"sum_hessian":[1.2141455E2,4.3126698E1,7.828785E1,5.334734E0,3.7791965E1,9.272737E0,6.9015114E1,3.36343E1,4.1576657E0,4.4867625E0,6.452835E1,8.956457E0,5.5571896E1,4.4533486E0,4.503108E0,6.2085395E0,4.9363358E1],"tree_param":{"num_deleted":"0","num_feature":"27","num_nodes":"17","size_leaf_vector":"0"}},{"base_weights":[2.686935E-1,-1E0,9.592987E-1,-1E0,-3.9859176E-2,-7.203749E-2,1E0,-4.0310923E-2,-7.203749E-2,4.3030375E-1,1E0,5.8239482E-2,-1.0679286E-2,4.022846E-2,7.203749E-2],"categories":[],"categories_nodes":[],"categories_segments":[],"categories_sizes":[],"default_left":[0,0,0,0,0,0,0,0,0,0,0,0,0,0,0],"id":8,"left_children":[1,3,5,7,-1,-1,9,-1,-1,11,13,-1,-1,-1,-1],"loss_changes":[1.0936171E2,6.9179916E-1,5.473192E1,9.622078E-1,0E0,0E0,3.7898636E0,0E0,0E0,2.8559568E0,4.952774E-1,0E0,0E0,0E0,0E0],"parents":[2147483647,0,0,1,1,2,2,3,3,6,6,9,9,10,10],"right_children":[2,4,6,8,-1,-1,10,-1,-1,12,14,-1,-1,-1,-1],"split_conditions":[5.119299E-1,1.78367E-1,1E0,1.0209515E-1,-3.9859176E-2,-7.203749E-2,2.3429477E-1,-4.0310923E-2,-7.203749E-2,5.387534E-1,1.6408992E-5,5.8239482E-2,-1.0679286E-2,4.022846E-2,7.203749E-2],"split_indices":[6,8,1,19,0,0,8,0,0,6,14,0,0,0,0],"split_type":[0,0,0,0,0,0,0,0,0,0,0,0,0,0,0],"sum_hessian":[1.21261894E2,4.204441E1,7.921748E1,3.7145958E1,4.898451E0,9.456081E0,6.97614E1,6.4421577E0,3.0703802E1,1.2433036E1,5.7328365E1,7.447662E0,4.9853745E0,4.012303E0,5.3316063E1],"tree_param":{"num_deleted":"0","num_feature":"27","num_nodes":"15","size_leaf_vector":"0"}},{"base_weights":[2.1431944E-1,-6.163781E-1,1E0,-9.193629E-1,6.069554E-3,-7.203749E-2,1E0,-1.879999E-2,-1E0,-3.7072E-1,3.737478E-1,2.44965E-2,7.203749E-2,-7.5880873E-1,-1E0,-5.772029E-2,1.7720718E-3,5.204654E-2,-4.488225E-3,-7.203749E-2,-2.1696512E-2,-7.203749E-2,-4.755112E-2],"categories":[],"categories_nodes":[],"categories_segments":[],"categories_sizes":[],"default_left":[0,0,0,0,0,0,0,0,0,0,0,0,0,0,0,0,0,0,0,0,0,0,0],"id":9,"left_children":[1,3,5,7,9,-1,11,-1,13,15,17,-1,-1,19,21,-1,-1,-1,-1,-1,-1,-1,-1],"loss_changes":[7.862972E1,1.1023535E1,3.6905148E1,2.9283867E0,2.7566078E0,0E0,1.9486771E0,0E0,2.2266388E-1,1.6861312E0,1.5562449E0,0E0,0E0,1.2496204E0,1.7090225E-1,0E0,0E0,0E0,0E0,0E0,0E0,0E0,0E0],"parents":[2147483647,0,0,1,1,2,2,3,3,4,4,6,6,8,8,9,9,10,10,13,13,14,14],"right_children":[2,4,6,8,10,-1,12,-1,14,16,18,-1,-1,20,22,-1,-1,-1,-1,-1,-1,-1,-1],"split_conditions":[2.3429477E-1,3.0177122E-2,1E0,3.8660087E-2,1.7676514E-4,-7.203749E-2,1.7821232E-5,-1.879999E-2,1.027574E-4,5.020867E-1,1.7515342E-1,2.44965E-2,7.203749E-2,7.679224E-2,2.0047987E-3,-5.772029E-2,1.7720718E-3,5.204654E-2,-4.488225E-3,-7.203749E-2,-2.1696512E-2,-7.203749E-2,-4.755112E-2],"split_indices":[8,21,1,11,14,0,14,0,14,9,13,0,0,11,14,0,0,0,0,0,0,0,0],"split_type":[0,0,0,0,0,0,0,0,0,0,0,0,0,0,0,0,0,0,0,0,0,0,0],"sum_hessian":[1.18773415E2,5.8006065E1,6.076735E1,3.89167E1,1.9089369E1,7.1006193E0,5.366673E1,6.142371E0,3.2774326E1,9.4113655E0,9.678003E0,4.9544783E0,4.871225E1,9.493885E0,2.3280441E1,4.349442E0,5.061924E0,5.2660136E0,4.41199E0,5.381313E0,4.112572E0,1.9100046E1,4.180394E0],"tree_param":{"num_deleted":"0","num_feature":"27","num_nodes":"23","size_leaf_vector":"0"}},{"base_weights":[2.7088445E-1,-6.429465E-1,1E0,-9.968894E-1,-5.2190106E-2,-7.203749E-2,1E0,-1.50593985E-2,-1E0,-7.203749E-2,3.509894E-1,3.887526E-2,7.203749E-2,-4.9337137E-2,-7.203749E-2,6.682732E-1,-2.1041337E-2,1.8421106E-2,7.1488954E-2],"categories":[],"categories_nodes":[],"categories_segments":[],"categories_sizes":[],"default_left":[0,0,0,0,0,0,0,0,0,0,0,0,0,0,0,0,0,0,0],"id":10,"left_children":[1,3,5,7,9,-1,11,-1,13,-1,15,-1,-1,-1,-1,17,-1,-1,-1],"loss_changes":[9.70122E1,1.2390551E1,2.3960487E1,2.9609222E0,1.1735257E1,0E0,1.1322174E0,0E0,4.7982025E-1,0E0,3.7007625E0,0E0,0E0,0E0,0E0,1.5138707E0,0E0,0E0,0E0],"parents":[2147483647,0,0,1,1,2,2,3,3,4,4,6,6,8,8,10,10,15,15],"right_children":[2,4,6,8,10,-1,12,-1,14,-1,16,-1,-1,-1,-1,18,-1,-1,-1],"split_conditions":[5.6774783E-1,5.033753E-1,1E0,3.6106862E-2,1E0,-7.203749E-2,1.3433768E-1,-1.50593985E-2,7.753146E-5,-7.203749E-2,6.835443E-1,3.887526E-2,7.203749E-2,-4.9337137E-2,-7.203749E-2,9.695868E-2,-2.1041337E-2,1.8421106E-2,7.1488954E-2],"split_indices":[6,6,1,11,1,0,19,0,14,0,4,0,0,0,0,11,0,0,0],"split_type":[0,0,0,0,0,0,0,0,0,0,0,0,0,0,0,0,0,0,0],"sum_hessian":[1.1800721E2,5.9012436E1,5.8994778E1,3.6742832E1,2.2269604E1,4.864217E0,5.4130558E1,4.9677973E0,3.1775036E1,4.893423E0,1.737618E1,6.671668E0,4.7458893E1,8.025683E0,2.3749352E1,1.1638122E1,5.738059E0,5.406619E0,6.2315025E0],"tree_param":{"num_deleted":"0","num_feature":"27","num_nodes":"19","size_leaf_vector":"0"}},{"base_weights":[2.1439494E-1,-5.9216213E-1,1E0,-9.04487E-1,-6.49283E-2,-7.203749E-2,1E0,-3.7887848E-3,-1E0,-7.203749E-2,3.4018794E-1,4.5826796E-1,7.203749E-2,-6.6935253E-1,-7.203749E-2,5.86483E-1,-3.1900432E-2,-6.227242E-3,7.203749E-2,-7.203749E-2,-1.1416528E-2,2.1073666E-1,7.203749E-2,-1.5719352E-2,4.284594E-2],"categories":[],"categories_nodes":[],"categories_segments":[],"categories_sizes":[],"default_left":[0,0,0,0,0,0,0,0,0,0,0,0,0,0,0,0,0,0,0,0,0,0,0,0,0],"id":11,"left_children":[1,3,5,7,9,-1,11,-1,13,-1,15,17,-1,19,-1,21,-1,-1,-1,-1,-1,23,-1,-1,-1],"loss_changes":[7.902603E1,9.770237E0,2.4564426E1,3.4733353E0,1.1687385E1,0E0,2.4590454E0,0E0,8.394165E-1,0E0,3.505991E0,3.179618E0,0E0,2.0559392E0,0E0,3.0293932E0,0E0,0E0,0E0,0E0,0E0,1.5703608E0,0E0,0E0,0E0],"parents":[2147483647,0,0,1,1,2,2,3,3,4,4,6,6,8,8,10,10,11,11,13,13,15,15,21,21],"right_children":[2,4,6,8,10,-1,12,-1,14,-1,16,18,-1,20,-1,22,-1,-1,-1,-1,-1,24,-1,-1,-1],"split_conditions":[2.024189E-1,1.5871882E-1,1E0,2.0183766E-2,1E0,-7.203749E-2,2.2174777E-1,-3.7887848E-3,1.027574E-4,-7.203749E-2,6.539168E-1,3.710693E-4,7.203749E-2,3.1766536E-5,-7.203749E-2,4.5666817E-1,-3.1900432E-2,-6.227242E-3,7.203749E-2,-7.203749E-2,-1.1416528E-2,1.7892396E-1,7.203749E-2,-1.5719352E-2,4.284594E-2],"split_indices":[20,20,1,13,1,0,20,0,14,0,10,14,0,14,0,17,0,0,0,0,0,20,0,0,0],"split_type":[0,0,0,0,0,0,0,0,0,0,0,0,0,0,0,0,0,0,0,0,0,0,0,0,0],"sum_hessian":[1.1540762E2,5.9126053E1,5.628157E1,3.696246E1,2.2163597E1,5.2048798E0,5.107669E1,4.3094707E0,3.265299E1,4.880565E0,1.7283031E1,9.2493105E0,4.182738E1,1.0550342E1,2.2102646E1,1.3224181E1,4.0588503E0,4.995403E0,4.2539077E0,5.8070807E0,4.7432604E0,8.809542E0,4.41464E0,4.217828E0,4.5917134E0],"tree_param":{"num_deleted":"0","num_feature":"27","num_nodes":"25","size_leaf_vector":"0"}},{"base_weights":[2.1406677E-1,-5.0298357E-1,1E0,-7.992392E-1,9.109395E-3,-6.1985753E-2,1E0,-9.342009E-3,-8.855812E-1,-7.203749E-2,3.5938212E-1,5.0583273E-1,7.203749E-2,-5.7957107E-1,-1E0,-2.7365146E-2,5.8978003E-1,6.209491E-4,7.007537E-2,-7.203749E-2,4.23783E-3,-1E0,-3.8591895E-2,3.113268E-3,8.3168614E-1,-5.2171394E-2,-7.203749E-2,7.203749E-2,2.6015958E-2],"categories":[],"categories_nodes":[],"categories_segments":[],"categories_sizes":[],"default_left":[0,0,0,0,0,0,0,0,0,0,0,0,0,0,0,0,0,0,0,0,0,0,0,0,0,0,0,0,0],"id":12,"left_children":[1,3,5,7,9,-1,11,-1,13,-1,15,17,-1,19,21,-1,23,-1,-1,-1,-1,25,-1,-1,27,-1,-1,-1,-1],"loss_changes":[6.4728874E1,9.028915E0,1.739721E1,2.1301441E0,9.875078E0,0E0,1.83815E0,0E0,9.724045E-1,0E0,3.1080644E0,2.0821435E0,0E0,3.1581213E0,9.40403E-1,0E0,1.7878323E0,0E0,0E0,0E0,0E0,7.400131E-2,0E0,0E0,1.4097939E0,0E0,0E0,0E0,0E0],"parents":[2147483647,0,0,1,1,2,2,3,3,4,4,6,6,8,8,10,10,11,11,13,13,14,14,16,16,21,21,24,24],"right_children":[2,4,6,8,10,-1,12,-1,14,-1,16,18,-1,20,22,-1,24,-1,-1,-1,-1,26,-1,-1,28,-1,-1,-1,-1],"split_conditions":[5.6774783E-1,5.06568E-1,6.075949E-1,1.9150509E-2,4.4380847E-1,-6.1985753E-2,2.2174777E-1,-9.342009E-3,1.027574E-4,-7.203749E-2,1.690675E-1,3.0564252E-4,7.203749E-2,3.1766536E-5,1.571391E-1,-2.7365146E-2,1.9851632E-1,6.209491E-4,7.007537E-2,-7.203749E-2,4.23783E-3,4.7330764E-1,-3.8591895E-2,3.113268E-3,2.737763E-1,-5.2171394E-2,-7.203749E-2,7.203749E-2,2.6015958E-2],"split_indices":[6,6,4,13,3,0,20,0,14,0,7,14,0,14,8,0,8,0,0,0,0,3,0,0,7,0,0,0,0],"split_type":[0,0,0,0,0,0,0,0,0,0,0,0,0,0,0,0,0,0,0,0,0,0,0,0,0,0,0,0,0],"sum_hessian":[1.1159943E2,5.904959E1,5.254984E1,3.7299843E1,2.1749746E1,4.7692947E0,4.7780544E1,4.373794E0,3.292605E1,4.3931165E0,1.735663E1,8.638103E0,3.914244E1,9.607511E0,2.3318539E1,4.0594254E0,1.3297205E1,4.3648386E0,4.273264E0,5.2883806E0,4.31913E0,1.7654716E1,5.663822E0,4.218384E0,9.078821E0,5.2366476E0,1.2418069E1,4.445411E0,4.6334105E0],"tree_param":{"num_deleted":"0","num_feature":"27","num_nodes":"29","size_leaf_vector":"0"}},{"base_weights":[2.0496662E-1,-8.329037E-1,9.3369913E-1,-9.9933815E-1,-1.5783788E-1,-7.203749E-2,1E0,-1.08107105E-2,-1E0,-3.9654154E-2,1.1806422E-2,1.9290248E-3,1E0,-6.9351995E-1,-7.203749E-2,3.4116898E-2,7.203749E-2,-7.203749E-2,-2.4183528E-2],"categories":[],"categories_nodes":[],"categories_segments":[],"categories_sizes":[],"default_left":[0,0,0,0,0,0,0,0,0,0,0,0,0,0,0,0,0,0,0],"id":13,"left_children":[1,3,5,7,9,-1,11,-1,13,-1,-1,-1,15,17,-1,-1,-1,-1,-1],"loss_changes":[9.0856735E1,5.5086517E0,4.2197754E1,2.9165802E0,1.3395319E0,0E0,4.3563614E0,0E0,5.2765274E-1,0E0,0E0,0E0,1.1430206E0,9.161744E-1,0E0,0E0,0E0,0E0,0E0],"parents":[2147483647,0,0,1,1,2,2,3,3,4,4,6,6,8,8,12,12,13,13],"right_children":[2,4,6,8,10,-1,12,-1,14,-1,-1,-1,16,18,-1,-1,-1,-1,-1],"split_conditions":[1.7759681E-1,1.5871882E-1,6.075949E-1,1.7923024E-2,4.8838747E-1,-7.203749E-2,1.690675E-1,-1.08107105E-2,7.753146E-5,-3.9654154E-2,1.1806422E-2,1.9290248E-3,3.700595E-2,5.036874E-1,-7.203749E-2,3.4116898E-2,7.203749E-2,-7.203749E-2,-2.4183528E-2],"split_indices":[20,20,4,13,3,0,7,0,14,0,0,0,13,3,0,0,0,0,0],"split_type":[0,0,0,0,0,0,0,0,0,0,0,0,0,0,0,0,0,0,0],"sum_hessian":[1.1938237E2,4.9219162E1,7.016321E1,3.933844E1,9.880725E0,8.569183E0,6.159402E1,4.1962123E0,3.5142227E1,4.3555646E0,5.5251603E0,4.641688E0,5.6952335E1,9.011382E0,2.6130844E1,5.06569E0,5.1886642E1,4.489764E0,4.5216174E0],"tree_param":{"num_deleted":"0","num_feature":"27","num_nodes":"19","size_leaf_vector":"0"}},{"base_weights":[1.7028584E-1,-3.8077357E-1,1E0,-7.0615983E-1,2.4750479E-2,1.4473189E-2,1E0,-9.5114905E-1,-4.3736595E-1,-7.203749E-2,3.1852657E-1,5.1366817E-2,7.203749E-2,-4.4301797E-2,-1E0,5.3472478E-2,-8.224853E-1,6.2841684E-1,-4.335283E-2,-7.203749E-2,-5.0890837E-2,-7.203749E-2,-5.3105426E-1,1E0,2.4828051E-1,-2.0352894E-4,-7.203749E-2,7.203749E-2,4.4483237E-2,-3.4780618E-2,6.074314E-2],"categories":[],"categories_nodes":[],"categories_segments":[],"categories_sizes":[],"default_left":[0,0,0,0,0,0,0,0,0,0,0,0,0,0,0,0,0,0,0,0,0,0,0,0,0,0,0,0,0,0,0],"id":14,"left_children":[1,3,5,7,9,-1,11,13,15,-1,17,-1,-1,-1,19,-1,21,23,-1,-1,-1,-1,25,27,29,-1,-1,-1,-1,-1,-1],"loss_changes":[5.5157173E1,8.98256E0,3.5643044E0,2.3395023E0,1.0360552E1,0E0,1.4518738E-2,6.5244865E-1,8.70398E0,0E0,7.1688776E0,0E0,0E0,0E0,8.521557E-2,0E0,1.1564655E0,2.623639E0,0E0,0E0,0E0,0E0,2.2936945E0,2.9769802E-1,4.434683E0,0E0,0E0,0E0,0E0,0E0,0E0],"parents":[2147483647,0,0,1,1,2,2,3,3,4,4,6,6,7,7,8,8,10,10,14,14,16,16,17,17,22,22,23,23,24,24],"right_children":[2,4,6,8,10,-1,12,14,16,-1,18,-1,-1,-1,20,-1,22,24,-1,-1,-1,-1,26,28,30,-1,-1,-1,-1,-1,-1],"split_conditions":[2.2174777E-1,1.5939358E-1,4.58448E-1,3.2928056E-1,4.4380847E-1,1.4473189E-2,4.8280142E-2,1.17604E-1,3.8292113E-1,-7.203749E-2,5.6240404E-1,5.1366817E-2,7.203749E-2,-4.4301797E-2,8.3290875E-2,5.3472478E-2,1E0,2.607552E-1,-4.335283E-2,-7.203749E-2,-5.0890837E-2,-7.203749E-2,5.3676292E-2,2.2855917E-1,3.4948397E-2,-2.0352894E-4,-7.203749E-2,7.203749E-2,4.4483237E-2,-3.4780618E-2,6.074314E-2],"split_indices":[20,20,3,17,3,0,11,19,17,0,17,0,0,0,11,0,2,7,0,0,0,0,18,19,25,0,0,0,0,0,0],"split_type":[0,0,0,0,0,0,0,0,0,0,0,0,0,0,0,0,0,0,0,0,0,0,0,0,0,0,0,0,0,0,0],"sum_hessian":[1.0718136E2,6.756695E1,3.9614414E1,3.736132E1,3.0205627E1,5.804935E0,3.380948E1,1.9067122E1,1.8294197E1,5.943188E0,2.426244E1,4.091279E0,2.9718199E1,6.742727E0,1.2324395E1,4.416785E0,1.3877413E1,1.8241623E1,6.0208154E0,7.608426E0,4.7159696E0,5.329859E0,8.547554E0,8.777299E0,9.464324E0,4.2870965E0,4.260458E0,4.6751413E0,4.102158E0,4.2668886E0,5.197436E0],"tree_param":{"num_deleted":"0","num_feature":"27","num_nodes":"31","size_leaf_vector":"0"}},{"base_weights":[2.1101318E-1,-4.0307376E-1,1E0,-7.444072E-1,1.2176166E-1,1.7191542E-2,7.203749E-2,-4.822298E-3,-8.24812E-1,-7.203749E-2,4.8621407E-1,-1E0,-4.2446804E-1,7.912799E-1,-5.476449E-2,-7.203749E-2,-5.1991604E-2,-6.712994E-2,1.51777E-2,2.0931039E-2,1E0,4.383101E-2,7.203749E-2],"categories":[],"categories_nodes":[],"categories_segments":[],"categories_sizes":[],"default_left":[0,0,0,0,0,0,0,0,0,0,0,0,0,0,0,0,0,0,0,0,0,0,0],"id":15,"left_children":[1,3,5,7,9,-1,-1,-1,11,-1,13,15,17,19,-1,-1,-1,-1,-1,-1,21,-1,-1],"loss_changes":[6.6127205E1,1.246336E1,4.12735E0,2.2649403E0,1.3103644E1,0E0,0E0,0E0,2.5758E0,0E0,8.522065E0,1.963234E-1,4.062868E0,1.8922119E0,0E0,0E0,0E0,0E0,0E0,0E0,4.4601917E-1,0E0,0E0],"parents":[2147483647,0,0,1,1,2,2,3,3,4,4,8,8,10,10,11,11,12,12,13,13,20,20],"right_children":[2,4,6,8,10,-1,-1,-1,12,-1,14,16,18,20,-1,-1,-1,-1,-1,-1,22,-1,-1],"split_conditions":[5.911618E-1,1.9851632E-1,4.58448E-1,2.0183766E-2,4.4380847E-1,1.7191542E-2,7.203749E-2,-4.822298E-3,1.4684367E-1,-7.203749E-2,6.919958E-1,1.0899757E-1,1.5569845E-1,1.7133762E-1,-5.476449E-2,-7.203749E-2,-5.1991604E-2,-6.712994E-2,1.51777E-2,2.0931039E-2,3.3608116E-2,4.383101E-2,7.203749E-2],"split_indices":[6,8,3,13,3,0,0,0,12,0,10,12,8,19,0,0,0,0,0,0,24,0,0],"split_type":[0,0,0,0,0,0,0,0,0,0,0,0,0,0,0,0,0,0,0,0,0,0,0],"sum_hessian":[1.1211163E2,6.8956215E1,4.3155426E1,4.170817E1,2.7248041E1,7.39946E0,3.5755966E1,4.5067053E0,3.7201466E1,5.7887173E0,2.1459324E1,2.5224184E1,1.1977281E1,1.7348091E1,4.111233E0,1.8506813E1,6.717371E0,6.5786858E0,5.398595E0,5.652985E0,1.1695106E1,4.8676567E0,6.8274484E0],"tree_param":{"num_deleted":"0","num_feature":"27","num_nodes":"23","size_leaf_vector":"0"}},{"base_weights":[2.0308736E-1,-3.2284176E-1,1E0,-7.287746E-1,1.2693076E-1,2.865984E-1,7.203749E-2,3.1550266E-3,-8.4222454E-1,-7.203749E-2,4.3434232E-1,4.023385E-2,-6.0460827E-4,-9.8039985E-1,-5.2855897E-1,7.357109E-1,-3.0152775E-2,-7.529039E-1,-7.203749E-2,-1.154233E-2,-5.708676E-2,5.2036774E-1,7.203749E-2,-7.203749E-2,-2.910312E-2,6.243278E-2,3.1893058E-3],"categories":[],"categories_nodes":[],"categories_segments":[],"categories_sizes":[],"default_left":[0,0,0,0,0,0,0,0,0,0,0,0,0,0,0,0,0,0,0,0,0,0,0,0,0,0,0],"id":16,"left_children":[1,3,5,7,9,11,-1,-1,13,-1,15,-1,-1,17,19,21,-1,23,-1,-1,-1,25,-1,-1,-1,-1,-1],"loss_changes":[4.7438732E1,1.1984686E1,3.9416008E0,3.0421352E0,1.1784393E1,6.920996E-1,0E0,0E0,1.1217461E0,0E0,6.6046476E0,0E0,0E0,2.3003006E-1,9.231763E-1,1.1396761E0,0E0,9.27804E-1,0E0,0E0,0E0,1.991404E0,0E0,0E0,0E0,0E0,0E0],"parents":[2147483647,0,0,1,1,2,2,3,3,4,4,5,5,8,8,10,10,13,13,14,14,15,15,17,17,21,21],"right_children":[2,4,6,8,10,12,-1,-1,14,-1,16,-1,-1,18,20,22,-1,24,-1,-1,-1,26,-1,-1,-1,-1,-1],"split_conditions":[5.911618E-1,5.033753E-1,4.7330764E-1,2.8955312E-2,6.075949E-1,2.737763E-1,7.203749E-2,3.1550266E-3,4.4230616E-1,-7.203749E-2,6.7118376E-1,4.023385E-2,-6.0460827E-4,1.3645366E-2,5.465546E-1,3.770473E-2,-3.0152775E-2,3.6638707E-1,-7.203749E-2,-1.154233E-2,-5.708676E-2,3.221532E-2,7.203749E-2,-7.203749E-2,-2.910312E-2,6.243278E-2,3.1893058E-3],"split_indices":[6,6,3,12,4,7,0,0,9,0,10,0,0,25,10,25,0,6,0,0,0,25,0,0,0,0,0],"split_type":[0,0,0,0,0,0,0,0,0,0,0,0,0,0,0,0,0,0,0,0,0,0,0,0,0,0,0],"sum_hessian":[1.0459994E2,6.502036E1,3.9579575E1,3.4076653E1,3.0943716E1,8.108343E0,3.1471231E1,4.3776937E0,2.9698957E1,6.0822873E0,2.4861427E1,4.079018E0,4.0293245E0,2.0084036E1,9.614922E0,1.8415108E1,6.4463205E0,9.273489E0,1.0810546E1,4.2620673E0,5.3528543E0,1.1823129E1,6.5919785E0,4.361475E0,4.9120145E0,6.667383E0,5.1557455E0],"tree_param":{"num_deleted":"0","num_feature":"27","num_nodes":"27","size_leaf_vector":"0"}},{"base_weights":[2.0099156E-1,-9.204869E-1,8.340382E-1,-3.167401E-2,-9.907094E-1,-7.203749E-2,1E0,-1E0,-6.131016E-1,-1.2017133E-2,1E0,-5.357215E-2,-7.203749E-2,-7.136549E-2,6.5744817E-3,6.0906786E-1,1E0,7.203749E-2,1.2529809E-2,4.597841E-2,7.203749E-2],"categories":[],"categories_nodes":[],"categories_segments":[],"categories_sizes":[],"default_left":[0,0,0,0,0,0,0,0,0,0,0,0,0,0,0,0,0,0,0,0,0],"id":17,"left_children":[1,3,5,-1,7,-1,9,11,13,-1,15,-1,-1,-1,-1,17,19,-1,-1,-1,-1],"loss_changes":[8.434812E1,1.292942E0,4.7362305E1,0E0,1.4575462E0,0E0,6.4455566E0,8.406067E-2,3.2736712E0,0E0,1.5778732E0,0E0,0E0,0E0,0E0,2.5751648E0,2.4806213E-1,0E0,0E0,0E0,0E0],"parents":[2147483647,0,0,1,1,2,2,4,4,6,6,7,7,8,8,10,10,15,15,16,16],"right_children":[2,4,6,-1,8,-1,10,12,14,-1,16,-1,-1,-1,-1,18,20,-1,-1,-1,-1],"split_conditions":[5.124474E-1,3.0248648E-2,1E0,-3.167401E-2,1.571391E-1,-7.203749E-2,1.5467803E-1,9.396023E-5,1.4934774E-1,-1.2017133E-2,2.4212687E-1,-5.357215E-2,-7.203749E-2,-7.136549E-2,6.5744817E-3,5.192075E-1,4.5681268E-2,7.203749E-2,1.2529809E-2,4.597841E-2,7.203749E-2],"split_indices":[6,12,1,0,8,0,7,14,12,0,8,0,0,0,0,3,12,0,0,0,0],"split_type":[0,0,0,0,0,0,0,0,0,0,0,0,0,0,0,0,0,0,0,0,0],"sum_hessian":[1.1804454E2,4.252861E1,7.551593E1,5.7588196E0,3.676979E1,9.848747E0,6.566718E1,2.4999231E1,1.1770559E1,4.6236286E0,6.1043552E1,6.261941E0,1.873729E1,7.582212E0,4.1883473E0,1.2290142E1,4.875341E1,5.5121927E0,6.7779493E0,4.2442374E0,4.4509174E1],"tree_param":{"num_deleted":"0","num_feature":"27","num_nodes":"21","size_leaf_vector":"0"}},{"base_weights":[1.7096211E-1,-6.127991E-1,1E0,-9.842361E-1,-8.752735E-3,-7.203749E-2,1E0,-2.4100805E-2,-1E0,-7.203749E-2,3.9598325E-1,2.9037172E-2,1E0,-5.5094667E-2,-7.203749E-2,6.289751E-1,-2.7757904E-2,8.040771E-1,7.203749E-2,1.897768E-1,7.203749E-2,2.1705594E-2,7.203749E-2,-1.9661965E-2,4.6758424E-2],"categories":[],"categories_nodes":[],"categories_segments":[],"categories_sizes":[],"default_left":[0,0,0,0,0,0,0,0,0,0,0,0,0,0,0,0,0,0,0,0,0,0,0,0,0],"id":18,"left_children":[1,3,5,7,9,-1,11,-1,13,-1,15,-1,17,-1,-1,19,-1,21,-1,23,-1,-1,-1,-1,-1],"loss_changes":[7.986483E1,1.3749908E1,2.1271538E1,2.2863731E0,1.2130383E1,0E0,1.4945679E0,0E0,8.119583E-2,0E0,3.4359279E0,0E0,3.9253235E-2,0E0,0E0,4.0037813E0,0E0,1.8872919E0,0E0,2.12796E0,0E0,0E0,0E0,0E0,0E0],"parents":[2147483647,0,0,1,1,2,2,3,3,4,4,6,6,8,8,10,10,12,12,15,15,17,17,19,19],"right_children":[2,4,6,8,10,-1,12,-1,14,-1,16,-1,18,-1,-1,20,-1,22,-1,24,-1,-1,-1,-1,-1],"split_conditions":[5.6774783E-1,5.033753E-1,1E0,3.8660087E-2,1E0,-7.203749E-2,4.515854E-2,-2.4100805E-2,9.434193E-2,-7.203749E-2,5.5381304E-1,2.9037172E-2,2.1969125E-1,-5.5094667E-2,-7.203749E-2,4.5666817E-1,-2.7757904E-2,5.9860855E-1,7.203749E-2,9.3313016E-2,7.203749E-2,2.1705594E-2,7.203749E-2,-1.9661965E-2,4.6758424E-2],"split_indices":[6,6,1,11,1,0,11,0,8,0,17,0,7,0,0,17,0,6,0,11,0,0,0,0,0],"split_type":[0,0,0,0,0,0,0,0,0,0,0,0,0,0,0,0,0,0,0,0,0,0,0,0,0],"sum_hessian":[1.15058174E2,6.0964214E1,5.409396E1,3.7605045E1,2.3359169E1,4.9151936E0,4.917877E1,5.650751E0,3.1954296E1,5.3783855E0,1.7980783E1,4.8541174E0,4.432465E1,7.44212E0,2.4512175E1,1.3913255E1,4.0675287E0,9.76069E0,3.456396E1,9.283998E0,4.629257E0,5.0447154E0,4.7159743E0,4.682221E0,4.6017766E0],"tree_param":{"num_deleted":"0","num_feature":"27","num_nodes":"25","size_leaf_vector":"0"}},{"base_weights":[1.5223032E-1,-3.188654E-1,1E0,-1E0,-1.7349581E-1,2.191713E-2,1E0,-4.6156112E-2,-7.203749E-2,-5.67698E-1,1.9520648E-1,4.354457E-2,7.203749E-2,-1.2644589E-1,-8.260134E-1,-6.810636E-2,4.3563926E-1,-3.9732218E-2,2.3282943E-2,-9.4396025E-1,-3.829552E-2,7.203749E-2,2.2328132E-1,-4.1500937E-2,-7.203749E-2,-4.2641725E-2,4.6672544E-1,-2.2406824E-2,7.6439655E-1,7.203749E-2,1.6654622E-2],"categories":[],"categories_nodes":[],"categories_segments":[],"categories_sizes":[],"default_left":[0,0,0,0,0,0,0,0,0,0,0,0,0,0,0,0,0,0,0,0,0,0,0,0,0,0,0,0,0,0,0],"id":19,"left_children":[1,3,5,7,9,-1,11,-1,-1,13,15,-1,-1,17,19,-1,21,-1,-1,23,-1,-1,25,-1,-1,-1,27,-1,29,-1,-1],"loss_changes":[4.08317E1,6.6873064E0,3.125309E0,2.5430107E-1,8.0268545E0,0E0,3.3710098E-1,0E0,0E0,2.9948797E0,8.000726E0,0E0,0E0,2.0395842E0,4.0534878E-1,0E0,3.6962256E0,0E0,0E0,5.748825E-1,0E0,0E0,3.9419348E0,0E0,0E0,0E0,3.58772E0,0E0,1.64503E0,0E0,0E0],"parents":[2147483647,0,0,1,1,2,2,3,3,4,4,6,6,9,9,10,10,13,13,14,14,16,16,19,19,22,22,26,26,28,28],"right_children":[2,4,6,8,10,-1,12,-1,-1,14,16,-1,-1,18,20,-1,22,-1,-1,24,-1,-1,26,-1,-1,-1,28,-1,30,-1,-1],"split_conditions":[5.911618E-1,4.0593065E-2,4.7330764E-1,3.0437754E-2,5.033753E-1,2.191713E-2,1.4201543E-1,-4.6156112E-2,-7.203749E-2,1.2599022E-4,1E0,4.354457E-2,7.203749E-2,5.036874E-1,1.5448906E-1,-6.810636E-2,5.5034406E-2,-3.9732218E-2,2.3282943E-2,3.866407E-1,-3.829552E-2,7.203749E-2,1.5853654E-1,-4.1500937E-2,-7.203749E-2,-4.2641725E-2,6.9915965E-2,-2.2406824E-2,3.0445588E-1,7.203749E-2,1.6654622E-2],"split_indices":[6,18,3,18,6,0,19,0,0,14,1,0,0,3,8,0,18,0,0,9,0,0,19,0,0,0,18,0,19,0,0],"split_type":[0,0,0,0,0,0,0,0,0,0,0,0,0,0,0,0,0,0,0,0,0,0,0,0,0,0,0,0,0,0,0],"sum_hessian":[1.0117015E2,6.524539E1,3.5924763E1,1.0745176E1,5.4500214E1,6.8554573E0,2.9069304E1,4.3552837E0,6.3898926E0,2.6264223E1,2.823599E1,4.0677824E0,2.5001522E1,9.903462E0,1.636076E1,4.731796E0,2.3504194E1,5.0634437E0,4.8400183E0,1.1111547E1,5.249213E0,4.5525804E0,1.8951614E1,5.017016E0,6.094531E0,4.2340703E0,1.4717543E1,4.058936E0,1.0658607E1,6.5836735E0,4.074933E0],"tree_param":{"num_deleted":"0","num_feature":"27","num_nodes":"31","size_leaf_vector":"0"}},{"base_weights":[1.7844626E-1,-7.5480145E-1,7.0713246E-1,-9.6010303E-1,-5.503587E-1,-7.203749E-2,9.9962E-1,-3.5721455E-2,-7.203749E-2,3.9120898E-2,-8.3995354E-1,4.8093557E-1,7.203749E-2,-1E0,-2.2479327E-2,6.643717E-1,-2.9253192E-2,-5.370445E-2,-7.203749E-2,7.203749E-2,4.3248436E-1,-1.3250538E-5,6.552874E-2],"categories":[],"categories_nodes":[],"categories_segments":[],"categories_sizes":[],"default_left":[0,0,0,0,0,0,0,0,0,0,0,0,0,0,0,0,0,0,0,0,0,0,0],"id":20,"left_children":[1,3,5,7,9,-1,11,-1,-1,-1,13,15,-1,17,-1,19,-1,-1,-1,-1,21,-1,-1],"loss_changes":[5.5095795E1,1.5132141E0,3.989443E1,8.7556076E-1,6.850666E0,0E0,6.195446E0,0E0,0E0,0E0,1.6201248E0,4.065475E0,0E0,1.2805939E-2,0E0,1.7464409E0,0E0,0E0,0E0,0E0,2.8295953E0,0E0,0E0],"parents":[2147483647,0,0,1,1,2,2,3,3,4,4,6,6,10,10,11,11,13,13,15,15,20,20],"right_children":[2,4,6,8,10,-1,12,-1,-1,-1,14,16,-1,18,-1,20,-1,-1,-1,-1,22,-1,-1],"split_conditions":[3.2093506E-2,3.2928056E-1,1E0,1.0209515E-1,3.8292113E-1,-7.203749E-2,5.6522574E-2,-3.5721455E-2,-7.203749E-2,3.9120898E-2,1.651011E-1,5.888481E-1,7.203749E-2,1.9102672E-2,-2.2479327E-2,4.7330764E-1,-2.9253192E-2,-5.370445E-2,-7.203749E-2,7.203749E-2,4.5666817E-1,-1.3250538E-5,6.552874E-2],"split_indices":[21,17,1,19,17,0,21,0,0,0,12,17,0,24,0,3,0,0,0,0,17,0,0],"split_type":[0,0,0,0,0,0,0,0,0,0,0,0,0,0,0,0,0,0,0,0,0,0,0],"sum_hessian":[1.1089266E2,4.0041718E1,7.0850945E1,1.931662E1,2.0725096E1,9.242569E0,6.1608376E1,4.6195927E0,1.4697027E1,4.268487E0,1.6456608E1,2.397152E1,3.7636856E1,1.1715891E1,4.740718E0,1.994579E1,4.0257297E0,5.25676E0,6.4591303E0,6.6860604E0,1.3259729E1,7.1222067E0,6.1375227E0],"tree_param":{"num_deleted":"0","num_feature":"27","num_nodes":"23","size_leaf_vector":"0"}},{"base_weights":[1.8888101E-1,-3.3148766E-1,1E0,-7.064549E-1,1.0552934E-1,1.4975928E-2,1E0,-5.8136676E-3,-8.0919826E-1,-7.203749E-2,3.2894352E-1,4.7691252E-2,7.203749E-2,-6.6390115E-1,-7.203749E-2,5.64308E-1,-2.4069408E-2,-3.5545808E-1,-8.5496575E-1,-8.5066E-3,7.5208974E-1,-5.1876027E-2,6.7589334E-3,-7.203749E-2,-3.941194E-2,4.2309678E-1,7.203749E-2,-2.529164E-3,6.966664E-2],"categories":[],"categories_nodes":[],"categories_segments":[],"categories_sizes":[],"default_left":[0,0,0,0,0,0,0,0,0,0,0,0,0,0,0,0,0,0,0,0,0,0,0,0,0,0,0,0,0],"id":21,"left_children":[1,3,5,7,9,-1,11,-1,13,-1,15,-1,-1,17,-1,19,-1,21,23,-1,25,-1,-1,-1,-1,27,-1,-1,-1],"loss_changes":[4.9438725E1,1.1173271E1,3.6826096E0,2.3256474E0,8.1508E0,0E0,1.454544E-1,0E0,1.0239697E0,0E0,4.2488556E0,0E0,0E0,1.2058716E0,0E0,2.5886707E0,0E0,1.5358098E0,7.144451E-1,0E0,1.8589277E0,0E0,0E0,0E0,0E0,2.4101548E0,0E0,0E0,0E0],"parents":[2147483647,0,0,1,1,2,2,3,3,4,4,6,6,8,8,10,10,13,13,15,15,17,17,18,18,20,20,25,25],"right_children":[2,4,6,8,10,-1,12,-1,14,-1,16,-1,-1,18,-1,20,-1,22,24,-1,26,-1,-1,-1,-1,28,-1,-1,-1],"split_conditions":[2.2174777E-1,5.06568E-1,4.58448E-1,3.8660087E-2,1E0,1.4975928E-2,5.0948862E-2,-5.8136676E-3,2.7288055E-1,-7.203749E-2,5.6240404E-1,4.7691252E-2,7.203749E-2,4.3405876E-1,-7.203749E-2,5.6209576E-1,-2.4069408E-2,4.4009724E-1,2.1126527E-2,-8.5066E-3,4.8026305E-1,-5.1876027E-2,6.7589334E-3,-7.203749E-2,-3.941194E-2,1.446791E-1,7.203749E-2,-2.529164E-3,6.966664E-2],"split_indices":[20,6,3,11,1,0,12,0,7,0,17,0,0,6,0,10,0,10,25,0,17,0,0,0,0,12,0,0,0],"split_type":[0,0,0,0,0,0,0,0,0,0,0,0,0,0,0,0,0,0,0,0,0,0,0,0,0,0,0,0,0],"sum_hessian":[1.0708623E2,6.7577E1,3.9509224E1,3.627015E1,3.130685E1,6.1020737E0,3.340715E1,5.2174773E0,3.1052673E1,4.940222E0,2.636663E1,4.009415E0,2.9397736E1,2.1915207E1,9.137466E0,1.9509644E1,6.856987E0,8.781829E0,1.3133378E1,4.2247868E0,1.5284856E1,4.746647E0,4.035182E0,6.900349E0,6.2330294E0,9.183852E0,6.101004E0,5.14856E0,4.0352917E0],"tree_param":{"num_deleted":"0","num_feature":"27","num_nodes":"29","size_leaf_vector":"0"}},{"base_weights":[1.6347055E-1,-2.858028E-1,9.5960015E-1,-5.7916814E-1,2.2029025E-2,1.0384077E-2,1E0,-2.5756496E-1,-8.558102E-1,-7.203749E-2,2.1473473E-1,4.120802E-2,7.203749E-2,6.1603496E-3,-5.101103E-1,-3.4095395E-2,-9.851287E-1,6.580446E-2,5.7830628E-2,-1.964008E-2,-5.0326698E-2,-7.203749E-2,-4.427722E-2,2.1681556E-1,-3.7565112E-2,-4.6970297E-2,5.5497766E-2,1.2954684E-2,-2.9979017E-2],"categories":[],"categories_nodes":[],"categories_segments":[],"categories_sizes":[],"default_left":[0,0,0,0,0,0,0,0,0,0,0,0,0,0,0,0,0,0,0,0,0,0,0,0,0,0,0,0,0],"id":22,"left_children":[1,3,5,7,9,-1,11,13,15,-1,17,-1,-1,-1,19,-1,21,-1,23,-1,-1,-1,-1,25,-1,27,-1,-1,-1],"loss_changes":[3.435833E1,5.565907E0,4.503208E0,2.7251396E0,6.6668386E0,0E0,4.8427963E-1,1.3333077E0,6.657276E-1,0E0,2.859448E0,0E0,0E0,0E0,3.2558155E-1,0E0,2.95249E-1,0E0,2.0557504E0,0E0,0E0,0E0,0E0,2.5662029E0,0E0,1.0501275E0,0E0,0E0,0E0],"parents":[2147483647,0,0,1,1,2,2,3,3,4,4,6,6,7,7,8,8,10,10,14,14,16,16,18,18,23,23,25,25],"right_children":[2,4,6,8,10,-1,12,14,16,-1,18,-1,-1,-1,20,-1,22,-1,24,-1,-1,-1,-1,26,-1,28,-1,-1,-1],"split_conditions":[5.911618E-1,5.033753E-1,4.58448E-1,1.299129E-4,1.4239316E-1,1.0384077E-2,2.1969125E-1,1.1105803E-1,9.434193E-2,-7.203749E-2,5.5034406E-2,4.120802E-2,7.203749E-2,6.1603496E-3,4.0182622E-5,-3.4095395E-2,9.7609055E-4,6.580446E-2,2.653925E-1,-1.964008E-2,-5.0326698E-2,-7.203749E-2,-4.427722E-2,2.3809712E-1,-3.7565112E-2,2.6561767E-1,5.5497766E-2,1.2954684E-2,-2.9979017E-2],"split_indices":[6,6,3,14,7,0,7,8,8,0,18,0,0,0,14,0,14,0,8,0,0,0,0,8,0,19,0,0,0],"split_type":[0,0,0,0,0,0,0,0,0,0,0,0,0,0,0,0,0,0,0,0,0,0,0,0,0,0,0,0,0],"sum_hessian":[9.5361534E1,6.1092335E1,3.4269203E1,3.114453E1,2.9947805E1,6.375752E0,2.789345E1,1.4728104E1,1.6416426E1,4.1002536E0,2.5847551E1,4.231901E0,2.3661549E1,6.3223724E0,8.405731E0,4.5750313E0,1.1841394E1,4.422292E0,2.1425259E1,4.118791E0,4.2869396E0,7.805159E0,4.0362353E0,1.6995682E1,4.429577E0,1.1710365E1,5.285317E0,7.344526E0,4.36584E0],"tree_param":{"num_deleted":"0","num_feature":"27","num_nodes":"29","size_leaf_vector":"0"}},{"base_weights":[1.9170132E-1,-2.9108888E-1,9.8531985E-1,-6.725509E-1,1.025989E-1,2.318686E-3,1E0,4.8887427E-3,-8.0412835E-1,-7.203749E-2,3.4230563E-1,5.222391E-2,7.203749E-2,-1E0,-6.492291E-1,6.3487947E-1,-3.2756016E-2,-7.203749E-2,-4.9917296E-2,-3.6212572E-1,-6.72024E-2,3.4463492E-1,7.203749E-2,8.068505E-3,-6.686184E-2,-5.144411E-3,5.6726836E-2],"categories":[],"categories_nodes":[],"categories_segments":[],"categories_sizes":[],"default_left":[0,0,0,0,0,0,0,0,0,0,0,0,0,0,0,0,0,0,0,0,0,0,0,0,0,0,0],"id":23,"left_children":[1,3,5,7,9,-1,11,-1,13,-1,15,-1,-1,17,19,21,-1,-1,-1,23,-1,25,-1,-1,-1,-1,-1],"loss_changes":[3.953745E1,9.682983E0,6.5891113E0,3.214157E0,9.273384E0,0E0,3.9466858E-2,0E0,7.879505E-1,0E0,6.378107E0,0E0,0E0,1.4397526E-1,1.3407335E0,3.0391626E0,0E0,0E0,0E0,2.6027806E0,0E0,2.6248302E0,0E0,0E0,0E0,0E0,0E0],"parents":[2147483647,0,0,1,1,2,2,3,3,4,4,6,6,8,8,10,10,13,13,14,14,15,15,19,19,21,21],"right_children":[2,4,6,8,10,-1,12,-1,14,-1,16,-1,-1,18,20,22,-1,-1,-1,24,-1,26,-1,-1,-1,-1,-1],"split_conditions":[5.911618E-1,5.033753E-1,6.2025315E-1,3.8660087E-2,1E0,2.318686E-3,2.1969125E-1,4.8887427E-3,1E0,-7.203749E-2,5.6240404E-1,5.222391E-2,7.203749E-2,2.0081504E-1,2.1769945E-1,4.8026305E-1,-3.2756016E-2,-7.203749E-2,-4.9917296E-2,4.6152064E-1,-6.72024E-2,1.446791E-1,7.203749E-2,8.068505E-3,-6.686184E-2,-5.144411E-3,5.6726836E-2],"split_indices":[6,6,4,11,1,0,7,0,2,0,17,0,0,7,7,17,0,0,0,6,0,12,0,0,0,0,0],"split_type":[0,0,0,0,0,0,0,0,0,0,0,0,0,0,0,0,0,0,0,0,0,0,0,0,0,0,0],"sum_hessian":[1.0250426E2,6.385966E1,3.86446E1,3.2324093E1,3.1535568E1,7.089799E0,3.1554798E1,4.889738E0,2.7434353E1,5.034592E0,2.6500977E1,4.8094935E0,2.6745306E1,9.886785E0,1.754757E1,1.9446526E1,7.054451E0,4.9800186E0,4.9067655E0,9.129899E0,8.41767E0,1.3691247E1,5.7552786E0,5.1077113E0,4.0221877E0,7.194845E0,6.496402E0],"tree_param":{"num_deleted":"0","num_feature":"27","num_nodes":"27","size_leaf_vector":"0"}},{"base_weights":[1.6698731E-1,-3.159024E-1,1E0,-6.9321424E-1,9.408825E-2,9.491189E-3,1E0,-1.9320585E-3,-7.8763E-1,-7.16656E-2,3.555683E-1,4.518653E-2,7.203749E-2,-9.900999E-1,-5.814097E-1,6.1872333E-1,-2.7235694E-2,-4.5853678E-2,-7.203749E-2,-3.3389178E-1,-7.203749E-2,3.934059E-1,7.120754E-2,-5.154205E-4,-4.189112E-2,4.8213124E-2,4.5977086E-3],"categories":[],"categories_nodes":[],"categories_segments":[],"categories_sizes":[],"default_left":[0,0,0,0,0,0,0,0,0,0,0,0,0,0,0,0,0,0,0,0,0,0,0,0,0,0,0],"id":24,"left_children":[1,3,5,7,9,-1,11,-1,13,-1,15,-1,-1,17,19,21,-1,-1,-1,23,-1,25,-1,-1,-1,-1,-1],"loss_changes":[4.4515266E1,1.0610283E1,5.00214E0,2.2286568E0,9.549374E0,0E0,2.5867844E-1,0E0,1.1040745E0,0E0,5.291314E0,0E0,0E0,4.0968132E-1,1.7447267E0,1.5291224E0,0E0,0E0,0E0,9.008362E-1,0E0,1.1650026E0,0E0,0E0,0E0,0E0,0E0],"parents":[2147483647,0,0,1,1,2,2,3,3,4,4,6,6,8,8,10,10,13,13,14,14,15,15,19,19,21,21],"right_children":[2,4,6,8,10,-1,12,-1,14,-1,16,-1,-1,18,20,22,-1,-1,-1,24,-1,26,-1,-1,-1,-1,-1],"split_conditions":[5.911618E-1,5.033753E-1,4.58448E-1,3.0248648E-2,1E0,9.491189E-3,5.3409215E-2,-1.9320585E-3,1.0785197E-1,-7.16656E-2,6.7118376E-1,4.518653E-2,7.203749E-2,5.7010088E-2,1.5064698E-1,3.770473E-2,-2.7235694E-2,-4.5853678E-2,-7.203749E-2,4.6152064E-1,-7.203749E-2,6.708861E-1,7.120754E-2,-5.154205E-4,-4.189112E-2,4.8213124E-2,4.5977086E-3],"split_indices":[6,6,3,12,1,0,12,0,12,0,10,0,0,11,13,25,0,0,0,6,0,4,0,0,0,0,0],"split_type":[0,0,0,0,0,0,0,0,0,0,0,0,0,0,0,0,0,0,0,0,0,0,0,0,0,0,0],"sum_hessian":[1.0559407E2,6.798731E1,3.7606754E1,3.5295086E1,3.269223E1,6.773734E0,3.0833021E1,4.449714E0,3.0845373E1,6.1349554E0,2.6557274E1,4.055692E0,2.6777328E1,1.4876464E1,1.5968908E1,1.959712E1,6.960153E0,5.4337673E0,9.442697E0,1.0818436E1,5.1504726E0,1.2637256E1,6.9598646E0,4.8364434E0,5.9819922E0,6.667452E0,5.9698043E0],"tree_param":{"num_deleted":"0","num_feature":"27","num_nodes":"27","size_leaf_vector":"0"}},{"base_weights":[2.1153012E-1,-4.6710968E-1,9.7600114E-1,-7.4106133E-1,6.961832E-2,-7.203749E-2,1E0,2.9817019E-3,-8.3006924E-1,-7.203749E-2,4.5702624E-1,5.486668E-1,7.203749E-2,-9.797268E-1,-4.356073E-1,7.9228866E-1,-5.8555403E-3,-4.852253E-3,7.070126E-2,-6.9862825E-1,-7.203749E-2,-6.0250957E-2,1.0885219E-2,7.203749E-2,3.1939488E-2,-7.203749E-2,-2.2027994E-2],"categories":[],"categories_nodes":[],"categories_segments":[],"categories_sizes":[],"default_left":[0,0,0,0,0,0,0,0,0,0,0,0,0,0,0,0,0,0,0,0,0,0,0,0,0,0,0],"id":25,"left_children":[1,3,5,7,9,-1,11,-1,13,-1,15,17,-1,19,21,23,-1,-1,-1,25,-1,-1,-1,-1,-1,-1,-1],"loss_changes":[5.9129086E1,8.915033E0,2.3774284E1,2.8119564E0,1.0491225E1,0E0,1.6441116E0,0E0,1.9742107E0,0E0,2.9745934E0,2.6599033E0,0E0,4.7060585E-1,2.5409873E0,5.803156E-1,0E0,0E0,0E0,1.268116E0,0E0,0E0,0E0,0E0,0E0,0E0,0E0],"parents":[2147483647,0,0,1,1,2,2,3,3,4,4,6,6,8,8,10,10,11,11,13,13,14,14,15,15,19,19],"right_children":[2,4,6,8,10,-1,12,-1,14,-1,16,18,-1,20,22,24,-1,-1,-1,26,-1,-1,-1,-1,-1,-1,-1],"split_conditions":[5.6774783E-1,5.119299E-1,1E0,1.9150509E-2,1E0,-7.203749E-2,5.911618E-1,2.9817019E-3,1.0291182E-1,-7.203749E-2,5.192075E-1,1.0217116E-1,7.203749E-2,1.76425E-1,2.0115545E-2,2.6821834E-1,-5.8555403E-3,-4.852253E-3,7.070126E-2,1.3314782E-1,-7.203749E-2,-6.0250957E-2,1.0885219E-2,7.203749E-2,3.1939488E-2,-7.203749E-2,-2.2027994E-2],"split_indices":[6,6,1,13,1,0,6,0,11,0,3,13,0,7,25,19,0,0,0,7,0,0,0,0,0,0,0],"split_type":[0,0,0,0,0,0,0,0,0,0,0,0,0,0,0,0,0,0,0,0,0,0,0,0,0,0,0],"sum_hessian":[1.1326158E2,6.0062138E1,5.3199448E1,3.969254E1,2.0369598E1,5.2629786E0,4.7936466E1,4.0599675E0,3.5632572E1,4.4508495E0,1.591875E1,9.466628E0,3.846984E1,2.5441074E1,1.0191497E1,9.722194E0,6.196556E0,4.015566E0,5.4510627E0,8.813586E0,1.662749E1,5.979586E0,4.2119107E0,5.6553526E0,4.066841E0,4.068041E0,4.745545E0],"tree_param":{"num_deleted":"0","num_feature":"27","num_nodes":"27","size_leaf_vector":"0"}},{"base_weights":[1.618954E-1,-6.483789E-1,7.848211E-1,-7.831852E-1,-1.7286615E-1,-7.203749E-2,1E0,-4.0634808E-1,-9.9027014E-1,-3.5278432E-2,2.3022454E-2,-2.773916E-2,1E0,-5.5167098E-2,-3.2470801E-3,-7.450303E-1,-7.203749E-2,1.9040143E-2,7.203749E-2,-2.9820533E-2,-7.203749E-2],"categories":[],"categories_nodes":[],"categories_segments":[],"categories_sizes":[],"default_left":[0,0,0,0,0,0,0,0,0,0,0,0,0,0,0,0,0,0,0,0,0],"id":26,"left_children":[1,3,5,7,9,-1,11,13,15,-1,-1,-1,17,-1,-1,19,-1,-1,-1,-1,-1],"loss_changes":[5.3938267E1,2.927164E0,3.0007584E1,2.6747742E0,1.7428492E0,0E0,9.030338E0,1.7278705E0,4.732685E-1,0E0,0E0,0E0,2.8768616E0,0E0,0E0,1.0643115E0,0E0,0E0,0E0,0E0,0E0],"parents":[2147483647,0,0,1,1,2,2,3,3,4,4,6,6,7,7,8,8,12,12,15,15],"right_children":[2,4,6,8,10,-1,12,14,16,-1,-1,-1,18,-1,-1,20,-1,-1,-1,-1,-1],"split_conditions":[5.345958E-1,5.033753E-1,1E0,1.027574E-4,1.4220254E-1,-7.203749E-2,2.0048696E-1,5.036874E-1,5.036874E-1,-3.5278432E-2,2.3022454E-2,-2.773916E-2,1.3433768E-1,-5.5167098E-2,-3.2470801E-3,2.74065E-1,-7.203749E-2,1.9040143E-2,7.203749E-2,-2.9820533E-2,-7.203749E-2],"split_indices":[6,6,1,14,12,0,16,3,3,0,0,0,19,0,0,16,0,0,0,0,0],"split_type":[0,0,0,0,0,0,0,0,0,0,0,0,0,0,0,0,0,0,0,0,0],"sum_hessian":[1.0611237E2,4.61067E1,6.0005676E1,3.573078E1,1.037592E1,6.9896007E0,5.3016075E1,1.3052619E1,2.2678162E1,6.328657E0,4.0472627E0,4.526182E0,4.848989E1,6.3338943E0,6.7187243E0,1.2349161E1,1.0329E1,5.637634E0,4.285226E1,6.181358E0,6.167803E0],"tree_param":{"num_deleted":"0","num_feature":"27","num_nodes":"21","size_leaf_vector":"0"}},{"base_weights":[1.14142425E-1,-2.6157507E-1,8.09683E-1,-7.852827E-1,-1.4777549E-1,8.075357E-3,1E0,-2.1324608E-2,-7.203749E-2,-4.7053254E-1,1.460583E-1,6.214271E-1,7.203749E-2,9.843765E-3,-6.982673E-1,-6.0157966E-2,3.645499E-1,2.0326818E-3,7.203749E-2,-4.3774372E-1,-7.203749E-2,5.399995E-1,-1.5841343E-2,8.788754E-3,-5.7089623E-2,2.8818733E-1,7.203749E-2,-5.4626176E-3,4.0975284E-2],"categories":[],"categories_nodes":[],"categories_segments":[],"categories_sizes":[],"default_left":[0,0,0,0,0,0,0,0,0,0,0,0,0,0,0,0,0,0,0,0,0,0,0,0,0,0,0,0,0],"id":27,"left_children":[1,3,5,7,9,-1,11,-1,-1,13,15,17,-1,-1,19,-1,21,-1,-1,23,-1,25,-1,-1,-1,27,-1,-1,-1],"loss_changes":[2.3358223E1,3.4233563E0,4.509762E0,1.8781614E0,4.601035E0,0E0,8.7828445E-1,0E0,0E0,3.2317557E0,5.574934E0,2.5238895E0,0E0,0E0,1.4361877E0,0E0,2.2117007E0,0E0,0E0,2.135298E0,0E0,1.9422312E0,0E0,0E0,0E0,1.1859984E0,0E0,0E0,0E0],"parents":[2147483647,0,0,1,1,2,2,3,3,4,4,6,6,9,9,10,10,11,11,14,14,16,16,19,19,21,21,25,25],"right_children":[2,4,6,8,10,-1,12,-1,-1,14,16,18,-1,-1,20,-1,22,-1,-1,24,-1,26,-1,-1,-1,28,-1,-1,-1],"split_conditions":[5.911618E-1,4.0593065E-2,4.7330764E-1,3.2556906E-2,5.033753E-1,8.075357E-3,6.4043105E-1,-2.1324608E-2,-7.203749E-2,5.7010088E-2,1E0,3.5656174E-4,7.203749E-2,9.843765E-3,3.8146442E-1,-6.0157966E-2,4.311723E-2,2.0326818E-3,7.203749E-2,2.3994727E-1,-7.203749E-2,6.283886E-1,-1.5841343E-2,8.788754E-3,-5.7089623E-2,9.959002E-2,7.203749E-2,-5.4626176E-3,4.0975284E-2],"split_indices":[6,18,3,18,6,0,6,0,0,11,1,14,0,0,17,0,25,0,0,7,0,10,0,0,0,13,0,0,0],"split_type":[0,0,0,0,0,0,0,0,0,0,0,0,0,0,0,0,0,0,0,0,0,0,0,0,0,0,0,0,0],"sum_hessian":[8.865407E1,5.7689785E1,3.0964285E1,9.91783E0,4.7771957E1,7.2711105E0,2.3693174E1,5.116994E0,4.800836E0,2.2685108E1,2.508685E1,8.245284E0,1.544789E1,6.211773E0,1.6473335E1,4.3827825E0,2.0704067E1,4.0105414E0,4.2347426E0,1.0149455E1,6.3238797E0,1.5958758E1,4.7453084E0,4.0125165E0,6.1369386E0,1.0988116E1,4.9706416E0,4.875182E0,6.1129346E0],"tree_param":{"num_deleted":"0","num_feature":"27","num_nodes":"29","size_leaf_vector":"0"}},{"base_weights":[1.7199671E-1,-3.6740524E-1,1E0,-7.058914E-1,5.004192E-2,9.3278745E-3,1E0,7.864059E-3,-8.078146E-1,-7.203749E-2,3.8506964E-1,4.8316702E-2,7.203749E-2,-6.1431366E-1,-7.203749E-2,-3.309535E-2,6.1793894E-1,-8.911799E-1,-3.673436E-1,9.47073E-1,-3.1714705E-3,-4.0870402E-2,-7.203749E-2,-3.9449134E-3,-5.9839085E-2,1.6258609E-2,7.203749E-2],"categories":[],"categories_nodes":[],"categories_segments":[],"categories_sizes":[],"default_left":[0,0,0,0,0,0,0,0,0,0,0,0,0,0,0,0,0,0,0,0,0,0,0,0,0,0,0],"id":28,"left_children":[1,3,5,7,9,-1,11,-1,13,-1,15,-1,-1,17,-1,-1,19,21,23,25,-1,-1,-1,-1,-1,-1,-1],"loss_changes":[5.0056717E1,9.375082E0,5.127178E0,3.0806847E0,1.1632269E1,0E0,1.2194824E-1,0E0,1.5853539E0,0E0,4.724412E0,0E0,0E0,1.3293471E0,0E0,0E0,4.0700445E0,3.802781E-1,1.6878767E0,2.2564268E0,0E0,0E0,0E0,0E0,0E0,0E0,0E0],"parents":[2147483647,0,0,1,1,2,2,3,3,4,4,6,6,8,8,10,10,13,13,16,16,17,17,18,18,19,19],"right_children":[2,4,6,8,10,-1,12,-1,14,-1,16,-1,-1,18,-1,-1,20,22,24,26,-1,-1,-1,-1,-1,-1,-1],"split_conditions":[2.2174777E-1,5.06568E-1,4.58448E-1,2.0183766E-2,6.075949E-1,9.3278745E-3,5.0948862E-2,7.864059E-3,8.289625E-2,-7.203749E-2,4.8963137E-2,4.8316702E-2,7.203749E-2,1.0785197E-1,-7.203749E-2,-3.309535E-2,3.0445588E-1,1.1105803E-1,2.662366E-1,1.4825976E-1,-3.1714705E-3,-4.0870402E-2,-7.203749E-2,-3.9449134E-3,-5.9839085E-2,1.6258609E-2,7.203749E-2],"split_indices":[20,6,3,13,4,0,12,0,18,0,18,0,0,12,0,0,19,8,12,19,0,0,0,0,0,0,0],"split_type":[0,0,0,0,0,0,0,0,0,0,0,0,0,0,0,0,0,0,0,0,0,0,0,0,0,0,0],"sum_hessian":[1.0661938E2,6.5804504E1,4.0814873E1,3.622258E1,2.9581926E1,6.9017715E0,3.39131E1,4.011197E0,3.2211384E1,6.487473E0,2.3094452E1,4.0235057E0,2.9889597E1,2.0740149E1,1.1471234E1,4.9090147E0,1.8185438E1,9.333446E0,1.1406702E1,1.2058547E1,6.126891E0,4.177412E0,5.1560335E0,7.05572E0,4.350982E0,4.0784807E0,7.9800663E0],"tree_param":{"num_deleted":"0","num_feature":"27","num_nodes":"27","size_leaf_vector":"0"}},{"base_weights":[1.5028322E-1,-9.3190685E-2,1E0,-3.8644487E-1,1.7316495E-1,3.5173155E-2,7.203749E-2,-6.994808E-2,-2.6926935E-1,-6.8479635E-2,4.0122345E-1,2.3035733E-2,-4.6923116E-1,-3.5696786E-2,5.547149E-1,-6.276591E-1,-5.7424963E-3,-8.075635E-3,7.7202547E-1,-4.0634477E-1,-7.203749E-2,7.203749E-2,-3.1412782E-3,-5.1233623E-2,-1.119585E-3],"categories":[],"categories_nodes":[],"categories_segments":[],"categories_sizes":[],"default_left":[0,0,0,0,0,0,0,0,0,0,0,0,0,0,0,0,0,0,0,0,0,0,0,0,0],"id":29,"left_children":[1,3,5,7,9,-1,-1,-1,11,-1,13,-1,15,-1,17,19,-1,-1,21,23,-1,-1,-1,-1,-1],"loss_changes":[1.8683514E1,5.385218E0,9.094219E-1,2.1566029E0,9.405019E0,0E0,0E0,0E0,3.333709E0,0E0,4.275665E0,0E0,1.268177E0,0E0,3.8143415E0,1.28404E0,0E0,0E0,5.2983837E0,1.2394383E0,0E0,0E0,0E0,0E0,0E0],"parents":[2147483647,0,0,1,1,2,2,3,3,4,4,8,8,10,10,12,12,14,14,15,15,18,18,19,19],"right_children":[2,4,6,8,10,-1,-1,-1,12,-1,14,-1,16,-1,18,20,-1,-1,22,24,-1,-1,-1,-1,-1],"split_conditions":[6.4043105E-1,1.6252907E-1,6.329114E-1,3.725095E-1,1E0,3.5173155E-2,7.203749E-2,-6.994808E-2,1.3645366E-2,-6.8479635E-2,5.7010088E-2,2.3035733E-2,1.651011E-1,-3.5696786E-2,4.970169E-1,4.7336805E-1,-5.7424963E-3,-8.075635E-3,7.021245E-1,2.0661678E-2,-7.203749E-2,7.203749E-2,-3.1412782E-3,-5.1233623E-2,-1.119585E-3],"split_indices":[6,20,4,10,1,0,0,0,25,0,11,0,12,0,9,9,0,0,10,25,0,0,0,0,0],"split_type":[0,0,0,0,0,0,0,0,0,0,0,0,0,0,0,0,0,0,0,0,0,0,0,0,0],"sum_hessian":[8.671608E1,6.814005E1,1.8576025E1,3.2378613E1,3.576144E1,4.486905E0,1.408912E1,4.9717784E0,2.7406832E1,5.8407555E0,2.9920687E1,6.8793397E0,2.0527493E1,4.2500424E0,2.5670643E1,1.442222E1,6.105272E0,6.3378534E0,1.933279E1,1.0098897E1,4.3233232E0,1.358336E1,5.7494307E0,5.498538E0,4.6003594E0],"tree_param":{"num_deleted":"0","num_feature":"27","num_nodes":"25","size_leaf_vector":"0"}},{"base_weights":[1.8347362E-1,-2.780244E-1,1E0,-5.4970026E-1,1.650305E-1,2.4963986E-2,1E0,-7.203749E-2,-4.4656536E-1,-7.011968E-2,4.9030143E-1,4.2140022E-2,7.203749E-2,1.4235091E-2,-5.958598E-1,7.870397E-1,-3.868999E-2,-8.2673794E-1,-3.6301607E-1,8.7472685E-3,1E0,-3.9025683E-2,-7.203749E-2,1.4324354E-2,-5.820832E-1,4.9337953E-2,7.203749E-2,-6.7721024E-2,-4.744679E-3],"categories":[],"categories_nodes":[],"categories_segments":[],"categories_sizes":[],"default_left":[0,0,0,0,0,0,0,0,0,0,0,0,0,0,0,0,0,0,0,0,0,0,0,0,0,0,0,0,0],"id":30,"left_children":[1,3,5,7,9,-1,11,-1,13,-1,15,-1,-1,-1,17,19,-1,21,23,-1,25,-1,-1,-1,27,-1,-1,-1,-1],"loss_changes":[3.8969162E1,7.9489083E0,2.86483E0,2.16638E0,9.522238E0,0E0,3.9542007E-1,0E0,3.4393563E0,0E0,6.216305E0,0E0,0E0,0E0,1.4388924E0,2.8744297E0,0E0,8.899164E-1,1.8901225E0,0E0,1.7128658E-1,0E0,0E0,0E0,1.9797306E0,0E0,0E0,0E0,0E0],"parents":[2147483647,0,0,1,1,2,2,3,3,4,4,6,6,8,8,10,10,14,14,15,15,17,17,18,18,20,20,24,24],"right_children":[2,4,6,8,10,-1,12,-1,14,-1,16,-1,-1,-1,18,20,-1,22,24,-1,26,-1,-1,-1,28,-1,-1,-1,-1],"split_conditions":[2.2174777E-1,1.9851632E-1,6.329114E-1,1.545349E-1,1E0,2.4963986E-2,1.4201543E-1,-7.203749E-2,9.434193E-2,-7.011968E-2,6.919958E-1,4.2140022E-2,7.203749E-2,1.4235091E-2,1.5569845E-1,1.7133762E-1,-3.868999E-2,7.726844E-2,5.465546E-1,8.7472685E-3,4.970169E-1,-3.9025683E-2,-7.203749E-2,1.4324354E-2,2.212411E-1,4.9337953E-2,7.203749E-2,-6.7721024E-2,-4.744679E-3],"split_indices":[20,8,4,17,1,0,19,0,8,0,10,0,0,0,8,19,0,18,10,0,9,0,0,0,19,0,0,0,0],"split_type":[0,0,0,0,0,0,0,0,0,0,0,0,0,0,0,0,0,0,0,0,0,0,0,0,0,0,0,0,0],"sum_hessian":[1.016217E2,6.531763E1,3.630407E1,4.045415E1,2.4863478E1,7.2053943E0,2.9098677E1,5.5846467E0,3.4869503E1,5.365266E0,1.949821E1,4.0040703E0,2.5094606E1,6.525735E0,2.834377E1,1.5199593E1,4.298619E0,1.3766852E1,1.4576916E1,4.7582607E0,1.0441331E1,7.5803328E0,6.18652E0,4.083654E0,1.0493262E1,4.919029E0,5.522302E0,6.016447E0,4.4768147E0],"tree_param":{"num_deleted":"0","num_feature":"27","num_nodes":"29","size_leaf_vector":"0"}},{"base_weights":[1.5218742E-1,-1.8675654E-1,8.4229964E-1,-7.516838E-1,-7.465356E-2,5.117553E-1,1E0,-1.9537611E-2,-7.203749E-2,-3.8252753E-1,2.0027786E-1,3.478248E-3,7.203749E-2,7.203749E-2,4.4752013E-2,-1.3650627E-1,-5.8292385E-2,-4.6340235E-2,3.7352535E-1,3.0041827E-2,-3.9382175E-1,-1.8937266E-2,5.297712E-1,-5.6641743E-2,6.1418987E-3,6.9678384E-1,-0E0,3.416914E-2,7.203749E-2],"categories":[],"categories_nodes":[],"categories_segments":[],"categories_sizes":[],"default_left":[0,0,0,0,0,0,0,0,0,0,0,0,0,0,0,0,0,0,0,0,0,0,0,0,0,0,0,0,0],"id":31,"left_children":[1,3,5,7,9,11,13,-1,-1,15,17,-1,-1,-1,-1,19,-1,-1,21,-1,23,-1,25,-1,-1,27,-1,-1,-1],"loss_changes":[1.97598E1,3.5759506E0,1.3782387E0,1.6800365E0,4.077545E0,2.5440607E0,2.8762817E-1,0E0,0E0,2.3405576E0,3.8109498E0,0E0,0E0,0E0,0E0,2.178167E0,0E0,0E0,2.1789324E0,0E0,1.9760708E0,0E0,1.5219011E0,0E0,0E0,7.3212004E-1,0E0,0E0,0E0],"parents":[2147483647,0,0,1,1,2,2,3,3,4,4,5,5,6,6,9,9,10,10,15,15,18,18,20,20,22,22,25,25],"right_children":[2,4,6,8,10,12,14,-1,-1,16,18,-1,-1,-1,-1,20,-1,-1,22,-1,24,-1,26,-1,-1,28,-1,-1,-1],"split_conditions":[5.911618E-1,4.0593065E-2,6.4043105E-1,1.728122E-1,5.033753E-1,2.844329E-1,1.7322133E-1,-1.9537611E-2,-7.203749E-2,4.2114552E-4,1E0,3.478248E-3,7.203749E-2,7.203749E-2,4.4752013E-2,1.1105803E-1,-5.8292385E-2,-4.6340235E-2,5.6209576E-1,3.0041827E-2,1.5448906E-1,-1.8937266E-2,2.6011005E-1,-5.6641743E-2,6.1418987E-3,6.283886E-1,-0E0,3.416914E-2,7.203749E-2],"split_indices":[6,18,6,19,6,19,11,0,0,14,1,0,0,0,0,8,0,0,10,0,8,0,8,0,0,10,0,0,0],"split_type":[0,0,0,0,0,0,0,0,0,0,0,0,0,0,0,0,0,0,0,0,0,0,0,0,0,0,0,0,0],"sum_hessian":[8.3784805E1,5.6345757E1,2.7439047E1,8.987963E0,4.735779E1,9.811099E0,1.7627949E1,4.5707784E0,4.4171844E0,2.2296204E1,2.506159E1,5.528789E0,4.2823095E0,1.3508561E1,4.1193867E0,1.44467535E1,7.849449E0,4.0999184E0,2.0961672E1,4.5028605E0,9.943893E0,4.07143E0,1.689024E1,5.3576665E0,4.586227E0,1.2745428E1,4.144812E0,7.92406E0,4.821368E0],"tree_param":{"num_deleted":"0","num_feature":"27","num_nodes":"29","size_leaf_vector":"0"}},{"base_weights":[1.1673685E-1,-3.115766E-1,9.1834676E-1,-6.690567E-1,9.4451785E-2,1.7612087E-2,1E0,-7.203749E-2,-5.573041E-1,-6.340468E-2,2.9608107E-1,3.8906485E-2,7.203749E-2,3.2498287E-3,-7.019411E-1,-2.3475798E-2,4.8946446E-1,-8.9673585E-1,-4.411536E-1,7.189263E-1,4.352728E-3,-4.9943354E-2,-7.203749E-2,2.8198306E-3,-5.6029074E-2,4.0688426E-3,7.203749E-2],"categories":[],"categories_nodes":[],"categories_segments":[],"categories_sizes":[],"default_left":[0,0,0,0,0,0,0,0,0,0,0,0,0,0,0,0,0,0,0,0,0,0,0,0,0,0,0],"id":32,"left_children":[1,3,5,7,9,-1,11,-1,13,-1,15,-1,-1,-1,17,-1,19,21,23,25,-1,-1,-1,-1,-1,-1,-1],"loss_changes":[3.3222214E1,9.192146E0,3.2530327E0,1.2552843E0,5.9663606E0,0E0,5.6855583E-1,0E0,2.3706741E0,0E0,3.0718737E0,0E0,0E0,0E0,9.6886253E-1,0E0,1.8729949E0,1.7325974E-1,1.645537E0,2.848844E0,0E0,0E0,0E0,0E0,0E0,0E0,0E0],"parents":[2147483647,0,0,1,1,2,2,3,3,4,4,6,6,8,8,10,10,14,14,16,16,17,17,18,18,19,19],"right_children":[2,4,6,8,10,-1,12,-1,14,-1,16,-1,-1,-1,18,-1,20,22,24,26,-1,-1,-1,-1,-1,-1,-1],"split_conditions":[5.911618E-1,5.076179E-1,4.58448E-1,3.725095E-1,1E0,1.7612087E-2,5.8974147E-2,-7.203749E-2,9.66139E-2,-6.340468E-2,1.690675E-1,3.8906485E-2,7.203749E-2,3.2498287E-3,2.2939648E-2,-2.3475798E-2,3.0306053E-1,4.0287724E-1,4.78297E-1,1.5853654E-1,4.352728E-3,-4.9943354E-2,-7.203749E-2,2.8198306E-3,-5.6029074E-2,4.0688426E-3,7.203749E-2],"split_indices":[6,6,3,10,1,0,12,0,8,0,7,0,0,0,24,0,19,9,9,19,0,0,0,0,0,0,0],"split_type":[0,0,0,0,0,0,0,0,0,0,0,0,0,0,0,0,0,0,0,0,0,0,0,0,0,0,0],"sum_hessian":[9.603791E1,6.2721294E1,3.3316616E1,3.3250874E1,2.947042E1,6.37759E0,2.6939024E1,6.645982E0,2.660489E1,4.843629E0,2.4626791E1,4.020029E0,2.2918995E1,5.181781E0,2.142311E1,5.7712345E0,1.8855556E1,1.1757974E1,9.665136E0,1.2116549E1,6.739009E0,6.5776234E0,5.1803503E0,4.0942407E0,5.5708957E0,4.365135E0,7.7514133E0],"tree_param":{"num_deleted":"0","num_feature":"27","num_nodes":"27","size_leaf_vector":"0"}},{"base_weights":[1.3232912E-1,-1.7294475E-1,7.582108E-1,-5.146242E-1,3.05238E-2,3.909036E-3,1E0,-7.824702E-1,-3.7847431E-3,-4.6076167E-2,1.2912597E-1,4.6376448E-2,7.203749E-2,-3.380334E-2,-6.680469E-2,4.9977608E-2,-1.4268331E-2,-4.6922836E-2,1.6868919E-1,-4.257461E-2,3.306165E-2,2.883727E-2,-5.6363963E-2],"categories":[],"categories_nodes":[],"categories_segments":[],"categories_sizes":[],"default_left":[0,0,0,0,0,0,0,0,0,0,0,0,0,0,0,0,0,0,0,0,0,0,0],"id":33,"left_children":[1,3,5,7,9,-1,11,13,-1,-1,15,-1,-1,-1,-1,-1,17,-1,19,21,-1,-1,-1],"loss_changes":[1.552486E1,3.817748E0,4.722455E0,2.5126076E0,2.3222408E0,0E0,3.984413E-1,4.3352413E-1,0E0,0E0,2.4870274E0,0E0,0E0,0E0,0E0,0E0,2.926479E0,0E0,1.2058306E0,3.9042907E0,0E0,0E0,0E0],"parents":[2147483647,0,0,1,1,2,2,3,3,4,4,6,6,7,7,10,10,16,16,18,18,19,19],"right_children":[2,4,6,8,10,-1,12,14,-1,-1,16,-1,-1,-1,-1,-1,18,-1,20,22,-1,-1,-1],"split_conditions":[2.2174777E-1,1.5569845E-1,4.7330764E-1,3.2213345E-1,2.6112242E-2,3.909036E-3,2.023561E-4,1E0,-3.7847431E-3,-4.6076167E-2,5.6151066E-2,4.6376448E-2,7.203749E-2,-3.380334E-2,-6.680469E-2,4.9977608E-2,6.660446E-2,-4.6922836E-2,1.6627148E-1,8.869471E-2,3.306165E-2,2.883727E-2,-5.6363963E-2],"split_indices":[20,8,3,17,15,0,14,2,0,0,18,0,0,0,0,0,18,0,12,11,0,0,0],"split_type":[0,0,0,0,0,0,0,0,0,0,0,0,0,0,0,0,0,0,0,0,0,0,0],"sum_hessian":[8.054531E1,5.4294376E1,2.6250937E1,2.0088728E1,3.420565E1,7.076602E0,1.9174334E1,1.2550743E1,7.537985E0,4.1304975E0,3.0075153E1,5.5717444E0,1.360259E1,4.4554915E0,8.095251E0,5.8391957E0,2.4235956E1,5.2242146E0,1.9011742E1,1.115078E1,7.860963E0,7.064606E0,4.086173E0],"tree_param":{"num_deleted":"0","num_feature":"27","num_nodes":"23","size_leaf_vector":"0"}},{"base_weights":[1.3438137E-1,-4.2819613E-1,7.871386E-1,-6.983887E-1,3.003746E-2,-7.140951E-2,1E0,-4.262972E-1,-8.6079705E-1,2.2776368E-1,-5.1630385E-2,1.2132657E-2,1E0,-6.1000686E-2,-4.8184197E-4,-1E0,-3.276122E-2,4.8266345E-1,-2.004484E-2,6.66693E-1,7.203749E-2,-4.766718E-2,-7.203749E-2,-1.1098252E-2,6.116832E-2,1.9471988E-2,7.203749E-2],"categories":[],"categories_nodes":[],"categories_segments":[],"categories_sizes":[],"default_left":[0,0,0,0,0,0,0,0,0,0,0,0,0,0,0,0,0,0,0,0,0,0,0,0,0,0,0],"id":34,"left_children":[1,3,5,7,9,-1,11,13,15,17,-1,-1,19,-1,-1,21,-1,23,-1,25,-1,-1,-1,-1,-1,-1,-1],"loss_changes":[3.7356113E1,6.7864256E0,1.869397E1,1.3926601E0,3.1101985E0,0E0,3.0012016E0,2.3917813E0,1.175931E0,2.1946962E0,0E0,0E0,7.004814E-1,0E0,0E0,3.1832218E-1,0E0,2.664776E0,0E0,1.4519658E0,0E0,0E0,0E0,0E0,0E0,0E0,0E0],"parents":[2147483647,0,0,1,1,2,2,3,3,4,4,6,6,7,7,8,8,9,9,12,12,15,15,17,17,19,19],"right_children":[2,4,6,8,10,-1,12,14,16,18,-1,-1,20,-1,-1,22,-1,24,-1,26,-1,-1,-1,-1,-1,-1,-1],"split_conditions":[5.6669337E-1,5.06568E-1,1E0,1.027574E-4,5.5914736E-1,-7.140951E-2,4.7112364E-2,5.036874E-1,2.0873269E-2,3.0445588E-1,-5.1630385E-2,1.2132657E-2,5.9860855E-1,-6.1000686E-2,-4.8184197E-4,3.9832175E-1,-3.276122E-2,4.58448E-1,-2.004484E-2,5.192075E-1,7.203749E-2,-4.766718E-2,-7.203749E-2,-1.1098252E-2,6.116832E-2,1.9471988E-2,7.203749E-2],"split_indices":[6,6,1,14,17,0,12,3,25,19,0,0,6,0,0,6,0,3,0,3,0,0,0,0,0,0,0],"split_type":[0,0,0,0,0,0,0,0,0,0,0,0,0,0,0,0,0,0,0,0,0,0,0,0,0,0,0],"sum_hessian":[1.0098767E2,5.4294914E1,4.669276E1,3.405743E1,2.0237482E1,4.9820714E0,4.171069E1,1.3222335E1,2.0835096E1,1.6201832E1,4.0356503E0,4.520573E0,3.7190113E1,6.415783E0,6.806552E0,1.4654183E1,6.1809125E0,1.0799729E1,5.402102E0,9.127106E0,2.806301E1,5.511395E0,9.142789E0,4.0067396E0,6.7929897E0,5.0220475E0,4.1050577E0],"tree_param":{"num_deleted":"0","num_feature":"27","num_nodes":"27","size_leaf_vector":"0"}},{"base_weights":[6.1019596E-2,-4.8293987E-1,6.4823276E-1,-6.2109953E-1,-1.0673723E-1,-6.122128E-2,8.8294774E-1,-3.6316717E-3,-7.0264405E-1,2.4114119E-2,-3.8609825E-2,4.367272E-1,7.203749E-2,-7.203749E-2,-6.12861E-1,8.8919944E-1,-9.803771E-3,-1.8247193E-2,-7.1315E-1,7.203749E-2,4.155789E-2,-9.353238E-1,-4.6607015E-1,-5.102076E-2,-7.203749E-2,-1.1257925E-2,-5.667191E-2],"categories":[],"categories_nodes":[],"categories_segments":[],"categories_sizes":[],"default_left":[0,0,0,0,0,0,0,0,0,0,0,0,0,0,0,0,0,0,0,0,0,0,0,0,0,0,0],"id":35,"left_children":[1,3,5,7,9,-1,11,-1,13,-1,-1,15,-1,-1,17,19,-1,-1,21,-1,-1,23,25,-1,-1,-1,-1],"loss_changes":[3.0981567E1,2.5899925E0,1.6667927E1,1.6907177E0,2.7254336E0,0E0,4.7348804E0,0E0,9.0303516E-1,0E0,0E0,4.6735735E0,0E0,0E0,9.1789246E-1,5.955677E-1,0E0,0E0,1.0079699E0,0E0,0E0,1.6512585E-1,1.0206585E0,0E0,0E0,0E0,0E0],"parents":[2147483647,0,0,1,1,2,2,3,3,4,4,6,6,8,8,11,11,14,14,15,15,18,18,21,21,22,22],"right_children":[2,4,6,8,10,-1,12,-1,14,-1,-1,16,-1,-1,18,20,-1,-1,22,-1,-1,24,26,-1,-1,-1,-1],"split_conditions":[2.3429477E-1,5.119299E-1,1E0,1.9150509E-2,2.1382338E-1,-6.122128E-2,3.1145692E-1,-3.6316717E-3,3.7517425E-1,2.4114119E-2,-3.8609825E-2,6.6829944E-1,7.203749E-2,-7.203749E-2,1.1105803E-1,2.630457E-1,-9.803771E-3,-1.8247193E-2,1.5569845E-1,7.203749E-2,4.155789E-2,2.3865664E-1,4.78297E-1,-5.102076E-2,-7.203749E-2,-1.1257925E-2,-5.667191E-2],"split_indices":[8,6,1,13,8,0,8,0,10,0,0,10,0,0,8,8,0,0,8,0,0,7,9,0,0,0,0],"split_type":[0,0,0,0,0,0,0,0,0,0,0,0,0,0,0,0,0,0,0,0,0,0,0,0,0,0,0],"sum_hessian":[9.623041E1,4.9976826E1,4.6253582E1,3.6367115E1,1.3609711E1,6.13655E0,4.0117035E1,4.6336427E0,3.1733473E1,6.733564E0,6.876147E0,1.7443134E1,2.2673899E1,4.817852E0,2.691562E1,9.650036E0,7.7930984E0,6.159198E0,2.0756422E1,4.019971E0,5.6300645E0,1.0400215E1,1.0356208E1,6.2280283E0,4.172187E0,5.5453677E0,4.8108397E0],"tree_param":{"num_deleted":"0","num_feature":"27","num_nodes":"27","size_leaf_vector":"0"}},{"base_weights":[1.0786084E-1,-2.6779607E-1,8.576064E-1,-5.798586E-1,7.131032E-2,1.9815218E-2,1E0,-2.1308024E-1,-7.9761475E-1,-6.348198E-2,2.656872E-1,3.8688485E-2,7.203749E-2,-3.5222415E-2,2.0477394E-2,-9.02013E-1,-2.5135992E-2,5.209856E-1,-3.1990394E-2,-7.203749E-2,-3.6170915E-2,2.3305687E-1,7.203749E-2,-1.0720724E-2,4.7129657E-2],"categories":[],"categories_nodes":[],"categories_segments":[],"categories_sizes":[],"default_left":[0,0,0,0,0,0,0,0,0,0,0,0,0,0,0,0,0,0,0,0,0,0,0,0,0],"id":36,"left_children":[1,3,5,7,9,-1,11,13,15,-1,17,-1,-1,-1,-1,19,-1,21,-1,-1,-1,23,-1,-1,-1],"loss_changes":[2.6219738E1,6.5911593E0,2.973339E0,2.5235853E0,5.6541214E0,0E0,5.9667015E-1,1.7832649E0,8.318472E-1,0E0,4.662078E0,0E0,0E0,0E0,0E0,7.056799E-1,0E0,3.2205348E0,0E0,0E0,0E0,2.2019494E0,0E0,0E0,0E0],"parents":[2147483647,0,0,1,1,2,2,3,3,4,4,6,6,7,7,8,8,10,10,15,15,17,17,21,21],"right_children":[2,4,6,8,10,-1,12,14,16,-1,18,-1,-1,-1,-1,20,-1,22,-1,-1,-1,24,-1,-1,-1],"split_conditions":[2.2174777E-1,1.5668187E-1,4.7330764E-1,1.027574E-4,1E0,1.9815218E-2,2.1969125E-1,3.417094E-5,1.9785073E-3,-6.348198E-2,5.6240404E-1,3.8688485E-2,7.203749E-2,-3.5222415E-2,2.0477394E-2,1.05124846E-1,-2.5135992E-2,4.8026305E-1,-3.1990394E-2,-7.203749E-2,-3.6170915E-2,1.446791E-1,7.203749E-2,-1.0720724E-2,4.7129657E-2],"split_indices":[20,20,3,14,1,0,7,14,14,0,17,0,0,0,0,11,0,17,0,0,0,12,0,0,0],"split_type":[0,0,0,0,0,0,0,0,0,0,0,0,0,0,0,0,0,0,0,0,0,0,0,0,0],"sum_hessian":[9.236459E1,6.167092E1,3.0693672E1,3.2006084E1,2.9664837E1,7.1910553E0,2.3502617E1,1.219615E1,1.9809937E1,4.8115535E0,2.4853283E1,4.094654E0,1.9407963E1,7.863066E0,4.3330836E0,1.5768211E1,4.0417247E0,1.835758E1,6.495703E0,1.1216748E1,4.551463E0,1.3022714E1,5.334866E0,6.9327817E0,6.089932E0],"tree_param":{"num_deleted":"0","num_feature":"27","num_nodes":"25","size_leaf_vector":"0"}},{"base_weights":[8.9299306E-2,-5.573435E-1,7.2315997E-1,-7.503017E-1,-7.801956E-2,-7.203749E-2,1E0,-3.9266688E-1,-9.566438E-1,3.1238064E-1,-4.3275055E-2,3.5978886E-1,7.203749E-2,-6.7096436E-1,1.28702475E-2,-1E0,-4.348325E-2,-5.9989407E-3,4.8643813E-2,4.3246155E-3,5.763035E-2,-1.915281E-2,-6.968609E-2,-7.502903E-1,-7.203749E-2,-7.203749E-2,-3.3142652E-2],"categories":[],"categories_nodes":[],"categories_segments":[],"categories_sizes":[],"default_left":[0,0,0,0,0,0,0,0,0,0,0,0,0,0,0,0,0,0,0,0,0,0,0,0,0,0,0],"id":37,"left_children":[1,3,5,7,9,-1,11,13,15,17,-1,19,-1,21,-1,23,-1,-1,-1,-1,-1,-1,-1,25,-1,-1,-1],"loss_changes":[4.1177364E1,4.5745487E0,2.56765E1,2.4804268E0,3.0801556E0,0E0,4.097477E0,2.2116811E0,3.7836838E-1,1.2724588E0,0E0,1.4196861E0,0E0,1.0146194E0,0E0,2.1513748E-1,0E0,0E0,0E0,0E0,0E0,0E0,0E0,5.3165054E-1,0E0,0E0,0E0],"parents":[2147483647,0,0,1,1,2,2,3,3,4,4,6,6,7,7,8,8,9,9,11,11,13,13,15,15,23,23],"right_children":[2,4,6,8,10,-1,12,14,16,18,-1,20,-1,22,-1,24,-1,-1,-1,-1,-1,-1,-1,26,-1,-1,-1],"split_conditions":[2.3429477E-1,3.111322E-2,1E0,1.027574E-4,2.1382338E-1,-7.203749E-2,2.470268E-2,3.1766536E-5,4.609979E-1,1.5912027E-4,-4.3275055E-2,2.2823146E-1,7.203749E-2,1.0468272E-5,1.28702475E-2,3.901024E-1,-4.348325E-2,-5.9989407E-3,4.8643813E-2,4.3246155E-3,5.763035E-2,-1.915281E-2,-6.968609E-2,3.7517425E-1,-7.203749E-2,-7.203749E-2,-3.3142652E-2],"split_indices":[8,21,1,14,8,0,23,14,9,14,0,20,0,14,0,9,0,0,0,0,0,0,0,10,0,0,0],"split_type":[0,0,0,0,0,0,0,0,0,0,0,0,0,0,0,0,0,0,0,0,0,0,0,0,0,0,0],"sum_hessian":[9.9709045E1,4.936866E1,5.034038E1,3.504341E1,1.4325249E1,6.8533325E0,4.348705E1,1.3206867E1,2.1836544E1,8.267472E0,6.0577765E0,1.0527752E1,3.2959297E1,8.853774E0,4.353093E0,1.7265783E1,4.5707617E0,4.0671678E0,4.200305E0,6.510959E0,4.016793E0,4.0328674E0,4.820906E0,8.716502E0,8.54928E0,4.095742E0,4.62076E0],"tree_param":{"num_deleted":"0","num_feature":"27","num_nodes":"27","size_leaf_vector":"0"}},{"base_weights":[8.146682E-2,-1.4370452E-1,1E0,-3.7318856E-1,1.6404495E-1,5.247961E-2,7.203749E-2,-7.78695E-1,-2.2393887E-1,6.411767E-1,-1.8583535E-1,-3.875647E-2,-7.203749E-2,-5.8533903E-2,-6.0545195E-2,7.7817356E-3,7.203749E-2,-4.4197906E-2,7.400338E-2,-3.815707E-1,5.222934E-2,-2.363683E-2,3.6255427E-2,-1.3264115E-1,-6.6068016E-2,-4.0760357E-2,2.1211408E-2],"categories":[],"categories_nodes":[],"categories_segments":[],"categories_sizes":[],"default_left":[0,0,0,0,0,0,0,0,0,0,0,0,0,0,0,0,0,0,0,0,0,0,0,0,0,0,0],"id":38,"left_children":[1,3,5,7,9,-1,-1,11,13,15,17,-1,-1,-1,19,-1,-1,-1,21,23,-1,-1,-1,25,-1,-1,-1],"loss_changes":[1.6643547E1,4.5010715E0,4.9996376E-2,2.14423E0,4.609664E0,0E0,0E0,3.5471678E-1,2.5933223E0,2.6192055E0,1.8081384E0,0E0,0E0,0E0,5.560072E0,0E0,0E0,0E0,1.8413268E0,2.0362422E0,0E0,0E0,0E0,2.1195753E0,0E0,0E0,0E0],"parents":[2147483647,0,0,1,1,2,2,3,3,4,4,7,7,8,8,9,9,10,10,14,14,18,18,19,19,23,23],"right_children":[2,4,6,8,10,-1,-1,12,14,16,18,-1,-1,-1,20,-1,-1,-1,22,24,-1,-1,-1,26,-1,-1,-1],"split_conditions":[2.679295E-1,1.4934774E-1,8.013478E-2,4.58448E-1,1.2623627E-1,5.247961E-2,7.203749E-2,8.633244E-2,3.767137E-2,3.2761957E-2,3.0767426E-1,-3.875647E-2,-7.203749E-2,-5.8533903E-2,4.5666817E-1,7.7817356E-3,7.203749E-2,-4.4197906E-2,2.4622999E-1,3.8146442E-1,5.222934E-2,-2.363683E-2,3.6255427E-2,2.4646223E-1,-6.6068016E-2,-4.0760357E-2,2.1211408E-2],"split_indices":[20,12,24,3,11,0,0,11,18,24,12,0,0,0,17,0,0,0,8,17,0,0,0,17,0,0,0],"split_type":[0,0,0,0,0,0,0,0,0,0,0,0,0,0,0,0,0,0,0,0,0,0,0,0,0,0,0],"sum_hessian":[7.767823E1,6.2932083E1,1.4746145E1,3.602908E1,2.6903004E1,5.086954E0,9.659192E0,9.282301E0,2.6746778E1,1.1274077E1,1.5628927E1,5.164709E0,4.117592E0,5.499388E0,2.124739E1,5.2756815E0,5.9983954E0,5.745795E0,9.883132E0,1.5219342E1,6.0280485E0,5.1313634E0,4.7517686E0,1.0697584E1,4.521758E0,5.268483E0,5.429101E0],"tree_param":{"num_deleted":"0","num_feature":"27","num_nodes":"27","size_leaf_vector":"0"}},{"base_weights":[9.834156E-2,-2.5060993E-1,7.7722704E-1,-4.5925996E-1,6.3013434E-2,5.5680554E-3,1E0,-7.203749E-2,-3.6945826E-1,-5.7080373E-2,2.8192574E-1,3.3721678E-2,7.203749E-2,9.227919E-2,-5.489693E-1,5.0718135E-1,-2.4847023E-2,3.2272216E-2,-1.9029554E-2,-9.163607E-1,-2.9332507E-1,7.573995E-1,-3.940678E-3,-7.203749E-2,-4.802232E-2,4.584652E-3,-4.8167046E-2,7.203749E-2,1.9020854E-2],"categories":[],"categories_nodes":[],"categories_segments":[],"categories_sizes":[],"default_left":[0,0,0,0,0,0,0,0,0,0,0,0,0,0,0,0,0,0,0,0,0,0,0,0,0,0,0,0,0],"id":39,"left_children":[1,3,5,7,9,-1,11,-1,13,-1,15,-1,-1,17,19,21,-1,-1,-1,23,25,27,-1,-1,-1,-1,-1,-1,-1],"loss_changes":[2.0198761E1,3.7049239E0,4.580532E0,1.5713148E0,4.3585815E0,0E0,8.7469673E-1,0E0,2.4933338E0,0E0,2.6727052E0,0E0,0E0,1.1472914E0,1.9259868E0,1.9533494E0,0E0,0E0,0E0,7.65605E-2,1.7983828E0,1.5833969E0,0E0,0E0,0E0,0E0,0E0,0E0,0E0],"parents":[2147483647,0,0,1,1,2,2,3,3,4,4,6,6,8,8,10,10,13,13,14,14,15,15,19,19,20,20,21,21],"right_children":[2,4,6,8,10,-1,12,-1,14,-1,16,-1,-1,18,20,22,-1,-1,-1,24,26,28,-1,-1,-1,-1,-1,-1,-1],"split_conditions":[5.6522574E-2,2.8993448E-2,4.7330764E-1,1.545349E-1,1E0,5.5680554E-3,6.1748188E-2,-7.203749E-2,1.3645366E-2,-5.7080373E-2,5.678083E-1,3.3721678E-2,7.203749E-2,1.6044793E-1,2.1126527E-2,2.979305E-1,-2.4847023E-2,3.2272216E-2,-1.9029554E-2,1.2946503E-1,2.8515963E-2,3.9126042E-2,-3.940678E-3,-7.203749E-2,-4.802232E-2,4.584652E-3,-4.8167046E-2,7.203749E-2,1.9020854E-2],"split_indices":[21,25,3,17,1,0,11,0,25,0,17,0,0,19,25,19,0,0,0,12,24,24,0,0,0,0,0,0,0],"split_type":[0,0,0,0,0,0,0,0,0,0,0,0,0,0,0,0,0,0,0,0,0,0,0,0,0,0,0,0,0],"sum_hessian":[8.452303E1,5.5959892E1,2.856314E1,3.3529255E1,2.2430637E1,7.1436815E0,2.1419458E1,4.13839E0,2.9390863E1,4.3765397E0,1.8054098E1,4.0066648E0,1.7412794E1,8.256976E0,2.1133888E1,1.3342963E1,4.7111344E0,4.10424E0,4.152736E0,8.288575E0,1.2845312E1,9.162809E0,4.1801543E0,4.2525935E0,4.0359817E0,6.7147245E0,6.130588E0,4.894608E0,4.2682014E0],"tree_param":{"num_deleted":"0","num_feature":"27","num_nodes":"29","size_leaf_vector":"0"}},{"base_weights":[9.109922E-2,-8.914053E-2,8.721656E-1,-4.6121094E-2,-1.957843E-2,2.855386E-2,7.203749E-2,-3.9271095E-1,1.18156195E-1,-4.9175505E-2,-4.9187634E-3,-3.7179552E-2,2.3639593E-1,-1.542373E-1,4.0997928E-1,2.2651216E-2,-3.394306E-2,6.438083E-2,1.5053982E-1,-3.3300273E-2,3.963769E-1,5.543543E-2,-1.5240626E-2],"categories":[],"categories_nodes":[],"categories_segments":[],"categories_sizes":[],"default_left":[0,0,0,0,0,0,0,0,0,0,0,0,0,0,0,0,0,0,0,0,0,0,0],"id":40,"left_children":[1,3,5,-1,7,-1,-1,9,11,-1,-1,-1,13,15,17,-1,-1,-1,19,-1,21,-1,-1],"loss_changes":[1.0727566E1,2.3739266E0,1.2594671E0,0E0,2.8738184E0,0E0,0E0,1.3963423E0,3.1022177E0,0E0,0E0,0E0,2.372699E0,1.6787215E0,2.9699006E0,0E0,0E0,0E0,2.4976237E0,0E0,2.720632E0,0E0,0E0],"parents":[2147483647,0,0,1,1,2,2,4,4,7,7,8,8,12,12,13,13,14,14,18,18,20,20],"right_children":[2,4,6,-1,8,-1,-1,10,12,-1,-1,-1,14,16,18,-1,-1,-1,20,-1,22,-1,-1],"split_conditions":[6.4043105E-1,2.379731E-2,4.8838747E-1,-4.6121094E-2,2.0873269E-2,2.855386E-2,7.203749E-2,3.2213345E-1,1E0,-4.9175505E-2,-4.9187634E-3,-3.7179552E-2,1.9851632E-1,1.966999E-1,8.869471E-2,2.2651216E-2,-3.394306E-2,6.438083E-2,4.970169E-1,-3.3300273E-2,5.570661E-1,5.543543E-2,-1.5240626E-2],"split_indices":[6,13,3,0,25,0,0,17,1,0,0,0,8,7,11,0,0,0,9,0,17,0,0],"split_type":[0,0,0,0,0,0,0,0,0,0,0,0,0,0,0,0,0,0,0,0,0,0,0],"sum_hessian":[7.546554E1,6.1552235E1,1.3913305E1,6.5640182E0,5.4988216E1,4.725948E0,9.187358E0,1.4675537E1,4.031268E1,7.5308695E0,7.1446676E0,6.137274E0,3.4175404E1,1.0506073E1,2.366933E1,4.225326E0,6.280747E0,7.953975E0,1.5715356E1,4.3996043E0,1.1315751E1,6.9665976E0,4.349154E0],"tree_param":{"num_deleted":"0","num_feature":"27","num_nodes":"23","size_leaf_vector":"0"}},{"base_weights":[1.7540899E-1,-5.218298E-1,6.41003E-1,-5.97081E-1,-9.5166406E-4,-6.866149E-2,8.9295655E-1,-1.5752508E-1,-7.6157415E-1,4.2684612E-1,7.203749E-2,-5.257201E-2,3.527741E-2,-8.919939E-1,-2.8783191E-2,7.48956E-1,-1.5586135E-2,-7.203749E-2,-4.0446907E-2,7.203749E-2,2.9012298E-2],"categories":[],"categories_nodes":[],"categories_segments":[],"categories_sizes":[],"default_left":[0,0,0,0,0,0,0,0,0,0,0,0,0,0,0,0,0,0,0,0,0],"id":41,"left_children":[1,3,5,7,-1,-1,9,11,13,15,-1,-1,-1,17,-1,19,-1,-1,-1,-1,-1],"loss_changes":[3.0497227E1,1.4324465E0,2.290711E1,2.3234177E0,0E0,0E0,5.5511246E0,3.6202888E0,9.9470615E-1,4.150861E0,0E0,0E0,0E0,5.092392E-1,0E0,1.5839105E0,0E0,0E0,0E0,0E0,0E0],"parents":[2147483647,0,0,1,1,2,2,3,3,6,6,7,7,8,8,9,9,13,13,15,15],"right_children":[2,4,6,8,-1,-1,10,12,14,16,-1,-1,-1,18,-1,20,-1,-1,-1,-1,-1],"split_conditions":[2.8660517E-2,5.06568E-1,1E0,1.1225333E-2,-9.5166406E-4,-6.866149E-2,5.911618E-1,6.6226763E-3,1.651011E-1,5.570661E-1,7.203749E-2,-5.257201E-2,3.527741E-2,4.783328E-1,-2.8783191E-2,2.607552E-1,-1.5586135E-2,-7.203749E-2,-4.0446907E-2,7.203749E-2,2.9012298E-2],"split_indices":[25,6,1,25,0,0,6,25,12,17,0,0,0,6,0,7,0,0,0,0,0],"split_type":[0,0,0,0,0,0,0,0,0,0,0,0,0,0,0,0,0,0,0,0,0],"sum_hessian":[9.317309E1,3.7279854E1,5.5893238E1,3.2403694E1,4.8761597E0,7.491441E0,4.8401794E1,9.026213E0,2.337748E1,1.9333918E1,2.9067877E1,4.776479E0,4.2497344E0,1.6792736E1,6.5847435E0,1.2856455E1,6.4774632E0,1.1620769E1,5.1719675E0,5.441468E0,7.4149876E0],"tree_param":{"num_deleted":"0","num_feature":"27","num_nodes":"21","size_leaf_vector":"0"}},{"base_weights":[8.6155E-2,-8.312369E-2,8.15724E-1,-4.357841E-1,7.582827E-2,2.1187024E-2,7.203749E-2,-8.256216E-1,-1.0265202E-1,7.203749E-2,-4.349204E-2,-3.387115E-2,-7.203749E-2,-3.387277E-2,3.0248208E-2,-5.375983E-1,1.2408321E-1,-8.437769E-3,-6.680458E-2,2.7201217E-1,-3.6720093E-2,-1.4996246E-1,6.072664E-1,2.2398576E-2,-3.8135085E-2,6.633436E-2,5.3979238E-3],"categories":[],"categories_nodes":[],"categories_segments":[],"categories_sizes":[],"default_left":[0,0,0,0,0,0,0,0,0,0,0,0,0,0,0,0,0,0,0,0,0,0,0,0,0,0,0],"id":42,"left_children":[1,3,5,7,9,-1,-1,11,13,-1,15,-1,-1,-1,-1,17,19,-1,-1,21,-1,23,25,-1,-1,-1,-1],"loss_changes":[9.052285E0,3.3584752E0,1.7242308E0,2.3802865E0,4.7993393E0,0E0,0E0,6.321778E-1,2.0856915E0,0E0,3.1090872E0,0E0,0E0,0E0,0E0,1.5132742E0,2.6783848E0,0E0,0E0,3.2845035E0,0E0,1.891883E0,2.1161132E0,0E0,0E0,0E0,0E0],"parents":[2147483647,0,0,1,1,2,2,3,3,4,4,7,7,8,8,10,10,15,15,16,16,19,19,21,21,22,22],"right_children":[2,4,6,8,10,-1,-1,12,14,-1,16,-1,-1,-1,-1,18,20,-1,-1,22,-1,24,26,-1,-1,-1,-1],"split_conditions":[6.4043105E-1,3.3978945E-1,4.8838747E-1,5.036874E-1,3.819886E-1,2.1187024E-2,7.203749E-2,4.2214316E-1,4.4459495E-1,7.203749E-2,1.5668187E-1,-3.387115E-2,-7.203749E-2,-3.387277E-2,3.0248208E-2,1.728122E-1,6.035871E-1,-8.437769E-3,-6.680458E-2,4.8026305E-1,-3.6720093E-2,4.3759665E-1,5.570661E-1,2.2398576E-2,-3.8135085E-2,6.633436E-2,5.3979238E-3],"split_indices":[6,17,3,3,17,0,0,9,10,0,20,0,0,0,0,19,17,0,0,17,0,17,17,0,0,0,0],"split_type":[0,0,0,0,0,0,0,0,0,0,0,0,0,0,0,0,0,0,0,0,0,0,0,0,0,0,0],"sum_hessian":[7.254974E1,5.9121624E1,1.3428124E1,1.8204102E1,4.0917522E1,4.7690954E0,8.659029E0,8.1381E0,1.0066001E1,4.2136946E0,3.6703827E1,4.081579E0,4.0565205E0,5.942237E0,4.123764E0,9.119975E0,2.758385E1,4.616393E0,4.5035825E0,2.2537897E1,5.0459538E0,1.004778E1,1.2490118E1,4.5514545E0,5.4963255E0,7.688796E0,4.801322E0],"tree_param":{"num_deleted":"0","num_feature":"27","num_nodes":"27","size_leaf_vector":"0"}},{"base_weights":[1.365527E-1,-2.878589E-1,6.79003E-1,-7.2526914E-1,-1.9172391E-1,-5.7329275E-2,9.0837085E-1,-1.562477E-2,-7.203749E-2,-3.5631964E-1,1.09051414E-1,2.7814677E-3,1E0,1.2054067E-2,-5.2992946E-1,3.6913276E-1,-3.1133574E-2,5.3968698E-2,7.203749E-2,-7.5388694E-1,-2.2403014E-1,-2.577162E-3,6.0811557E-2,-2.9037254E-2,-6.7553945E-2,1.819761E-2,-4.966883E-2],"categories":[],"categories_nodes":[],"categories_segments":[],"categories_sizes":[],"default_left":[0,0,0,0,0,0,0,0,0,0,0,0,0,0,0,0,0,0,0,0,0,0,0,0,0,0,0],"id":43,"left_children":[1,3,5,7,9,-1,11,-1,-1,13,15,-1,17,-1,19,21,-1,-1,-1,23,25,-1,-1,-1,-1,-1,-1],"loss_changes":[1.980764E1,1.9861803E0,1.3029125E1,1.7272301E0,2.006033E0,0E0,3.7348156E0,0E0,0E0,2.4061873E0,2.098444E0,0E0,7.798195E-2,0E0,1.2855582E0,1.941684E0,0E0,0E0,0E0,5.881462E-1,2.0348654E0,0E0,0E0,0E0,0E0,0E0,0E0],"parents":[2147483647,0,0,1,1,2,2,3,3,4,4,6,6,9,9,10,10,12,12,14,14,15,15,19,19,20,20],"right_children":[2,4,6,8,10,-1,12,-1,-1,14,16,-1,18,-1,20,22,-1,-1,-1,24,26,-1,-1,-1,-1,-1,-1],"split_conditions":[2.4828164E-1,4.0593065E-2,1E0,1.7844467E-1,5.119299E-1,-5.7329275E-2,1.3116853E-1,-1.562477E-2,-7.203749E-2,9.434193E-2,2.95039E-1,2.7814677E-3,6.329114E-1,1.2054067E-2,4.5165804E-1,9.321492E-2,-3.1133574E-2,5.3968698E-2,7.203749E-2,1.4000963E-1,1.6947249E-1,-2.577162E-3,6.0811557E-2,-2.9037254E-2,-6.7553945E-2,1.819761E-2,-4.966883E-2],"split_indices":[8,18,1,19,6,0,19,0,0,8,19,0,4,0,9,13,0,0,0,19,8,0,0,0,0,0,0],"split_type":[0,0,0,0,0,0,0,0,0,0,0,0,0,0,0,0,0,0,0,0,0,0,0,0,0,0,0],"sum_hessian":[8.530041E1,4.7936142E1,3.7364265E1,8.210235E0,3.972591E1,4.9078426E0,3.2456425E1,4.105112E0,4.1051226E0,2.5658436E1,1.4067473E1,4.38815E0,2.8068274E1,6.3756394E0,1.9282797E1,9.589599E0,4.4778743E0,6.4564614E0,2.161181E1,1.0820173E1,8.462624E0,5.3359723E0,4.2536263E0,4.119955E0,6.700218E0,4.2469044E0,4.215719E0],"tree_param":{"num_deleted":"0","num_feature":"27","num_nodes":"27","size_leaf_vector":"0"}},{"base_weights":[1.2828262E-1,-2.5647625E-1,8.346151E-1,-6.737605E-1,-9.839657E-4,1.6719171E-1,1E0,-1.925136E-3,-8.303563E-1,-7.0864946E-2,1.4143421E-1,3.0841565E-2,-7.097227E-3,3.8985293E-2,7.203749E-2,-1E0,-5.666087E-1,-3.7609924E-2,2.751554E-1,-5.2723177E-2,-7.203749E-2,-2.4850529E-2,-5.3244274E-2,-3.1319518E-2,4.5826536E-1,-2.7750945E-2,6.448414E-1,9.627E-1,1.39079895E-2,2.8205251E-2,7.203749E-2],"categories":[],"categories_nodes":[],"categories_segments":[],"categories_sizes":[],"default_left":[0,0,0,0,0,0,0,0,0,0,0,0,0,0,0,0,0,0,0,0,0,0,0,0,0,0,0,0,0,0,0],"id":44,"left_children":[1,3,5,7,9,11,13,-1,15,-1,17,-1,-1,-1,-1,19,21,-1,23,-1,-1,-1,-1,-1,25,-1,27,29,-1,-1,-1],"loss_changes":[2.5889961E1,6.577639E0,4.701128E0,2.3585062E0,5.487735E0,6.239293E-1,5.673847E-1,0E0,6.879883E-1,0E0,3.080059E0,0E0,0E0,0E0,0E0,6.620598E-2,2.3326969E-1,0E0,3.7946818E0,0E0,0E0,0E0,0E0,0E0,3.7020392E0,0E0,2.6450353E0,1.2671099E0,0E0,0E0,0E0],"parents":[2147483647,0,0,1,1,2,2,3,3,4,4,5,5,6,6,8,8,10,10,15,15,16,16,18,18,24,24,26,26,27,27],"right_children":[2,4,6,8,10,12,14,-1,16,-1,18,-1,-1,-1,-1,20,22,-1,24,-1,-1,-1,-1,-1,26,-1,28,30,-1,-1,-1],"split_conditions":[5.911618E-1,2.0873269E-2,4.7330764E-1,3.8660087E-2,1.3647723E-1,1.0594286E-1,6.019372E-2,-1.925136E-3,3.2213345E-1,-7.0864946E-2,1E0,3.0841565E-2,-7.097227E-3,3.8985293E-2,7.203749E-2,3.866407E-1,4.443515E-1,-3.7609924E-2,5.033753E-1,-5.2723177E-2,-7.203749E-2,-2.4850529E-2,-5.3244274E-2,-3.1319518E-2,1.3433768E-1,-2.7750945E-2,3.0445588E-1,1.2248451E-1,1.39079895E-2,2.8205251E-2,7.203749E-2],"split_indices":[6,25,3,11,7,18,12,0,17,0,1,0,0,0,0,9,6,0,6,0,0,0,0,0,19,0,19,12,0,0,0],"split_type":[0,0,0,0,0,0,0,0,0,0,0,0,0,0,0,0,0,0,0,0,0,0,0,0,0,0,0,0,0,0,0],"sum_hessian":[9.454613E1,6.133732E1,3.3208813E1,2.3062622E1,3.8274696E1,8.275103E0,2.4933708E1,4.586494E0,1.8476128E1,4.597266E0,3.3677433E1,4.090228E0,4.184875E0,4.0351534E0,2.0898554E1,1.0409568E1,8.06656E0,5.4669085E0,2.8210524E1,5.4492197E0,4.960348E0,4.010978E0,4.055581E0,5.6747775E0,2.2535746E1,4.0045867E0,1.853116E1,1.0634671E1,7.896488E0,4.083995E0,6.5506763E0],"tree_param":{"num_deleted":"0","num_feature":"27","num_nodes":"31","size_leaf_vector":"0"}},{"base_weights":[9.4199E-2,-1.3975814E-1,9.66652E-1,-5.506402E-2,-4.9884155E-2,3.1126993E-2,7.203749E-2,-3.7578592E-1,1.769547E-1,2.7193269E-2,-5.645376E-1,-5.8582637E-2,3.7122613E-1,-3.585327E-1,-6.502202E-2,-3.465013E-2,5.232618E-1,-5.5928875E-2,2.803065E-2,7.7481323E-1,2.0792514E-1,2.3479378E-2,9.728691E-1,-1.2574062E-2,3.986287E-2,4.93012E-2,7.203749E-2],"categories":[],"categories_nodes":[],"categories_segments":[],"categories_sizes":[],"default_left":[0,0,0,0,0,0,0,0,0,0,0,0,0,0,0,0,0,0,0,0,0,0,0,0,0,0,0],"id":45,"left_children":[1,3,5,-1,7,-1,-1,9,11,-1,13,-1,15,17,-1,-1,19,-1,-1,21,23,-1,25,-1,-1,-1,-1],"loss_changes":[1.6478468E1,3.565841E0,1.0755882E0,0E0,4.178191E0,0E0,0E0,3.3757927E0,6.5170264E0,0E0,1.1882324E0,0E0,3.7343757E0,3.9296227E0,0E0,0E0,1.8452497E0,0E0,0E0,1.0604649E0,1.5193095E0,0E0,8.1235886E-2,0E0,0E0,0E0,0E0],"parents":[2147483647,0,0,1,1,2,2,4,4,7,7,8,8,10,10,12,12,13,13,16,16,19,19,20,20,22,22],"right_children":[2,4,6,-1,8,-1,-1,10,12,-1,14,-1,16,18,-1,-1,20,-1,-1,22,24,-1,26,-1,-1,-1,-1],"split_conditions":[6.3671726E-1,1.342841E-1,4.7330764E-1,-5.506402E-2,5.033753E-1,3.1126993E-2,7.203749E-2,3.433469E-2,1E0,2.7193269E-2,3.8292113E-1,-5.8582637E-2,1.2834439E-1,3.1899822E-1,-6.502202E-2,-3.465013E-2,1.7515342E-1,-5.5928875E-2,2.803065E-2,7.663954E-2,5.736186E-1,2.3479378E-2,2.165286E-1,-1.2574062E-2,3.986287E-2,4.93012E-2,7.203749E-2],"split_indices":[6,7,3,0,6,0,0,13,1,0,17,0,19,17,0,0,13,0,0,11,6,0,19,0,0,0,0],"split_type":[0,0,0,0,0,0,0,0,0,0,0,0,0,0,0,0,0,0,0,0,0,0,0,0,0,0,0],"sum_hessian":[8.000158E1,6.3302563E1,1.669902E1,7.621915E0,5.568065E1,4.154107E0,1.2544912E1,2.2778318E1,3.290233E1,4.483145E0,1.8295174E1,5.2072067E0,2.7695122E1,1.1829483E1,6.465691E0,4.0688195E0,2.3626303E1,7.589545E0,4.239938E0,1.284351E1,1.0782792E1,4.2281547E0,8.615355E0,5.182453E0,5.6003394E0,4.058241E0,4.557114E0],"tree_param":{"num_deleted":"0","num_feature":"27","num_nodes":"27","size_leaf_vector":"0"}},{"base_weights":[1.3831525E-1,-1.6236714E-1,8.040022E-1,-3.6702457E-1,9.8587945E-2,7.0594624E-3,1E0,-6.341096E-2,-2.7957293E-1,-3.7472192E-2,2.2657043E-1,5.122292E-2,7.203749E-2,2.6053539E-2,-4.2305356E-1,5.0512984E-2,5.252417E-2,-6.5276533E-1,-2.6163507E-1,-1.9103265E-1,3.867825E-2,-7.203749E-2,-1.7781628E-2,2.6358495E-2,-5.379117E-1,4.2967484E-3,-3.548837E-2,-5.916729E-2,-1.0286563E-2],"categories":[],"categories_nodes":[],"categories_segments":[],"categories_sizes":[],"default_left":[0,0,0,0,0,0,0,0,0,0,0,0,0,0,0,0,0,0,0,0,0,0,0,0,0,0,0,0,0],"id":46,"left_children":[1,3,5,7,9,-1,11,-1,13,-1,15,-1,-1,-1,17,-1,19,21,23,25,-1,-1,-1,-1,27,-1,-1,-1,-1],"loss_changes":[1.6318415E1,3.0232596E0,3.6813736E0,1.337892E0,2.0273178E0,0E0,1.973648E-1,0E0,2.5961297E0,0E0,1.719295E0,0E0,0E0,0E0,7.8205633E-1,0E0,1.9066538E0,1.2692971E0,2.4956005E0,8.310069E-1,0E0,0E0,0E0,0E0,1.0568821E0,0E0,0E0,0E0,0E0],"parents":[2147483647,0,0,1,1,2,2,3,3,4,4,6,6,8,8,10,10,14,14,16,16,17,17,18,18,19,19,24,24],"right_children":[2,4,6,8,10,-1,12,-1,14,-1,16,-1,-1,-1,18,-1,20,22,24,26,-1,-1,-1,-1,28,-1,-1,-1,-1],"split_conditions":[5.911618E-1,5.124474E-1,4.58448E-1,3.2260948E-1,4.3277416E-2,7.0594624E-3,2.023561E-4,-6.341096E-2,3.9832175E-1,-3.7472192E-2,6.472259E-2,5.122292E-2,7.203749E-2,2.6053539E-2,1E0,5.0512984E-2,1.1947092E-1,6.552336E-2,5.3676292E-2,5.207067E-1,3.867825E-2,-7.203749E-2,-1.7781628E-2,2.6358495E-2,1.5772487E-1,4.2967484E-3,-3.548837E-2,-5.916729E-2,-1.0286563E-2],"split_indices":[6,6,3,6,18,0,14,0,6,0,18,0,0,0,2,0,18,18,18,9,0,0,0,0,8,0,0,0,0],"split_type":[0,0,0,0,0,0,0,0,0,0,0,0,0,0,0,0,0,0,0,0,0,0,0,0,0,0,0,0,0],"sum_hessian":[8.082894E1,5.5846962E1,2.498198E1,3.1245459E1,2.4601503E1,5.818905E0,1.9163074E1,4.0759373E0,2.716952E1,4.0205274E0,2.0580976E1,6.220803E0,1.2942272E1,4.8577247E0,2.2311796E1,5.224975E0,1.5356002E1,8.746852E0,1.3564943E1,1.0341496E1,5.0145054E0,4.298181E0,4.4486713E0,4.0999546E0,9.464989E0,5.778003E0,4.5634933E0,5.2786703E0,4.1863184E0],"tree_param":{"num_deleted":"0","num_feature":"27","num_nodes":"29","size_leaf_vector":"0"}},{"base_weights":[9.457015E-2,-4.6803445E-1,5.0892013E-1,-7.203749E-2,-3.7905777E-1,-6.469034E-2,7.4827796E-1,-3.9049601E-3,-4.757305E-1,4.8888814E-1,7.203749E-2,-7.3292506E-1,-2.5244397E-1,-2.8736813E-2,6.581151E-1,-7.131634E-2,-3.6837157E-2,-1.2108618E-3,-3.4258384E-2,2.85006E-3,8.4376776E-1,1E0,1.6355269E-2,7.203749E-2,5.108956E-2],"categories":[],"categories_nodes":[],"categories_segments":[],"categories_sizes":[],"default_left":[0,0,0,0,0,0,0,0,0,0,0,0,0,0,0,0,0,0,0,0,0,0,0,0,0],"id":47,"left_children":[1,3,5,-1,7,-1,9,-1,11,13,-1,15,17,-1,19,-1,-1,-1,-1,-1,21,23,-1,-1,-1],"loss_changes":[2.0972244E1,1.83916E0,1.7676605E1,0E0,1.0456009E0,0E0,4.3174744E0,0E0,1.4222913E0,4.4086304E0,0E0,4.9920797E-1,7.539596E-1,0E0,2.7619429E0,0E0,0E0,0E0,0E0,0E0,2.6156693E0,1.8240929E-2,0E0,0E0,0E0],"parents":[2147483647,0,0,1,1,2,2,4,4,6,6,8,8,9,9,11,11,12,12,14,14,20,20,21,21],"right_children":[2,4,6,-1,8,-1,10,-1,12,14,-1,16,18,-1,20,-1,-1,-1,-1,-1,22,24,-1,-1,-1],"split_conditions":[1.6866343E-1,1.545349E-1,4.4380847E-1,-7.203749E-2,9.66139E-2,-6.469034E-2,2.679295E-1,-3.9049601E-3,1.571391E-1,5.7010088E-2,7.203749E-2,3.3978945E-1,2.8515963E-2,-2.8736813E-2,3.3608116E-2,-7.131634E-2,-3.6837157E-2,-1.2108618E-3,-3.4258384E-2,2.85006E-3,7.021245E-1,5.558824E-2,1.6355269E-2,7.203749E-2,5.108956E-2],"split_indices":[20,17,3,0,8,0,20,0,8,11,0,17,24,0,24,0,0,0,0,0,10,24,0,0,0],"split_type":[0,0,0,0,0,0,0,0,0,0,0,0,0,0,0,0,0,0,0,0,0,0,0,0,0],"sum_hessian":[8.918214E1,3.779387E1,5.1388264E1,4.478803E0,3.3315067E1,7.326918E0,4.4061344E1,7.7904067E0,2.552466E1,2.8293741E1,1.5767604E1,1.14731655E1,1.4051495E1,4.4443E0,2.3849442E1,4.7349577E0,6.738208E0,7.038604E0,7.0128913E0,5.6160855E0,1.8233356E1,1.2841368E1,5.3919883E0,8.821708E0,4.01966E0],"tree_param":{"num_deleted":"0","num_feature":"27","num_nodes":"25","size_leaf_vector":"0"}},{"base_weights":[8.8864125E-2,-6.995047E-1,5.588646E-1,9.015725E-3,-8.084674E-1,-7.203749E-2,8.227456E-1,-9.130276E-1,-5.391601E-1,4.414582E-1,1E0,-4.002583E-2,-1E0,-1.29361125E-2,-6.618654E-2,6.432569E-1,-7.367585E-3,4.219401E-2,7.203749E-2,-5.087017E-2,-7.203749E-2,7.203749E-2,3.1258836E-1,-1.7216552E-2,5.248025E-2],"categories":[],"categories_nodes":[],"categories_segments":[],"categories_sizes":[],"default_left":[0,0,0,0,0,0,0,0,0,0,0,0,0,0,0,0,0,0,0,0,0,0,0,0,0],"id":48,"left_children":[1,3,5,-1,7,-1,9,11,13,15,17,-1,19,-1,-1,21,-1,-1,-1,-1,-1,-1,23,-1,-1],"loss_changes":[3.6806976E1,3.3801193E0,2.739823E1,0E0,7.527256E-1,0E0,5.404728E0,6.804123E-1,1.3150575E0,2.6552844E0,3.9264297E-1,0E0,2.854023E-1,0E0,0E0,2.4129205E0,0E0,0E0,0E0,0E0,0E0,0E0,2.5021272E0,0E0,0E0],"parents":[2147483647,0,0,1,1,2,2,4,4,6,6,7,7,8,8,9,9,10,10,12,12,15,15,22,22],"right_children":[2,4,6,-1,8,-1,10,12,14,16,18,-1,20,-1,-1,22,-1,-1,-1,-1,-1,-1,24,-1,-1],"split_conditions":[5.076179E-1,1.9150509E-2,1E0,9.015725E-3,2.1126527E-2,-7.203749E-2,5.911618E-1,7.753146E-5,4.7336805E-1,5.570661E-1,5.2141692E-2,-4.002583E-2,3.7076405E-1,-1.29361125E-2,-6.618654E-2,5.6781407E-2,-7.367585E-3,4.219401E-2,7.203749E-2,-5.087017E-2,-7.203749E-2,7.203749E-2,2.2617519E-1,-1.7216552E-2,5.248025E-2],"split_indices":[6,13,1,0,25,0,6,14,9,17,13,0,9,0,0,15,0,0,0,0,0,0,8,0,0],"split_type":[0,0,0,0,0,0,0,0,0,0,0,0,0,0,0,0,0,0,0,0,0,0,0,0,0],"sum_hessian":[9.856093E1,3.6740757E1,6.182017E1,4.2699995E0,3.2470757E1,8.348008E0,5.3472164E1,2.276684E1,9.703918E0,2.35312E1,2.9940964E1,5.770628E0,1.6996212E1,5.259066E0,4.4448524E0,1.713095E1,6.4002485E0,4.003568E0,2.5937395E1,7.0247245E0,9.971487E0,6.9181256E0,1.0212826E1,4.4417562E0,5.77107E0],"tree_param":{"num_deleted":"0","num_feature":"27","num_nodes":"25","size_leaf_vector":"0"}},{"base_weights":[8.658409E-2,-3.5023215E-1,6.7902493E-1,-5.1043904E-1,-3.8220857E-3,1.326314E-1,8.7659633E-1,-7.543225E-1,-3.040689E-1,1.800868E-1,-3.5956513E-2,-2.0735295E-2,4.994001E-2,7.1995906E-3,1E0,-2.1517131E-2,-9.53948E-1,4.871769E-2,-6.244253E-1,-1.570176E-3,3.8808245E-2,4.1755967E-2,7.203749E-2,-7.203749E-2,-4.5128573E-2,-7.203749E-2,-2.886998E-1,7.1891174E-3,-4.947589E-2],"categories":[],"categories_nodes":[],"categories_segments":[],"categories_sizes":[],"default_left":[0,0,0,0,0,0,0,0,0,0,0,0,0,0,0,0,0,0,0,0,0,0,0,0,0,0,0,0,0],"id":49,"left_children":[1,3,5,7,9,11,13,15,17,19,-1,-1,-1,-1,21,-1,23,-1,25,-1,-1,-1,-1,-1,-1,-1,27,-1,-1],"loss_changes":[2.2753948E1,2.804758E0,3.9792442E0,1.6611919E0,1.5405848E0,2.524502E0,3.6882153E0,1.3166351E0,6.2363405E0,8.9965415E-1,0E0,0E0,0E0,0E0,5.2518654E-1,0E0,2.848568E-1,0E0,2.116218E0,0E0,0E0,0E0,0E0,0E0,0E0,0E0,1.4319626E0,0E0,0E0],"parents":[2147483647,0,0,1,1,2,2,3,3,4,4,5,5,6,6,7,7,8,8,9,9,14,14,16,16,18,18,26,26],"right_children":[2,4,6,8,10,12,14,16,18,20,-1,-1,-1,-1,22,-1,24,-1,26,-1,-1,-1,-1,-1,-1,-1,28,-1,-1],"split_conditions":[4.749166E-2,3.2213163E-2,4.7330764E-1,3.2928056E-1,5.304293E-1,7.038333E-1,1.4463988E-1,3.855142E-2,3.8292113E-1,4.5428628E-1,-3.5956513E-2,-2.0735295E-2,4.994001E-2,7.1995906E-3,2.148909E-1,-2.1517131E-2,8.3290875E-2,4.871769E-2,1E0,-1.570176E-3,3.8808245E-2,4.1755967E-2,7.203749E-2,-7.203749E-2,-4.5128573E-2,-7.203749E-2,3.3092167E-2,7.1891174E-3,-4.947589E-2],"split_indices":[21,21,3,17,17,10,19,13,17,17,0,0,0,0,7,0,11,0,2,0,0,0,0,0,0,0,15,0,0],"split_type":[0,0,0,0,0,0,0,0,0,0,0,0,0,0,0,0,0,0,0,0,0,0,0,0,0,0,0,0,0],"sum_hessian":[8.7168396E1,5.0244255E1,3.692414E1,3.422193E1,1.6022322E1,9.973671E0,2.6950472E1,1.5241458E1,1.8980474E1,1.182727E1,4.1950526E0,5.7834487E0,4.190222E0,5.1681013E0,2.178237E1,4.922304E0,1.0319154E1,4.571938E0,1.4408536E1,7.754229E0,4.0730405E0,4.6295524E0,1.7152819E1,5.940003E0,4.3791513E0,5.7617846E0,8.646751E0,4.4924574E0,4.154294E0],"tree_param":{"num_deleted":"0","num_feature":"27","num_nodes":"29","size_leaf_vector":"0"}},{"base_weights":[9.54264E-2,-2.2450772E-1,7.665333E-1,-4.8343945E-1,8.71864E-2,8.319826E-3,9.6568835E-1,1.6586667E-2,-5.8464396E-1,-4.7203094E-2,2.2230925E-1,6.134568E-1,7.203749E-2,-6.847745E-1,-9.015852E-3,4.1161942E-1,-9.832854E-2,4.4299876E-3,7.203749E-2,-2.4542777E-2,-7.9238385E-1,5.1648505E-3,5.6507044E-2,-3.843874E-2,2.0948747E-2,-3.706383E-2,-9.482437E-1,-7.203749E-2,-4.6357602E-2],"categories":[],"categories_nodes":[],"categories_segments":[],"categories_sizes":[],"default_left":[0,0,0,0,0,0,0,0,0,0,0,0,0,0,0,0,0,0,0,0,0,0,0,0,0,0,0,0,0],"id":50,"left_children":[1,3,5,7,9,-1,11,-1,13,-1,15,17,-1,19,-1,21,23,-1,-1,-1,25,-1,-1,-1,-1,-1,27,-1,-1],"loss_changes":[1.923498E1,4.921697E0,3.7012444E0,2.4558783E0,2.8512921E0,0E0,8.7820053E-1,0E0,1.3094215E0,0E0,1.4675847E0,2.2361298E0,0E0,7.8820705E-1,0E0,1.887234E0,1.6112609E0,0E0,0E0,0E0,6.0585594E-1,0E0,0E0,0E0,0E0,0E0,1.9602776E-1,0E0,0E0],"parents":[2147483647,0,0,1,1,2,2,3,3,4,4,6,6,8,8,10,10,11,11,13,13,15,15,16,16,20,20,26,26],"right_children":[2,4,6,8,10,-1,12,-1,14,-1,16,18,-1,20,-1,22,24,-1,-1,-1,26,-1,-1,-1,-1,-1,28,-1,-1],"split_conditions":[5.911618E-1,5.119299E-1,6.329114E-1,1.9150509E-2,4.291842E-2,8.319826E-3,2.68069E-4,1.6586667E-2,5.836251E-1,-4.7203094E-2,1.7431073E-1,8.490263E-2,7.203749E-2,1.027574E-4,-9.015852E-3,1.7676514E-4,5.146505E-1,4.4299876E-3,7.203749E-2,-2.4542777E-2,6.329114E-1,5.1648505E-3,5.6507044E-2,-3.843874E-2,2.0948747E-2,-3.706383E-2,9.888047E-2,-7.203749E-2,-4.6357602E-2],"split_indices":[6,6,4,13,18,0,14,0,10,0,13,21,0,14,0,14,9,0,0,0,4,0,0,0,0,0,18,0,0],"split_type":[0,0,0,0,0,0,0,0,0,0,0,0,0,0,0,0,0,0,0,0,0,0,0,0,0,0,0,0,0],"sum_hessian":[8.8843575E1,6.0306316E1,2.853726E1,3.2857334E1,2.7448982E1,6.8253613E0,2.1711899E1,4.0123577E0,2.8844975E1,4.009607E0,2.3439375E1,8.063987E0,1.3647912E1,2.352519E1,5.3197837E0,1.4698502E1,8.740874E0,4.025809E0,4.0381784E0,5.97112E0,1.7554071E1,7.918642E0,6.7798595E0,4.0791817E0,4.661692E0,6.865873E0,1.0688198E1,6.4945498E0,4.1936483E0],"tree_param":{"num_deleted":"0","num_feature":"27","num_nodes":"29","size_leaf_vector":"0"}},{"base_weights":[9.680602E-2,-2.5308034E-1,8.106424E-1,-7.179701E-2,-1.6216622E-1,5.8234087E-3,1E0,-5.9228086E-1,-7.0735194E-2,6.3311225E-1,7.203749E-2,-1.6738826E-2,-6.347203E-2,-3.6142296E-1,1.9157556E-1,5.549001E-3,7.203749E-2,1.6743373E-2,-6.0725075E-1,4.532688E-1,-3.417403E-2,-6.645929E-2,-1.9430567E-2,1.8084356E-1,7.203749E-2,-1.1327565E-2,4.2522375E-2],"categories":[],"categories_nodes":[],"categories_segments":[],"categories_sizes":[],"default_left":[0,0,0,0,0,0,0,0,0,0,0,0,0,0,0,0,0,0,0,0,0,0,0,0,0,0,0],"id":51,"left_children":[1,3,5,-1,7,-1,9,11,13,15,-1,-1,-1,17,19,-1,-1,-1,21,23,-1,-1,-1,25,-1,-1,-1],"loss_changes":[2.2792341E1,4.0907393E0,4.169779E0,0E0,2.1515508E0,0E0,7.896385E-1,9.23563E-1,3.5254052E0,2.262487E0,0E0,0E0,0E0,3.2522876E0,4.3176403E0,0E0,0E0,0E0,1.5697336E0,3.121173E0,0E0,0E0,0E0,1.8510927E0,0E0,0E0,0E0],"parents":[2147483647,0,0,1,1,2,2,4,4,6,6,7,7,8,8,9,9,13,13,14,14,18,18,19,19,23,23],"right_children":[2,4,6,-1,8,-1,10,12,14,16,-1,-1,-1,18,20,-1,-1,-1,22,24,-1,-1,-1,26,-1,-1,-1],"split_conditions":[5.911618E-1,3.725095E-1,6.2025315E-1,-7.179701E-2,1E0,5.8234087E-3,2.68069E-4,5.06568E-1,5.06568E-1,6.4666563E-1,7.203749E-2,-1.6738826E-2,-6.347203E-2,1.1105803E-1,5.6240404E-1,5.549001E-3,7.203749E-2,1.6743373E-2,4.4382235E-1,4.8026305E-1,-3.417403E-2,-6.645929E-2,-1.9430567E-2,1.446791E-1,7.203749E-2,-1.1327565E-2,4.2522375E-2],"split_indices":[6,10,4,0,1,0,14,6,6,6,0,0,0,8,17,0,0,0,9,17,0,0,0,12,0,0,0],"split_type":[0,0,0,0,0,0,0,0,0,0,0,0,0,0,0,0,0,0,0,0,0,0,0,0,0,0,0],"sum_hessian":[9.0517265E1,6.0882298E1,2.963497E1,6.245728E0,5.463657E1,6.2904496E0,2.3344519E1,9.226094E0,4.5410477E1,8.140613E0,1.5203907E1,4.4013295E0,4.8247643E0,2.1498753E1,2.3911722E1,4.0711303E0,4.0694823E0,6.286187E0,1.5212565E1,1.7257269E1,6.6544538E0,7.5393224E0,7.673243E0,1.2670161E1,4.5871077E0,7.040838E0,5.6293235E0],"tree_param":{"num_deleted":"0","num_feature":"27","num_nodes":"27","size_leaf_vector":"0"}},{"base_weights":[1.332963E-1,-2.2438978E-1,8.6277187E-1,-5.0357753E-1,5.8363095E-2,1.5690356E-2,1E0,9.880496E-3,-6.071093E-1,-7.167352E-2,3.1057182E-1,3.8899023E-2,7.203749E-2,-7.5762343E-1,-1.29875485E-2,4.8844373E-1,-4.044176E-2,-7.203749E-2,-5.177814E-1,8.401325E-1,6.1254345E-2,-6.0367724E-3,-6.987126E-2,7.203749E-2,2.9146506E-2,-3.443076E-2,4.478962E-2],"categories":[],"categories_nodes":[],"categories_segments":[],"categories_sizes":[],"default_left":[0,0,0,0,0,0,0,0,0,0,0,0,0,0,0,0,0,0,0,0,0,0,0,0,0,0,0],"id":52,"left_children":[1,3,5,7,9,-1,11,-1,13,-1,15,-1,-1,17,-1,19,-1,-1,21,23,25,-1,-1,-1,-1,-1,-1],"loss_changes":[2.3987665E1,4.8937426E0,3.0115528E0,2.1026716E0,8.347392E0,0E0,5.6764984E-1,0E0,1.675149E0,0E0,4.024557E0,0E0,0E0,1.3550301E0,0E0,3.1599612E0,0E0,0E0,2.3886287E0,1.0959272E0,3.1309896E0,0E0,0E0,0E0,0E0,0E0,0E0],"parents":[2147483647,0,0,1,1,2,2,3,3,4,4,6,6,8,8,10,10,13,13,15,15,18,18,19,19,20,20],"right_children":[2,4,6,8,10,-1,12,-1,14,-1,16,-1,-1,18,-1,20,-1,-1,22,24,26,-1,-1,-1,-1,-1,-1],"split_conditions":[5.911618E-1,5.06568E-1,4.58448E-1,2.0183766E-2,4.4380847E-1,1.5690356E-2,6.019372E-2,9.880496E-3,1.651011E-1,-7.167352E-2,6.919958E-1,3.8899023E-2,7.203749E-2,1E0,-1.29875485E-2,5.192075E-1,-4.044176E-2,-7.203749E-2,1.299129E-4,1.0068868E-1,1.7676514E-4,-6.0367724E-3,-6.987126E-2,7.203749E-2,2.9146506E-2,-3.443076E-2,4.478962E-2],"split_indices":[6,6,3,13,3,0,12,0,12,0,10,0,0,2,0,3,0,0,14,18,14,0,0,0,0,0,0],"split_type":[0,0,0,0,0,0,0,0,0,0,0,0,0,0,0,0,0,0,0,0,0,0,0,0,0,0,0],"sum_hessian":[9.122447E1,6.136038E1,2.9864094E1,3.0759562E1,3.0600817E1,6.0941477E0,2.3769945E1,4.248174E0,2.6511389E1,5.7072134E0,2.4893604E1,4.0137725E0,1.9756172E1,1.9383022E1,7.1283655E0,2.081241E1,4.0811934E0,7.4127097E0,1.1970313E1,1.1217997E1,9.594414E0,6.328744E0,5.641569E0,6.6385098E0,4.579487E0,4.905694E0,4.6887197E0],"tree_param":{"num_deleted":"0","num_feature":"27","num_nodes":"27","size_leaf_vector":"0"}},{"base_weights":[9.2584506E-2,-4.5687303E-2,6.981628E-1,-2.436908E-1,1.49105E-1,7.4014347E-3,7.203749E-2,-1.0780364E-1,-4.8594117E-2,-6.287506E-3,3.9730843E-2,-2.7796227E-1,3.7767913E-2,3.9375875E-2,-2.0487975E-1,-9.265916E-3,-4.514232E-2,-5.7383593E-2,6.651099E-2,-3.3214085E-2,3.892811E-2,-2.5047971E-2,3.5785306E-2],"categories":[],"categories_nodes":[],"categories_segments":[],"categories_sizes":[],"default_left":[0,0,0,0,0,0,0,0,0,0,0,0,0,0,0,0,0,0,0,0,0,0,0],"id":53,"left_children":[1,3,5,7,9,-1,-1,11,-1,13,-1,15,-1,-1,17,19,-1,-1,21,-1,-1,-1,-1],"loss_changes":[5.508293E0,2.086478E0,2.4726043E0,1.5422605E0,1.7158659E0,0E0,0E0,2.2933438E0,0E0,2.2392175E0,0E0,1.5520571E0,0E0,0E0,2.4378924E0,2.523523E0,0E0,0E0,1.9564075E0,0E0,0E0,0E0,0E0],"parents":[2147483647,0,0,1,1,2,2,3,3,4,4,7,7,9,9,11,11,14,14,15,15,18,18],"right_children":[2,4,6,8,10,-1,-1,12,-1,14,-1,16,-1,-1,18,20,-1,-1,22,-1,-1,-1,-1],"split_conditions":[3.315136E-1,3.2213163E-2,6.455696E-1,4.7927707E-1,6.962025E-1,7.4014347E-3,7.203749E-2,4.4230616E-1,-4.8594117E-2,8.496217E-2,3.9730843E-2,3.901024E-1,3.7767913E-2,3.9375875E-2,4.9634215E-1,3.1738913E-1,-4.514232E-2,-5.7383593E-2,6.312743E-4,-3.3214085E-2,3.892811E-2,-2.5047971E-2,3.5785306E-2],"split_indices":[8,21,4,9,4,0,0,9,0,11,0,9,0,0,9,9,0,0,14,0,0,0,0],"split_type":[0,0,0,0,0,0,0,0,0,0,0,0,0,0,0,0,0,0,0,0,0,0,0],"sum_hessian":[6.504512E1,5.319809E1,1.1847029E1,2.6367353E1,2.6830736E1,4.5509014E0,7.2961273E0,2.0392527E1,5.9748282E0,1.9580748E1,7.249989E0,1.6233162E1,4.159364E0,5.0001817E0,1.4580565E1,9.386E0,6.847162E0,4.3882804E0,1.0192286E1,5.193227E0,4.192773E0,5.2132163E0,4.979069E0],"tree_param":{"num_deleted":"0","num_feature":"27","num_nodes":"23","size_leaf_vector":"0"}},{"base_weights":[1.3543455E-1,1.0397387E-3,7.482231E-1,-5.2500565E-2,6.891923E-2,1.0895769E-2,7.203749E-2,-3.0787956E-2,1.5624109E-1,-9.833533E-3,4.3229687E-1,4.4302247E-2,-1.4538406E-1,-7.4571855E-3,6.105296E-1,-4.4218057E-1,1.4429264E-1,6.732384E-2,2.2730257E-3,7.0113945E-3,-6.6901006E-2,3.6312494E-2,-2.8963432E-2],"categories":[],"categories_nodes":[],"categories_segments":[],"categories_sizes":[],"default_left":[0,0,0,0,0,0,0,0,0,0,0,0,0,0,0,0,0,0,0,0,0,0,0],"id":54,"left_children":[1,3,5,-1,7,-1,-1,-1,9,11,13,-1,15,-1,17,19,21,-1,-1,-1,-1,-1,-1],"loss_changes":[5.6637726E0,2.8372958E0,2.1025634E0,0E0,2.2943835E0,0E0,0E0,0E0,2.0607166E0,2.4311092E0,1.6394603E0,0E0,2.053002E0,0E0,2.3662953E0,3.1235738E0,2.4699707E0,0E0,0E0,0E0,0E0,0E0,0E0],"parents":[2147483647,0,0,1,1,2,2,4,4,8,8,9,9,10,10,12,12,14,14,15,15,16,16],"right_children":[2,4,6,-1,8,-1,-1,-1,10,12,14,-1,16,-1,18,20,22,-1,-1,-1,-1,-1,-1],"split_conditions":[6.4043105E-1,3.725095E-1,4.7330764E-1,-5.2500565E-2,1E0,1.0895769E-2,7.203749E-2,-3.0787956E-2,4.821597E-1,2.71733E-1,1.4239316E-1,4.4302247E-2,4.6620208E-1,-7.4571855E-3,5.6416565E-1,1.16993725E-1,4.3480244E-1,6.732384E-2,2.2730257E-3,7.0113945E-3,-6.6901006E-2,3.6312494E-2,-2.8963432E-2],"split_indices":[6,10,3,0,1,0,0,0,17,17,7,0,9,0,9,12,17,0,0,0,0,0,0],"split_type":[0,0,0,0,0,0,0,0,0,0,0,0,0,0,0,0,0,0,0,0,0,0,0],"sum_hessian":[6.836589E1,5.636685E1,1.1999037E1,4.497104E0,5.1869747E1,4.157143E0,7.841894E0,7.5408535E0,4.4328896E1,2.7859766E1,1.6469128E1,4.734687E0,2.312508E1,4.1311197E0,1.2338009E1,1.1351823E1,1.1773256E1,7.76264E0,4.5753684E0,5.502371E0,5.849452E0,7.1271114E0,4.646145E0],"tree_param":{"num_deleted":"0","num_feature":"27","num_nodes":"23","size_leaf_vector":"0"}},{"base_weights":[6.875158E-2,-7.33061E-2,7.648156E-1,-3.9686922E-2,-4.116747E-3,7.109841E-2,3.608991E-2,-1.2955981E-1,2.7901492E-1,-2.8920496E-2,-5.4482684E-2,3.0135317E-2,3.9525043E-2,1.0638497E-1,-4.5018382E-2,1.0101965E-2,-5.739743E-3,-6.829904E-2,4.9876776E-2,1.2095356E-1,-4.4675015E-2,-1.4249055E-1,4.969641E-2,-3.7311386E-2,2.681146E-2],"categories":[],"categories_nodes":[],"categories_segments":[],"categories_sizes":[],"default_left":[0,0,0,0,0,0,0,0,0,0,0,0,0,0,0,0,0,0,0,0,0,0,0,0,0],"id":55,"left_children":[1,3,5,-1,7,-1,-1,9,11,13,-1,15,-1,17,-1,-1,-1,19,-1,21,-1,23,-1,-1,-1],"loss_changes":[6.751361E0,1.8752888E0,5.0568104E-1,0E0,1.7898134E0,0E0,0E0,2.193193E0,1.0268689E0,2.4924695E0,0E0,1.1016924E-1,0E0,2.5989082E0,0E0,0E0,0E0,2.0906174E0,0E0,2.2811255E0,0E0,2.0982034E0,0E0,0E0,0E0],"parents":[2147483647,0,0,1,1,2,2,4,4,7,7,8,8,9,9,11,11,13,13,17,17,19,19,21,