{"learner":{"attributes":{"best_iteration":"150","best_ntree_limit":"151","best_score":"0.9324597848087781"},"feature_names":["is_retirement_age","life_Retirement","Gender","Age_Squared","Age","FamilyMembers","Wealth_log","Wealth_to_Income_log","Risk_Capacity_log","Wealth_Per_Family_Size_log","Investment_Capacity_log","Financial_Sophistication_Ratio","FinancialEducation_Squared","Education_Risk_Profile","risk_tolerance_log","Financial_Independence_Score_log","Retirement_Readiness_log","Life_Stage_Adjusted_Income_log","Wealth_Concentration_log","Age_Risk_Interaction","Wealth_Sqrt","Wealth","Financial_Independence_Score","Wealth_to_Income","Wealth_Per_Family_Size","Risk_Capacity","Retirement_Readiness"],"feature_types":["float","float","float","float","float","float","float","float","float","float","float","float","float","float","float","float","float","float","float","float","float","float","float","float","float","float","float"],"gradient_booster":{"gbtree":{"model":{"gbtree_model_param":{"num_parallel_tree":"1","num_trees":"251","size_leaf_vector":"0"},"tree_info":[0,0,0,0,0,0,0,0,0,0,0,0,0,0,0,0,0,0,0,0,0,0,0,0,0,0,0,0,0,0,0,0,0,0,0,0,0,0,0,0,0,0,0,0,0,0,0,0,0,0,0,0,0,0,0,0,0,0,0,0,0,0,0,0,0,0,0,0,0,0,0,0,0,0,0,0,0,0,0,0,0,0,0,0,0,0,0,0,0,0,0,0,0,0,0,0,0,0,0,0,0,0,0,0,0,0,0,0,0,0,0,0,0,0,0,0,0,0,0,0,0,0,0,0,0,0,0,0,0,0,0,0,0,0,0,0,0,0,0,0,0,0,0,0,0,0,0,0,0,0,0,0,0,0,0,0,0,0,0,0,0,0,0,0,0,0,0,0,0,0,0,0,0,0,0,0,0,0,0,0,0,0,0,0,0,0,0,0,0,0,0,0,0,0,0,0,0,0,0,0,0,0,0,0,0,0,0,0,0,0,0,0,0,0,0,0,0,0,0,0,0,0,0,0,0,0,0,0,0,0,0,0,0,0,0,0,0,0,0,0,0,0,0,0,0,0,0,0,0,0,0],"trees":[{"base_weights":[7.118635E-1,-9.058458E-1,1.3816601E0,-6.2763626E-3,-1.0333934E0,-7.98485E-2,1.6959373E0,-1.4545623E0,-7.3390245E-1,1.2549571E0,1.9168576E0,-7.914473E-2,-5.3454366E-2,-1.0416867E0,-6.2903357E-3,1.4952414E0,2.2199146E-2,1.744966E0,9.4790496E-2,-3.100241E-2,-6.347958E-2,5.3392924E-2,1.7538313E0,1.9339616E0,6.598237E-2,8.959254E-2,7.465788E-2,9.473164E-2,8.797168E-2],"categories":[],"categories_nodes":[],"categories_segments":[],"categories_sizes":[],"default_left":[0,0,0,0,0,0,0,0,0,0,0,0,0,0,0,0,0,0,0,0,0,0,0,0,0,0,0,0,0],"id":0,"left_children":[1,3,5,-1,7,-1,9,11,13,15,17,-1,-1,19,-1,21,-1,23,-1,-1,-1,-1,25,27,-1,-1,-1,-1,-1],"loss_changes":[1.8342966E2,4.880165E0,1.1539201E2,0E0,5.3651466E0,0E0,1.0574432E1,1.2399254E0,4.597972E0,6.846203E0,1.0291748E0,0E0,0E0,1.8941936E0,0E0,2.646389E0,0E0,1.5706482E0,0E0,0E0,0E0,0E0,3.9659882E-1,7.707977E-2,0E0,0E0,0E0,0E0,0E0],"parents":[2147483647,0,0,1,1,2,2,4,4,6,6,7,7,8,8,9,9,10,10,13,13,15,15,17,17,22,22,23,23],"right_children":[2,4,6,-1,8,-1,10,12,14,16,18,-1,-1,20,-1,22,-1,24,-1,-1,-1,-1,26,28,-1,-1,-1,-1,-1],"split_conditions":[5.124474E-1,3.8660087E-2,4.4380847E-1,-6.2763626E-3,3.2928056E-1,-7.98485E-2,5.911618E-1,8.03559E-2,1.4934774E-1,5.570661E-1,2.679295E-1,-7.914473E-2,-5.3454366E-2,4.3254706E-1,-6.2903357E-3,2.2617519E-1,2.2199146E-2,6.001061E-1,9.4790496E-2,-3.100241E-2,-6.347958E-2,5.3392924E-2,1.5552136E-1,6.1254793E-1,6.598237E-2,8.959254E-2,7.465788E-2,9.473164E-2,8.797168E-2],"split_indices":[6,11,3,0,17,0,6,11,12,17,20,0,0,17,0,8,0,9,0,0,0,0,13,6,0,0,0,0,0],"split_type":[0,0,0,0,0,0,0,0,0,0,0,0,0,0,0,0,0,0,0,0,0,0,0,0,0,0,0,0,0],"sum_hessian":[1.6924637E2,4.9551E1,1.1969537E2,7.0284677E0,4.2522533E1,1.1124258E1,1.0857111E2,1.765421E1,2.4868322E1,3.625621E1,7.23149E1,1.0624258E1,7.0299516E0,1.6434162E1,8.434161E0,2.7760662E1,8.495548E0,2.3575018E1,4.8739887E1,7.1542096E0,9.279952E0,1.1461145E1,1.6299517E1,1.5330953E1,8.244064E0,9.211145E0,7.0883713E0,8.305452E0,7.0255003E0],"tree_param":{"num_deleted":"0","num_feature":"27","num_nodes":"29","size_leaf_vector":"0"}},{"base_weights":[6.620018E-1,-9.607839E-1,1.2802026E0,-4.0972155E-1,-1.2987549E0,-7.011701E-2,1.5700477E0,-4.992126E-2,3.5818059E-3,-1.0756574E0,-7.818403E-2,1.0502111E0,1.8450465E0,-6.940305E-2,-3.198764E-2,5.3947806E-1,1.389879E0,1.7098142E0,9.050393E-2,4.351995E-2,7.972995E-3,4.78397E-2,1.6005043E0,6.966654E-2,1.8519572E0,6.5614834E-2,8.503709E-2,8.415159E-2,9.1147445E-2],"categories":[],"categories_nodes":[],"categories_segments":[],"categories_sizes":[],"default_left":[0,0,0,0,0,0,0,0,0,0,0,0,0,0,0,0,0,0,0,0,0,0,0,0,0,0,0,0,0],"id":1,"left_children":[1,3,5,7,9,-1,11,-1,-1,13,-1,15,17,-1,-1,19,21,23,-1,-1,-1,-1,25,-1,27,-1,-1,-1,-1],"loss_changes":[1.7197577E2,8.801491E0,9.930942E1,5.6458254E0,2.292736E0,0E0,1.6053253E1,0E0,0E0,2.7905712E0,0E0,6.741974E0,6.374054E-1,0E0,0E0,2.1850214E0,1.868515E0,8.083267E-1,0E0,0E0,0E0,0E0,6.273575E-1,0E0,8.076477E-2,0E0,0E0,0E0,0E0],"parents":[2147483647,0,0,1,1,2,2,3,3,4,4,6,6,9,9,11,11,12,12,15,15,16,16,17,17,22,22,24,24],"right_children":[2,4,6,8,10,-1,12,-1,-1,14,-1,16,18,-1,-1,20,22,24,-1,-1,-1,-1,26,-1,28,-1,-1,-1,-1],"split_conditions":[5.06568E-1,1.027574E-4,1E0,5.036874E-1,5.036874E-1,-7.011701E-2,2.2174777E-1,-4.992126E-2,3.5818059E-3,1.9958211E-1,-7.818403E-2,2.072392E-4,2.679295E-1,-6.940305E-2,-3.198764E-2,5.456598E-1,3.4948397E-2,2.68069E-4,9.050393E-2,4.351995E-2,7.972995E-3,4.78397E-2,2.58193E-1,6.966654E-2,2.3980537E-1,6.5614834E-2,8.503709E-2,8.415159E-2,9.1147445E-2],"split_indices":[6,14,1,3,3,0,20,0,0,19,0,14,20,0,0,6,25,14,0,0,0,0,7,0,20,0,0,0,0],"split_type":[0,0,0,0,0,0,0,0,0,0,0,0,0,0,0,0,0,0,0,0,0,0,0,0,0,0,0,0,0],"sum_hessian":[1.7138284E2,4.72723E1,1.2411055E2,1.7984812E1,2.9287487E1,1.1793122E1,1.1231743E2,7.743414E0,1.0241398E1,1.7920973E1,1.1366515E1,3.8875458E1,7.344197E1,9.084696E0,8.836277E0,1.5542288E1,2.3333168E1,2.372103E1,4.9720943E1,7.678264E0,7.864024E0,8.333091E0,1.5000077E1,8.853647E0,1.4867382E1,7.1133227E0,7.886755E0,7.229636E0,7.637746E0],"tree_param":{"num_deleted":"0","num_feature":"27","num_nodes":"29","size_leaf_vector":"0"}},{"base_weights":[6.225097E-1,-9.270098E-1,1.2644515E0,-7.144399E-2,-8.022908E-1,-6.446973E-2,1.5141765E0,-2.869668E-5,-9.724552E-1,1.041295E0,1.7671207E0,-1.2287883E0,-6.382238E-1,1.2594179E0,1.1647801E-2,7.4107334E-2,1.8162273E0,-3.158636E-2,-7.5764365E-2,-5.153034E-2,-9.605791E-3,9.87E-1,7.743553E-2,8.045504E-2,8.687866E-2,6.0899813E-2,2.8848013E-2],"categories":[],"categories_nodes":[],"categories_segments":[],"categories_sizes":[],"default_left":[0,0,0,0,0,0,0,0,0,0,0,0,0,0,0,0,0,0,0,0,0,0,0,0,0,0,0],"id":2,"left_children":[1,3,5,-1,7,-1,9,-1,11,13,15,17,19,21,-1,-1,23,-1,-1,-1,-1,25,-1,-1,-1,-1,-1],"loss_changes":[1.7015463E2,3.6303368E0,7.9299164E1,0E0,5.6188145E0,0E0,1.320549E1,0E0,2.9129143E0,6.6736603E0,7.1762085E-1,3.9941998E0,2.8906717E0,3.0801125E0,0E0,0E0,1.13098145E-1,0E0,0E0,0E0,0E0,1.9706287E0,0E0,0E0,0E0,0E0,0E0],"parents":[2147483647,0,0,1,1,2,2,4,4,6,6,8,8,9,9,10,10,11,11,12,12,13,13,16,16,21,21],"right_children":[2,4,6,-1,8,-1,10,-1,12,14,16,18,20,22,-1,-1,24,-1,-1,-1,-1,26,-1,-1,-1,-1,-1],"split_conditions":[5.119299E-1,3.7517425E-1,4.4380847E-1,-7.144399E-2,1.00710325E-1,-6.446973E-2,2.2174777E-1,-2.869668E-5,1.571391E-1,6.7118376E-1,3.1145692E-1,1.1724384E-4,2.0211598E-1,3.770473E-2,1.1647801E-2,7.4107334E-2,2.1969125E-1,-3.158636E-2,-7.5764365E-2,-5.153034E-2,-9.605791E-3,5.192075E-1,7.743553E-2,8.045504E-2,8.687866E-2,6.0899813E-2,2.8848013E-2],"split_indices":[6,10,3,0,20,0,20,0,8,10,8,14,19,25,0,0,7,0,0,0,0,3,0,0,0,0,0],"split_type":[0,0,0,0,0,0,0,0,0,0,0,0,0,0,0,0,0,0,0,0,0,0,0,0,0,0,0],"sum_hessian":[1.710176E2,5.009028E1,1.20927315E2,8.844597E0,4.124568E1,1.0502229E1,1.1042509E2,7.234634E0,3.4011047E1,3.8499363E1,7.192573E1,1.9227585E1,1.47834635E1,3.0202923E1,8.29644E0,1.4019441E1,5.7906284E1,7.6377854E0,1.1589799E1,7.2664495E0,7.517014E0,1.7497734E1,1.2705189E1,7.187438E0,5.0718845E1,9.773827E0,7.723907E0],"tree_param":{"num_deleted":"0","num_feature":"27","num_nodes":"27","size_leaf_vector":"0"}},{"base_weights":[6.6012985E-1,-8.385025E-1,1.2725278E0,-6.907503E-3,-9.697548E-1,-6.916827E-2,1.545644E0,-1.4058075E0,-6.2865496E-1,1.1175107E0,1.769401E0,-7.651038E-2,-5.440838E-2,-3.649321E-1,-5.4069597E-2,1.3698264E0,8.5077705E-3,1.644563E0,8.6939216E-2,-3.668274E-2,2.5658903E-3,1.1348314E0,8.4773995E-2,6.58245E-2,1.7842294E0,3.011458E-2,7.3988676E-2,8.08281E-2,8.768763E-2],"categories":[],"categories_nodes":[],"categories_segments":[],"categories_sizes":[],"default_left":[0,0,0,0,0,0,0,0,0,0,0,0,0,0,0,0,0,0,0,0,0,0,0,0,0,0,0,0,0],"id":3,"left_children":[1,3,5,-1,7,-1,9,11,13,15,17,-1,-1,19,-1,21,-1,23,-1,-1,-1,25,-1,-1,27,-1,-1,-1,-1],"loss_changes":[1.5351434E2,4.4035378E0,8.8619095E1,0E0,6.0643616E0,0E0,1.0337311E1,9.599533E-1,3.0937586E0,8.764362E0,5.717468E-1,0E0,0E0,2.6121924E0,0E0,2.874611E0,0E0,8.6556244E-1,0E0,0E0,0E0,3.9832497E0,0E0,0E0,8.113098E-2,0E0,0E0,0E0,0E0],"parents":[2147483647,0,0,1,1,2,2,4,4,6,6,7,7,8,8,9,9,10,10,13,13,15,15,17,17,21,21,24,24],"right_children":[2,4,6,-1,8,-1,10,12,14,16,18,-1,-1,20,-1,22,-1,24,-1,-1,-1,26,-1,-1,28,-1,-1,-1,-1],"split_conditions":[5.119299E-1,3.8660087E-2,4.4380847E-1,-6.907503E-3,1.0785197E-1,-6.916827E-2,2.2174777E-1,3.3978945E-1,2.3879349E-1,5.6240404E-1,6.4043105E-1,-7.651038E-2,-5.440838E-2,1.4934774E-1,-5.4069597E-2,4.8026305E-1,8.5077705E-3,2.68069E-4,8.6939216E-2,-3.668274E-2,2.5658903E-3,2.2617519E-1,8.4773995E-2,6.58245E-2,5.036874E-1,3.011458E-2,7.3988676E-2,8.08281E-2,8.768763E-2],"split_indices":[6,11,3,0,12,0,20,17,12,17,6,0,0,12,0,17,0,14,0,0,0,8,0,0,3,0,0,0,0],"split_type":[0,0,0,0,0,0,0,0,0,0,0,0,0,0,0,0,0,0,0,0,0,0,0,0,0,0,0,0,0],"sum_hessian":[1.6722562E2,4.8505314E1,1.187203E2,7.741049E0,4.0764267E1,1.0786561E1,1.0793374E2,1.787584E1,2.2888428E1,3.70666E1,7.0867134E1,9.863783E0,8.012057E0,1.5123291E1,7.7651367E0,2.9199184E1,7.8674173E0,2.4258883E1,4.6608253E1,7.669069E0,7.4542217E0,1.8719954E1,1.0479232E1,8.59678E0,1.5662104E1,8.6306305E0,1.0089323E1,7.1933517E0,8.468752E0],"tree_param":{"num_deleted":"0","num_feature":"27","num_nodes":"29","size_leaf_vector":"0"}},{"base_weights":[6.763483E-1,-9.1264087E-1,1.3304929E0,-7.07695E-2,-8.082375E-1,-7.197007E-2,1.6088189E0,-1.5053026E-3,-9.8015034E-1,1.2075096E0,1.8294084E0,-1.2669823E0,-6.3278574E-1,1.448658E0,1.585756E-2,7.062564E-2,1.8664839E0,-4.7263525E-2,-7.7045016E-2,-5.630174E-2,-2.5551734E-3,1.6200293E0,4.7436588E-2,7.989068E-2,1.8948537E0,9.182094E-2,6.1707854E-2,8.403726E-2,9.0639904E-2],"categories":[],"categories_nodes":[],"categories_segments":[],"categories_sizes":[],"default_left":[0,0,0,0,0,0,0,0,0,0,0,0,0,0,0,0,0,0,0,0,0,0,0,0,0,0,0,0,0],"id":4,"left_children":[1,3,5,-1,7,-1,9,-1,11,13,15,17,19,21,-1,-1,23,-1,-1,-1,-1,25,-1,-1,27,-1,-1,-1,-1],"loss_changes":[1.785743E2,3.040432E0,9.652171E1,0E0,5.6609764E0,0E0,9.8107605E0,0E0,3.461979E0,8.273567E0,8.9619446E-1,1.8404713E0,5.055851E0,2.36174E0,0E0,0E0,3.2911682E-1,0E0,0E0,0E0,0E0,2.246521E0,0E0,0E0,1.1631775E-1,0E0,0E0,0E0,0E0],"parents":[2147483647,0,0,1,1,2,2,4,4,6,6,8,8,9,9,10,10,11,11,12,12,13,13,16,16,21,21,24,24],"right_children":[2,4,6,-1,8,-1,10,-1,12,14,16,18,20,22,-1,-1,24,-1,-1,-1,-1,26,-1,-1,28,-1,-1,-1,-1],"split_conditions":[5.119299E-1,3.725095E-1,1E0,-7.07695E-2,3.9832175E-1,-7.197007E-2,5.911618E-1,-1.5053026E-3,1.5569845E-1,5.6240404E-1,1.3116853E-1,7.726844E-2,1.32063E-1,3.0306053E-1,1.585756E-2,7.062564E-2,6.091935E-1,-4.7263525E-2,-7.7045016E-2,-5.630174E-2,-2.5551734E-3,2.9683647E-1,4.7436588E-2,7.989068E-2,2.5222772E-1,9.182094E-2,6.1707854E-2,8.403726E-2,9.0639904E-2],"split_indices":[6,10,1,0,6,0,6,0,8,17,19,18,12,19,0,0,6,0,0,0,0,16,0,0,16,0,0,0,0],"split_type":[0,0,0,0,0,0,0,0,0,0,0,0,0,0,0,0,0,0,0,0,0,0,0,0,0,0,0,0,0],"sum_hessian":[1.7175797E2,5.008266E1,1.216753E2,7.617921E0,4.2464737E1,1.0825558E1,1.1084974E2,7.7105794E0,3.4754158E1,3.9338764E1,7.151098E1,1.901608E1,1.5738079E1,3.0812832E1,8.525933E0,7.0743947E0,6.4436584E1,1.0867229E1,8.148851E0,8.0239315E0,7.7141476E0,2.226609E1,8.546741E0,8.787562E0,5.564902E1,1.1133506E1,1.1132585E1,7.0121384E0,4.8636883E1],"tree_param":{"num_deleted":"0","num_feature":"27","num_nodes":"29","size_leaf_vector":"0"}},{"base_weights":[6.7102927E-1,-9.180315E-1,1.3042814E0,-1.1950457E0,-6.671E-1,7.087266E-1,1.647561E0,-4.206584E-2,-7.4552305E-2,2.853735E-3,-9.673258E-1,-1.3514827E-2,8.954667E-1,3.9688706E-2,1.7662634E0,-6.225904E-2,-3.1102816E-2,6.764423E-2,7.569572E-1,1.5981202E0,8.7713905E-2,1.1732665E-2,1.0271723E0,1.7932909E0,5.946044E-2,2.4261951E-2,6.48222E-2,8.829329E-2,8.1647396E-2],"categories":[],"categories_nodes":[],"categories_segments":[],"categories_sizes":[],"default_left":[0,0,0,0,0,0,0,0,0,0,0,0,0,0,0,0,0,0,0,0,0,0,0,0,0,0,0,0,0],"id":5,"left_children":[1,3,5,7,9,11,13,-1,-1,-1,15,-1,17,-1,19,-1,-1,-1,21,23,-1,-1,25,27,-1,-1,-1,-1,-1],"loss_changes":[1.7185384E2,3.381836E0,2.4957565E1,2.6847916E0,5.5989113E0,8.306944E0,7.439331E0,0E0,0E0,0E0,1.9493732E0,0E0,2.773571E0,0E0,9.54895E-1,0E0,0E0,0E0,4.105942E0,1.512886E0,0E0,0E0,3.4157963E0,7.0640564E-2,0E0,0E0,0E0,0E0,0E0],"parents":[2147483647,0,0,1,1,2,2,3,3,4,4,5,5,6,6,10,10,12,12,14,14,18,18,19,19,22,22,23,23],"right_children":[2,4,6,8,10,12,14,-1,-1,-1,16,-1,18,-1,20,-1,-1,-1,22,24,-1,-1,26,28,-1,-1,-1,-1,-1],"split_conditions":[1.6219056E-1,3.2928056E-1,5.911618E-1,1.5428301E-2,3.8970214E-1,1.690675E-1,4.58448E-1,-4.206584E-2,-7.4552305E-2,2.853735E-3,5.7476735E-1,-1.3514827E-2,6.472259E-2,3.9688706E-2,6.4043105E-1,-6.225904E-2,-3.1102816E-2,6.764423E-2,4.58448E-1,6.001061E-1,8.7713905E-2,1.1732665E-2,2.2617519E-1,5.6130177E-1,5.946044E-2,2.4261951E-2,6.48222E-2,8.829329E-2,8.1647396E-2],"split_indices":[20,17,6,24,17,7,3,0,0,0,10,0,18,0,6,0,0,0,3,9,0,0,8,9,0,0,0,0,0],"split_type":[0,0,0,0,0,0,0,0,0,0,0,0,0,0,0,0,0,0,0,0,0,0,0,0,0,0,0,0,0],"sum_hessian":[1.7073886E2,4.8646755E1,1.22092094E2,2.3098158E1,2.55486E1,4.4655533E1,7.743656E1,1.2749167E1,1.03489895E1,7.4527473E0,1.8095852E1,7.0529184E0,3.7602615E1,9.908096E0,6.7528465E1,8.54785E0,9.548002E0,7.7539315E0,2.9848682E1,2.2579964E1,4.4948505E1,1.0360997E1,1.9487684E1,1.4379006E1,8.200956E0,7.7657843E0,1.1721901E1,7.1743236E0,7.2046833E0],"tree_param":{"num_deleted":"0","num_feature":"27","num_nodes":"29","size_leaf_vector":"0"}},{"base_weights":[6.3479465E-1,-8.426641E-1,1.2258382E0,-5.0004506E-1,-1.0584502E0,-6.1098285E-2,1.4381722E0,-3.5893244E-3,-5.0982997E-2,-1.3441325E0,-1.8825438E-2,1.0465312E0,1.6433612E0,-4.9396526E-2,-7.80096E-2,1.2128081E0,2.2417424E-2,6.2306304E-2,1.6797205E0,3.3893388E-2,1.4353505E0,1.5871834E0,8.179978E-2,7.810498E-2,6.1597742E-2,6.477988E-2,8.168304E-2],"categories":[],"categories_nodes":[],"categories_segments":[],"categories_sizes":[],"default_left":[0,0,0,0,0,0,0,0,0,0,0,0,0,0,0,0,0,0,0,0,0,0,0,0,0,0,0],"id":6,"left_children":[1,3,5,7,9,-1,11,-1,-1,13,-1,15,17,-1,-1,19,-1,-1,21,-1,23,25,-1,-1,-1,-1,-1],"loss_changes":[1.44245E2,3.4865112E0,6.3025757E1,4.459577E0,5.45998E0,0E0,8.739136E0,0E0,0E0,1.838829E0,0E0,3.563797E0,8.497772E-1,0E0,0E0,3.2082596E0,0E0,0E0,2.72583E-1,0E0,5.7855225E-1,6.411514E-1,0E0,0E0,0E0,0E0,0E0],"parents":[2147483647,0,0,1,1,2,2,3,3,4,4,6,6,9,9,11,11,12,12,15,15,18,18,20,20,21,21],"right_children":[2,4,6,8,10,-1,12,-1,-1,14,-1,16,18,-1,-1,20,-1,-1,22,-1,24,26,-1,-1,-1,-1,-1],"split_conditions":[3.2093506E-2,1.027574E-4,1E0,5.451902E-1,2.1126527E-2,-6.1098285E-2,2.2174777E-1,-3.5893244E-3,-5.0982997E-2,3.866407E-1,-1.8825438E-2,6.7118376E-1,4.8280142E-2,-4.9396526E-2,-7.80096E-2,2.1709517E-1,2.2417424E-2,6.2306304E-2,5.036874E-1,3.3893388E-2,5E-1,5E-1,8.179978E-2,7.810498E-2,6.1597742E-2,6.477988E-2,8.168304E-2],"split_indices":[21,14,1,10,25,0,20,0,0,9,0,10,11,0,0,8,0,0,3,0,5,5,0,0,0,0,0],"split_type":[0,0,0,0,0,0,0,0,0,0,0,0,0,0,0,0,0,0,0,0,0,0,0,0,0,0,0],"sum_hessian":[1.6513695E2,4.71794E1,1.1795754E2,1.8253933E1,2.8925467E1,9.179597E0,1.0877795E2,1.0519557E1,7.7343764E0,2.0186205E1,8.739263E0,3.7418484E1,7.135947E1,1.0106244E1,1.0079961E1,2.8992435E1,8.426047E0,7.137089E0,6.4222374E1,8.974454E0,2.0017982E1,2.140371E1,4.2818665E1,7.773626E0,1.2244357E1,8.2003E0,1.320341E1],"tree_param":{"num_deleted":"0","num_feature":"27","num_nodes":"27","size_leaf_vector":"0"}},{"base_weights":[5.819504E-1,-8.7111E-1,1.1866387E0,-8.163701E-3,-9.8638153E-1,-6.286866E-2,1.4147664E0,-1.3431144E0,-7.061137E-1,9.964292E-1,1.6551497E0,-4.7997095E-2,-7.453983E-2,-4.4252548E-1,-6.046855E-2,1.2172196E0,8.77099E-3,6.240684E-2,1.6937748E0,-3.5700407E-2,-1.2873263E-3,1.3847911E0,3.7626162E-2,7.215777E-2,8.169402E-2,5.075689E-2,7.9956084E-2],"categories":[],"categories_nodes":[],"categories_segments":[],"categories_sizes":[],"default_left":[0,0,0,0,0,0,0,0,0,0,0,0,0,0,0,0,0,0,0,0,0,0,0,0,0,0,0],"id":7,"left_children":[1,3,5,-1,7,-1,9,11,13,15,17,-1,-1,19,-1,21,-1,-1,23,-1,-1,25,-1,-1,-1,-1,-1],"loss_changes":[1.4840514E2,3.9896927E0,6.839772E1,0E0,4.257511E0,0E0,1.0991394E1,1.4177132E0,3.5861454E0,7.143032E0,9.0400696E-1,0E0,0E0,2.105325E0,0E0,2.2222633E0,0E0,0E0,3.1518555E-1,0E0,0E0,2.1287193E0,0E0,0E0,0E0,0E0,0E0],"parents":[2147483647,0,0,1,1,2,2,4,4,6,6,7,7,8,8,9,9,10,10,13,13,15,15,18,18,21,21],"right_children":[2,4,6,-1,8,-1,10,12,14,16,18,-1,-1,20,-1,22,-1,-1,24,-1,-1,26,-1,-1,-1,-1,-1],"split_conditions":[5.119299E-1,3.8660087E-2,1E0,-8.163701E-3,1.0785197E-1,-6.286866E-2,5.911618E-1,6.0915817E-2,2.3865664E-1,5.6240404E-1,4.7997456E-2,-4.7997095E-2,-7.453983E-2,4.3618858E-1,-6.046855E-2,3.0306053E-1,8.77099E-3,6.240684E-2,2.1969125E-1,-3.5700407E-2,-1.2873263E-3,1.2421112E-1,3.7626162E-2,7.215777E-2,8.169402E-2,5.075689E-2,7.9956084E-2],"split_indices":[6,11,1,0,12,0,6,11,7,17,13,0,0,9,0,19,0,0,7,0,0,12,0,0,0,0,0],"split_type":[0,0,0,0,0,0,0,0,0,0,0,0,0,0,0,0,0,0,0,0,0,0,0,0,0,0,0],"sum_hessian":[1.6885536E2,4.9613647E1,1.19241714E2,7.0397687E0,4.257388E1,9.919438E0,1.0932227E2,1.8712156E1,2.3861723E1,3.9913254E1,6.940902E1,7.6885123E0,1.1023644E1,1.6327358E1,7.534365E0,3.1363512E1,8.54974E0,7.140222E0,6.22688E1,9.324342E0,7.0030155E0,2.2449879E1,8.913634E0,9.248427E0,5.302037E1,1.1026455E1,1.1423424E1],"tree_param":{"num_deleted":"0","num_feature":"27","num_nodes":"27","size_leaf_vector":"0"}},{"base_weights":[6.121012E-1,-8.00669E-1,1.1762744E0,-6.440042E-2,-6.9701475E-1,-6.28288E-2,1.4254384E0,6.605508E-3,-8.837335E-1,1.0332313E0,1.6257762E0,-1.1369873E0,-2.4791054E-2,2.3088882E-2,1.1609571E0,6.125198E-2,1.6617378E0,-2.9529959E-2,-7.0192896E-2,3.5937823E-2,1.3992025E0,7.339846E-2,8.008362E-2,7.9093784E-2,4.5930993E-2],"categories":[],"categories_nodes":[],"categories_segments":[],"categories_sizes":[],"default_left":[0,0,0,0,0,0,0,0,0,0,0,0,0,0,0,0,0,0,0,0,0,0,0,0,0],"id":8,"left_children":[1,3,5,-1,7,-1,9,-1,11,13,15,17,-1,-1,19,-1,21,-1,-1,-1,23,-1,-1,-1,-1],"loss_changes":[1.3471759E2,2.7940884E0,7.5314026E1,0E0,6.3700924E0,0E0,8.626968E0,0E0,3.0378437E0,2.586399E0,8.6808777E-1,3.4486504E0,0E0,0E0,2.8857117E0,0E0,2.050476E-1,0E0,0E0,0E0,2.1872292E0,0E0,0E0,0E0,0E0],"parents":[2147483647,0,0,1,1,2,2,4,4,6,6,8,8,9,9,10,10,11,11,14,14,16,16,20,20],"right_children":[2,4,6,-1,8,-1,10,-1,12,14,16,18,-1,-1,20,-1,22,-1,-1,-1,24,-1,-1,-1,-1],"split_conditions":[5.119299E-1,3.725095E-1,1E0,-6.440042E-2,1.00710325E-1,-6.28288E-2,2.2174777E-1,6.605508E-3,1.571391E-1,1.7785965E-1,4.7997456E-2,1.1724384E-4,-2.4791054E-2,2.3088882E-2,2.2617519E-1,6.125198E-2,3.1145692E-1,-2.9529959E-2,-7.0192896E-2,3.5937823E-2,2.639304E-1,7.339846E-2,8.008362E-2,7.9093784E-2,4.5930993E-2],"split_indices":[6,10,1,0,20,0,20,0,8,7,13,14,0,0,8,0,8,0,0,0,8,0,0,0,0],"split_type":[0,0,0,0,0,0,0,0,0,0,0,0,0,0,0,0,0,0,0,0,0,0,0,0,0],"sum_hessian":[1.6897238E2,4.8214466E1,1.2075792E2,7.5349956E0,4.067947E1,1.0933163E1,1.0982476E2,7.4120717E0,3.32674E1,3.7152435E1,7.2672325E1,1.952513E1,1.3742269E1,7.060421E0,3.0092014E1,7.105752E0,6.556657E1,7.8404117E0,1.1684717E1,1.1203202E1,1.8888813E1,1.2986373E1,5.2580196E1,1.1597653E1,7.291158E0],"tree_param":{"num_deleted":"0","num_feature":"27","num_nodes":"25","size_leaf_vector":"0"}},{"base_weights":[5.194831E-1,-6.738035E-1,1.0316576E0,-3.3362755E-3,-7.882931E-1,-6.261551E-2,1.2543879E0,-1.1587075E0,-4.7021872E-1,8.659049E-1,1.482306E0,-6.9896795E-2,-3.8937014E-2,-7.2172487E-1,-2.2255282E-3,1.0882114E0,6.0992443E-4,1.3572432E0,7.343483E-2,-2.9120503E-2,-3.9215453E-2,7.917723E-1,6.835426E-2,1.5004157E0,5.194526E-2,1.325189E-2,5.4991953E-2,7.4582495E-2,6.737623E-2],"categories":[],"categories_nodes":[],"categories_segments":[],"categories_sizes":[],"default_left":[0,0,0,0,0,0,0,0,0,0,0,0,0,0,0,0,0,0,0,0,0,0,0,0,0,0,0,0,0],"id":9,"left_children":[1,3,5,-1,7,-1,9,11,13,15,17,-1,-1,19,-1,21,-1,23,-1,-1,-1,25,-1,27,-1,-1,-1,-1,-1],"loss_changes":[1.0083295E2,3.4152203E0,6.0509712E1,0E0,4.902855E0,0E0,9.332901E0,2.0456467E0,2.3828197E0,7.388546E0,5.5513E-1,0E0,0E0,1.5910292E-1,0E0,3.2446976E0,0E0,8.6735535E-1,0E0,0E0,0E0,3.1770458E0,0E0,8.628464E-2,0E0,0E0,0E0,0E0,0E0],"parents":[2147483647,0,0,1,1,2,2,4,4,6,6,7,7,8,8,9,9,10,10,13,13,15,15,17,17,21,21,23,23],"right_children":[2,4,6,-1,8,-1,10,12,14,16,18,-1,-1,20,-1,22,-1,24,-1,-1,-1,26,-1,28,-1,-1,-1,-1,-1],"split_conditions":[5.119299E-1,3.0248648E-2,1E0,-3.3362755E-3,1.0899757E-1,-6.261551E-2,5.911618E-1,2.3003496E-1,2.0873269E-2,5.6240404E-1,6.4043105E-1,-6.9896795E-2,-3.8937014E-2,1.05124846E-1,-2.2255282E-3,4.5666817E-1,6.0992443E-4,6.001061E-1,7.343483E-2,-2.9120503E-2,-3.9215453E-2,1.1639113E-1,6.835426E-2,6.0778034E-1,5.194526E-2,1.325189E-2,5.4991953E-2,7.4582495E-2,6.737623E-2],"split_indices":[6,12,1,0,12,0,6,7,25,17,6,0,0,11,0,17,0,9,0,0,0,18,0,6,0,0,0,0,0],"split_type":[0,0,0,0,0,0,0,0,0,0,0,0,0,0,0,0,0,0,0,0,0,0,0,0,0,0,0,0,0],"sum_hessian":[1.6492764E2,4.9522854E1,1.1540478E2,7.9150395E0,4.1607815E1,9.975987E0,1.05428795E2,1.9204306E1,2.2403511E1,3.900312E1,6.6425674E1,9.897819E0,9.306486E0,1.4034706E1,8.368804E0,3.0928423E1,8.074698E0,2.3216635E1,4.3209038E1,7.01634E0,7.018367E0,1.6847984E1,1.4080439E1,1.4969489E1,8.247145E0,7.062053E0,9.785931E0,7.6985273E0,7.270962E0],"tree_param":{"num_deleted":"0","num_feature":"27","num_nodes":"29","size_leaf_vector":"0"}},{"base_weights":[5.9180397E-1,-7.1734655E-1,1.1167009E0,-1.6575048E-3,-8.4532726E-1,-6.24218E-2,1.3457179E0,-1.204138E0,-5.485893E-1,9.1999286E-1,1.560097E0,-3.838816E-2,-7.059126E-2,-4.184906E-2,-5.7657296E-3,1.0644401E0,2.0209217E-2,5.8447376E-2,1.5964011E0,7.569655E-1,6.925951E-2,6.791222E-2,1.6229213E0,5.01748E-2,1.885697E-2,7.199083E-2,7.76481E-2],"categories":[],"categories_nodes":[],"categories_segments":[],"categories_sizes":[],"default_left":[0,0,0,0,0,0,0,0,0,0,0,0,0,0,0,0,0,0,0,0,0,0,0,0,0,0,0],"id":10,"left_children":[1,3,5,-1,7,-1,9,11,13,15,17,-1,-1,-1,-1,19,-1,-1,21,23,-1,-1,25,-1,-1,-1,-1],"loss_changes":[1.134599E2,4.118004E0,6.5707535E1,0E0,4.233898E0,0E0,9.826553E0,2.019436E0,3.107338E0,2.5690117E0,8.4664917E-1,0E0,0E0,0E0,0E0,3.4041004E0,0E0,0E0,2.779541E-1,1.7033758E0,0E0,0E0,8.64563E-2,0E0,0E0,0E0,0E0],"parents":[2147483647,0,0,1,1,2,2,4,4,6,6,7,7,8,8,9,9,10,10,15,15,18,18,19,19,22,22],"right_children":[2,4,6,-1,8,-1,10,12,14,16,18,-1,-1,-1,-1,20,-1,-1,22,24,-1,-1,26,-1,-1,-1,-1],"split_conditions":[1.6219056E-1,3.0248648E-2,1E0,-1.6575048E-3,1.0785197E-1,-6.24218E-2,5.911618E-1,1.1105803E-1,4.4230616E-1,6.7118376E-1,4.8280142E-2,-3.838816E-2,-7.059126E-2,-4.184906E-2,-5.7657296E-3,2.3809712E-1,2.0209217E-2,5.8447376E-2,6.091935E-1,2.6940057E-1,6.925951E-2,6.791222E-2,2.1769945E-1,5.01748E-2,1.885697E-2,7.199083E-2,7.76481E-2],"split_indices":[20,12,1,0,12,0,6,8,9,10,11,0,0,0,0,8,0,0,6,7,0,0,7,0,0,0,0],"split_type":[0,0,0,0,0,0,0,0,0,0,0,0,0,0,0,0,0,0,0,0,0,0,0,0,0,0,0],"sum_hessian":[1.6505986E2,4.7232685E1,1.1782718E2,7.474834E0,3.975785E1,1.0129955E1,1.0769723E2,1.797766E1,2.1780193E1,3.608861E1,7.160861E1,7.5623593E0,1.0415299E1,1.2199558E1,9.580635E0,2.7899677E1,8.188934E0,7.188618E0,6.441999E1,1.5734908E1,1.216477E1,9.04706E0,5.5372932E1,8.534581E0,7.2003264E0,7.146902E0,4.8226032E1],"tree_param":{"num_deleted":"0","num_feature":"27","num_nodes":"27","size_leaf_vector":"0"}},{"base_weights":[5.095171E-1,-5.800686E-1,1.0204988E0,5.6476933E-3,-7.079985E-1,-5.780209E-2,1.2607784E0,-8.8954884E-1,5.991558E-3,1.2402931E-2,1.3390346E0,-5.230398E-1,-1.1474663E0,9.392498E-1,1.4196997E0,-3.9741326E-2,-1.0872165E-2,-6.502789E-2,-3.9622955E-2,2.6752805E-2,6.1328173E-2,5.554192E-2,1.4691284E0,5.888125E-2,1.5045242E0,6.672496E-2,7.206648E-2],"categories":[],"categories_nodes":[],"categories_segments":[],"categories_sizes":[],"default_left":[0,0,0,0,0,0,0,0,0,0,0,0,0,0,0,0,0,0,0,0,0,0,0,0,0,0,0],"id":11,"left_children":[1,3,5,-1,7,-1,9,11,-1,-1,13,15,17,19,21,-1,-1,-1,-1,-1,-1,-1,23,-1,25,-1,-1],"loss_changes":[8.8997345E1,4.5759277E0,5.8585724E1,0E0,6.550972E0,0E0,7.6705627E0,3.3484154E0,0E0,0E0,2.9339752E0,1.3576927E0,1.4516582E0,2.0361366E0,9.263458E-1,0E0,0E0,0E0,0E0,0E0,0E0,0E0,5.0483704E-1,0E0,8.264923E-2,0E0,0E0],"parents":[2147483647,0,0,1,1,2,2,4,4,6,6,7,7,10,10,11,11,12,12,13,13,14,14,22,22,24,24],"right_children":[2,4,6,-1,8,-1,10,12,-1,-1,14,16,18,20,22,-1,-1,-1,-1,-1,-1,-1,24,-1,26,-1,-1],"split_conditions":[2.8993448E-2,3.8660087E-2,1E0,5.6476933E-3,1.5668187E-1,-5.780209E-2,1.6937022E-1,1.299129E-4,5.991558E-3,1.2402931E-2,1.7133762E-1,5.036874E-1,1.6733538E-1,6.1209884E-2,5.736186E-1,-3.9741326E-2,-1.0872165E-2,-6.502789E-2,-3.9622955E-2,2.6752805E-2,6.1328173E-2,5.554192E-2,4.6867587E-2,5.888125E-2,6.329114E-1,6.672496E-2,7.206648E-2],"split_indices":[25,11,1,0,20,0,7,14,0,0,19,3,12,24,6,0,0,0,0,0,0,0,15,0,4,0,0],"split_type":[0,0,0,0,0,0,0,0,0,0,0,0,0,0,0,0,0,0,0,0,0,0,0,0,0,0,0],"sum_hessian":[1.5979059E2,5.1005436E1,1.0878516E2,7.8737006E0,4.3131737E1,1.0534008E1,9.8251144E1,3.5436325E1,7.695411E0,7.1480956E0,9.110305E1,1.4656774E1,2.077955E1,1.5321614E1,7.578144E1,7.04703E0,7.609744E0,1.2056398E1,8.723152E0,7.4646263E0,7.8569875E0,1.2637305E1,6.3144135E1,8.567094E0,5.457704E1,7.774297E0,4.6802742E1],"tree_param":{"num_deleted":"0","num_feature":"27","num_nodes":"27","size_leaf_vector":"0"}},{"base_weights":[4.7295398E-1,-6.271059E-1,9.2252034E-1,-2.1206677E-1,-8.999866E-1,-4.805393E-2,1.1146114E0,-4.0664025E-2,1.2074955E-2,-6.545421E-1,-5.7760313E-2,7.3628217E-1,1.348395E0,-5.3540707E-2,-7.7415504E-3,9.1471577E-1,2.5857775E-3,1.2129623E0,6.7290366E-2,6.161446E-1,1.2060349E0,6.477322E-2,4.3568503E-2,4.658569E-2,1.0567314E-2,7.042074E-2,4.4388857E-2],"categories":[],"categories_nodes":[],"categories_segments":[],"categories_sizes":[],"default_left":[0,0,0,0,0,0,0,0,0,0,0,0,0,0,0,0,0,0,0,0,0,0,0,0,0,0,0],"id":12,"left_children":[1,3,5,7,9,-1,11,-1,-1,13,-1,15,17,-1,-1,19,-1,21,-1,23,25,-1,-1,-1,-1,-1,-1],"loss_changes":[7.618374E1,5.056822E0,4.0692154E1,5.3765144E0,2.1064415E0,0E0,8.795128E0,0E0,0E0,3.5537543E0,0E0,4.617035E0,5.917282E-1,0E0,0E0,2.6186981E0,0E0,9.560871E-1,0E0,2.1463828E0,1.1471901E0,0E0,0E0,0E0,0E0,0E0,0E0],"parents":[2147483647,0,0,1,1,2,2,3,3,4,4,6,6,9,9,11,11,12,12,15,15,17,17,19,19,20,20],"right_children":[2,4,6,8,10,-1,12,-1,-1,14,-1,16,18,-1,-1,20,-1,22,-1,24,26,-1,-1,-1,-1,-1,-1],"split_conditions":[1.5871882E-1,1.027574E-4,4.4380847E-1,5.036874E-1,5.036874E-1,-4.805393E-2,2.2174777E-1,-4.0664025E-2,1.2074955E-2,1.9958211E-1,-5.7760313E-2,6.7118376E-1,6.4043105E-1,-5.3540707E-2,-7.7415504E-3,1.446791E-1,2.5857775E-3,6.001061E-1,6.7290366E-2,5.9626937E-2,1.0555674E-3,6.477322E-2,4.3568503E-2,4.658569E-2,1.0567314E-2,7.042074E-2,4.4388857E-2],"split_indices":[20,14,3,3,3,0,20,0,0,19,0,10,6,0,0,12,0,9,0,15,14,0,0,0,0,0,0],"split_type":[0,0,0,0,0,0,0,0,0,0,0,0,0,0,0,0,0,0,0,0,0,0,0,0,0,0,0],"sum_hessian":[1.539851E2,4.466502E1,1.0932008E2,1.7735577E1,2.6929445E1,9.860541E0,9.945954E1,7.452321E0,1.0283256E1,1.523212E1,1.1697326E1,3.8006798E1,6.1452744E1,7.731244E0,7.5008755E0,3.0108171E1,7.8986254E0,2.1233974E1,4.021877E1,1.4890087E1,1.5218084E1,1.3918903E1,7.3150706E0,7.688941E0,7.2011466E0,7.4477506E0,7.7703342E0],"tree_param":{"num_deleted":"0","num_feature":"27","num_nodes":"27","size_leaf_vector":"0"}},{"base_weights":[5.1976955E-1,-7.813297E-1,1.0286533E0,-2.73256E-3,-9.2384356E-1,-5.709231E-2,1.2582705E0,-2.3871103E-2,-1.0482373E0,8.67156E-1,1.4794463E0,-1.2857813E0,-2.8896494E-2,1.1032252E0,9.265091E-4,1.319486E0,7.383081E-2,-4.6016514E-2,-7.9571255E-2,7.005054E-2,8.0445486E-1,1.5058584E0,4.5337547E-2,1.2119914E-2,5.7896644E-2,7.463126E-2,6.7678005E-2],"categories":[],"categories_nodes":[],"categories_segments":[],"categories_sizes":[],"default_left":[0,0,0,0,0,0,0,0,0,0,0,0,0,0,0,0,0,0,0,0,0,0,0,0,0,0,0],"id":13,"left_children":[1,3,5,-1,7,-1,9,-1,11,13,15,17,-1,19,-1,21,-1,-1,-1,-1,23,25,-1,-1,-1,-1,-1],"loss_changes":[1.1002326E2,4.8089447E0,6.1269943E1,0E0,2.0351143E0,0E0,9.365601E0,0E0,3.1305656E0,7.8236732E0,8.631592E-1,2.412754E0,0E0,3.425686E0,0E0,1.536583E0,0E0,0E0,0E0,0E0,3.897725E0,8.0265045E-2,0E0,0E0,0E0,0E0,0E0],"parents":[2147483647,0,0,1,1,2,2,4,4,6,6,8,8,9,9,10,10,11,11,13,13,15,15,20,20,21,21],"right_children":[2,4,6,-1,8,-1,10,-1,12,14,16,18,-1,20,-1,22,-1,-1,-1,-1,24,26,-1,-1,-1,-1,-1],"split_conditions":[5.076179E-1,3.1855747E-2,1E0,-2.73256E-3,7.753146E-5,-5.709231E-2,5.911618E-1,-2.3871103E-2,2.0661678E-2,5.6240404E-1,6.4043105E-1,4.2779934E-1,-2.8896494E-2,2.4951182E-1,9.265091E-4,6.812928E-2,7.383081E-2,-4.6016514E-2,-7.9571255E-2,7.005054E-2,3.535651E-2,6.0817677E-1,4.5337547E-2,1.2119914E-2,5.7896644E-2,7.463126E-2,6.7678005E-2],"split_indices":[6,12,1,0,14,0,6,0,25,17,6,6,0,7,0,24,0,0,0,0,25,6,0,0,0,0,0],"split_type":[0,0,0,0,0,0,0,0,0,0,0,0,0,0,0,0,0,0,0,0,0,0,0,0,0,0,0],"sum_hessian":[1.6611803E2,4.669786E1,1.1942017E2,7.6974754E0,3.9000385E1,1.1129373E1,1.082908E2,8.930349E0,3.0070036E1,3.913787E1,6.915293E1,1.9487764E1,1.0582271E1,3.0600586E1,8.537285E0,2.2743626E1,4.64093E1,1.0833667E1,8.6540985E0,1.355896E1,1.7041626E1,1.500565E1,7.737976E0,7.3707204E0,9.670906E0,7.9036584E0,7.101991E0],"tree_param":{"num_deleted":"0","num_feature":"27","num_nodes":"27","size_leaf_vector":"0"}},{"base_weights":[4.3354538E-1,-4.4055393E-1,8.977507E-1,-5.3754218E-2,-3.2186604E-1,-4.9684603E-2,1.1174761E0,1.0417376E-2,-4.4148618E-1,1.4049722E-2,1.1900148E0,-4.6718493E-2,-2.1045731E-1,2.9857384E-2,1.2556533E0,-4.6892023E-1,1.3223831E-2,1.1027396E0,1.353359E0,-4.3689506E-3,-4.5137994E-2,1.296643E0,4.162451E-2,5.923607E-2,6.5114275E-2,5.0967515E-2,7.135497E-2],"categories":[],"categories_nodes":[],"categories_segments":[],"categories_sizes":[],"default_left":[0,0,0,0,0,0,0,0,0,0,0,0,0,0,0,0,0,0,0,0,0,0,0,0,0,0,0],"id":14,"left_children":[1,3,5,-1,7,-1,9,-1,11,-1,13,-1,15,-1,17,19,-1,21,23,-1,-1,25,-1,-1,-1,-1,-1],"loss_changes":[6.0152046E1,4.2366257E0,4.1416046E1,0E0,2.8550215E0,0E0,5.1708603E0,0E0,4.5256624E0,0E0,2.93145E0,0E0,3.2119002E0,0E0,1.0675659E0,3.0152142E0,0E0,1.2157784E0,9.0774536E-2,0E0,0E0,6.909466E-1,0E0,0E0,0E0,0E0,0E0],"parents":[2147483647,0,0,1,1,2,2,4,4,6,6,8,8,10,10,12,12,14,14,15,15,17,17,18,18,21,21],"right_children":[2,4,6,-1,8,-1,10,-1,12,-1,14,-1,16,-1,18,20,-1,22,24,-1,-1,26,-1,-1,-1,-1,-1],"split_conditions":[2.8993448E-2,1.7759487E-1,1E0,-5.3754218E-2,3.855142E-2,-4.9684603E-2,4.9375158E-2,1.0417376E-2,7.7376276E-2,1.4049722E-2,1.3433768E-1,-4.6718493E-2,5.7646066E-1,2.9857384E-2,6.091935E-1,2.028388E-1,1.3223831E-2,2.8072876E-1,7.903596E-2,-4.3689506E-3,-4.5137994E-2,5E-1,4.162451E-2,5.923607E-2,6.5114275E-2,5.0967515E-2,7.135497E-2],"split_indices":[25,17,1,0,13,0,18,0,11,0,19,0,10,0,6,12,0,19,18,0,0,5,0,0,0,0,0],"split_type":[0,0,0,0,0,0,0,0,0,0,0,0,0,0,0,0,0,0,0,0,0,0,0,0,0,0,0],"sum_hessian":[1.4817537E2,5.1386925E1,9.6788445E1,7.494322E0,4.3892605E1,9.814373E0,8.6974075E1,7.921302E0,3.5971302E1,7.0739784E0,7.990009E1,1.0705162E1,2.526614E1,8.400798E0,7.14993E1,1.6551125E1,8.715016E0,2.7924084E1,4.357521E1,9.315521E0,7.235603E0,1.4956721E1,1.2967363E1,7.2412724E0,3.633394E1,7.286212E0,7.670509E0],"tree_param":{"num_deleted":"0","num_feature":"27","num_nodes":"27","size_leaf_vector":"0"}},{"base_weights":[4.6729633E-1,-5.6834626E-1,9.1317564E-1,-6.774433E-3,-7.474209E-1,-4.901332E-2,1.116223E0,-9.8646647E-1,-1.3437515E-2,6.889996E-1,1.3654791E0,-3.6684826E-2,-6.179632E-2,-1.3267804E-3,8.65246E-1,1.2302872E0,6.800048E-2,2.2400314E-2,1.0831684E0,4.653702E-2,6.5372154E-2,6.4066686E-2,3.358002E-2],"categories":[],"categories_nodes":[],"categories_segments":[],"categories_sizes":[],"default_left":[0,0,0,0,0,0,0,0,0,0,0,0,0,0,0,0,0,0,0,0,0,0,0],"id":15,"left_children":[1,3,5,-1,7,-1,9,11,-1,13,15,-1,-1,-1,17,19,-1,-1,21,-1,-1,-1,-1],"loss_changes":[7.1005646E1,3.520461E0,4.251574E1,0E0,3.6047268E0,0E0,1.0360428E1,1.4475288E0,0E0,4.5487976E0,5.730362E-1,0E0,0E0,0E0,2.463173E0,7.695999E-1,0E0,0E0,1.8602657E0,0E0,0E0,0E0,0E0],"parents":[2147483647,0,0,1,1,2,2,4,4,6,6,7,7,9,9,10,10,14,14,15,15,18,18],"right_children":[2,4,6,-1,8,-1,10,12,-1,14,16,-1,-1,-1,18,20,-1,-1,22,-1,-1,-1,-1],"split_conditions":[3.2213163E-2,1.2340493E-1,4.4380847E-1,-6.774433E-3,2.1126527E-2,-4.901332E-2,2.2174777E-1,1.2658745E-1,-1.3437515E-2,4.9842235E-2,6.4043105E-1,-3.6684826E-2,-6.179632E-2,-1.3267804E-3,2.2617519E-1,2.68069E-4,6.800048E-2,2.2400314E-2,2.630457E-1,4.653702E-2,6.5372154E-2,6.4066686E-2,3.358002E-2],"split_indices":[21,19,3,0,25,0,20,8,0,18,6,0,0,0,8,14,0,0,8,0,0,0,0],"split_type":[0,0,0,0,0,0,0,0,0,0,0,0,0,0,0,0,0,0,0,0,0,0,0],"sum_hessian":[1.5370401E2,4.6250416E1,1.0745359E2,1.37215E1,3.252891E1,1.0141111E1,9.731248E1,2.1449938E1,1.1078976E1,3.5874207E1,6.1438274E1,1.2867493E1,8.582445E0,7.0645022E0,2.8809704E1,2.0840027E1,4.0598248E1,1.0302493E1,1.850721E1,7.8371944E0,1.3002832E1,1.0764208E1,7.7430034E0],"tree_param":{"num_deleted":"0","num_feature":"27","num_nodes":"23","size_leaf_vector":"0"}},{"base_weights":[4.239826E-1,-5.461914E-1,8.673133E-1,4.4321283E-3,-6.6328883E-1,-4.7239263E-2,1.0674064E0,-1.0116862E0,-4.0287447E-1,1.0149586E-2,1.1426135E0,-5.621915E-2,-3.7543785E-2,5.3957454E-3,-6.852944E-1,3.1330444E-2,1.2086968E0,-5.1083244E-2,-1.4630489E-2,8.8531065E-1,1.286381E0,5.4354947E-2,2.9544417E-2,5.176503E-2,1.3134338E0,5.6160677E-2,6.3786134E-2],"categories":[],"categories_nodes":[],"categories_segments":[],"categories_sizes":[],"default_left":[0,0,0,0,0,0,0,0,0,0,0,0,0,0,0,0,0,0,0,0,0,0,0,0,0,0,0],"id":16,"left_children":[1,3,5,-1,7,-1,9,11,13,-1,15,-1,-1,-1,17,-1,19,-1,-1,21,23,-1,-1,-1,25,-1,-1],"loss_changes":[6.2748558E1,3.4375916E0,3.7361862E1,0E0,3.5093822E0,0E0,5.7915115E0,6.3201714E-1,3.249072E0,0E0,2.6386566E0,0E0,0E0,0E0,2.118978E0,0E0,1.8313293E0,0E0,0E0,9.707928E-1,3.0726624E-1,0E0,0E0,0E0,2.1272278E-1,0E0,0E0],"parents":[2147483647,0,0,1,1,2,2,4,4,6,6,7,7,8,8,10,10,14,14,16,16,19,19,20,20,24,24],"right_children":[2,4,6,-1,8,-1,10,12,14,-1,16,-1,-1,-1,18,-1,20,-1,-1,22,24,-1,-1,-1,26,-1,-1],"split_conditions":[5.119299E-1,2.4992224E-2,1E0,4.4321283E-3,1.0785197E-1,-4.7239263E-2,1.690675E-1,7.5855374E-2,5.3676292E-2,1.0149586E-2,2.2617519E-1,-5.621915E-2,-3.7543785E-2,5.3957454E-3,1.05124846E-1,3.1330444E-2,2.54314E-1,-5.1083244E-2,-1.4630489E-2,1.1828489E-1,5.8984753E-2,5.4354947E-2,2.9544417E-2,5.176503E-2,4.7330764E-1,5.6160677E-2,6.3786134E-2],"split_indices":[6,13,1,0,12,0,7,12,18,0,8,0,0,0,11,0,16,0,0,11,11,0,0,0,3,0,0],"split_type":[0,0,0,0,0,0,0,0,0,0,0,0,0,0,0,0,0,0,0,0,0,0,0,0,0,0,0],"sum_hessian":[1.4582378E2,4.572728E1,1.0009649E2,7.0589037E0,3.8668377E1,9.697819E0,9.0398674E1,1.6519669E1,2.2148708E1,7.3356085E0,8.3063065E1,9.178108E0,7.3415613E0,7.8120456E0,1.4336663E1,1.0044109E1,7.301895E1,7.005457E0,7.3312063E0,1.4174196E1,5.8844757E1,7.0720253E0,7.1021714E0,7.2471848E0,5.1597572E1,1.0414252E1,4.118332E1],"tree_param":{"num_deleted":"0","num_feature":"27","num_nodes":"27","size_leaf_vector":"0"}},{"base_weights":[5.101595E-1,-7.8143126E-1,1.0225372E0,-3.6890066E-1,-1.0473306E0,-5.5963073E-2,1.251808E0,2.6218465E-3,-4.2877775E-2,-1.2335426E0,-2.8850943E-2,8.9760005E-1,1.462021E0,-4.2153273E-2,-7.446954E-2,1.0951952E0,4.380617E-3,1.3331077E0,7.2383955E-2,7.439178E-2,9.069729E-1,1.4783247E0,4.8640363E-2,3.2056883E-2,5.8288857E-2,7.325578E-2,6.627001E-2],"categories":[],"categories_nodes":[],"categories_segments":[],"categories_sizes":[],"default_left":[0,0,0,0,0,0,0,0,0,0,0,0,0,0,0,0,0,0,0,0,0,0,0,0,0,0,0],"id":17,"left_children":[1,3,5,7,9,-1,11,-1,-1,13,-1,15,17,-1,-1,19,-1,21,-1,-1,23,25,-1,-1,-1,-1,-1],"loss_changes":[1.0848741E2,5.103153E0,5.930661E1,4.1742997E0,2.307024E0,0E0,7.9121246E0,0E0,0E0,2.3043137E0,0E0,6.2939014E0,5.58136E-1,0E0,0E0,2.8410225E0,0E0,9.9741364E-1,0E0,0E0,1.6967258E0,8.167648E-2,0E0,0E0,0E0,0E0,0E0],"parents":[2147483647,0,0,1,1,2,2,3,3,4,4,6,6,9,9,11,11,12,12,15,15,17,17,20,20,21,21],"right_children":[2,4,6,8,10,-1,12,-1,-1,14,-1,16,18,-1,-1,20,-1,22,-1,-1,24,26,-1,-1,-1,-1,-1],"split_conditions":[5.06568E-1,1.027574E-4,1E0,4.045502E-1,1.5569845E-1,-5.5963073E-2,5.911618E-1,2.6218465E-3,-4.2877775E-2,3.866407E-1,-2.8850943E-2,5.678083E-1,6.4043105E-1,-4.2153273E-2,-7.446954E-2,4.7330764E-1,4.380617E-3,6.001061E-1,7.2383955E-2,7.439178E-2,6.283886E-1,3.0060467E-1,4.8640363E-2,3.2056883E-2,5.8288857E-2,7.325578E-2,6.627001E-2],"split_indices":[6,14,1,17,8,0,6,0,0,9,0,17,6,0,0,3,0,9,0,0,10,8,0,0,0,0,0],"split_type":[0,0,0,0,0,0,0,0,0,0,0,0,0,0,0,0,0,0,0,0,0,0,0,0,0,0,0],"sum_hessian":[1.6387904E2,4.653936E1,1.1733968E2,1.8258652E1,2.8280706E1,1.105484E1,1.0628484E2,1.0176427E1,8.082224E0,1.9833395E1,8.447312E0,3.9606747E1,6.667809E1,9.836668E0,9.996727E0,3.1789942E1,7.8168035E0,2.2420393E1,4.42577E1,9.013986E0,2.2775955E1,1.5192698E1,7.2276955E0,1.3304255E1,9.471701E0,8.189686E0,7.0030127E0],"tree_param":{"num_deleted":"0","num_feature":"27","num_nodes":"27","size_leaf_vector":"0"}},{"base_weights":[4.6932766E-1,-7.478379E-1,9.5839435E-1,-1.3295315E-4,-8.8892365E-1,-5.359236E-2,1.1830951E0,-7.1267486E-1,-5.8383707E-2,8.400233E-1,1.3956611E0,-9.151482E-3,-1.0382717E0,1.049446E0,5.4013617E-3,1.2293099E0,7.011836E-2,-7.008057E-2,-2.5771761E-2,2.66403E-2,1.2253096E0,4.2013403E-2,6.76549E-2,7.2338365E-2,1.0819893E0,3.9043374E-2,6.214075E-2],"categories":[],"categories_nodes":[],"categories_segments":[],"categories_sizes":[],"default_left":[0,0,0,0,0,0,0,0,0,0,0,0,0,0,0,0,0,0,0,0,0,0,0,0,0,0,0],"id":18,"left_children":[1,3,5,-1,7,-1,9,11,-1,13,15,-1,17,19,-1,21,-1,-1,-1,-1,23,-1,-1,-1,25,-1,-1],"loss_changes":[9.361166E1,4.7281E0,5.2677414E1,0E0,2.289589E0,0E0,7.383011E0,4.232377E0,0E0,5.887556E0,8.680725E-1,0E0,3.3462029E0,2.5738678E0,0E0,1.4208374E0,0E0,0E0,0E0,0E0,9.5373917E-1,0E0,0E0,0E0,8.857136E-1,0E0,0E0],"parents":[2147483647,0,0,1,1,2,2,4,4,6,6,7,7,9,9,10,10,12,12,13,13,15,15,20,20,24,24],"right_children":[2,4,6,-1,8,-1,10,12,-1,14,16,-1,18,20,-1,22,-1,-1,-1,-1,24,-1,-1,-1,26,-1,-1],"split_conditions":[5.06568E-1,2.0754596E-2,1E0,-1.3295315E-4,8.289625E-2,-5.359236E-2,5.911618E-1,3.8292113E-1,-5.8383707E-2,5.6240404E-1,6.4043105E-1,-9.151482E-3,5.7646066E-1,5.7646066E-1,5.4013617E-3,2.68069E-4,7.011836E-2,-7.008057E-2,-2.5771761E-2,2.66403E-2,2.1269755E-1,4.2013403E-2,6.76549E-2,7.2338365E-2,3.814312E-2,3.9043374E-2,6.214075E-2],"split_indices":[6,13,1,0,18,0,6,17,0,17,6,0,10,10,0,14,0,0,0,0,7,0,0,0,25,0,0],"split_type":[0,0,0,0,0,0,0,0,0,0,0,0,0,0,0,0,0,0,0,0,0,0,0,0,0,0,0],"sum_hessian":[1.5720175E2,4.5052315E1,1.1214944E2,7.187152E0,3.786516E1,1.088628E1,1.0126316E2,2.503075E1,1.2834412E1,3.876182E1,6.250134E1,9.657227E0,1.5373524E1,3.0071209E1,8.690613E0,2.095239E1,4.1548946E1,8.120787E0,7.2527375E0,7.9917316E0,2.2079477E1,7.69093E0,1.326146E1,7.0975976E0,1.4981879E1,7.065241E0,7.9166384E0],"tree_param":{"num_deleted":"0","num_feature":"27","num_nodes":"27","size_leaf_vector":"0"}},{"base_weights":[3.5573465E-1,-4.186985E-1,7.860809E-1,-4.4040833E-2,-2.9776257E-1,-4.7828086E-2,9.827615E-1,1.712383E-2,-5.006773E-1,6.365942E-1,1.1825159E0,6.5626315E-4,-6.54381E-1,8.346656E-1,4.281931E-3,9.931414E-1,6.09209E-2,-9.93837E-1,-7.2979177E-3,5.6474406E-2,2.8487287E-2,5.759649E-2,3.0824348E-2,-6.337388E-2,-3.045492E-2],"categories":[],"categories_nodes":[],"categories_segments":[],"categories_sizes":[],"default_left":[0,0,0,0,0,0,0,0,0,0,0,0,0,0,0,0,0,0,0,0,0,0,0,0,0],"id":19,"left_children":[1,3,5,-1,7,-1,9,-1,11,13,15,-1,17,19,-1,21,-1,23,-1,-1,-1,-1,-1,-1,-1],"loss_changes":[4.6751724E1,3.0954971E0,3.1851807E1,0E0,5.4313965E0,0E0,5.615715E0,0E0,2.4620628E0,3.2143955E0,1.0003433E0,0E0,4.0531282E0,1.8201828E0,0E0,1.3794346E0,0E0,1.7128468E0,0E0,0E0,0E0,0E0,0E0,0E0,0E0],"parents":[2147483647,0,0,1,1,2,2,4,4,6,6,8,8,9,9,10,10,12,12,13,13,15,15,17,17],"right_children":[2,4,6,-1,8,-1,10,-1,12,14,16,-1,18,20,-1,22,-1,24,-1,-1,-1,-1,-1,-1,-1],"split_conditions":[1.9851632E-1,4.0593065E-2,6.075949E-1,-4.4040833E-2,1.7785965E-1,-4.7828086E-2,2.2174777E-1,1.712383E-2,3.855142E-2,6.7118376E-1,6.4043105E-1,6.5626315E-4,1.4934774E-1,2.4951182E-1,4.281931E-3,6.649108E-2,6.09209E-2,4.4382235E-1,-7.2979177E-3,5.6474406E-2,2.8487287E-2,5.759649E-2,3.0824348E-2,-6.337388E-2,-3.045492E-2],"split_indices":[8,18,4,0,7,0,20,0,13,10,6,0,12,7,0,24,0,9,0,0,0,0,0,0,0],"split_type":[0,0,0,0,0,0,0,0,0,0,0,0,0,0,0,0,0,0,0,0,0,0,0,0,0],"sum_hessian":[1.4020294E2,5.007006E1,9.013288E1,9.571392E0,4.049867E1,8.894099E0,8.123878E1,9.519737E0,3.097893E1,2.9748283E1,5.1490494E1,7.1070952E0,2.3871836E1,2.1815376E1,7.9329076E0,1.8147799E1,3.3342697E1,1.4208667E1,9.663169E0,8.613192E0,1.3202185E1,1.0994483E1,7.1533155E0,7.1704974E0,7.038169E0],"tree_param":{"num_deleted":"0","num_feature":"27","num_nodes":"25","size_leaf_vector":"0"}},{"base_weights":[3.8337186E-1,-1.9291295E-1,8.983689E-1,-4.190914E-2,-5.1487308E-2,3.1602326E-1,1.0472442E0,-3.3470333E-1,4.1525564E-1,-1.0899886E-3,3.0775554E-2,2.5098247E-2,1.1972063E0,-9.082464E-2,-4.1171845E-2,4.1989356E-2,2.2048727E-3,4.2198036E-2,1.2553562E0,1.9590607E-2,-2.7565971E-2,5.4367207E-2,6.070921E-2],"categories":[],"categories_nodes":[],"categories_segments":[],"categories_sizes":[],"default_left":[0,0,0,0,0,0,0,0,0,0,0,0,0,0,0,0,0,0,0,0,0,0,0],"id":20,"left_children":[1,3,5,-1,7,9,11,13,15,-1,-1,-1,17,19,-1,-1,-1,-1,21,-1,-1,-1,-1],"loss_changes":[4.0129154E1,6.2394257E0,6.1819763E0,0E0,7.0147386E0,1.6600825E0,4.4072037E0,4.295762E0,3.4675844E0,0E0,0E0,0E0,7.830658E-1,5.626404E0,0E0,0E0,0E0,0E0,1.0079956E-1,0E0,0E0,0E0,0E0],"parents":[2147483647,0,0,1,1,2,2,4,4,5,5,6,6,7,7,8,8,12,12,13,13,18,18],"right_children":[2,4,6,-1,8,10,12,14,16,-1,-1,-1,18,20,-1,-1,-1,-1,22,-1,-1,-1,-1],"split_conditions":[2.3429477E-1,4.0593065E-2,4.58448E-1,-4.190914E-2,1.5668187E-1,2.0435153E-1,2.1969125E-1,3.8292113E-1,2.3056856E-1,-1.0899886E-3,3.0775554E-2,2.5098247E-2,6.8012215E-2,6.201021E-2,-4.1171845E-2,4.1989356E-2,2.2048727E-3,4.2198036E-2,4.8838747E-1,1.9590607E-2,-2.7565971E-2,5.4367207E-2,6.070921E-2],"split_indices":[8,18,3,0,20,13,7,17,7,0,0,0,13,15,0,0,0,0,3,0,0,0,0],"split_type":[0,0,0,0,0,0,0,0,0,0,0,0,0,0,0,0,0,0,0,0,0,0,0],"sum_hessian":[1.3512404E2,6.375626E1,7.1367775E1,1.0814104E1,5.2942154E1,1.454735E1,5.6820427E1,3.296555E1,1.9976606E1,7.1925817E0,7.3547688E0,1.2779788E1,4.4040638E1,2.264462E1,1.0320929E1,8.761643E0,1.1214962E1,7.047939E0,3.69927E1,1.1157339E1,1.1487281E1,7.114071E0,2.9878628E1],"tree_param":{"num_deleted":"0","num_feature":"27","num_nodes":"23","size_leaf_vector":"0"}},{"base_weights":[4.1159326E-1,-4.072332E-1,8.7549794E-1,-5.3266263E-1,1.2950141E-2,-4.322184E-2,1.0610845E0,7.867676E-3,-6.6781133E-1,7.4681437E-1,1.2622193E0,-1.3357898E-2,-9.001584E-1,9.540932E-1,1.1763755E-2,1.1489044E0,6.203901E-2,-6.8280125E-1,-5.9868407E-2,2.6971435E-2,1.1496484E0,6.4015105E-2,4.449575E-2,-1.16139855E-2,-5.3347114E-2,4.287377E-2,6.7270204E-2],"categories":[],"categories_nodes":[],"categories_segments":[],"categories_sizes":[],"default_left":[0,0,0,0,0,0,0,0,0,0,0,0,0,0,0,0,0,0,0,0,0,0,0,0,0,0,0],"id":21,"left_children":[1,3,5,7,-1,-1,9,-1,11,13,15,-1,17,19,-1,21,-1,23,-1,-1,25,-1,-1,-1,-1,-1,-1],"loss_changes":[5.4525414E1,4.440631E0,3.0410843E1,4.1510153E0,0E0,0E0,5.244011E0,0E0,3.2923317E0,3.345995E0,2.6615143E-1,0E0,1.808588E0,1.7202435E0,0E0,6.2755203E-1,0E0,2.7804327E0,0E0,0E0,1.0012856E0,0E0,0E0,0E0,0E0,0E0,0E0],"parents":[2147483647,0,0,1,1,2,2,3,3,6,6,8,8,9,9,10,10,12,12,13,13,15,15,17,17,20,20],"right_children":[2,4,6,8,-1,-1,10,-1,12,14,16,-1,18,20,-1,22,-1,24,-1,-1,26,-1,-1,-1,-1,-1,-1],"split_conditions":[1.9851632E-1,5.033753E-1,4.4380847E-1,3.1855747E-2,1.2950141E-2,-4.322184E-2,5.9860855E-1,7.867676E-3,1.299129E-4,5.570661E-1,6.4043105E-1,-1.3357898E-2,5.036874E-1,8.713878E-2,1.1763755E-2,5.580484E-2,6.203901E-2,5.3045776E-2,-5.9868407E-2,2.6971435E-2,6.65974E-2,6.4015105E-2,4.449575E-2,-1.16139855E-2,-5.3347114E-2,4.287377E-2,6.7270204E-2],"split_indices":[8,6,3,12,0,0,6,0,14,17,6,0,3,13,0,25,0,15,0,0,15,0,0,0,0,0,0],"split_type":[0,0,0,0,0,0,0,0,0,0,0,0,0,0,0,0,0,0,0,0,0,0,0,0,0,0,0],"sum_hessian":[1.4346945E2,5.187659E1,9.159286E1,4.3817646E1,8.058943E0,8.6095915E0,8.298326E1,7.0874634E0,3.6730183E1,3.2408016E1,5.057525E1,1.38215065E1,2.2908676E1,2.2874454E1,9.533562E0,1.4812237E1,3.576301E1,1.4348108E1,8.560568E0,7.7252693E0,1.5149185E1,7.5308294E0,7.2814074E0,7.2276726E0,7.1204357E0,7.95714E0,7.1920457E0],"tree_param":{"num_deleted":"0","num_feature":"27","num_nodes":"27","size_leaf_vector":"0"}},{"base_weights":[3.5670784E-1,-3.1637877E-1,9.829525E-1,-6.215524E-1,1.3009138E-1,1.4249347E-2,1.1258726E0,-1.0584993E-3,-7.546778E-1,3.334158E-1,-2.220108E-2,2.1758499E-2,1.2133732E0,-1.0084852E0,-5.593034E-1,-5.69307E-3,2.8067615E-2,4.2262062E-2,1.3009504E0,-3.782548E-2,-5.7000373E-2,-1.2079255E-2,-4.569201E-2,5.7234783E-2,6.347511E-2],"categories":[],"categories_nodes":[],"categories_segments":[],"categories_sizes":[],"default_left":[0,0,0,0,0,0,0,0,0,0,0,0,0,0,0,0,0,0,0,0,0,0,0,0,0],"id":22,"left_children":[1,3,5,7,9,-1,11,-1,13,15,-1,-1,17,19,21,-1,-1,-1,23,-1,-1,-1,-1,-1,-1],"loss_changes":[6.0821968E1,9.486336E0,7.2798233E0,3.28868E0,3.4465313E0,0E0,3.5966415E0,0E0,1.6755219E0,2.4868531E0,0E0,0E0,1.5353012E0,5.98649E-1,2.3558412E0,0E0,0E0,0E0,1.522522E-1,0E0,0E0,0E0,0E0,0E0,0E0],"parents":[2147483647,0,0,1,1,2,2,3,3,4,4,6,6,8,8,9,9,12,12,13,13,14,14,18,18],"right_children":[2,4,6,8,10,-1,12,-1,14,16,-1,-1,18,20,22,-1,-1,-1,24,-1,-1,-1,-1,-1,-1],"split_conditions":[2.0158473E-1,1.5668187E-1,4.58448E-1,4.3898884E-2,5.278877E-1,1.4249347E-2,4.7112364E-2,-1.0584993E-3,1.0785197E-1,4.58448E-1,-2.220108E-2,2.1758499E-2,2.1969125E-1,3.923685E-1,1.2608667E-1,-5.69307E-3,2.8067615E-2,4.2262062E-2,4.6719173E-1,-3.782548E-2,-5.7000373E-2,-1.2079255E-2,-4.569201E-2,5.7234783E-2,6.347511E-2],"split_indices":[20,20,3,11,17,0,12,0,12,3,0,0,7,9,13,0,0,0,17,0,0,0,0,0,0],"split_type":[0,0,0,0,0,0,0,0,0,0,0,0,0,0,0,0,0,0,0,0,0,0,0,0,0],"sum_hessian":[1.4421782E2,6.9499756E1,7.471806E1,4.1298817E1,2.8200941E1,1.2954857E1,6.1763206E1,7.524233E0,3.3774582E1,2.1064936E1,7.1360064E0,7.1807213E0,5.4582485E1,1.4662787E1,1.9111795E1,7.634201E0,1.3430735E1,1.1707289E1,4.28752E1,7.063455E0,7.599332E0,1.0923214E1,8.188581E0,1.2519205E1,3.0355993E1],"tree_param":{"num_deleted":"0","num_feature":"27","num_nodes":"25","size_leaf_vector":"0"}},{"base_weights":[3.638948E-1,-5.0771815E-1,7.893151E-1,-3.082138E-1,-9.1845584E-1,3.4927765E-1,1.0968505E0,-4.979511E-1,4.886506E-3,-5.1126134E-2,-3.4660544E-2,-4.0056715E-3,5.521436E-1,2.7932782E-2,1.2099149E0,-6.329002E-3,-4.726536E-2,7.3332065E-1,3.10485E-3,4.3348268E-2,1.262581E0,1.388059E-2,6.456106E-2,5.2585687E-2,6.2232547E-2],"categories":[],"categories_nodes":[],"categories_segments":[],"categories_sizes":[],"default_left":[0,0,0,0,0,0,0,0,0,0,0,0,0,0,0,0,0,0,0,0,0,0,0,0,0],"id":23,"left_children":[1,3,5,7,9,11,13,15,-1,-1,-1,-1,17,-1,19,-1,-1,21,-1,-1,23,-1,-1,-1,-1],"loss_changes":[5.2911293E1,3.8351288E0,1.296978E1,2.4704175E0,4.574871E-1,3.484397E0,3.2320175E0,3.926834E0,0E0,0E0,0E0,0E0,2.367735E0,0E0,7.143631E-1,0E0,0E0,5.42517E0,0E0,0E0,3.0005646E-1,0E0,0E0,0E0,0E0],"parents":[2147483647,0,0,1,1,2,2,3,3,4,4,5,5,6,6,7,7,12,12,14,14,17,17,20,20],"right_children":[2,4,6,8,10,12,14,16,-1,-1,-1,-1,18,-1,20,-1,-1,22,-1,-1,24,-1,-1,-1,-1],"split_conditions":[5.124474E-1,8.216788E-2,5.911618E-1,1.0027698E-1,1.4041504E-1,4.58448E-1,4.7330764E-1,1.4607847E-1,4.886506E-3,-5.1126134E-2,-3.4660544E-2,-4.0056715E-3,1.922635E-1,2.7932782E-2,7.353128E-2,-6.329002E-3,-4.726536E-2,1.01549834E-1,3.10485E-3,4.3348268E-2,6.5822786E-1,1.388059E-2,6.456106E-2,5.2585687E-2,6.2232547E-2],"split_indices":[6,18,6,11,8,3,3,8,0,0,0,0,13,0,12,0,0,13,0,0,4,0,0,0,0],"split_type":[0,0,0,0,0,0,0,0,0,0,0,0,0,0,0,0,0,0,0,0,0,0,0,0,0],"sum_hessian":[1.4262225E2,4.676979E1,9.585246E1,3.1499874E1,1.5269916E1,3.944827E1,5.640419E1,2.157661E1,9.923264E0,8.195159E0,7.074756E0,1.2550523E1,2.6897749E1,1.0295536E1,4.6108654E1,1.2486001E1,9.090609E0,1.9581867E1,7.3158813E0,7.0120444E0,3.909661E1,1.1525995E1,8.055872E0,9.725246E0,2.9371363E1],"tree_param":{"num_deleted":"0","num_feature":"27","num_nodes":"25","size_leaf_vector":"0"}},{"base_weights":[4.1849905E-1,-3.9515856E-1,8.4346604E-1,-7.00541E-1,-1.4875045E-1,-4.6581104E-2,1.041817E0,-1.7660629E-2,-4.3941487E-2,3.2828864E-2,-4.438269E-1,8.833899E-3,1.1209161E0,-3.409736E-2,2.6586538E-3,2.5204888E-2,1.196445E0,1.0341357E0,1.3083897E0,1.1805123E0,3.6241427E-2,5.7712115E-2,6.292547E-2,6.9306195E-2,3.6981136E-2],"categories":[],"categories_nodes":[],"categories_segments":[],"categories_sizes":[],"default_left":[0,0,0,0,0,0,0,0,0,0,0,0,0,0,0,0,0,0,0,0,0,0,0,0,0],"id":24,"left_children":[1,3,5,7,9,-1,11,-1,-1,-1,13,-1,15,-1,-1,-1,17,19,21,23,-1,-1,-1,-1,-1],"loss_changes":[4.9188644E1,3.6707144E0,3.3864693E1,1.6147022E0,6.7279434E0,0E0,5.692093E0,0E0,0E0,0E0,2.7725906E0,0E0,3.4253616E0,0E0,0E0,0E0,1.2410355E0,1.1009064E0,6.926727E-2,2.0364723E0,0E0,0E0,0E0,0E0,0E0],"parents":[2147483647,0,0,1,1,2,2,3,3,4,4,6,6,10,10,12,12,16,16,17,17,18,18,19,19],"right_children":[2,4,6,8,10,-1,12,-1,-1,-1,14,-1,16,-1,-1,-1,18,20,22,24,-1,-1,-1,-1,-1],"split_conditions":[1.9851632E-1,3.2928056E-1,1E0,5.636937E-2,3.8486683E-1,-4.6581104E-2,4.8963137E-2,-1.7660629E-2,-4.3941487E-2,3.2828864E-2,5.0048745E-1,8.833899E-3,1.3433768E-1,-3.409736E-2,2.6586538E-3,2.5204888E-2,6.091935E-1,1.288257E-1,8.042963E-2,1.0068868E-1,3.6241427E-2,5.7712115E-2,6.292547E-2,6.9306195E-2,3.6981136E-2],"split_indices":[8,17,1,11,17,0,18,0,0,0,17,0,19,0,0,0,6,11,18,18,0,0,0,0,0],"split_type":[0,0,0,0,0,0,0,0,0,0,0,0,0,0,0,0,0,0,0,0,0,0,0,0,0],"sum_hessian":[1.4218005E2,4.8771355E1,9.34087E1,2.1756851E1,2.7014503E1,9.145537E0,8.426316E1,8.909436E0,1.2847414E1,7.0036182E0,2.0010885E1,7.1452236E0,7.7117935E1,1.2917061E1,7.093824E0,8.781352E0,6.8336586E1,2.7938877E1,4.039771E1,1.8076954E1,9.861923E0,7.1343317E0,3.326338E1,1.0593987E1,7.4829664E0],"tree_param":{"num_deleted":"0","num_feature":"27","num_nodes":"25","size_leaf_vector":"0"}},{"base_weights":[4.2176327E-1,-5.895552E-1,8.791205E-1,-2.984239E-1,-8.426646E-1,-4.8845936E-2,1.0881187E0,7.6420107E-3,-2.9937884E-2,-1.1147156E0,-2.0676946E-2,7.0882267E-1,1.310837E0,-3.60095E-2,-6.844913E-2,3.2284784E-1,9.636477E-1,1.1420597E0,6.6166215E-2,3.228355E-2,-1.4544196E-3,2.8734585E-2,6.0656257E-2,6.3206956E-2,3.9455947E-2],"categories":[],"categories_nodes":[],"categories_segments":[],"categories_sizes":[],"default_left":[0,0,0,0,0,0,0,0,0,0,0,0,0,0,0,0,0,0,0,0,0,0,0,0,0],"id":25,"left_children":[1,3,5,7,9,-1,11,-1,-1,13,-1,15,17,-1,-1,19,21,23,-1,-1,-1,-1,-1,-1,-1],"loss_changes":[7.142539E1,3.5409622E0,4.2455338E1,3.444368E0,2.8385735E0,0E0,8.092377E0,0E0,0E0,1.7966137E0,0E0,3.4869518E0,8.650894E-1,0E0,0E0,1.8064767E0,2.4103374E0,1.1997566E0,0E0,0E0,0E0,0E0,0E0,0E0,0E0],"parents":[2147483647,0,0,1,1,2,2,3,3,4,4,6,6,9,9,11,11,12,12,15,15,16,16,17,17],"right_children":[2,4,6,8,10,-1,12,-1,-1,14,-1,16,18,-1,-1,20,22,24,-1,-1,-1,-1,-1,-1,-1],"split_conditions":[5.119299E-1,1.299129E-4,1E0,1.1105803E-1,1.5448906E-1,-4.8845936E-2,5.911618E-1,7.6420107E-3,-2.9937884E-2,1.5428301E-2,-2.0676946E-2,2.072392E-4,6.4043105E-1,-3.60095E-2,-6.844913E-2,5.590499E-1,2.3809712E-1,6.001061E-1,6.6166215E-2,3.228355E-2,-1.4544196E-3,2.8734585E-2,6.0656257E-2,6.3206956E-2,3.9455947E-2],"split_indices":[6,14,1,8,8,0,6,0,0,24,0,14,6,0,0,6,8,9,0,0,0,0,0,0,0],"split_type":[0,0,0,0,0,0,0,0,0,0,0,0,0,0,0,0,0,0,0,0,0,0,0,0,0],"sum_hessian":[1.5435791E2,4.8059814E1,1.0629809E2,2.2373962E1,2.568585E1,1.0480374E1,9.581772E1,9.386535E0,1.2987428E1,1.5368621E1,1.031723E1,3.5468906E1,6.0348812E1,7.41365E0,7.9549704E0,1.4124218E1,2.1344688E1,2.026794E1,4.008087E1,7.033038E0,7.09118E0,1.0033693E1,1.1310994E1,1.2501661E1,7.7662787E0],"tree_param":{"num_deleted":"0","num_feature":"27","num_nodes":"25","size_leaf_vector":"0"}},{"base_weights":[3.9334702E-1,-6.059166E-1,8.5449916E-1,-7.463312E-1,-2.9408565E-1,-5.087386E-2,1.0509155E0,-5.8577443E-3,-9.2410403E-1,5.560243E-3,-3.2822702E-2,7.0096934E-1,1.2607528E0,-6.0022783E-2,-7.574466E-1,8.71677E-1,5.426404E-3,1.0923098E0,6.390571E-2,-1.9756738E-2,-5.3637385E-2,6.2332916E-1,6.0338303E-2,6.1433177E-2,3.4512762E-2,4.908875E-2,4.206297E-3],"categories":[],"categories_nodes":[],"categories_segments":[],"categories_sizes":[],"default_left":[0,0,0,0,0,0,0,0,0,0,0,0,0,0,0,0,0,0,0,0,0,0,0,0,0,0,0],"id":26,"left_children":[1,3,5,7,9,-1,11,-1,13,-1,-1,15,17,-1,19,21,-1,23,-1,-1,-1,25,-1,-1,-1,-1,-1],"loss_changes":[6.857843E1,2.0542088E0,3.8574295E1,3.5764465E0,2.4140806E0,0E0,6.7823334E0,0E0,1.4365921E0,0E0,0E0,3.464283E0,8.4923553E-1,0E0,2.1592493E0,2.674942E0,0E0,1.4652538E0,0E0,0E0,0E0,3.654488E0,0E0,0E0,0E0,0E0,0E0],"parents":[2147483647,0,0,1,1,2,2,3,3,4,4,6,6,8,8,11,11,12,12,14,14,15,15,17,17,21,21],"right_children":[2,4,6,8,10,-1,12,-1,14,-1,-1,16,18,-1,20,22,-1,24,-1,-1,-1,26,-1,-1,-1,-1,-1],"split_conditions":[3.2093506E-2,1.4934774E-1,4.4380847E-1,3.8660087E-2,2.4106534E-1,-5.087386E-2,2.2174777E-1,-5.8577443E-3,1E0,5.560243E-3,-3.2822702E-2,6.717059E-1,6.4043105E-1,-6.0022783E-2,1.6044793E-1,2.3809712E-1,5.426404E-3,6.001061E-1,6.390571E-2,-1.9756738E-2,-5.3637385E-2,5.192075E-1,6.0338303E-2,6.1433177E-2,3.4512762E-2,4.908875E-2,4.206297E-3],"split_indices":[21,12,3,11,12,0,20,0,2,0,0,10,6,0,19,8,0,9,0,0,0,3,0,0,0,0,0],"split_type":[0,0,0,0,0,0,0,0,0,0,0,0,0,0,0,0,0,0,0,0,0,0,0,0,0,0,0],"sum_hessian":[1.487564E2,4.696395E1,1.0179244E2,3.2354954E1,1.4608999E1,9.406605E0,9.238584E1,7.20059E0,2.5154362E1,7.1716104E0,7.437389E0,3.4653446E1,5.773239E1,8.21452E0,1.693984E1,2.6824541E1,7.828905E0,1.977566E1,3.7956734E1,8.883858E0,8.055984E0,1.6588358E1,1.0236183E1,1.2660296E1,7.115363E0,9.352539E0,7.2358184E0],"tree_param":{"num_deleted":"0","num_feature":"27","num_nodes":"27","size_leaf_vector":"0"}},{"base_weights":[4.6661514E-1,-6.208659E-1,8.9074445E-1,-1.8932171E-1,-8.401452E-1,-4.955137E-2,1.0938345E0,-2.8313646E-2,1.09453825E-2,-1.0069805E0,-2.0791601E-2,7.359305E-1,1.3191135E0,-3.0400021E-2,-6.502384E-2,9.466448E-1,1.9071685E-3,1.1651063E0,6.6431396E-2,3.2474194E-2,1.1836536E0,4.747607E-2,6.80936E-2,6.564547E-2,4.605956E-2],"categories":[],"categories_nodes":[],"categories_segments":[],"categories_sizes":[],"default_left":[0,0,0,0,0,0,0,0,0,0,0,0,0,0,0,0,0,0,0,0,0,0,0,0,0],"id":27,"left_children":[1,3,5,7,9,-1,11,-1,-1,13,-1,15,17,-1,-1,19,-1,21,-1,-1,23,-1,-1,-1,-1],"loss_changes":[7.0048676E1,4.0272713E0,4.2978355E1,2.483804E0,1.8873844E0,0E0,7.9691772E0,0E0,0E0,2.6561813E0,0E0,5.5952625E0,7.6833344E-1,0E0,0E0,1.8168526E0,0E0,9.4164085E-1,0E0,0E0,6.547375E-1,0E0,0E0,0E0,0E0],"parents":[2147483647,0,0,1,1,2,2,3,3,4,4,6,6,9,9,11,11,12,12,15,15,17,17,20,20],"right_children":[2,4,6,8,10,-1,12,-1,-1,14,-1,16,18,-1,-1,20,-1,22,-1,-1,24,-1,-1,-1,-1],"split_conditions":[5.06568E-1,7.753146E-5,1E0,1.5831472E-5,1.5569845E-1,-4.955137E-2,2.2174777E-1,-2.8313646E-2,1.09453825E-2,1.5428301E-2,-2.0791601E-2,5.6240404E-1,6.4043105E-1,-3.0400021E-2,-6.502384E-2,3.4948397E-2,1.9071685E-3,3.0542812E-1,6.6431396E-2,3.2474194E-2,4.120919E-2,4.747607E-2,6.80936E-2,6.564547E-2,4.605956E-2],"split_indices":[6,14,1,14,8,0,20,0,0,24,0,17,6,0,0,25,0,19,0,0,25,0,0,0,0],"split_type":[0,0,0,0,0,0,0,0,0,0,0,0,0,0,0,0,0,0,0,0,0,0,0,0,0],"sum_hessian":[1.5180917E2,4.2586563E1,1.0922261E2,1.4367616E1,2.8218946E1,1.0363529E1,9.885908E1,7.304935E0,7.0626807E0,1.9913607E1,8.305339E0,3.82098E1,6.064928E1,9.962177E0,9.951429E0,2.9313406E1,8.896394E0,2.1184387E1,3.9464893E1,1.396006E1,1.5353346E1,1.3248369E1,7.936018E0,7.845852E0,7.507494E0],"tree_param":{"num_deleted":"0","num_feature":"27","num_nodes":"25","size_leaf_vector":"0"}},{"base_weights":[3.5292068E-1,-5.106695E-1,7.445523E-1,-1.0688433E-1,-7.7742517E-1,3.1810224E-1,1.0813912E0,-3.0701088E-2,1.3420482E-2,-5.2969474E-1,-5.4035723E-2,5.0374216E-1,-1.29536195E-2,2.6437502E-2,1.2038773E0,-8.529816E-3,-4.2381942E-2,-1.946841E-3,7.515026E-1,4.354264E-2,1.2585478E0,1.8651905E-2,9.156457E-1,6.0854256E-2,5.507801E-2,5.892545E-2,2.512283E-2],"categories":[],"categories_nodes":[],"categories_segments":[],"categories_sizes":[],"default_left":[0,0,0,0,0,0,0,0,0,0,0,0,0,0,0,0,0,0,0,0,0,0,0,0,0,0,0],"id":28,"left_children":[1,3,5,7,9,11,13,-1,-1,15,-1,17,-1,-1,19,-1,-1,-1,21,-1,23,-1,25,-1,-1,-1,-1],"loss_changes":[4.8013954E1,4.765643E0,1.4022953E1,3.7426772E0,2.3934689E0,4.7459803E0,3.4925613E0,0E0,0E0,2.0193644E0,0E0,4.446045E0,0E0,0E0,6.8608093E-1,0E0,0E0,0E0,1.3242493E0,0E0,8.949661E-2,0E0,1.9510431E0,0E0,0E0,0E0,0E0],"parents":[2147483647,0,0,1,1,2,2,3,3,4,4,5,5,6,6,9,9,11,11,14,14,18,18,20,20,22,22],"right_children":[2,4,6,8,10,12,14,-1,-1,16,-1,18,-1,-1,20,-1,-1,-1,22,-1,24,-1,26,-1,-1,-1,-1],"split_conditions":[5.06568E-1,1.027574E-4,5.911618E-1,5.036874E-1,5.036874E-1,5.6240404E-1,4.7330764E-1,-3.0701088E-2,1.3420482E-2,2.3865664E-1,-5.4035723E-2,4.58448E-1,-1.29536195E-2,2.6437502E-2,2.1969125E-1,-8.529816E-3,-4.2381942E-2,-1.946841E-3,7.6152176E-2,4.354264E-2,6.687947E-1,1.8651905E-2,1.6372281E-1,6.0854256E-2,5.507801E-2,5.892545E-2,2.512283E-2],"split_indices":[6,14,6,3,3,17,3,0,0,7,0,3,0,0,7,0,0,0,11,0,3,0,13,0,0,0,0],"split_type":[0,0,0,0,0,0,0,0,0,0,0,0,0,0,0,0,0,0,0,0,0,0,0,0,0,0,0],"sum_hessian":[1.4189027E2,4.4260136E1,9.7630135E1,1.7626177E1,2.663396E1,4.310039E1,5.4529743E1,7.398723E0,1.0227453E1,1.5842623E1,1.0791337E1,3.281913E1,1.0281261E1,1.0356232E1,4.417351E1,8.101422E0,7.7412004E0,1.0243648E1,2.2575483E1,7.1404815E0,3.703303E1,7.1205544E0,1.5454929E1,2.9253775E1,7.7792554E0,8.340367E0,7.114562E0],"tree_param":{"num_deleted":"0","num_feature":"27","num_nodes":"27","size_leaf_vector":"0"}},{"base_weights":[3.1542403E-1,-4.3689236E-2,9.4265103E-1,-3.6712542E-2,8.983188E-2,2.031293E-2,1.0643106E0,-2.6397264E-1,3.7964535E-1,4.03258E-2,5.6195598E-2,6.446379E-3,-5.7062274E-1,4.2512063E-2,2.3461446E-1,-3.5147104E-2,-1.5568499E-2,-9.979444E-3,3.853083E-1,4.260756E-3,4.2437106E-2],"categories":[],"categories_nodes":[],"categories_segments":[],"categories_sizes":[],"default_left":[0,0,0,0,0,0,0,0,0,0,0,0,0,0,0,0,0,0,0,0,0],"id":29,"left_children":[1,3,5,-1,7,-1,9,11,13,-1,-1,-1,15,-1,17,-1,-1,-1,19,-1,-1],"loss_changes":[2.782661E1,7.685857E0,2.8064232E0,0E0,6.8167915E0,0E0,9.393158E-1,3.6774654E0,2.7412806E0,0E0,0E0,0E0,6.989646E-1,0E0,1.9237684E0,0E0,0E0,0E0,3.2149231E0,0E0,0E0],"parents":[2147483647,0,0,1,1,2,2,4,4,6,6,7,7,8,8,12,12,14,14,18,18],"right_children":[2,4,6,-1,8,-1,10,12,14,-1,-1,-1,16,-1,18,-1,-1,-1,20,-1,-1],"split_conditions":[5.911618E-1,4.0593065E-2,4.7330764E-1,-3.6712542E-2,3.0177122E-2,2.031293E-2,8.014053E-2,1.299129E-4,5.856846E-2,4.03258E-2,5.6195598E-2,6.446379E-3,1.4835577E-1,4.2512063E-2,1.7676514E-4,-3.5147104E-2,-1.5568499E-2,-9.979444E-3,5.036874E-1,4.260756E-3,4.2437106E-2],"split_indices":[6,18,3,0,21,0,21,14,18,0,0,0,8,0,14,0,0,0,3,0,0],"split_type":[0,0,0,0,0,0,0,0,0,0,0,0,0,0,0,0,0,0,0,0,0],"sum_hessian":[1.2341535E2,7.846887E1,4.494648E1,1.2136103E1,6.633277E1,8.620284E0,3.6326195E1,2.9849537E1,3.648323E1,1.318958E1,2.3136616E1,1.2936163E1,1.6913374E1,7.971075E0,2.8512157E1,9.886924E0,7.0264506E0,7.190151E0,2.1322006E1,1.3516378E1,7.805628E0],"tree_param":{"num_deleted":"0","num_feature":"27","num_nodes":"21","size_leaf_vector":"0"}},{"base_weights":[3.1179634E-1,-3.8473696E-2,9.506999E-1,-3.6887337E-2,9.280006E-2,2.2361329E-2,1.0497166E0,-3.0652496E-1,4.3576315E-1,3.8194694E-2,5.594055E-2,6.8173907E-3,-6.381466E-1,4.7715116E-2,2.605578E-1,-4.3897826E-2,-9.951563E-3,2.5851338E-4,4.7192758E-1,3.739633E-2,7.3251375E-3],"categories":[],"categories_nodes":[],"categories_segments":[],"categories_sizes":[],"default_left":[0,0,0,0,0,0,0,0,0,0,0,0,0,0,0,0,0,0,0,0,0],"id":30,"left_children":[1,3,5,-1,7,-1,9,11,13,-1,-1,-1,15,-1,17,-1,-1,-1,19,-1,-1],"loss_changes":[2.6681856E1,7.4980946E0,1.9959717E0,0E0,8.961961E0,0E0,1.1102486E0,4.5219054E0,3.5205526E0,0E0,0E0,0E0,2.1417065E0,0E0,1.4506004E0,0E0,0E0,0E0,1.4781291E0,0E0,0E0],"parents":[2147483647,0,0,1,1,2,2,4,4,6,6,7,7,8,8,12,12,14,14,18,18],"right_children":[2,4,6,-1,8,-1,10,12,14,-1,-1,-1,16,-1,18,-1,-1,-1,20,-1,-1],"split_conditions":[5.911618E-1,4.0593065E-2,4.58448E-1,-3.6887337E-2,5.033753E-1,2.2361329E-2,2.68069E-4,1.299129E-4,5.856846E-2,3.8194694E-2,5.594055E-2,6.8173907E-3,1.0231609E-1,4.7715116E-2,1.5116037E-1,-4.3897826E-2,-9.951563E-3,2.5851338E-4,1.3174422E-1,3.739633E-2,7.3251375E-3],"split_indices":[6,18,3,0,6,0,14,14,18,0,0,0,11,0,12,0,0,0,11,0,0],"split_type":[0,0,0,0,0,0,0,0,0,0,0,0,0,0,0,0,0,0,0,0,0],"sum_hessian":[1.1910191E2,7.691492E1,4.2186993E1,1.1606689E1,6.530823E1,7.2488813E0,3.4938114E1,3.015794E1,3.5150288E1,1.2205578E1,2.2732534E1,1.2773636E1,1.7384304E1,8.23803E0,2.6912258E1,1.0377198E1,7.0071063E0,1.2221197E1,1.469106E1,7.3304515E0,7.360609E0],"tree_param":{"num_deleted":"0","num_feature":"27","num_nodes":"21","size_leaf_vector":"0"}},{"base_weights":[3.034599E-1,-5.307654E-1,7.249773E-1,-3.3848193E-1,-9.110051E-1,-4.1461833E-2,9.1085017E-1,-5.264167E-1,1.1105848E-2,-5.4477084E-2,-3.0750528E-2,-3.3372212E-3,1.0083964E0,-4.9202096E-2,-8.363451E-3,1.3370591E-2,1.0996677E0,2.6066316E-2,1.1802223E0,4.2453602E-2,1.2435124E0,5.326566E-2,6.0388528E-2],"categories":[],"categories_nodes":[],"categories_segments":[],"categories_sizes":[],"default_left":[0,0,0,0,0,0,0,0,0,0,0,0,0,0,0,0,0,0,0,0,0,0,0],"id":31,"left_children":[1,3,5,7,9,-1,11,13,-1,-1,-1,-1,15,-1,-1,-1,17,-1,19,-1,21,-1,-1],"loss_changes":[4.6864304E1,3.2706184E0,2.6340435E1,3.2122436E0,9.3655014E-1,0E0,7.6054993E0,4.0100546E0,0E0,0E0,0E0,0E0,4.7740784E0,0E0,0E0,0E0,2.8313751E0,0E0,1.0034103E0,0E0,1.6556549E-1,0E0,0E0],"parents":[2147483647,0,0,1,1,2,2,3,3,4,4,6,6,7,7,12,12,16,16,18,18,20,20],"right_children":[2,4,6,8,10,-1,12,14,-1,-1,-1,-1,16,-1,-1,-1,18,-1,20,-1,22,-1,-1],"split_conditions":[5.124474E-1,8.289625E-2,1E0,6.472259E-2,9.390235E-2,-4.1461833E-2,3.236333E-2,1E0,1.1105848E-2,-5.4477084E-2,-3.0750528E-2,-3.3372212E-3,1.3433768E-1,-4.9202096E-2,-8.363451E-3,1.3370591E-2,2.2617519E-1,2.6066316E-2,2.1969125E-1,4.2453602E-2,4.7330764E-1,5.326566E-2,6.0388528E-2],"split_indices":[6,18,1,18,15,0,15,2,0,0,0,0,19,0,0,0,8,0,7,0,3,0,0],"split_type":[0,0,0,0,0,0,0,0,0,0,0,0,0,0,0,0,0,0,0,0,0,0,0],"sum_hessian":[1.3319913E2,4.470129E1,8.849783E1,2.970995E1,1.4991342E1,9.205525E0,7.929231E1,2.2386402E1,7.3235464E0,7.83036E0,7.160981E0,7.158171E0,7.213414E1,9.079325E0,1.3307078E1,8.067811E0,6.406633E1,8.207439E0,5.585889E1,1.0197863E1,4.5661026E1,9.34221E0,3.6318817E1],"tree_param":{"num_deleted":"0","num_feature":"27","num_nodes":"23","size_leaf_vector":"0"}},{"base_weights":[3.5577932E-1,-1.9481742E-1,9.28544E-1,-4.8583037E-1,2.2957434E-1,1.30633935E-2,1.0734701E0,-3.02859E-1,-4.7790457E-2,2.5423134E-2,-6.8116136E-2,3.4104735E-2,1.1775535E0,-7.865187E-2,-3.5976693E-2,-9.812702E-3,3.3473964E-3,4.237301E-2,1.2367316E0,-2.7037602E-2,3.7885632E-2,6.0235117E-2,5.4789495E-2],"categories":[],"categories_nodes":[],"categories_segments":[],"categories_sizes":[],"default_left":[0,0,0,0,0,0,0,0,0,0,0,0,0,0,0,0,0,0,0,0,0,0,0],"id":32,"left_children":[1,3,5,7,9,-1,11,13,-1,-1,15,-1,17,19,-1,-1,-1,-1,21,-1,-1,-1,-1],"loss_changes":[4.240632E1,8.476656E0,6.227394E0,3.890089E0,2.558322E0,0E0,1.9825363E0,3.0838344E0,0E0,0E0,2.7885774E-1,0E0,6.958008E-1,8.756901E0,0E0,0E0,0E0,0E0,9.404373E-2,0E0,0E0,0E0,0E0],"parents":[2147483647,0,0,1,1,2,2,3,3,4,4,6,6,7,7,10,10,12,12,13,13,18,18],"right_children":[2,4,6,8,10,-1,12,14,-1,-1,16,-1,18,20,-1,-1,-1,-1,22,-1,-1,-1,-1],"split_conditions":[5.6669337E-1,3.0177122E-2,4.58448E-1,1.18832774E-1,3.221532E-2,1.30633935E-2,2.1969125E-1,3.8292113E-1,-4.7790457E-2,2.5423134E-2,2.567428E-1,3.4104735E-2,8.051339E-2,4.4459495E-1,-3.5976693E-2,-9.812702E-3,3.3473964E-3,4.237301E-2,1.589363E-1,-2.7037602E-2,3.7885632E-2,6.0235117E-2,5.4789495E-2],"split_indices":[6,21,3,13,25,0,7,17,0,0,7,0,12,10,0,0,0,0,11,0,0,0,0],"split_type":[0,0,0,0,0,0,0,0,0,0,0,0,0,0,0,0,0,0,0,0,0,0,0],"sum_hessian":[1.3437909E2,6.8504364E1,6.587472E1,4.065548E1,2.7848888E1,1.198102E1,5.3893696E1,3.0126879E1,1.0528599E1,1.3735989E1,1.4112901E1,1.2273113E1,4.1620583E1,2.0216635E1,9.910245E0,7.0970864E0,7.0158143E0,7.221062E0,3.439952E1,1.2967328E1,7.249306E0,2.4105682E1,1.0293839E1],"tree_param":{"num_deleted":"0","num_feature":"27","num_nodes":"23","size_leaf_vector":"0"}},{"base_weights":[3.1868252E-1,-4.209155E-1,7.519119E-1,-5.069324E-1,2.9334666E-3,-4.3409258E-2,9.6449304E-1,-1.9921929E-1,-7.900314E-1,6.7263407E-1,1.1475828E0,1.1924485E-2,-2.5513787E-2,-2.0425389E-2,-4.957086E-2,1.2283777E-2,8.3931035E-1,9.850941E-1,5.8780216E-2,2.1698698E-2,4.883187E-2,3.462282E-2,6.000553E-2],"categories":[],"categories_nodes":[],"categories_segments":[],"categories_sizes":[],"default_left":[0,0,0,0,0,0,0,0,0,0,0,0,0,0,0,0,0,0,0,0,0,0,0],"id":33,"left_children":[1,3,5,7,-1,-1,9,11,13,15,17,-1,-1,-1,-1,-1,19,21,-1,-1,-1,-1,-1],"loss_changes":[4.3692238E1,2.0993853E0,3.0500248E1,3.723031E0,0E0,0E0,4.0726776E0,3.1514714E0,2.0413008E0,2.0242825E0,7.026901E-1,0E0,0E0,0E0,0E0,0E0,1.5228806E0,1.2183418E0,0E0,0E0,0E0,0E0,0E0],"parents":[2147483647,0,0,1,1,2,2,3,3,6,6,7,7,8,8,9,9,10,10,16,16,17,17],"right_children":[2,4,6,8,-1,-1,10,12,14,16,18,-1,-1,-1,-1,-1,20,22,-1,-1,-1,-1,-1],"split_conditions":[2.8993448E-2,5.06568E-1,1E0,1.299129E-4,2.9334666E-3,-4.3409258E-2,5.911618E-1,1.1105803E-1,4.7330764E-1,1.9184642E-1,6.4043105E-1,1.1924485E-2,-2.5513787E-2,-2.0425389E-2,-4.957086E-2,1.2283777E-2,1.9312726E-1,2.8263873E-1,5.8780216E-2,2.1698698E-2,4.883187E-2,3.462282E-2,6.000553E-2],"split_indices":[25,6,1,14,0,0,6,8,3,7,6,0,0,0,0,0,19,19,0,0,0,0,0],"split_type":[0,0,0,0,0,0,0,0,0,0,0,0,0,0,0,0,0,0,0,0,0,0,0],"sum_hessian":[1.3628206E2,5.0330475E1,8.595159E1,4.2741337E1,7.5891385E0,9.710951E0,7.624064E1,2.0501373E1,2.2239964E1,2.9416458E1,4.682418E1,8.784561E0,1.1716812E1,9.2703905E0,1.2969572E1,8.472501E0,2.0943956E1,1.703151E1,2.9792673E1,7.005414E0,1.3938542E1,8.954607E0,8.076902E0],"tree_param":{"num_deleted":"0","num_feature":"27","num_nodes":"23","size_leaf_vector":"0"}},{"base_weights":[3.3149484E-1,-4.480581E-1,7.306194E-1,-4.410271E-2,-3.5438412E-1,-4.3381967E-2,9.322614E-1,1.9468822E-2,-5.486982E-1,2.410199E-3,1.0203288E0,-4.3935105E-2,-3.236167E-1,7.014111E-1,1.1441376E0,-3.538626E-2,1.1847967E-3,4.6675935E-2,1.6465846E-2,3.6323998E-2,1.2233688E0,6.486238E-2,1.1940546E0,5.054855E-2,5.918014E-2],"categories":[],"categories_nodes":[],"categories_segments":[],"categories_sizes":[],"default_left":[0,0,0,0,0,0,0,0,0,0,0,0,0,0,0,0,0,0,0,0,0,0,0,0,0],"id":34,"left_children":[1,3,5,-1,7,-1,9,-1,11,-1,13,-1,15,17,19,-1,-1,-1,-1,-1,21,-1,23,-1,-1],"loss_changes":[4.1280186E1,2.0330973E0,2.9134937E1,0E0,5.6083913E0,0E0,6.0557175E0,0E0,2.5560617E0,0E0,2.8021545E0,0E0,2.7964177E0,1.994134E0,1.527153E0,0E0,0E0,0E0,0E0,0E0,1.8099594E-1,0E0,2.4380112E-1,0E0,0E0],"parents":[2147483647,0,0,1,1,2,2,4,4,6,6,8,8,10,10,12,12,13,13,14,14,20,20,22,22],"right_children":[2,4,6,-1,8,-1,10,-1,12,-1,14,-1,16,18,20,-1,-1,-1,-1,-1,22,-1,24,-1,-1],"split_conditions":[5.124474E-1,3.725095E-1,4.4380847E-1,-4.410271E-2,1.1688559E-2,-4.3381967E-2,3.236333E-2,1.9468822E-2,7.7376276E-2,2.410199E-3,2.0976631E-1,-4.3935105E-2,2.0873269E-2,6.448591E-2,8.77191E-5,-3.538626E-2,1.1847967E-3,4.6675935E-2,1.6465846E-2,3.6323998E-2,5.995066E-1,6.486238E-2,2.8263873E-1,5.054855E-2,5.918014E-2],"split_indices":[6,10,3,0,25,0,15,0,11,0,20,0,25,15,14,0,0,0,0,0,6,0,19,0,0],"split_type":[0,0,0,0,0,0,0,0,0,0,0,0,0,0,0,0,0,0,0,0,0,0,0,0,0],"sum_hessian":[1.3259558E2,4.4889057E1,8.7706535E1,7.2783084E0,3.761075E1,9.5660095E0,7.8140526E1,7.604442E0,3.0006306E1,7.1110797E0,7.102944E1,1.1175021E1,1.8831284E1,1.9891518E1,5.1137924E1,8.525036E0,1.0306248E1,1.1030394E1,8.861123E0,8.891926E0,4.2246E1,7.0332165E0,3.5212784E1,1.059512E1,2.4617662E1],"tree_param":{"num_deleted":"0","num_feature":"27","num_nodes":"25","size_leaf_vector":"0"}},{"base_weights":[2.3835413E-1,-8.559337E-2,8.919652E-1,-3.9739337E-2,3.348518E-2,2.3620777E-2,9.9734515E-1,-3.1684437E-1,3.4620392E-1,3.4468193E-2,5.444844E-2,-6.800615E-2,-4.1343503E-2,4.474549E-2,1.4291488E-1,-2.1039484E-2,1.9202594E-2,-8.740049E-2,3.2432158E-2,-2.3550343E-2,1.199226E-2],"categories":[],"categories_nodes":[],"categories_segments":[],"categories_sizes":[],"default_left":[0,0,0,0,0,0,0,0,0,0,0,0,0,0,0,0,0,0,0,0,0],"id":35,"left_children":[1,3,5,-1,7,-1,9,11,13,-1,-1,15,-1,-1,17,-1,-1,19,-1,-1,-1],"loss_changes":[2.4459003E1,6.943705E0,1.5830841E0,0E0,7.3106575E0,0E0,1.2311096E0,4.3410406E0,4.282333E0,0E0,0E0,3.8766856E0,0E0,0E0,3.2995791E0,0E0,0E0,2.5868082E0,0E0,0E0,0E0],"parents":[2147483647,0,0,1,1,2,2,4,4,6,6,7,7,8,8,11,11,14,14,17,17],"right_children":[2,4,6,-1,8,-1,10,12,14,-1,-1,16,-1,-1,18,-1,-1,20,-1,-1,-1],"split_conditions":[5.911618E-1,1.3647723E-1,4.7330764E-1,-3.9739337E-2,5.033753E-1,2.3620777E-2,2.68069E-4,3.8292113E-1,5.856846E-2,3.4468193E-2,5.444844E-2,4.4459495E-1,-4.1343503E-2,4.474549E-2,1.1639113E-1,-2.1039484E-2,1.9202594E-2,1.487899E-1,3.2432158E-2,-2.3550343E-2,1.199226E-2],"split_indices":[6,7,3,0,6,0,14,17,18,0,0,10,0,0,18,0,0,12,0,0,0],"split_type":[0,0,0,0,0,0,0,0,0,0,0,0,0,0,0,0,0,0,0,0,0],"sum_hessian":[1.1538256E2,7.713388E1,3.824868E1,1.0549379E1,6.65845E1,8.101864E0,3.0146816E1,3.1385033E1,3.5199474E1,1.0852322E1,1.9294495E1,2.1689178E1,9.695852E0,8.917264E0,2.628221E1,1.2101625E1,9.587554E0,1.842115E1,7.861058E0,8.379168E0,1.0041984E1],"tree_param":{"num_deleted":"0","num_feature":"27","num_nodes":"21","size_leaf_vector":"0"}},{"base_weights":[3.4059912E-1,-1.8363202E-1,8.9254814E-1,-3.9265923E-2,-5.785864E-2,1.4344476E-2,1.0329261E0,-3.188028E-1,2.941073E-1,2.2056833E-2,1.1363351E0,4.8656096E-3,-5.826454E-1,7.1732104E-2,3.479949E-2,9.871207E-1,1.2359535E0,-4.2416632E-2,-4.126009E-3,1.6691303E-2,-1.1356728E-2,5.7278465E-2,3.797354E-2,6.085171E-2,5.7385206E-2],"categories":[],"categories_nodes":[],"categories_segments":[],"categories_sizes":[],"default_left":[0,0,0,0,0,0,0,0,0,0,0,0,0,0,0,0,0,0,0,0,0,0,0,0,0],"id":36,"left_children":[1,3,5,-1,7,-1,9,11,13,-1,15,-1,17,19,-1,21,23,-1,-1,-1,-1,-1,-1,-1,-1],"loss_changes":[3.6734745E1,5.281728E0,5.1130295E0,0E0,5.0150623E0,0E0,2.9238129E0,3.4942935E0,2.2691925E0,0E0,6.266861E-1,0E0,2.977807E0,1.3590815E0,0E0,6.9781876E-1,3.0857086E-2,0E0,0E0,0E0,0E0,0E0,0E0,0E0,0E0],"parents":[2147483647,0,0,1,1,2,2,4,4,6,6,7,7,8,8,10,10,12,12,13,13,15,15,16,16],"right_children":[2,4,6,-1,8,-1,10,12,14,-1,16,-1,18,20,-1,22,24,-1,-1,-1,-1,-1,-1,-1,-1],"split_conditions":[4.05229E-2,4.0593065E-2,4.58448E-1,-3.9265923E-2,5.033753E-1,1.4344476E-2,1.4463988E-1,1.299129E-4,5.2003646E-1,2.2056833E-2,5.192075E-1,4.8656096E-3,1.6733538E-1,2.1172282E-1,3.479949E-2,6.047626E-2,2.679295E-1,-4.2416632E-2,-4.126009E-3,1.6691303E-2,-1.1356728E-2,5.7278465E-2,3.797354E-2,6.085171E-2,5.7385206E-2],"split_indices":[25,18,3,0,6,0,19,14,9,0,3,0,12,8,0,24,20,0,0,0,0,0,0,0,0],"split_type":[0,0,0,0,0,0,0,0,0,0,0,0,0,0,0,0,0,0,0,0,0,0,0,0,0],"sum_hessian":[1.2686292E2,6.505364E1,6.1809284E1,1.06027775E1,5.4450863E1,1.1897837E1,4.991145E1,3.1288897E1,2.3161968E1,7.7103143E0,4.2201134E1,1.2028312E1,1.9260584E1,1.5405168E1,7.756801E0,1.6944866E1,2.5256268E1,1.1801402E1,7.459182E0,8.126136E0,7.2790313E0,7.70881E0,9.236056E0,8.5772505E0,1.6679018E1],"tree_param":{"num_deleted":"0","num_feature":"27","num_nodes":"25","size_leaf_vector":"0"}},{"base_weights":[3.027313E-1,-4.221729E-2,9.252894E-1,-3.337078E-1,2.4246499E-1,1.8839177E-2,1.0756477E0,-3.9714906E-2,-2.2038141E-1,4.0593883E-1,-1.4402364E-2,3.784017E-2,1.149278E0,2.262604E-2,-4.9154016E-1,1.9168815E-1,4.0304624E-2,5.612611E-2,5.025802E-2,-3.8606215E-2,-1.0312262E-2,2.0947713E-2,-1.0459188E-2],"categories":[],"categories_nodes":[],"categories_segments":[],"categories_sizes":[],"default_left":[0,0,0,0,0,0,0,0,0,0,0,0,0,0,0,0,0,0,0,0,0,0,0],"id":37,"left_children":[1,3,5,7,9,-1,11,-1,13,15,-1,-1,17,-1,19,21,-1,-1,-1,-1,-1,-1,-1],"loss_changes":[2.6085823E1,6.492565E0,3.429924E0,2.2097964E0,3.538086E0,0E0,6.8492126E-1,0E0,5.9840665E0,2.8969169E0,0E0,0E0,8.15773E-2,0E0,2.0106568E0,2.1326609E0,0E0,0E0,0E0,0E0,0E0,0E0,0E0],"parents":[2147483647,0,0,1,1,2,2,3,3,4,4,6,6,8,8,9,9,12,12,14,14,15,15],"right_children":[2,4,6,8,10,-1,12,-1,14,16,-1,-1,18,-1,20,22,-1,-1,-1,-1,-1,-1,-1],"split_conditions":[5.911618E-1,3.0878974E-2,4.7330764E-1,3.7517425E-1,5.6240404E-1,1.8839177E-2,7.840105E-2,-3.9714906E-2,1.1105803E-1,4.8026305E-1,-1.4402364E-2,3.784017E-2,6.1962575E-1,2.262604E-2,1.0785197E-1,4.3349624E-1,4.0304624E-2,5.612611E-2,5.025802E-2,-3.8606215E-2,-1.0312262E-2,2.0947713E-2,-1.0459188E-2],"split_indices":[6,21,3,10,17,0,12,0,8,17,0,0,17,0,12,17,0,0,0,0,0,0,0],"split_type":[0,0,0,0,0,0,0,0,0,0,0,0,0,0,0,0,0,0,0,0,0,0,0],"sum_hessian":[1.21342255E2,7.8066826E1,4.327543E1,3.8593754E1,3.947307E1,9.612472E0,3.366296E1,7.063194E0,3.153056E1,3.039927E1,9.0738E0,7.0973186E0,2.6565641E1,8.811666E0,2.2718895E1,2.0528845E1,9.870423E0,1.9000671E1,7.5649695E0,1.0407511E1,1.2311384E1,1.27944765E1,7.7343683E0],"tree_param":{"num_deleted":"0","num_feature":"27","num_nodes":"23","size_leaf_vector":"0"}},{"base_weights":[4.5631504E-1,-7.223475E-1,9.357861E-1,-4.571872E-3,-8.466025E-1,-5.6332074E-2,1.1516441E0,-6.877096E-1,-5.3348478E-2,1.0599755E-2,1.2427436E0,-9.285091E-1,-9.125158E-3,3.5970643E-2,1.31673E0,-5.8964778E-2,-3.2512557E-2,4.253458E-2,1.3814722E0,5.450401E-2,1.4318403E0,6.031893E-2,6.891081E-2],"categories":[],"categories_nodes":[],"categories_segments":[],"categories_sizes":[],"default_left":[0,0,0,0,0,0,0,0,0,0,0,0,0,0,0,0,0,0,0,0,0,0,0],"id":38,"left_children":[1,3,5,-1,7,-1,9,11,-1,-1,13,15,-1,-1,17,-1,-1,-1,19,-1,21,-1,-1],"loss_changes":[9.001344E1,3.5737972E0,5.1933525E1,0E0,1.7025948E0,0E0,8.676498E0,2.916525E0,0E0,0E0,3.3442688E0,1.2603569E0,0E0,0E0,2.198349E0,0E0,0E0,0E0,8.173523E-1,0E0,1.9979095E-1,0E0,0E0],"parents":[2147483647,0,0,1,1,2,2,4,4,6,6,7,7,10,10,11,11,14,14,18,18,20,20],"right_children":[2,4,6,-1,8,-1,10,12,-1,-1,14,16,-1,-1,18,-1,-1,-1,20,-1,22,-1,-1],"split_conditions":[1.5871882E-1,2.4992224E-2,1E0,-4.571872E-3,2.7853897E-1,-5.6332074E-2,2.0048696E-1,6.059772E-2,-5.3348478E-2,1.0599755E-2,2.2617519E-1,1E0,-9.125158E-3,3.5970643E-2,1.4463988E-1,-5.8964778E-2,-3.2512557E-2,4.253458E-2,4.6867587E-2,5.450401E-2,5.300072E-1,6.031893E-2,6.891081E-2],"split_indices":[20,13,1,0,16,0,16,18,0,0,8,2,0,0,19,0,0,0,15,0,9,0,0],"split_type":[0,0,0,0,0,0,0,0,0,0,0,0,0,0,0,0,0,0,0,0,0,0,0],"sum_hessian":[1.5922034E2,4.603315E1,1.1318719E2,7.64149E0,3.839166E1,1.0435634E1,1.0275155E2,2.4484953E1,1.3906708E1,9.197142E0,9.3554405E1,1.6457247E1,8.027706E0,1.24296055E1,8.11248E1,7.1324325E0,9.324813E0,1.087413E1,7.025067E1,1.2591656E1,5.765902E1,7.046029E0,5.0612988E1],"tree_param":{"num_deleted":"0","num_feature":"27","num_nodes":"23","size_leaf_vector":"0"}},{"base_weights":[2.4327923E-1,-1.1229541E-1,7.0726246E-1,-2.937354E-2,2.5485388E-3,4.363093E-1,1.016256E0,2.2703242E-2,-1.3141973E-1,2.3383483E-1,4.223227E-2,3.8736712E-2,5.3674076E-2,-3.2616753E-2,6.420913E-2,-6.6853086E-3,2.9973602E-2,-2.2363216E-1,1.8612543E-2,-3.5934996E-2,1.2186073E-2],"categories":[],"categories_nodes":[],"categories_segments":[],"categories_sizes":[],"default_left":[0,0,0,0,0,0,0,0,0,0,0,0,0,0,0,0,0,0,0,0,0],"id":39,"left_children":[1,3,5,-1,7,9,11,-1,13,15,-1,-1,-1,-1,17,-1,-1,19,-1,-1,-1],"loss_changes":[1.7442533E1,3.5028515E0,3.837307E0,0E0,3.1285646E0,2.2527738E0,4.931755E-1,0E0,4.1616936E0,2.5482297E0,0E0,0E0,0E0,0E0,2.672767E0,0E0,0E0,3.868888E0,0E0,0E0,0E0],"parents":[2147483647,0,0,1,1,2,2,4,4,5,5,6,6,8,8,9,9,14,14,17,17],"right_children":[2,4,6,-1,8,10,12,-1,14,16,-1,-1,-1,-1,18,-1,-1,20,-1,-1,-1],"split_conditions":[2.0158473E-1,4.0593065E-2,2.679295E-1,-2.937354E-2,5.3676292E-2,2.4037115E-1,5.036874E-1,2.2703242E-2,6.882135E-2,5.036874E-1,4.223227E-2,3.8736712E-2,5.3674076E-2,-3.2616753E-2,3.3978945E-1,-6.6853086E-3,2.9973602E-2,5.036874E-1,1.8612543E-2,-3.5934996E-2,1.2186073E-2],"split_indices":[20,18,20,0,18,13,3,0,18,3,0,0,0,0,17,0,0,3,0,0,0],"split_type":[0,0,0,0,0,0,0,0,0,0,0,0,0,0,0,0,0,0,0,0,0],"sum_hessian":[1.0559301E2,5.97651E1,4.5827915E1,1.1050783E1,4.8714314E1,2.4438385E1,2.138953E1,1.0712384E1,3.800193E1,1.6927216E1,7.5111694E0,7.918346E0,1.3471184E1,9.898487E0,2.8103443E1,8.706147E0,8.221068E0,1.4957444E1,1.3145999E1,7.0949683E0,7.8624763E0],"tree_param":{"num_deleted":"0","num_feature":"27","num_nodes":"21","size_leaf_vector":"0"}},{"base_weights":[3.6337292E-1,-3.7446195E-1,7.5082254E-1,-1.703311E-1,-7.838796E-1,-4.623111E-2,9.6627975E-1,-3.7923377E-2,4.8874207E-2,-5.8715884E-2,-1.2436758E-2,6.9016546E-1,1.1948212E0,2.8623896E-2,-1.4129764E-2,8.4179443E-1,4.14703E-3,4.860417E-2,5.9476465E-2,2.0103784E-2,1.0473764E0,2.9482957E-2,6.1590414E-2],"categories":[],"categories_nodes":[],"categories_segments":[],"categories_sizes":[],"default_left":[0,0,0,0,0,0,0,0,0,0,0,0,0,0,0,0,0,0,0,0,0,0,0],"id":40,"left_children":[1,3,5,7,9,-1,11,-1,13,-1,-1,15,17,-1,-1,19,-1,-1,-1,-1,21,-1,-1],"loss_changes":[3.809655E1,3.8340192E0,3.2510487E1,4.251851E0,3.6122007E0,0E0,4.8994675E0,0E0,4.3947906E0,0E0,0E0,3.2101784E0,4.297676E-1,0E0,0E0,2.4101944E0,0E0,0E0,0E0,0E0,2.0140705E0,0E0,0E0],"parents":[2147483647,0,0,1,1,2,2,3,3,4,4,6,6,8,8,11,11,12,12,15,15,20,20],"right_children":[2,4,6,8,10,-1,12,-1,14,-1,-1,16,18,-1,-1,20,-1,-1,-1,-1,22,-1,-1],"split_conditions":[1.9851632E-1,8.289625E-2,1E0,4.0593065E-2,9.5471725E-2,-4.623111E-2,2.9165432E-1,-3.7923377E-2,5.3676292E-2,-5.8715884E-2,-1.2436758E-2,6.919958E-1,6.4043105E-1,2.8623896E-2,-1.4129764E-2,8.713878E-2,4.14703E-3,4.860417E-2,5.9476465E-2,2.0103784E-2,5.058518E-1,2.9482957E-2,6.1590414E-2],"split_indices":[8,18,1,18,15,0,8,0,18,0,0,10,6,0,0,13,0,0,0,0,9,0,0],"split_type":[0,0,0,0,0,0,0,0,0,0,0,0,0,0,0,0,0,0,0,0,0,0,0],"sum_hessian":[1.3318086E2,4.58448E1,8.733606E1,3.0612251E1,1.5232548E1,9.68522E0,7.765084E1,7.919204E0,2.2693047E1,8.123783E0,7.1087646E0,3.5190056E1,4.246078E1,8.743338E0,1.394971E1,2.8099752E1,7.090305E0,1.1147095E1,3.1313686E1,9.28867E0,1.8811083E1,7.015748E0,1.1795335E1],"tree_param":{"num_deleted":"0","num_feature":"27","num_nodes":"23","size_leaf_vector":"0"}},{"base_weights":[3.0518258E-1,-4.7641012E-1,6.515363E-1,-3.1145106E-3,-6.7575926E-1,-4.0444214E-2,8.384855E-1,-1.9045899E-2,-9.030753E-1,5.980975E-1,1.1604037E0,-6.0348883E-2,-2.530821E-2,8.052559E-1,1.6180475E-1,4.5649614E-2,5.7495587E-2,1.5945172E-2,9.4860476E-1,-5.8133877E-3,2.0572226E-2,1.1748912E0,2.1402726E-2,4.704412E-2,6.236674E-2],"categories":[],"categories_nodes":[],"categories_segments":[],"categories_sizes":[],"default_left":[0,0,0,0,0,0,0,0,0,0,0,0,0,0,0,0,0,0,0,0,0,0,0,0,0],"id":41,"left_children":[1,3,5,-1,7,-1,9,-1,11,13,15,-1,-1,17,19,-1,-1,-1,21,-1,-1,23,-1,-1,-1],"loss_changes":[3.4595444E1,3.2072449E0,2.4924171E1,0E0,1.6418381E0,0E0,6.0938683E0,0E0,1.9657898E0,4.073103E0,3.4705734E-1,0E0,0E0,2.0498638E0,1.1393197E0,0E0,0E0,0E0,2.6268559E0,0E0,0E0,4.1184616E-1,0E0,0E0,0E0],"parents":[2147483647,0,0,1,1,2,2,4,4,6,6,8,8,9,9,10,10,13,13,14,14,18,18,21,21],"right_children":[2,4,6,-1,8,-1,10,-1,12,14,16,-1,-1,18,20,-1,-1,-1,22,-1,-1,24,-1,-1,-1],"split_conditions":[5.033753E-1,1.2340493E-1,1E0,-3.1145106E-3,4.3808797E-1,-4.0444214E-2,3.1145692E-1,-1.9045899E-2,4.750229E-1,6.6829944E-1,8.182783E-2,-6.0348883E-2,-2.530821E-2,1.7328906E-1,2.715632E-1,4.5649614E-2,5.7495587E-2,1.5945172E-2,3.2912353E-1,-5.8133877E-3,2.0572226E-2,9.769511E-2,2.1402726E-2,4.704412E-2,6.236674E-2],"split_indices":[6,19,1,0,6,0,8,0,6,10,18,0,0,19,8,0,0,0,19,0,0,11,0,0,0],"split_type":[0,0,0,0,0,0,0,0,0,0,0,0,0,0,0,0,0,0,0,0,0,0,0,0,0],"sum_hessian":[1.2771275E2,3.9205193E1,8.850756E1,1.2831572E1,2.6373621E1,9.7734995E0,7.873406E1,1.1984616E1,1.4389004E1,4.5097076E1,3.3636986E1,7.1688113E0,7.220193E0,3.0558802E1,1.4538274E1,7.122853E0,2.6514135E1,7.1755514E0,2.3383251E1,7.0868325E0,7.4514413E0,1.6051249E1,7.332001E0,7.0312634E0,9.019986E0],"tree_param":{"num_deleted":"0","num_feature":"27","num_nodes":"25","size_leaf_vector":"0"}},{"base_weights":[2.7505437E-1,-7.452681E-2,9.283031E-1,-3.7001622E-1,2.1136713E-1,1.5008407E-2,1.0870724E0,7.221382E-2,-6.8562806E-1,4.042327E-1,-1.648836E-2,4.273758E-2,5.6188952E-2,-1.4337201E-2,1.6132098E-2,-4.5118347E-2,-1.9382538E-2,6.035832E-1,-5.666412E-3,1.2435428E-2,5.097846E-2],"categories":[],"categories_nodes":[],"categories_segments":[],"categories_sizes":[],"default_left":[0,0,0,0,0,0,0,0,0,0,0,0,0,0,0,0,0,0,0,0,0],"id":42,"left_children":[1,3,5,7,9,-1,11,13,15,17,-1,-1,-1,-1,-1,-1,-1,19,-1,-1,-1],"loss_changes":[2.8952568E1,6.9834456E0,4.2834244E0,5.682117E0,4.533803E0,0E0,6.3796234E-1,1.7110313E0,1.7458096E0,3.269156E0,0E0,0E0,0E0,0E0,0E0,0E0,0E0,3.640543E0,0E0,0E0,0E0],"parents":[2147483647,0,0,1,1,2,2,3,3,4,4,6,6,7,7,8,8,9,9,17,17],"right_children":[2,4,6,8,10,-1,12,14,16,18,-1,-1,-1,-1,-1,-1,-1,20,-1,-1,-1],"split_conditions":[2.2174777E-1,1.5668187E-1,4.7330764E-1,1.027574E-4,5.6240404E-1,1.5008407E-2,2.68069E-4,4.6961305E-1,1.4220254E-1,3.2364964E-1,-1.648836E-2,4.273758E-2,5.6188952E-2,-1.4337201E-2,1.6132098E-2,-4.5118347E-2,-1.9382538E-2,1.5116037E-1,-5.666412E-3,1.2435428E-2,5.097846E-2],"split_indices":[20,20,3,14,17,0,14,10,12,19,0,0,0,0,0,0,0,12,0,0,0],"split_type":[0,0,0,0,0,0,0,0,0,0,0,0,0,0,0,0,0,0,0,0,0],"sum_hessian":[1.2665711E2,8.249272E1,4.4164387E1,4.058699E1,4.190573E1,9.117265E0,3.5047123E1,1.6886509E1,2.3700481E1,3.1175817E1,1.0729913E1,1.2186101E1,2.2861023E1,7.0242033E0,9.862306E0,1.20568495E1,1.1643633E1,2.2598478E1,8.577339E0,1.3129955E1,9.468522E0],"tree_param":{"num_deleted":"0","num_feature":"27","num_nodes":"21","size_leaf_vector":"0"}},{"base_weights":[2.759968E-1,-2.2533734E-1,7.2368366E-1,-6.6479737E-1,-8.0888554E-2,-3.848242E-2,9.3702596E-1,-2.1119202E-2,-4.1202065E-2,2.524768E-2,-2.0819679E-1,4.692408E-1,1.1066636E0,-2.6888069E-2,-1.4991162E-2,3.537854E-2,6.909729E-3,3.255231E-2,1.1899952E0,-3.5125187E-1,2.6612248E-2,5.3114522E-2,1.2182118E0,1.4863445E-3,-3.494287E-2,6.097449E-2,5.6420032E-2],"categories":[],"categories_nodes":[],"categories_segments":[],"categories_sizes":[],"default_left":[0,0,0,0,0,0,0,0,0,0,0,0,0,0,0,0,0,0,0,0,0,0,0,0,0,0,0],"id":43,"left_children":[1,3,5,7,9,-1,11,-1,-1,-1,13,15,17,-1,19,-1,-1,-1,21,23,-1,-1,25,-1,-1,-1,-1],"loss_changes":[2.8014528E1,3.7375546E0,2.1614342E1,6.510525E-1,3.4717698E0,0E0,4.588127E0,0E0,0E0,0E0,2.5476723E0,1.3816075E0,1.4811287E0,0E0,4.648377E0,0E0,0E0,0E0,6.886673E-2,2.2481303E0,0E0,0E0,4.8187256E-2,0E0,0E0,0E0,0E0],"parents":[2147483647,0,0,1,1,2,2,3,3,4,4,6,6,10,10,11,11,12,12,14,14,18,18,19,19,22,22],"right_children":[2,4,6,8,10,-1,12,-1,-1,-1,14,16,18,-1,20,-1,-1,-1,22,24,-1,-1,26,-1,-1,-1,-1],"split_conditions":[2.2617519E-1,4.4459495E-1,1E0,1.2543567E-1,2.2741548E-5,-3.848242E-2,2.1969125E-1,-2.1119202E-2,-4.1202065E-2,2.524768E-2,1.571391E-1,7.2118914E-1,1.0719275E-4,-2.6888069E-2,1.0231609E-1,3.537854E-2,6.909729E-3,3.255231E-2,1.00699715E-1,4.7336805E-1,2.6612248E-2,5.3114522E-2,6.0778034E-1,1.4863445E-3,-3.494287E-2,6.097449E-2,5.6420032E-2],"split_indices":[8,10,1,19,14,0,7,0,0,0,8,10,14,0,11,0,0,0,11,9,0,0,6,0,0,0,0],"split_type":[0,0,0,0,0,0,0,0,0,0,0,0,0,0,0,0,0,0,0,0,0,0,0,0,0,0,0],"sum_hessian":[1.2471713E2,5.8820393E1,6.5896736E1,1.4529844E1,4.429055E1,8.03155E0,5.7865185E1,7.0398664E0,7.4899774E0,7.5943093E0,3.669624E1,1.5419186E1,4.2446E1,1.2815683E1,2.3880556E1,8.283854E0,7.1353326E0,7.0531206E0,3.539288E1,1.5095777E1,8.7847805E0,1.0350816E1,2.5042063E1,7.56423E0,7.531546E0,7.154757E0,1.7887306E1],"tree_param":{"num_deleted":"0","num_feature":"27","num_nodes":"27","size_leaf_vector":"0"}},{"base_weights":[2.4418038E-1,-1.0229915E-1,9.170475E-1,-7.4588406E-1,3.9564516E-2,2.8192803E-2,1.0254008E0,-2.8659806E-2,-4.1987997E-2,-3.1927045E-2,1.5598373E-1,3.4419015E-2,1.1377673E0,-2.5937311E-2,3.130865E-1,5.6177966E-2,4.9178623E-2,-6.618871E-2,5.9751004E-1,1.5233052E-2,-2.2049626E-2,4.3765306E-2,1.1931676E-2],"categories":[],"categories_nodes":[],"categories_segments":[],"categories_sizes":[],"default_left":[0,0,0,0,0,0,0,0,0,0,0,0,0,0,0,0,0,0,0,0,0,0,0],"id":44,"left_children":[1,3,5,7,9,-1,11,-1,-1,-1,13,-1,15,-1,17,-1,-1,19,21,-1,-1,-1,-1],"loss_changes":[2.7722244E1,7.1835318E0,1.4076729E0,2.8015852E-1,5.3448887E0,0E0,1.0131607E0,0E0,0E0,0E0,6.1151414E0,0E0,1.03523254E-1,0E0,4.8862033E0,0E0,0E0,3.0088189E0,2.9086752E0,0E0,0E0,0E0,0E0],"parents":[2147483647,0,0,1,1,2,2,3,3,4,4,6,6,10,10,12,12,14,14,17,17,18,18],"right_children":[2,4,6,8,10,-1,12,-1,-1,-1,14,-1,16,-1,18,-1,-1,20,22,-1,-1,-1,-1],"split_conditions":[5.911618E-1,4.4459495E-1,6.8323386E-1,5.82463E-2,4.0593065E-2,2.8192803E-2,4.8838747E-1,-2.8659806E-2,-4.1987997E-2,-3.1927045E-2,4.4380847E-1,3.4419015E-2,6.284283E-1,-2.5937311E-2,5.7646066E-1,5.6177966E-2,4.9178623E-2,8.805861E-2,6.5822786E-1,1.5233052E-2,-2.2049626E-2,4.3765306E-2,1.1931676E-2],"split_indices":[6,10,10,11,18,0,3,0,0,0,3,0,17,0,10,0,0,11,4,0,0,0,0],"split_type":[0,0,0,0,0,0,0,0,0,0,0,0,0,0,0,0,0,0,0,0,0,0,0],"sum_hessian":[1.1878473E2,7.839719E1,4.0387543E1,1.4175521E1,6.4221664E1,1.0190955E1,3.0196589E1,7.097969E0,7.077552E0,8.998095E0,5.5223568E1,8.272895E0,2.1923693E1,1.0070469E1,4.51531E1,1.4803456E1,7.1202364E0,1.9331318E1,2.5821781E1,9.790295E0,9.541023E0,1.3277073E1,1.2544708E1],"tree_param":{"num_deleted":"0","num_feature":"27","num_nodes":"23","size_leaf_vector":"0"}},{"base_weights":[2.8188586E-1,-2.3823968E-1,6.243717E-1,1.1694283E-2,-3.2925817E-1,-3.825241E-2,8.401266E-1,-6.8009377E-1,-8.9846574E-2,6.619286E-1,5.475933E-2,-4.6816543E-2,-1.4172135E-2,-1.9761356E-2,1.4322033E-2,8.305636E-1,1.4003706E-2,1.076684E0,2.226486E-2,6.0595658E-2,4.161872E-2],"categories":[],"categories_nodes":[],"categories_segments":[],"categories_sizes":[],"default_left":[0,0,0,0,0,0,0,0,0,0,0,0,0,0,0,0,0,0,0,0,0],"id":45,"left_children":[1,3,5,-1,7,-1,9,11,13,15,-1,-1,-1,-1,-1,17,-1,19,-1,-1,-1],"loss_changes":[2.0959328E1,2.0688467E0,2.1919544E1,0E0,3.302847E0,0E0,3.4614258E0,1.8654265E0,3.0148957E0,2.4315796E0,0E0,0E0,0E0,0E0,0E0,2.3919983E0,0E0,6.411495E-1,0E0,0E0,0E0],"parents":[2147483647,0,0,1,1,2,2,4,4,6,6,7,7,8,8,9,9,15,15,17,17],"right_children":[2,4,6,-1,8,-1,10,12,14,16,-1,-1,-1,-1,-1,18,-1,20,-1,-1,-1],"split_conditions":[1.9851632E-1,3.8660087E-2,1E0,1.1694283E-2,1.0785197E-1,-3.825241E-2,6.4043105E-1,2.3172185E-1,2.3658384E-2,5.570661E-1,5.475933E-2,-4.6816543E-2,-1.4172135E-2,-1.9761356E-2,1.4322033E-2,1.1471015E-1,1.4003706E-2,8.509983E-2,2.226486E-2,6.0595658E-2,4.161872E-2],"split_indices":[8,11,1,0,12,0,6,7,24,17,0,0,0,0,0,18,0,18,0,0,0],"split_type":[0,0,0,0,0,0,0,0,0,0,0,0,0,0,0,0,0,0,0,0,0],"sum_hessian":[1.1755138E2,4.6657455E1,7.089393E1,7.351577E0,3.9305878E1,9.278803E0,6.161512E1,1.5921892E1,2.3383986E1,3.938269E1,2.2232431E1,8.793015E0,7.1288776E0,1.2765286E1,1.0618699E1,2.6948942E1,1.2433748E1,1.6001001E1,1.094794E1,7.909607E0,8.091395E0],"tree_param":{"num_deleted":"0","num_feature":"27","num_nodes":"21","size_leaf_vector":"0"}},{"base_weights":[3.1423765E-1,-2.6075372E-1,7.94434E-1,-4.7797598E-2,-1.5363073E-1,-3.3197686E-2,9.656168E-1,8.771119E-3,-4.9733165E-1,5.429E-1,1.1031711E0,2.388767E-2,-1.7932372E-1,-8.762977E-3,-4.0328223E-2,4.0121086E-2,8.355477E-3,3.447465E-2,1.1685342E0,-4.7513276E-1,2.2438971E-2,1.0612844E0,5.8090184E-2,-4.7072094E-2,-4.6084E-3,4.6729E-2,5.3787664E-2],"categories":[],"categories_nodes":[],"categories_segments":[],"categories_sizes":[],"default_left":[0,0,0,0,0,0,0,0,0,0,0,0,0,0,0,0,0,0,0,0,0,0,0,0,0,0,0],"id":46,"left_children":[1,3,5,-1,7,-1,9,11,13,15,17,-1,19,-1,-1,-1,-1,-1,21,23,-1,25,-1,-1,-1,-1,-1],"loss_changes":[3.5522404E1,4.692571E0,1.7954132E1,0E0,2.8714857E0,0E0,3.652462E0,3.255663E0,1.8169274E0,1.7194529E0,1.1610985E0,0E0,4.8754067E0,0E0,0E0,0E0,0E0,0E0,2.459755E-1,3.3919752E0,0E0,7.800388E-2,0E0,0E0,0E0,0E0,0E0],"parents":[2147483647,0,0,1,1,2,2,4,4,6,6,7,7,8,8,9,9,10,10,12,12,18,18,19,19,21,21],"right_children":[2,4,6,-1,8,-1,10,12,14,16,18,-1,20,-1,-1,-1,-1,-1,22,24,-1,26,-1,-1,-1,-1,-1],"split_conditions":[2.2617519E-1,3.7517425E-1,1E0,-4.7797598E-2,8.509983E-2,-3.3197686E-2,4.6867587E-2,3.8292113E-1,8.869471E-2,1.2623627E-1,1.635716E-1,2.388767E-2,1.914264E-1,-8.762977E-3,-4.0328223E-2,4.0121086E-2,8.355477E-3,3.447465E-2,4.7058564E-1,1E0,2.2438971E-2,1.2354239E-1,5.8090184E-2,-4.7072094E-2,-4.6084E-3,4.6729E-2,5.3787664E-2],"split_indices":[8,10,1,0,18,0,15,17,11,11,19,0,8,0,0,0,0,0,17,2,0,11,0,0,0,0,0],"split_type":[0,0,0,0,0,0,0,0,0,0,0,0,0,0,0,0,0,0,0,0,0,0,0,0,0,0,0],"sum_hessian":[1.2856291E2,5.8494812E1,7.006809E1,7.3165903E0,5.1178223E1,7.192215E0,6.2875877E1,3.4731228E1,1.6446993E1,1.54590845E1,4.7416794E1,9.579233E0,2.5151995E1,8.748329E0,7.698664E0,8.438979E0,7.020105E0,7.0522523E0,4.0364544E1,1.732107E1,7.830925E0,1.4077681E1,2.6286861E1,7.2930975E0,1.0027972E1,7.026741E0,7.050939E0],"tree_param":{"num_deleted":"0","num_feature":"27","num_nodes":"27","size_leaf_vector":"0"}},{"base_weights":[2.9818314E-1,-9.632653E-2,9.688896E-1,-4.1347715E-1,2.668885E-1,2.0653475E-2,1.1072806E0,-2.4320826E-1,-6.7440087E-1,4.3659788E-1,-1.1330095E-2,4.0384296E-2,1.1682518E0,7.446173E-3,-5.5697006E-1,-1.7773319E-2,-5.096616E-2,6.4338464E-1,-6.5568252E-3,5.6957394E-2,5.0619874E-2,-3.8206063E-2,-1.4375175E-2,4.2861037E-2,1.706768E-2],"categories":[],"categories_nodes":[],"categories_segments":[],"categories_sizes":[],"default_left":[0,0,0,0,0,0,0,0,0,0,0,0,0,0,0,0,0,0,0,0,0,0,0,0,0],"id":47,"left_children":[1,3,5,7,9,-1,11,13,15,17,-1,-1,19,-1,21,-1,-1,23,-1,-1,-1,-1,-1,-1,-1],"loss_changes":[3.2853413E1,9.012437E0,3.3858948E0,1.8541679E0,3.1366239E0,0E0,5.6523514E-1,3.1903045E0,1.974555E0,3.2562237E0,0E0,0E0,9.7545624E-2,0E0,8.960476E-1,0E0,0E0,1.4827032E0,0E0,0E0,0E0,0E0,0E0,0E0,0E0],"parents":[2147483647,0,0,1,1,2,2,3,3,4,4,6,6,7,7,8,8,9,9,12,12,14,14,17,17],"right_children":[2,4,6,8,10,-1,12,14,16,18,-1,-1,20,-1,22,-1,-1,24,-1,-1,-1,-1,-1,-1,-1],"split_conditions":[5.911618E-1,1.6219056E-1,4.7330764E-1,3.8292113E-1,5.6240404E-1,2.0653475E-2,2.2091572E-1,8.289625E-2,5.3676292E-2,3.2364964E-1,-1.1330095E-2,4.0384296E-2,6.5129334E-1,7.446173E-3,4.4946328E-1,-1.7773319E-2,-5.096616E-2,5.0942624E-1,-6.5568252E-3,5.6957394E-2,5.0619874E-2,-3.8206063E-2,-1.4375175E-2,4.2861037E-2,1.706768E-2],"split_indices":[6,20,3,17,17,0,7,18,18,19,0,0,3,0,6,0,0,9,0,0,0,0,0,0,0],"split_type":[0,0,0,0,0,0,0,0,0,0,0,0,0,0,0,0,0,0,0,0,0,0,0,0,0],"sum_hessian":[1.24049416E2,7.8095245E1,4.595417E1,4.170963E1,3.6385616E1,9.488397E0,3.6465775E1,2.5268202E1,1.6441425E1,2.7264332E1,9.121285E0,7.068893E0,2.9396881E1,1.1085607E1,1.4182596E1,9.428381E0,7.013045E0,2.006797E1,7.196362E0,2.1971537E1,7.4253454E0,7.132325E0,7.050271E0,1.04257555E1,9.642215E0],"tree_param":{"num_deleted":"0","num_feature":"27","num_nodes":"25","size_leaf_vector":"0"}},{"base_weights":[3.0762097E-1,-5.19868E-2,9.704121E-1,-3.096414E-1,3.2326192E-1,1.5910609E-2,1.1268228E0,-4.765633E-2,-1.8265378E-1,5.173873E-1,-1.0027007E-2,4.4866323E-2,1.1746539E0,1.940464E-2,-3.7792817E-1,3.4521792E-2,1.3869383E-2,5.749635E-2,5.0140075E-2,-3.222443E-2,-1.4398244E-1,-2.1008274E-2,6.394865E-3],"categories":[],"categories_nodes":[],"categories_segments":[],"categories_sizes":[],"default_left":[0,0,0,0,0,0,0,0,0,0,0,0,0,0,0,0,0,0,0,0,0,0,0],"id":48,"left_children":[1,3,5,7,9,-1,11,-1,13,15,-1,-1,17,-1,19,-1,-1,-1,-1,-1,21,-1,-1],"loss_changes":[3.004525E1,7.9064484E0,4.3929977E0,4.284722E0,3.461783E0,0E0,3.0477905E-1,0E0,4.7497826E0,1.1558189E0,0E0,0E0,1.2454224E-1,0E0,2.1772523E0,0E0,0E0,0E0,0E0,0E0,1.4653786E0,0E0,0E0],"parents":[2147483647,0,0,1,1,2,2,3,3,4,4,6,6,8,8,9,9,12,12,14,14,20,20],"right_children":[2,4,6,8,10,-1,12,-1,14,16,-1,-1,18,-1,20,-1,-1,-1,-1,-1,22,-1,-1],"split_conditions":[5.911618E-1,1.9851632E-1,4.7330764E-1,3.725095E-1,6.758074E-1,1.5910609E-2,5.036874E-1,-4.765633E-2,1.1105803E-1,2.4387814E-1,-1.0027007E-2,4.4866323E-2,1.1251355E-1,1.940464E-2,1.571391E-1,3.4521792E-2,1.3869383E-2,5.749635E-2,5.0140075E-2,-3.222443E-2,1.05023876E-1,-2.1008274E-2,6.394865E-3],"split_indices":[6,8,3,10,10,0,3,0,8,19,0,0,15,0,8,0,0,0,0,0,13,0,0],"split_type":[0,0,0,0,0,0,0,0,0,0,0,0,0,0,0,0,0,0,0,0,0,0,0],"sum_hessian":[1.25935455E2,8.162809E1,4.4307365E1,4.841698E1,3.321111E1,8.775132E0,3.553223E1,7.4580364E0,4.0958946E1,2.438343E1,8.827679E0,7.504306E0,2.8027925E1,1.0143308E1,3.0815638E1,1.25519E1,1.1831531E1,2.1027843E1,7.0000825E0,1.3430809E1,1.7384829E1,8.40829E0,8.976539E0],"tree_param":{"num_deleted":"0","num_feature":"27","num_nodes":"23","size_leaf_vector":"0"}},{"base_weights":[2.9156187E-1,-3.6779007E-1,6.9300973E-1,5.113929E-3,-4.6187657E-1,-4.747809E-2,9.265213E-1,-8.3582217E-1,-1.972357E-1,6.979628E-1,1.1789876E0,-4.8861604E-2,-2.9815909E-2,-5.673722E-1,1.6183708E-2,8.448676E-1,1.5253365E-2,5.179173E-2,5.7018183E-2,-2.1637487E-3,-5.1611397E-2,1.42438505E-2,1.0545281E0,6.2244833E-2,3.7998173E-2],"categories":[],"categories_nodes":[],"categories_segments":[],"categories_sizes":[],"default_left":[0,0,0,0,0,0,0,0,0,0,0,0,0,0,0,0,0,0,0,0,0,0,0,0,0],"id":49,"left_children":[1,3,5,-1,7,-1,9,11,13,15,17,-1,-1,19,-1,21,-1,-1,-1,-1,-1,-1,23,-1,-1],"loss_changes":[3.411315E1,2.1901937E0,3.1711674E1,0E0,4.029339E0,0E0,4.0610237E0,6.792679E-1,4.776454E0,2.0396557E0,6.817627E-2,0E0,0E0,3.8501897E0,0E0,3.0268593E0,0E0,0E0,0E0,0E0,0E0,0E0,1.2529736E0,0E0,0E0],"parents":[2147483647,0,0,1,1,2,2,4,4,6,6,7,7,8,8,9,9,10,10,13,13,15,15,22,22],"right_children":[2,4,6,-1,8,-1,10,12,14,16,18,-1,-1,20,-1,22,-1,-1,-1,-1,-1,-1,24,-1,-1],"split_conditions":[2.8993448E-2,3.8660087E-2,6.075949E-1,5.113929E-3,1.0785197E-1,-4.747809E-2,3.1145692E-1,3.3978945E-1,4.544772E-1,5.570661E-1,6.467979E-1,-4.8861604E-2,-2.9815909E-2,1.213533E-1,1.6183708E-2,1.7133762E-1,1.5253365E-2,5.179173E-2,5.7018183E-2,-2.1637487E-3,-5.1611397E-2,1.42438505E-2,2.8072876E-1,6.2244833E-2,3.7998173E-2],"split_indices":[25,11,4,0,12,0,8,17,9,17,6,0,0,13,0,19,0,0,0,0,0,0,19,0,0],"split_type":[0,0,0,0,0,0,0,0,0,0,0,0,0,0,0,0,0,0,0,0,0,0,0,0,0],"sum_hessian":[1.2878949E2,4.872723E1,8.006226E1,8.02465E0,4.070258E1,9.689659E0,7.0372604E1,1.684836E1,2.385422E1,3.6960968E1,3.3411633E1,8.641202E0,8.207159E0,1.4152448E1,9.701772E0,2.6556784E1,1.0404183E1,7.353505E0,2.6058126E1,7.086251E0,7.066197E0,7.400658E0,1.9156126E1,9.446708E0,9.709418E0],"tree_param":{"num_deleted":"0","num_feature":"27","num_nodes":"25","size_leaf_vector":"0"}},{"base_weights":[3.5533085E-1,-4.7316948E-1,7.1309376E-1,-1.6353972E-2,-7.905948E-1,-4.673846E-2,9.339489E-1,1.5353578E-2,-1.4253379E-2,-5.7157254E-1,-6.0095172E-2,5.347275E-3,1.0203148E0,-4.1588083E-2,-8.517919E-3,8.5026926E-1,1.195158E0,9.618752E-1,2.8854122E-2,4.7545172E-2,5.8821216E-2,1.1550405E0,2.3567189E-2,4.289239E-2,6.592035E-2],"categories":[],"categories_nodes":[],"categories_segments":[],"categories_sizes":[],"default_left":[0,0,0,0,0,0,0,0,0,0,0,0,0,0,0,0,0,0,0,0,0,0,0,0,0],"id":50,"left_children":[1,3,5,7,9,-1,11,-1,-1,13,-1,-1,15,-1,-1,17,19,21,-1,-1,-1,23,-1,-1,-1],"loss_changes":[4.031669E1,5.9415674E0,3.5660587E1,1.6421728E0,2.5290833E0,0E0,5.9505386E0,0E0,0E0,1.9859924E0,0E0,0E0,2.2603683E0,0E0,0E0,1.0383549E0,3.2741928E-1,2.3619022E0,0E0,0E0,0E0,1.095953E0,0E0,0E0,0E0],"parents":[2147483647,0,0,1,1,2,2,3,3,4,4,6,6,9,9,12,12,15,15,16,16,17,17,21,21],"right_children":[2,4,6,8,10,-1,12,-1,-1,14,-1,-1,16,-1,-1,18,20,22,-1,-1,-1,24,-1,-1,-1],"split_conditions":[1.5668187E-1,1.027574E-4,1E0,4.923247E-2,3.7333953E-1,-4.673846E-2,1.9851632E-1,1.5353578E-2,-1.4253379E-2,4.4009724E-1,-6.0095172E-2,5.347275E-3,3.1145692E-1,-4.1588083E-2,-8.517919E-3,3.0306053E-1,6.4666563E-1,1.14331774E-1,2.8854122E-2,4.7545172E-2,5.8821216E-2,1E0,2.3567189E-2,4.289239E-2,6.592035E-2],"split_indices":[20,14,1,12,17,0,8,0,0,10,0,0,8,0,0,19,6,18,0,0,0,2,0,0,0],"split_type":[0,0,0,0,0,0,0,0,0,0,0,0,0,0,0,0,0,0,0,0,0,0,0,0,0],"sum_hessian":[1.359384E2,4.0986927E1,9.495148E1,1.6819988E1,2.416694E1,1.0915868E1,8.403561E1,7.637177E0,9.182811E0,1.658221E1,7.5847297E0,8.011233E0,7.6024376E1,9.296333E0,7.285877E0,3.857701E1,3.744736E1,2.6350498E1,1.2226514E1,7.256025E0,3.0191336E1,1.8594343E1,7.756155E0,9.044959E0,9.549385E0],"tree_param":{"num_deleted":"0","num_feature":"27","num_nodes":"25","size_leaf_vector":"0"}},{"base_weights":[1.6992301E-1,-7.83571E-2,7.7625686E-1,-3.4133967E-2,4.1599233E-2,1.428872E-2,9.297217E-1,-2.114093E-1,2.6027265E-1,2.9944656E-2,5.198405E-2,1.602032E-2,-4.276768E-1,3.5054497E-2,3.8260683E-2,-2.8747585E-2,-8.877547E-3,-1.0886067E-2,1.3710732E-2],"categories":[],"categories_nodes":[],"categories_segments":[],"categories_sizes":[],"default_left":[0,0,0,0,0,0,0,0,0,0,0,0,0,0,0,0,0,0,0],"id":51,"left_children":[1,3,5,-1,7,-1,9,11,13,-1,-1,-1,15,-1,17,-1,-1,-1,-1],"loss_changes":[1.5073975E1,5.4839344E0,2.1131783E0,0E0,3.3155768E0,0E0,1.0898571E0,3.3014703E0,3.4145768E0,0E0,0E0,0E0,8.530319E-1,0E0,1.4872987E0,0E0,0E0,0E0,0E0],"parents":[2147483647,0,0,1,1,2,2,4,4,6,6,7,7,8,8,12,12,14,14],"right_children":[2,4,6,-1,8,-1,10,12,14,-1,-1,-1,16,-1,18,-1,-1,-1,-1],"split_conditions":[5.911618E-1,4.0593065E-2,4.7330764E-1,-3.4133967E-2,1.5668187E-1,1.428872E-2,2.641664E-1,1.1225333E-2,6.346985E-2,2.9944656E-2,5.198405E-2,1.602032E-2,1.5569845E-1,3.5054497E-2,1.5116037E-1,-2.8747585E-2,-8.877547E-3,-1.0886067E-2,1.3710732E-2],"split_indices":[6,18,3,0,20,0,20,25,18,0,0,0,8,0,12,0,0,0,0],"split_type":[0,0,0,0,0,0,0,0,0,0,0,0,0,0,0,0,0,0,0],"sum_hessian":[9.996154E1,7.090644E1,2.90551E1,1.1182941E1,5.97235E1,7.1168385E0,2.1938261E1,2.766167E1,3.206183E1,7.9044566E0,1.4033805E1,7.797162E0,1.986451E1,1.0132651E1,2.192918E1,1.13620615E1,8.502447E0,1.058288E1,1.1346299E1],"tree_param":{"num_deleted":"0","num_feature":"27","num_nodes":"19","size_leaf_vector":"0"}},{"base_weights":[2.5486442E-1,-1.6067389E-1,7.800095E-1,-2.9199561E-2,-6.3729405E-2,5.480695E-1,1.0399649E0,-3.1154653E-1,2.7123046E-1,3.0137002E-1,4.9110144E-2,5.7346962E-2,9.508202E-1,1.4484624E-2,-5.408375E-1,9.144438E-2,2.902117E-2,-3.6210995E-3,2.7617186E-2,3.4813236E-2,5.4442555E-2,-4.4421155E-2,-1.1886504E-2,2.1663656E-2,-1.1213096E-2],"categories":[],"categories_nodes":[],"categories_segments":[],"categories_sizes":[],"default_left":[0,0,0,0,0,0,0,0,0,0,0,0,0,0,0,0,0,0,0,0,0,0,0,0,0],"id":52,"left_children":[1,3,5,-1,7,9,11,13,15,17,-1,-1,19,-1,21,23,-1,-1,-1,-1,-1,-1,-1,-1,-1],"loss_changes":[2.5586588E1,2.8904972E0,3.1210747E0,0E0,4.489788E0,3.298932E0,3.701496E-1,4.405061E0,1.4066149E0,1.949089E0,0E0,0E0,6.858902E-1,0E0,2.6026025E0,1.8194003E0,0E0,0E0,0E0,0E0,0E0,0E0,0E0,0E0,0E0],"parents":[2147483647,0,0,1,1,2,2,4,4,5,5,6,6,7,7,8,8,9,9,12,12,14,14,15,15],"right_children":[2,4,6,-1,8,10,12,14,16,18,-1,-1,20,-1,22,24,-1,-1,-1,-1,-1,-1,-1,-1,-1],"split_conditions":[4.05229E-2,4.0593065E-2,6.4043105E-1,-2.9199561E-2,5.033753E-1,2.2013828E-1,3.9334494E-1,9.434193E-2,5.2003646E-1,4.8838747E-1,4.9110144E-2,5.7346962E-2,5.509081E-1,1.4484624E-2,3.3978945E-1,2.9968973E-2,2.902117E-2,-3.6210995E-3,2.7617186E-2,3.4813236E-2,5.4442555E-2,-4.4421155E-2,-1.1886504E-2,2.1663656E-2,-1.1213096E-2],"split_indices":[25,18,6,0,6,13,8,8,9,3,0,0,3,0,17,25,0,0,0,0,0,0,0,0,0],"split_type":[0,0,0,0,0,0,0,0,0,0,0,0,0,0,0,0,0,0,0,0,0,0,0,0,0],"sum_hessian":[1.1713905E2,6.538073E1,5.1758324E1,1.1454134E1,5.3926598E1,2.737835E1,2.4379974E1,3.1016457E1,2.2910141E1,1.8201855E1,9.176494E0,8.34335E0,1.6036623E1,8.387598E0,2.262886E1,1.5025167E1,7.884974E0,7.749314E0,1.0452541E1,7.6870537E0,8.34957E0,9.545367E0,1.3083492E1,7.1234446E0,7.9017234E0],"tree_param":{"num_deleted":"0","num_feature":"27","num_nodes":"25","size_leaf_vector":"0"}},{"base_weights":[2.7835754E-1,-4.1727036E-1,6.420694E-1,-2.2610566E-1,-3.8813878E-2,-4.4046532E-2,8.4747887E-1,-4.0687114E-2,-3.57926E-2,6.3781136E-1,5.6718867E-2,-1.9644817E-2,2.2794852E-2,7.780268E-1,-1.9851045E-3,1.6235108E-2,8.7908566E-1,2.3870874E-2,1.0059547E0,6.2114008E-2,3.482926E-2],"categories":[],"categories_nodes":[],"categories_segments":[],"categories_sizes":[],"default_left":[0,0,0,0,0,0,0,0,0,0,0,0,0,0,0,0,0,0,0,0,0],"id":53,"left_children":[1,3,5,7,-1,-1,9,11,-1,13,